{'batch_input_shape': (None, 224, 224, 4), 'dtype': 'float32', 'sparse': False, 'ragged': False, 'name': 'input_2'}[]{'name': 'conv2d_4', 'trainable': True, 'dtype': 'float32', 'filters': 64, 'kernel_size': (3, 3), 'strides': (1, 1), 'padding': 'same', 'data_format': 'channels_last', 'dilation_rate': (1, 1), 'groups': 1, 'activation': 'linear', 'use_bias': True, 'kernel_initializer': {'module': 'keras.initializers', 'class_name': 'GlorotUniform', 'config': {'seed': None}, 'registered_name': None}, 'bias_initializer': {'module': 'keras.initializers', 'class_name': 'Zeros', 'config': {}, 'registered_name': None}, 'kernel_regularizer': None, 'bias_regularizer': None, 'activity_regularizer': None, 'kernel_constraint': None, 'bias_constraint': None}[array([[[[-1.20028012e-01,  5.13942726e-02,  6.10971600e-02,
           2.91481465e-02, -4.91032712e-02, -6.82956949e-02,
           2.14893520e-02,  6.15480728e-02, -9.03415829e-02,
           9.53803863e-03,  1.62371174e-01, -9.91899520e-02,
          -6.78344518e-02, -2.29199842e-01, -2.84181029e-01,
          -5.63787341e-01, -9.29402635e-02, -9.32542160e-02,
          -3.12448293e-02,  1.84506223e-01, -1.23264566e-01,
           7.85164312e-02, -1.36065573e-01, -6.71581775e-02,
           7.00383484e-02, -4.57594208e-02,  1.20966323e-03,
           8.80276412e-02, -8.50095227e-02, -4.60095098e-03,
           4.69552986e-02, -6.04420565e-02,  8.85469606e-04,
          -4.07662056e-02, -1.04634546e-01, -3.95675786e-02,
          -1.04799837e-01, -5.03607802e-02, -6.96908534e-02,
          -3.07086948e-02, -1.01500422e-01, -1.78111359e-01,
          -6.43999279e-02, -4.89768386e-02,  1.33934990e-01,
           1.37734100e-01, -8.91908482e-02, -5.02869114e-02,
          -9.94089395e-02, -6.58730641e-02, -3.93091366e-02,
          -3.58692780e-02, -1.53789029e-01, -3.94411804e-03,
          -1.08602345e-01, -9.84965116e-02, -9.88212153e-02,
           9.03729871e-02, -2.33063385e-01, -2.22343862e-01,
          -1.24099359e-01, -9.25458595e-02,  7.55622750e-03,
          -9.09989998e-02],
         [-8.20559189e-02,  1.48248315e-01,  7.53786638e-02,
          -4.55483049e-02, -1.65266439e-01, -7.97106922e-02,
           3.23550403e-02,  4.43244167e-02, -4.32624221e-02,
          -8.00427422e-02,  5.78290485e-02,  4.41923067e-02,
           1.18065299e-02, -3.96994464e-02, -3.17352444e-01,
          -5.56326032e-01, -6.77097440e-02,  9.49908867e-02,
          -1.27170652e-01,  7.41802678e-02,  5.93776107e-02,
           1.46748573e-01, -6.87166303e-02,  5.49957938e-02,
          -4.91876388e-03, -9.84250456e-02,  4.07121330e-02,
          -7.49992626e-03,  4.64929603e-02,  8.81483778e-03,
           7.61139691e-02, -1.56932920e-01, -6.41299859e-02,
          -5.40154474e-03, -6.98914528e-02, -1.75809860e-01,
          -5.53034134e-02, -1.28605803e-02, -1.05504030e-02,
           1.18899293e-01, -3.19418013e-02, -4.02309522e-02,
           2.43660584e-02,  4.10011262e-02,  5.57561219e-02,
           6.08365722e-02, -2.54513789e-02,  9.48254764e-03,
          -4.97455001e-02,  2.73193661e-02,  6.00986890e-02,
          -7.15112239e-02, -1.29327431e-01, -1.31421521e-01,
           7.31734745e-03,  4.08888981e-02, -1.37912169e-01,
           5.30367121e-02, -2.85614759e-01, -2.35716805e-01,
          -6.21074997e-02,  7.50109777e-02, -8.47426825e-04,
          -8.43886957e-02],
         [-1.21635593e-01,  1.21520124e-02, -4.61015813e-02,
           1.21878665e-02, -1.42473236e-01, -1.41802952e-01,
          -1.86940599e-02, -8.90251845e-02, -1.07818302e-02,
           5.70251606e-03,  1.09966092e-01,  1.49756968e-02,
          -2.59480253e-03, -2.01098382e-01, -2.95440048e-01,
          -4.05209899e-01,  2.39039902e-02, -4.08195704e-02,
           5.31665646e-02,  1.57698631e-01, -8.59709457e-02,
           2.49586865e-01, -4.23121564e-02, -9.21361446e-02,
          -9.53602977e-03,  5.17156124e-02, -2.24139467e-02,
           1.02835298e-01, -8.46739486e-02, -8.50546658e-02,
           6.71248287e-02, -1.85471075e-03,  5.07330559e-02,
           4.27559428e-02, -1.10955499e-01, -5.87986447e-02,
          -1.17813960e-01,  1.38719743e-02,  7.16755018e-02,
          -5.92473000e-02, -9.78573933e-02, -6.80088326e-02,
          -5.97270653e-02, -3.86288166e-02,  9.27346293e-03,
           8.63171220e-02,  6.10201284e-02, -4.80883271e-02,
          -9.97378156e-02,  5.66304848e-02,  4.31481190e-02,
           1.19561395e-02, -1.93794258e-02,  1.26572128e-03,
           4.16912660e-02, -2.61617173e-02, -1.78768933e-01,
          -4.82345000e-02, -1.83483332e-01, -3.46944571e-01,
          -7.83803165e-02,  7.59671628e-02,  3.57674062e-02,
          -1.12304658e-01],
         [-7.75408000e-03,  3.68020162e-02,  8.14030394e-02,
          -9.83797684e-02, -3.08876708e-02, -7.44503662e-02,
          -5.92687577e-02, -9.17971581e-02, -4.65159714e-02,
           3.59418914e-02,  4.00679037e-02,  4.97962534e-03,
           1.72539204e-02,  5.35308495e-02, -2.72137225e-02,
           6.23835102e-02,  9.32199582e-02, -5.45468219e-02,
           7.37308338e-02, -4.77114283e-02,  3.91351804e-02,
           9.64750275e-02,  4.29257974e-02,  4.54525575e-02,
          -8.11597705e-03,  9.71993729e-02, -4.83482331e-03,
           4.98168394e-02,  2.77023688e-02, -5.53982332e-02,
          -7.86371827e-02,  5.32766953e-02,  9.69334468e-02,
          -4.91431430e-02, -2.72016078e-02, -4.54721190e-02,
           9.07033756e-02,  3.35115567e-02, -1.92958862e-03,
          -1.49722397e-02, -9.68799293e-02, -7.32462108e-03,
           3.26376334e-02, -6.86509907e-02, -8.69534165e-02,
          -3.22693139e-02, -6.95990175e-02,  7.58828968e-03,
           1.61972269e-02, -2.31343955e-02, -4.15893197e-02,
           7.82442167e-02, -5.51222265e-03, -2.93436125e-02,
          -1.12972036e-02, -4.50215116e-02, -4.15862501e-02,
           2.69600675e-02,  3.22710201e-02, -3.84807326e-02,
          -5.75198829e-02, -3.40053737e-02,  3.23054418e-02,
          -6.42106161e-02]],

        [[-9.49797183e-02,  9.52593684e-02,  1.50371231e-02,
          -4.59237285e-02, -2.11540759e-02, -8.74649659e-02,
           8.69011879e-03, -5.32163568e-02,  9.19417851e-03,
           3.69736701e-02, -1.58761159e-01,  2.63650976e-02,
           5.44495098e-02,  7.01453909e-02,  1.85450077e-01,
          -5.39000690e-01, -7.85102993e-02,  9.15661678e-02,
           7.34148398e-02, -1.38611197e-01, -5.41855246e-02,
          -7.50680417e-02, -9.19701010e-02, -5.10347597e-02,
           2.66662575e-02,  9.55244526e-02, -5.51587977e-02,
          -3.83574776e-02,  6.68499619e-02,  6.90145865e-02,
           2.61544771e-02,  1.01683989e-01, -2.79080383e-02,
          -3.51469852e-02, -5.47235599e-03,  1.78443789e-02,
          -1.19073577e-01, -8.33710190e-03, -8.16146806e-02,
           8.84381160e-02,  4.19487507e-04, -2.04496652e-01,
          -4.29282850e-03, -4.96862866e-02,  1.05273545e-01,
           9.39346328e-02,  1.37817577e-01,  2.79363357e-02,
          -1.38646081e-01,  8.46834928e-02, -1.69290721e-01,
          -8.86145160e-02, -7.81123117e-02,  6.44108728e-02,
          -4.58873138e-02, -8.17411616e-02, -3.36259902e-02,
           7.32466429e-02, -2.07563952e-01, -2.05133781e-01,
           6.15331493e-02,  6.25923946e-02, -1.81757230e-02,
          -1.11778721e-01],
         [-5.06185554e-02,  8.52020532e-02, -4.86673266e-02,
           4.44919616e-02, -4.01009023e-02,  5.33264652e-02,
           3.26160900e-02, -7.73694739e-02, -1.12107083e-01,
           1.96124036e-02, -5.04488731e-03, -8.49787071e-02,
           5.28798848e-02,  6.07317649e-02,  8.86395797e-02,
          -5.47773361e-01, -2.49724220e-02, -3.16650495e-02,
          -1.48097833e-03, -1.02906957e-01, -4.78035659e-02,
           9.69834179e-02, -1.21193929e-02,  2.95179188e-02,
          -1.39936402e-01,  2.59986217e-03,  2.18421053e-02,
           1.05515137e-01, -1.60682127e-02, -3.73308137e-02,
           3.10840108e-03,  9.71317589e-02, -4.86131795e-02,
          -1.22221652e-02,  2.82269996e-02, -1.97311472e-02,
          -1.64476633e-01,  6.02866523e-02,  6.20952956e-02,
           1.83072224e-01, -6.72548860e-02, -1.95270270e-01,
          -6.12696037e-02,  9.49718580e-02,  1.61311001e-01,
           1.13789923e-01,  4.79502976e-02, -5.63610112e-03,
          -1.78622827e-02,  7.02237487e-02, -5.91873191e-02,
           4.12672199e-02, -3.32554318e-02,  5.30380942e-02,
          -5.90435900e-02, -5.71737513e-02, -2.15383302e-02,
           2.16888804e-02, -8.99367109e-02, -2.84981281e-01,
          -7.11375242e-03, -1.83545854e-02, -1.67255476e-01,
          -5.90807945e-02],
         [-6.67447522e-02, -1.07549608e-03, -4.46713343e-02,
          -5.93935587e-02, -1.92275904e-02, -5.30533269e-02,
          -6.63649291e-02,  7.28182821e-03, -3.82290296e-02,
          -6.98141903e-02, -1.19836964e-01, -5.97850867e-02,
           2.80644912e-02,  8.53309780e-02,  8.32550824e-02,
          -4.54450876e-01,  2.72351708e-02, -8.47716406e-02,
          -1.02028996e-01, -6.07200451e-02,  2.34769080e-02,
           1.10164225e-01, -3.95874046e-02, -6.54772855e-03,
          -1.30207762e-01, -9.65318754e-02,  4.35140245e-02,
          -1.75766200e-02, -4.75139506e-02,  1.49811115e-02,
          -7.22819343e-02,  1.13328442e-01, -6.97845593e-02,
           1.71287581e-02, -1.21345986e-02,  9.90277752e-02,
          -1.49917006e-01,  5.25305187e-03, -1.43223791e-03,
           1.47222266e-01, -6.84090704e-02, -2.07777947e-01,
          -3.22558731e-02,  8.55399296e-02,  7.29261413e-02,
           8.37662295e-02,  1.09022528e-01, -8.90697166e-02,
          -1.45972744e-01,  8.93850625e-02, -8.69776011e-02,
          -3.87929119e-02,  7.67026246e-02, -6.67125881e-02,
           2.13194732e-02, -7.41810277e-02, -1.17391229e-01,
          -2.78371852e-03, -1.29570767e-01, -3.31091255e-01,
           1.49036767e-02, -5.67715392e-02, -1.04874507e-01,
          -2.67438740e-02],
         [-4.76036146e-02,  8.19406435e-02, -2.88057476e-02,
           7.69672468e-02, -4.63240966e-02,  6.83586374e-02,
          -2.04871818e-02,  5.26404008e-02, -8.54912251e-02,
          -4.50226441e-02,  2.25688368e-02, -7.49292225e-03,
          -1.11876205e-02, -4.63823564e-02, -6.19706698e-02,
          -3.94553691e-02,  4.87672314e-02, -1.89798996e-02,
          -5.80651090e-02,  2.49143839e-02,  8.58962908e-02,
          -7.93616995e-02,  9.47969928e-02, -6.01924025e-02,
           2.76067108e-03,  4.46321145e-02,  5.23585603e-02,
           5.49199507e-02, -9.51289311e-02, -9.54324231e-02,
          -4.16396260e-02,  1.78658590e-02,  7.46368095e-02,
           8.50452408e-02, -1.21358410e-02, -9.36054066e-02,
          -5.36053292e-02, -2.78774053e-02, -3.55389491e-02,
          -8.00132528e-02, -2.97016576e-02,  7.91966841e-02,
           2.76476815e-02, -2.36209109e-02,  9.17864591e-03,
           7.56087825e-02, -2.21378282e-02,  1.97847337e-02,
          -8.46569538e-02, -2.76989415e-02,  6.97618648e-02,
          -7.66754150e-04,  5.51241860e-02, -8.64478499e-02,
          -4.76397574e-02,  8.05105641e-02,  6.58631548e-02,
          -5.45104221e-02,  8.22322071e-03, -7.83225670e-02,
           4.41261157e-02, -3.60566750e-02,  5.16738519e-02,
          -7.79622123e-02]],

        [[-9.63755101e-02,  3.12209483e-02,  7.06419870e-02,
           1.64974257e-02, -1.10750332e-01,  4.39236462e-02,
           4.65477221e-02, -6.69269636e-02, -7.45455325e-02,
           1.11607220e-02, -1.67001471e-01,  5.42095974e-02,
           3.07384599e-02,  1.00327030e-01,  5.09289047e-03,
          -3.81901830e-01,  4.20236066e-02, -3.59796584e-02,
           3.03922985e-02, -1.85852632e-01,  1.49429683e-02,
          -1.53055862e-01, -5.81546454e-03,  1.95038412e-02,
          -2.27456726e-02,  8.52379482e-03,  3.25467885e-02,
          -1.96104441e-02, -5.37055470e-02, -3.62840146e-02,
          -6.90067187e-02,  1.19329086e-02, -4.25576344e-02,
           1.20630246e-02, -2.71571219e-01,  7.99725298e-03,
          -5.69451079e-02, -2.79267300e-02,  3.85485590e-02,
           2.14473620e-01,  9.74316746e-02, -9.85940620e-02,
          -1.11790642e-03, -3.03988643e-02,  1.19986840e-01,
          -4.48152542e-01, -9.03370008e-02, -9.42540914e-02,
          -1.00513816e-01, -1.41315190e-02, -2.58991450e-01,
           6.28569573e-02,  5.39684249e-03, -6.89070597e-02,
           3.34998481e-02, -2.13751405e-01,  2.02988833e-03,
           8.52813423e-02, -2.24679783e-01, -8.85944143e-02,
          -3.52003761e-02, -3.46408151e-02, -1.05555773e-01,
           9.01122764e-02],
         [-5.15573323e-02, -3.07958852e-02,  6.82200864e-02,
          -2.90122628e-02, -1.53799802e-01, -9.54707935e-02,
           2.41493899e-03,  5.43672629e-02, -3.44521478e-02,
           7.12787434e-02, -8.31789896e-02,  2.37304568e-02,
          -1.19798176e-01, -3.36733274e-02,  2.62530614e-02,
          -5.38704991e-01, -7.38662630e-02,  2.24262197e-02,
           4.57672104e-02, -4.79400679e-02,  7.57502168e-02,
           8.19118973e-03, -1.26667827e-01, -1.49238512e-01,
           6.80705830e-02,  2.61341175e-03, -1.81733686e-02,
           4.70746309e-02, -2.68062484e-02,  4.53852909e-03,
          -9.48900282e-02,  1.24571800e-01, -1.74985379e-02,
           5.24066016e-02, -9.10283402e-02,  4.06941585e-02,
          -8.31408203e-02,  4.43731248e-02,  1.17513817e-02,
           1.44462407e-01, -7.67015815e-02, -1.47643881e-02,
          -2.99366079e-02,  6.35353029e-02, -5.85644884e-05,
          -3.46454740e-01, -1.25890598e-01,  3.26290652e-02,
          -7.61819184e-02, -5.54861687e-03, -2.28916585e-01,
          -1.12680690e-02,  7.75907412e-02,  6.25727400e-02,
          -5.62079297e-03, -1.28532216e-01, -1.58493236e-01,
          -4.37545665e-02, -2.84130186e-01, -1.46745905e-01,
          -5.67291826e-02, -8.66601523e-03,  8.50232202e-04,
           6.45804107e-02],
         [ 5.00721298e-02,  1.28682964e-02, -4.48212177e-02,
           4.40472551e-02,  1.27119981e-02, -4.25079353e-02,
           9.52152163e-02, -6.05559088e-02, -8.09337050e-02,
          -2.75817383e-02, -1.58371702e-01,  2.70444285e-02,
           6.52163178e-02,  2.88557410e-02, -8.16398859e-02,
          -5.17865419e-01,  3.41374315e-02,  1.00408960e-02,
           3.42344344e-02, -4.94465195e-02,  6.16622437e-03,
          -1.26687691e-01, -6.88156337e-02, -1.24853626e-01,
          -3.05808671e-02, -2.30782609e-02,  7.71180019e-02,
           5.87079413e-02, -5.64263947e-02,  1.50651783e-02,
          -8.01789239e-02,  1.07726187e-01,  2.23536771e-02,
          -7.54443854e-02, -2.82019913e-01,  1.62447363e-01,
          -1.23192549e-01, -3.79369780e-02,  3.47216353e-02,
           1.37745842e-01,  4.13011014e-02, -3.03791240e-02,
          -2.96562575e-02,  9.27206129e-03,  1.92441326e-02,
          -4.21866268e-01, -4.69986685e-02, -6.85718358e-02,
          -1.20161092e-02,  2.03710292e-02, -2.82188177e-01,
          -7.85286576e-02,  5.34564853e-02, -1.29054472e-01,
           2.42506284e-02, -1.61188155e-01,  5.47915604e-03,
          -1.11737605e-02, -2.87046432e-01, -1.19828574e-01,
           1.89287309e-02, -7.64828846e-02, -1.04506537e-01,
           1.04737971e-02],
         [ 1.53911933e-02,  7.05487356e-02,  1.53086185e-02,
          -5.37553988e-02,  1.34155154e-04, -1.98959187e-02,
           2.90860161e-02,  9.60202143e-02, -6.16003945e-02,
           2.88651884e-03,  5.74844256e-02, -7.05784038e-02,
           4.48398069e-02,  2.60365382e-02,  5.57314977e-02,
          -5.18128313e-02,  7.92183727e-03,  7.88382813e-02,
          -2.17342898e-02,  4.29903194e-02, -2.17685625e-02,
          -6.11170642e-02,  7.29795620e-02, -7.00889826e-02,
          -5.09816073e-02,  8.05894509e-02, -1.09699368e-03,
           9.27967504e-02, -8.51402581e-02,  7.91345537e-03,
          -3.20003405e-02,  6.66017160e-02,  1.57693550e-02,
          -8.45792145e-03,  6.36263862e-02, -1.70802251e-02,
           6.83219507e-02, -1.32659078e-02,  6.26186356e-02,
          -6.06863089e-02, -4.09870595e-02,  4.70033363e-02,
          -6.29705638e-02, -8.20860639e-02, -3.50900739e-03,
           8.57185796e-02,  8.64852890e-02, -8.80006403e-02,
          -2.44960859e-02, -9.43411440e-02, -8.29184800e-03,
          -4.53438424e-02,  1.89593583e-02,  6.13313988e-02,
          -2.53026932e-02,  1.54570565e-02,  8.56347382e-03,
          -8.01517069e-02,  2.51509249e-04,  8.00088421e-02,
           1.33107603e-03,  8.14569667e-02, -4.56878655e-02,
          -7.73450285e-02]]],


       [[[-1.19257577e-01,  2.87457183e-02,  1.55852791e-02,
           7.71536166e-03, -1.91858768e-01, -8.79141316e-03,
           1.48767969e-02, -2.11802423e-02,  6.02040701e-02,
          -8.93175453e-02,  1.70638338e-01,  7.45247528e-02,
          -1.09288106e-02, -1.59838706e-01, -1.51135579e-01,
           1.67016581e-01,  6.86365962e-02,  3.88781838e-02,
          -6.10049777e-02,  1.12215117e-01, -5.66022843e-02,
           8.62830281e-02,  5.40190302e-02,  4.56322655e-02,
          -9.39299911e-03, -3.02318521e-02, -4.41770591e-02,
          -8.33275840e-02,  1.47004519e-02, -1.00608476e-01,
           2.26425916e-01, -1.69516593e-01,  5.00882901e-02,
          -9.98575985e-03,  4.14034128e-02, -2.12045982e-01,
           1.85541268e-02, -6.88139126e-02, -1.26357183e-01,
          -1.56818524e-01,  1.15221059e-02, -2.64294278e-02,
          -6.99289814e-02,  5.87980822e-02,  8.56333226e-02,
           5.84110282e-02, -2.88271718e-02, -1.02966830e-01,
          -5.32206409e-02, -2.07274463e-02, -2.02884659e-01,
          -7.77247653e-04, -2.12967657e-02, -6.70012981e-02,
          -7.94843584e-02, -7.43696019e-02,  1.36340037e-01,
           2.86975056e-02, -9.08454508e-02, -1.43721029e-01,
          -2.27736812e-02,  1.27813257e-02,  8.49144012e-02,
          -3.77934985e-02],
         [-1.04506221e-02, -8.51550251e-02,  4.31043059e-02,
          -3.97711173e-02, -4.53014299e-02, -4.50131204e-03,
           9.29176691e-04,  6.35895506e-02,  2.30936613e-02,
           5.13218977e-02,  1.78471625e-01, -1.09238788e-01,
          -1.13226719e-01, -1.34100184e-01, -3.29324663e-01,
           1.25539511e-01, -1.09352365e-01,  2.39123385e-02,
          -6.62137270e-02,  8.46725050e-03, -7.13781640e-02,
           4.36030328e-02,  1.75191753e-03,  2.32373700e-02,
           8.99742916e-02,  3.61494645e-02,  2.83671729e-02,
          -6.77818805e-02, -7.43498281e-02, -1.24389656e-01,
           9.81027186e-02, -1.27964422e-01,  6.53016567e-02,
          -5.06251343e-02, -2.88461819e-02, -1.82092622e-01,
          -8.35138485e-02, -9.75007340e-02, -6.12700172e-02,
          -6.87165037e-02, -3.79407853e-02, -8.88835490e-02,
           7.57940486e-02,  3.31414305e-02,  6.48685619e-02,
           9.24567506e-02, -8.69983286e-02,  3.31726633e-02,
           5.06052263e-02, -9.09828097e-02, -8.85766074e-02,
          -2.83794128e-03,  5.65055646e-02, -2.63467189e-02,
          -1.28597273e-02, -1.73576459e-01,  1.55865565e-01,
           1.10264547e-01,  1.51243517e-02, -2.75934666e-01,
          -1.69071048e-01, -2.79282406e-02,  1.63908318e-01,
          -8.50376934e-02],
         [-1.04001321e-01, -1.15297973e-01, -7.00388923e-02,
           2.77525969e-02, -2.55581941e-02,  5.40594012e-02,
          -4.73237596e-02,  6.58820868e-02, -6.08593374e-02,
          -6.03154488e-02,  6.35166243e-02,  7.39325956e-02,
          -3.19419950e-02, -3.71634886e-02, -2.32119560e-01,
           1.80540547e-01,  3.43396068e-02, -7.72955716e-02,
          -4.29243855e-02, -3.61985937e-02,  2.85104308e-02,
           3.26447450e-02,  1.98118351e-02, -1.19689077e-01,
           8.41251463e-02, -5.08236466e-03, -1.00384350e-03,
           5.78253483e-03, -4.33536582e-02,  4.00540372e-03,
           1.50891095e-01, -1.68502346e-01, -3.42671648e-02,
           7.58958235e-02,  1.21824481e-01, -6.03828207e-02,
           1.40227415e-02,  2.98903137e-02, -1.79039448e-01,
          -1.39639914e-01, -1.80591553e-01, -5.35131842e-02,
          -7.20156357e-02,  8.15157443e-02, -2.14991234e-02,
          -3.62710431e-02, -2.35965066e-02, -2.08666902e-02,
           7.63652250e-02, -2.51338687e-02, -2.05626592e-01,
          -6.56700507e-02, -7.71099627e-02, -4.06987332e-02,
          -7.44716600e-02, -2.30595097e-02,  7.41953030e-02,
          -6.20327741e-02,  1.07948110e-02, -2.58644670e-01,
          -5.94100095e-02, -6.67109638e-02,  1.43120497e-01,
           2.68594474e-02],
         [ 4.81119975e-02, -3.52132469e-02, -1.99032575e-02,
           2.07612067e-02,  1.49469599e-02, -3.10098827e-02,
          -8.26091692e-02, -1.56152025e-02, -8.10613558e-02,
          -3.28200907e-02,  2.37197950e-02, -1.33145601e-02,
          -2.41164416e-02, -4.78326753e-02, -4.30150852e-02,
          -4.85939980e-02,  2.35953405e-02,  6.88771680e-02,
          -5.09321727e-02, -2.77539417e-02,  3.97196934e-02,
           6.11554906e-02, -1.99521780e-02, -2.54115462e-02,
          -8.62393081e-02,  8.95862803e-02,  7.36937448e-02,
          -8.74097645e-02, -6.88661188e-02,  7.76440576e-02,
           8.73231962e-02,  7.89110437e-02,  8.12798068e-02,
           2.02029049e-02, -3.75017039e-02, -4.77616414e-02,
          -2.29202211e-03, -7.12268353e-02, -7.65300915e-02,
          -4.03517708e-02,  7.31960312e-02, -5.75126112e-02,
          -3.42205241e-02, -9.25339609e-02,  8.02027956e-02,
          -2.08473206e-03,  2.58076414e-02,  3.06991413e-02,
          -7.92706013e-02,  1.95824653e-02,  7.43559822e-02,
          -3.69033851e-02, -2.76597068e-02, -5.26489653e-02,
           1.21613145e-02,  8.28748196e-03, -3.81725207e-02,
          -8.60824138e-02, -7.95324966e-02,  8.96528736e-02,
           7.73017108e-03,  7.73236230e-02, -8.39632899e-02,
          -1.04498118e-02]],

        [[ 1.73584335e-02, -9.19880643e-02, -1.15177490e-01,
          -1.91166271e-02, -1.10346965e-01, -5.91924079e-02,
          -5.14450930e-02,  5.33036515e-02,  1.14285253e-01,
          -1.58383865e-02,  7.40268156e-02, -2.99721509e-02,
          -9.24885422e-02, -1.41124651e-01,  1.51458710e-01,
           1.61545426e-01,  4.11240123e-02, -7.88796917e-02,
           1.80997252e-02, -1.26246825e-01,  1.12921430e-03,
          -1.10247862e-02,  9.88783985e-02,  1.05194949e-01,
          -1.83244854e-01,  4.00422746e-03, -2.35555544e-02,
           1.06041558e-01, -7.00038970e-02, -1.05280206e-01,
           9.21898186e-02,  2.76450813e-02, -2.18058396e-02,
           7.60148540e-02,  1.80867687e-01, -6.89235935e-03,
           5.15829436e-02,  2.28910856e-02, -1.40218027e-02,
          -1.81107670e-01, -1.16383219e-02, -9.30801500e-03,
           5.56764007e-02,  4.59182076e-02,  1.00534908e-01,
           1.17026947e-01,  8.07611644e-02,  8.68405495e-03,
           8.93965214e-02,  4.92476299e-02,  2.07602270e-02,
           4.74233599e-03,  8.15802887e-02, -6.53651208e-02,
          -9.86256748e-02, -1.18798286e-01,  2.16134295e-01,
           2.16149837e-02, -8.83990303e-02,  9.38603655e-02,
          -5.04751951e-02, -7.21306577e-02,  7.66891316e-02,
          -1.47007272e-01],
         [ 2.46725492e-02, -1.07191950e-01,  2.26003490e-02,
          -3.71966884e-02, -9.63409916e-02, -1.00969180e-01,
           5.96923083e-02,  1.93623938e-02,  8.49056467e-02,
          -2.81235632e-02,  2.41429005e-02, -1.17854476e-01,
          -1.04668170e-01,  6.97503053e-03,  1.54950947e-01,
           2.23853111e-01, -1.08149134e-01, -7.38102868e-02,
          -7.62582123e-02, -4.93314266e-02, -1.18349129e-02,
          -1.54863456e-02,  9.31388289e-02, -7.08676130e-02,
          -7.05074891e-02, -6.71010315e-02, -8.47824886e-02,
           1.24108322e-01, -4.69140746e-02,  3.38941510e-03,
          -7.58873858e-03, -5.98918125e-02,  7.29277879e-02,
           4.40399908e-03,  1.90868959e-01,  1.14215046e-01,
          -1.08347654e-01, -3.95606309e-02, -1.51840359e-01,
          -1.70179576e-01, -6.80668131e-02, -1.31658152e-01,
          -3.71261649e-02,  7.09946454e-02, -1.92858670e-02,
           1.38066962e-01,  1.36218965e-01, -1.18795276e-01,
          -8.01717043e-02,  8.71812552e-03, -5.07321469e-02,
          -1.10125160e-02,  3.52991633e-02, -1.66864842e-02,
          -4.92745787e-02,  1.45007810e-03,  2.33287409e-01,
           5.48861884e-02, -2.59791128e-02, -3.03974170e-02,
          -1.86975807e-01, -8.36588368e-02,  1.08983301e-01,
          -2.02106219e-02],
         [ 1.96564794e-02, -9.97420549e-02, -8.64775330e-02,
          -6.66492507e-02,  1.53293582e-02,  3.95519696e-02,
           8.81361738e-02, -3.84310074e-02,  9.60464999e-02,
           1.90178324e-02, -2.90781222e-02, -1.07750550e-01,
           1.82912853e-02, -1.55572906e-01,  1.11128680e-01,
           5.16311713e-02,  6.55232742e-02,  9.15863663e-02,
           3.05453409e-02, -1.32184833e-01,  3.32220681e-02,
          -9.43536982e-02,  1.03515238e-01, -6.07111491e-02,
          -3.29226665e-02,  5.15391789e-02, -8.63851160e-02,
           7.76978955e-03,  6.82485253e-02, -6.32518157e-02,
          -7.32740611e-02, -1.17450379e-01, -1.12971157e-01,
          -6.68946281e-02,  1.56635121e-01,  1.63010117e-02,
          -1.04666932e-03, -5.00520617e-02, -1.22006088e-01,
          -5.04413433e-02, -1.11714676e-01, -6.67085499e-02,
          -1.08062550e-01,  1.18382044e-01,  6.09227717e-02,
           1.29625142e-01,  1.59316391e-01, -3.68985487e-03,
          -4.07573655e-02, -3.14016938e-02, -6.13530166e-03,
          -9.26270112e-02,  1.22912385e-01, -1.16723217e-01,
           6.61955625e-02, -1.30463228e-01,  1.14282362e-01,
           6.55036718e-02,  6.37357607e-02,  6.39957115e-02,
          -1.73086077e-01, -9.98371653e-03,  1.52495950e-01,
          -1.05061695e-01],
         [ 7.20535293e-02, -1.70917660e-02,  8.48339275e-02,
          -2.80585214e-02, -6.67108968e-02,  8.58095661e-02,
          -3.12327594e-02,  2.16135830e-02, -4.80625108e-02,
          -8.68835375e-02,  7.70883784e-02, -5.32837808e-02,
          -7.43841752e-02, -7.33485594e-02, -5.20470589e-02,
          -6.15590811e-02,  6.08697608e-02, -1.97752863e-02,
          -3.92303243e-02, -3.98103222e-02, -8.13767686e-02,
          -2.94595435e-02,  3.57236713e-03,  5.78823611e-02,
          -9.33864042e-02,  8.72535035e-02,  2.11093426e-02,
           9.65691581e-02,  7.37416670e-02,  2.25908160e-02,
           1.44651383e-02,  2.80006304e-02,  5.08681759e-02,
           7.84236714e-02, -3.12951729e-02, -2.21716538e-02,
          -9.11864713e-02, -4.52467911e-02,  6.96830824e-02,
          -7.06041083e-02, -4.82643992e-02, -5.71123585e-02,
          -2.62276605e-02, -8.20598304e-02, -5.33478260e-02,
           4.73002270e-02, -4.65488806e-02, -3.70523706e-02,
          -6.90546930e-02, -9.73145813e-02, -2.46783569e-02,
           9.10810605e-02,  1.81391388e-02, -9.31659639e-02,
          -3.09313014e-02,  9.41322744e-03,  3.49631086e-02,
          -4.46774624e-02, -8.48632082e-02,  9.47337598e-03,
           8.28493014e-02, -5.56005910e-02,  2.28677765e-02,
           2.54119709e-02]],

        [[-3.29018980e-02, -3.71583365e-02, -1.30838558e-01,
           3.67076807e-02, -3.99712995e-02,  2.89541762e-03,
           4.36302014e-02, -9.27073061e-02,  4.59945910e-02,
          -6.57695830e-02, -7.40447566e-02,  4.92404178e-02,
           2.38611232e-02, -2.26940095e-01,  3.35613191e-02,
           1.83095679e-01,  1.96943115e-02, -6.76371455e-02,
           3.09757590e-02, -9.02663618e-02, -2.92364578e-03,
          -1.93694234e-01,  6.83346717e-03, -1.06489971e-01,
          -3.09749618e-02, -3.79058835e-03, -2.11096127e-02,
           7.60217905e-02,  7.92841390e-02, -2.11961288e-02,
          -9.19334367e-02, -6.20398521e-02,  3.55897732e-02,
           9.22020823e-02, -1.79038525e-01,  1.17162377e-01,
          -1.90707128e-02, -6.09113649e-03, -6.36473671e-02,
          -7.08158165e-02, -9.41219926e-02,  2.17357073e-02,
          -4.00010822e-03, -4.07757759e-02, -7.62913749e-02,
          -3.15691710e-01,  1.59203988e-02,  3.85988802e-02,
           7.93080479e-02, -9.13299695e-02, -1.39714777e-01,
          -4.52988073e-02,  1.25310540e-01, -7.93812051e-02,
          -7.59036317e-02, -1.60870597e-01,  1.86115615e-02,
           4.06194031e-02, -3.57500464e-02,  1.21925101e-01,
          -1.95233196e-01, -6.88110758e-03,  7.29198381e-02,
          -1.74637645e-01],
         [ 3.37926336e-02, -1.21096119e-01, -1.57952800e-01,
          -1.08991630e-01,  2.40507312e-02,  5.67163005e-02,
           5.91290668e-02, -7.30896601e-03, -2.35938262e-02,
          -1.36990538e-02, -5.54470196e-02, -1.16012348e-02,
           3.06258537e-03, -8.82805362e-02, -3.28426696e-02,
           1.20707966e-01, -5.11861704e-02, -5.90344034e-02,
          -4.67764065e-02, -3.91910747e-02,  9.85789299e-02,
          -9.33401510e-02, -3.98808718e-02, -1.59883320e-01,
          -4.55898382e-02,  3.43692228e-02,  1.53882727e-02,
           9.49671865e-02, -4.60313521e-02,  6.06794050e-03,
          -1.73036128e-01, -1.79837942e-01,  4.60584946e-02,
           8.45611021e-02, -3.05166751e-01,  1.61499709e-01,
           9.55644995e-03,  4.90050092e-02, -7.66092241e-02,
           2.89265662e-02,  3.83676924e-02,  3.77720259e-02,
          -3.15228775e-02,  9.59319621e-02, -1.31651070e-02,
          -3.41183454e-01, -9.87924486e-02, -9.90657136e-03,
          -3.87853049e-02, -3.81683223e-02, -2.12143987e-01,
          -3.45877036e-02,  7.96761960e-02, -2.52011064e-02,
           2.01906692e-02, -6.51991442e-02,  1.84965864e-01,
          -7.26671098e-03, -9.01707560e-02,  1.85964823e-01,
          -1.70313761e-01, -7.19489232e-02,  4.00492735e-03,
          -1.89374030e-01],
         [-6.08804589e-03, -1.41006783e-01, -2.88462583e-02,
          -1.69056524e-02, -8.57546087e-03,  5.22275418e-02,
          -9.50261950e-03, -1.03993379e-02, -2.54858080e-02,
          -4.63119522e-02, -1.05169803e-01,  3.17533389e-02,
          -1.89764816e-02, -2.34646037e-01, -1.60171278e-02,
           3.94029468e-02, -8.04281980e-02,  6.90277442e-02,
          -2.51448005e-02, -8.67670625e-02,  2.85355207e-02,
          -1.86435044e-01,  8.32117274e-02, -1.00877382e-01,
          -8.87008235e-02, -4.08041067e-02,  3.01653724e-02,
           6.67314753e-02, -8.69555250e-02,  5.79098351e-02,
          -9.43087563e-02, -1.62815437e-01,  1.07723828e-02,
           2.38718260e-02, -2.24917188e-01,  1.39150247e-01,
           1.02385372e-01,  2.01539695e-02, -1.38908803e-01,
           6.00500405e-03,  3.33748423e-02,  1.00047849e-01,
          -3.75946809e-04,  1.08167350e-01,  5.38950525e-02,
          -3.30061138e-01, -1.53758541e-01,  1.67663544e-02,
          -2.77866051e-02, -6.31485656e-02, -1.35472134e-01,
          -4.79946956e-02,  4.18375880e-02, -3.03335860e-02,
          -6.76662847e-02, -9.07925516e-02,  1.07469618e-01,
           6.12635761e-02, -1.06423348e-01,  6.29344285e-02,
          -7.96880350e-02,  4.65735868e-02,  1.28789142e-01,
          -2.16697127e-01],
         [-7.38920867e-02,  9.44530144e-02,  3.79732326e-02,
           7.59714767e-02,  6.08053878e-02,  6.07938543e-02,
          -4.21482362e-02, -8.77397656e-02, -8.55385065e-02,
           5.91585860e-02, -5.80740795e-02, -3.44489962e-02,
          -2.53383070e-03, -3.01916152e-03, -4.09345813e-02,
           5.39627597e-02, -9.75768268e-02,  5.54665253e-02,
           8.45310166e-02,  6.49902746e-02,  1.28798187e-04,
           1.22956559e-02,  3.60582396e-02, -9.04149711e-02,
          -1.49760619e-02, -7.51577243e-02, -8.01598504e-02,
          -8.39449912e-02,  1.76051259e-02,  2.70594433e-02,
          -2.70276740e-02, -4.47270125e-02, -6.74562603e-02,
          -9.08555239e-02, -4.22328711e-03, -5.29766791e-02,
          -4.69356589e-02,  7.10188821e-02,  9.90131423e-02,
           6.43449649e-02, -1.82145834e-02, -7.20696524e-02,
           7.38681033e-02, -8.45240057e-03, -5.95819503e-02,
           2.57296860e-03, -7.40507022e-02,  7.45907426e-04,
           1.94188207e-02,  9.34843048e-02, -7.13043138e-02,
          -8.95124823e-02, -9.46876407e-02, -6.40149564e-02,
           9.00112763e-02,  9.09954682e-02, -9.36703235e-02,
           8.44900981e-02,  1.37569755e-02, -1.22709647e-02,
          -6.85928166e-02,  6.22962490e-02,  5.48891649e-02,
          -2.51941457e-02]]],


       [[[ 1.02596007e-01, -3.64402048e-02, -1.25775952e-02,
          -7.43318722e-02, -9.85058472e-02, -1.13345407e-01,
          -9.39565618e-03, -6.87691569e-02,  1.01836331e-01,
          -9.43826213e-02,  6.95597082e-02,  7.58514851e-02,
          -4.21280563e-02, -2.65243888e-01, -2.67443597e-01,
          -4.24338095e-02, -3.28231193e-02,  1.48878340e-02,
          -6.04560934e-02, -1.47253543e-01, -2.13473029e-02,
          -9.68770012e-02, -4.92148218e-04,  4.78261039e-02,
           1.22939877e-01, -7.06915259e-02, -5.41623961e-03,
          -5.86584546e-02,  5.73431179e-02, -5.02370810e-03,
           7.91120753e-02, -1.30735058e-02,  2.78743263e-02,
          -1.22116841e-01, -3.28911215e-01, -1.80853054e-01,
           8.29921365e-02, -6.36280775e-02,  1.03197098e-01,
          -2.56765075e-02, -3.87929566e-02, -1.88854143e-01,
          -1.64153092e-02,  1.04447871e-01,  1.22023914e-02,
          -8.12144727e-02, -7.46253803e-02, -4.47143242e-02,
          -8.70410912e-03,  2.30405368e-02,  4.22642827e-02,
           5.34157529e-02, -2.97878385e-01, -5.26761217e-03,
           7.37941414e-02, -5.29260971e-02, -1.32463798e-01,
          -1.01831183e-01, -1.06466785e-01, -1.91191122e-01,
          -3.90283624e-03,  5.89824580e-02, -2.19397008e-01,
           2.04439566e-01],
         [ 4.48462889e-02,  6.47227690e-02, -7.90985748e-02,
           3.64193954e-02,  1.80592984e-02,  1.80063341e-02,
          -8.25695992e-02, -1.07520051e-01, -6.74231723e-02,
           9.65692550e-02, -6.85091168e-02,  1.70435254e-02,
          -1.12371281e-01, -1.60520747e-01, -2.65289396e-01,
          -7.30400011e-02,  2.59484369e-02,  3.26584540e-02,
          -9.30217952e-02, -1.08542204e-01,  5.43832146e-02,
          -2.05648169e-01,  5.40363379e-02, -2.05388907e-02,
           2.19423044e-02,  6.72756508e-02,  2.53440514e-02,
          -4.07123826e-02,  1.02655873e-01, -1.12274759e-01,
           1.20588392e-01, -1.74379516e-02, -1.05607346e-01,
           1.81598086e-02, -3.59453350e-01, -1.67401984e-01,
           9.31535438e-02, -3.84879438e-03,  2.55570188e-02,
           1.18787766e-01, -4.98253070e-02, -1.13734774e-01,
          -9.30431262e-02,  9.33503360e-02, -1.37438074e-01,
          -8.68498459e-02, -1.55104697e-01,  2.58682221e-02,
          -3.46412994e-02,  5.70895635e-02,  1.02649607e-01,
          -4.32210006e-02, -2.73354471e-01, -6.68920800e-02,
          -4.45259288e-02, -1.45900756e-01,  3.39659229e-02,
           3.71074378e-02, -1.69212222e-01, -1.48392305e-01,
           1.22926578e-01, -5.73993400e-02, -1.60214603e-01,
           2.24100381e-01],
         [-6.53396398e-02,  2.22391132e-02, -4.50786389e-02,
           4.49014939e-02, -1.00305788e-01, -6.36602640e-02,
          -7.40325302e-02,  1.53347729e-02, -1.98660865e-02,
          -7.78964013e-02, -6.85724197e-04,  7.63605833e-02,
          -1.43386684e-02, -1.29947469e-01, -1.97700486e-01,
          -6.45939931e-02, -3.39356624e-02, -3.29268910e-02,
          -3.76656763e-02, -1.13309145e-01,  4.96578589e-03,
          -1.91453695e-01,  1.53155699e-02, -5.06387129e-02,
           1.63089439e-01, -6.26250803e-02, -1.07809253e-01,
          -5.83314011e-03,  9.92269889e-02,  4.16519120e-02,
           1.34695932e-01, -1.30201638e-01, -3.93632054e-03,
           5.21087423e-02, -3.06393743e-01, -5.15706167e-02,
           1.91226937e-02,  4.30846587e-02,  1.36615083e-01,
           4.41561043e-02, -6.72621876e-02, -1.25781909e-01,
          -7.46449232e-02,  3.09362765e-02, -5.13749644e-02,
          -4.52174731e-02, -2.41927821e-02, -1.07131414e-01,
          -7.96293840e-02,  8.89048800e-02, -2.95961276e-02,
          -6.29728660e-02, -3.06692719e-01,  1.02594132e-02,
           2.33182423e-02, -1.77083854e-02, -1.41041622e-01,
           3.84447947e-02, -1.36135414e-01, -1.48853257e-01,
           8.25405717e-02, -1.04908653e-01, -1.68992147e-01,
           1.64464056e-01],
         [-6.96389377e-02,  5.68609908e-02,  9.26854238e-02,
          -5.32639734e-02, -1.08961463e-02,  4.24844995e-02,
          -7.45841712e-02, -9.20855701e-02,  6.49731606e-03,
           5.99747673e-02,  4.75039408e-02, -7.34941661e-02,
           4.46957350e-03, -8.77729282e-02, -7.84501880e-02,
          -5.25593534e-02, -5.12968078e-02,  3.15835327e-03,
          -3.39996815e-02,  8.18032995e-02,  2.60261521e-02,
           4.11262885e-02, -9.75021794e-02,  1.59533247e-02,
           3.84076461e-02, -7.27413893e-02,  2.62445956e-03,
          -1.13751516e-02,  5.74318245e-02,  3.44823077e-02,
           3.34955826e-02,  1.07599124e-02, -6.53415918e-05,
           9.05512497e-02, -8.54127854e-03, -5.80123737e-02,
          -9.72980335e-02, -5.97286448e-02, -1.46194324e-02,
           2.82353535e-02, -2.41334587e-02, -8.38014111e-02,
           4.44862023e-02, -9.02395248e-02,  8.48487094e-02,
           7.76105151e-02, -5.26714623e-02, -7.54694343e-02,
          -8.34305957e-02,  2.04698071e-02, -5.46518974e-02,
           7.55484030e-02,  3.35239246e-02, -6.29435778e-02,
          -2.96536386e-02,  7.70962164e-02, -7.14372694e-02,
           8.45231786e-02, -2.49888375e-02, -4.76711988e-03,
           9.35731307e-02,  1.53903663e-02, -8.70886594e-02,
           9.28320363e-02]],

        [[ 1.77288912e-02,  2.82859635e-02, -1.24951035e-01,
          -8.92723501e-02, -1.23834349e-01, -3.66048403e-02,
          -1.04284033e-01, -8.39869753e-02,  8.47446769e-02,
           1.00866864e-02,  1.27552059e-02, -6.45130202e-02,
          -5.79743385e-02, -1.13977678e-01,  9.15586427e-02,
          -3.71356565e-03, -7.34294355e-02,  3.22182216e-02,
           5.86131588e-02,  3.19650210e-02,  1.90087259e-02,
          -1.07417241e-01, -3.86115187e-03, -1.30178556e-01,
          -6.04968630e-02,  8.84368941e-02,  1.06958551e-02,
           1.00933820e-01, -3.93648371e-02, -5.81705607e-02,
           2.38255188e-02, -1.95074491e-02, -1.62088256e-02,
           3.18800807e-02, -3.70229393e-01, -2.05163341e-02,
           5.93165532e-02, -3.12670134e-02,  7.43821263e-02,
          -1.21118128e-01, -6.16693981e-02,  3.30204107e-02,
          -3.15084830e-02,  5.00597805e-02, -1.05508335e-01,
           6.22790232e-02, -1.53589383e-01, -5.82379401e-02,
           2.72102561e-02,  3.68600637e-02, -7.15343282e-02,
          -6.85279677e-03, -2.18908221e-01,  3.21216718e-03,
          -5.71649224e-02, -1.53791443e-01, -1.08688623e-01,
           1.38349393e-02, -1.07543133e-01,  3.64395380e-02,
           7.01911226e-02,  6.06037937e-02, -1.89808011e-01,
           1.41651705e-01],
         [ 1.16877310e-01, -1.99366007e-02, -1.51736170e-01,
           1.65909883e-02, -1.34486780e-01,  5.27163851e-04,
          -7.87383243e-02, -3.20511982e-02,  8.94242078e-02,
          -8.93773064e-02, -6.08032867e-02, -2.62764543e-02,
          -5.31670004e-02, -1.36216685e-01,  1.61701873e-01,
          -2.81761941e-02, -6.26731291e-02, -1.43046286e-02,
          -2.89244317e-02, -5.28562255e-02,  5.04829697e-02,
          -5.16605191e-02, -6.57268390e-02,  1.34803131e-02,
          -3.61338817e-02, -6.36083186e-02, -7.35526979e-02,
           1.09562334e-02,  4.59697023e-02, -2.56782509e-02,
           4.52594347e-02,  8.12673569e-02, -1.79355964e-02,
           8.76628757e-02, -2.72763282e-01,  5.56166889e-03,
           1.56429648e-01, -9.17426944e-02,  1.04543962e-01,
          -1.08142748e-01,  7.37923980e-02, -8.33266750e-02,
          -8.48540738e-02,  1.12847641e-01, -9.86853987e-02,
           1.02345973e-01, -8.94697979e-02, -1.19735986e-01,
          -1.43482797e-02,  1.04164228e-01, -1.09131582e-01,
          -5.44194430e-02, -1.22173510e-01, -7.44879991e-02,
           7.99936205e-02, -1.74935147e-01, -9.54301059e-02,
           8.47035125e-02, -2.11885497e-01,  6.00633658e-02,
          -4.59768157e-03, -4.68683615e-02, -2.61469275e-01,
           5.22792153e-02],
         [-1.49240643e-02, -8.26782733e-03, -1.02688633e-01,
          -8.41376334e-02, -2.88954396e-02,  1.78210996e-02,
          -7.12564364e-02, -6.05158731e-02,  1.57564297e-01,
           5.91359450e-04, -4.68219221e-02,  9.37638746e-04,
          -1.52031034e-01, -1.57911137e-01,  1.42373756e-01,
          -5.11573255e-02,  6.29109666e-02, -5.00414670e-02,
           2.70615164e-02, -8.68287757e-02,  6.21917620e-02,
          -7.16335401e-02, -1.37700483e-01, -1.09597028e-03,
          -5.09427525e-02, -1.90144014e-02, -1.10950163e-02,
          -7.27590024e-02,  6.59930259e-02, -5.45663126e-02,
           8.98002367e-03, -5.52729666e-02, -9.72852558e-02,
          -2.50028949e-02, -2.37304613e-01, -1.83327291e-02,
           1.03295647e-01, -2.17334218e-02,  1.63345173e-01,
          -1.85685996e-02,  6.64277971e-02,  1.88291967e-02,
           1.66200269e-02,  2.61698961e-02, -1.36300430e-01,
          -3.54516432e-02,  5.43115148e-03, -1.31931439e-01,
          -1.56060681e-02, -3.91763123e-03, -1.20558500e-01,
          -1.04094170e-01, -2.18795627e-01, -1.98355112e-02,
          -2.46489677e-03, -1.76681042e-01,  1.89543422e-02,
          -9.34838429e-02, -1.11909814e-01,  5.73732331e-02,
           1.53587058e-01,  6.77346215e-02, -2.17974573e-01,
           1.46458879e-01],
         [-8.14494491e-02, -6.65113255e-02, -6.26453087e-02,
           7.50101581e-02,  5.02980724e-02,  5.51784113e-02,
           6.10539839e-02,  8.09036866e-02, -1.70085728e-02,
           3.98204997e-02,  4.63187695e-03, -2.85250396e-02,
          -1.05729625e-02,  2.39951015e-02,  5.69408312e-02,
           5.34055158e-02,  3.00655290e-02,  9.84370932e-02,
          -4.74702567e-03,  4.58442420e-03,  8.93257484e-02,
          -5.00161275e-02, -8.53948817e-02,  7.68894330e-02,
           7.31350482e-03,  9.67920199e-02,  4.77986857e-02,
          -4.13385443e-02, -1.89006478e-02, -9.55144539e-02,
           4.52318266e-02,  6.10740110e-02, -3.75771299e-02,
          -2.44282186e-02, -3.88179570e-02, -4.33756337e-02,
          -6.90753013e-02,  6.21844009e-02, -9.59054083e-02,
           8.62763599e-02, -8.75288844e-02, -6.88074306e-02,
           3.52657214e-02,  4.52197567e-02,  8.79259929e-02,
          -1.26962662e-02,  2.59692371e-02, -1.08347163e-02,
          -5.62091321e-02, -4.05586883e-02, -9.30946693e-02,
           4.87710461e-02,  5.44812903e-02,  2.12839618e-02,
          -5.97074442e-02, -7.42889643e-02,  3.64111289e-02,
           5.37497625e-02, -5.65494262e-02,  4.23751697e-02,
          -9.29708257e-02,  4.13103029e-02, -5.35138771e-02,
          -8.82041603e-02]],

        [[ 1.16387181e-01, -1.86895691e-02, -1.05207138e-01,
          -3.46785337e-02,  5.37760593e-02, -8.42011534e-03,
          -6.00435063e-02, -4.30065356e-02, -2.61907117e-03,
          -7.15430751e-02, -7.40724728e-02, -1.61639042e-02,
          -7.41549283e-02, -8.23519528e-02, -7.47231022e-02,
           1.72964372e-02,  4.29370487e-03, -8.27096924e-02,
           5.33192717e-02,  3.03447004e-02, -4.51925732e-02,
           7.41667440e-03, -1.59856956e-03, -1.43869713e-01,
           6.82141585e-03, -4.38943245e-02,  9.56906937e-03,
           7.65925050e-02, -5.21534011e-02,  5.60382754e-02,
          -1.45797476e-01, -1.12071514e-01,  1.65373571e-02,
           3.76689322e-02, -7.23211691e-02,  1.24510042e-01,
           9.59609970e-02,  1.55364759e-02,  1.77135598e-02,
          -6.35495335e-02,  5.58207780e-02, -1.15362883e-01,
           1.61651000e-02,  8.91207829e-02, -1.55186176e-01,
          -2.08914176e-01, -3.14158760e-02, -5.87468334e-02,
           6.86661452e-02,  7.32728615e-02, -1.41278923e-01,
           4.55308706e-02, -1.91164330e-01, -1.12051919e-01,
          -6.44252002e-02, -2.18656734e-01, -1.63579091e-01,
          -9.22796354e-02, -1.67910948e-01,  1.32574782e-01,
          -1.07355058e-01, -7.75092915e-02, -2.36839592e-01,
          -1.26545839e-02],
         [ 1.57100689e-02,  1.33406669e-01, -1.04972355e-01,
          -1.33544117e-01, -2.03094557e-02, -9.19798091e-02,
          -4.23190594e-02,  5.62838614e-02,  9.18239057e-02,
           1.96541678e-02,  9.05096456e-02, -9.17960778e-02,
          -1.71941519e-02, -2.20845565e-01, -4.20201831e-02,
          -9.05126147e-03,  5.87750152e-02, -2.10717972e-02,
           2.54717413e-02,  3.92602682e-02,  8.16560239e-02,
          -1.48120552e-01, -1.29612833e-01, -1.95684172e-02,
          -4.30159569e-02, -5.28965294e-02, -5.56744784e-02,
           1.79197807e-02,  4.16494794e-02, -3.64927910e-02,
          -8.47252756e-02, -3.61227952e-02, -6.11476041e-02,
           3.00248321e-02, -1.04743898e-01,  8.58157724e-02,
           1.56647220e-01, -1.80798937e-02,  9.16337520e-02,
          -8.34209174e-02, -5.14792278e-02, -4.91252020e-02,
           3.09908111e-02,  5.86581118e-02, -1.30406007e-01,
          -3.60684037e-01, -6.71824887e-02, -4.16610530e-03,
           2.55852919e-02,  6.51661083e-02, -2.18679085e-01,
           8.33040848e-02, -1.79660916e-01, -6.69255629e-02,
           6.28486276e-02, -9.35876295e-02, -8.73491615e-02,
          -7.44620478e-03, -3.54561768e-02,  1.76333055e-01,
           6.18634634e-02,  4.92621213e-02, -1.57718718e-01,
          -1.27223134e-01],
         [-4.45224568e-02, -4.50195037e-02, -1.26752749e-01,
          -7.38413930e-02,  9.24006253e-02,  1.05451643e-02,
          -6.67620674e-02, -6.70092786e-03,  9.26575717e-03,
          -8.61793105e-03,  6.77858964e-02, -9.34991147e-03,
           1.49040148e-02, -9.92186517e-02,  5.18179908e-02,
          -1.45263001e-01,  6.49755672e-02,  3.00963540e-02,
          -3.21950540e-02,  4.22113668e-03,  8.66494775e-02,
          -1.06686456e-02, -7.63006210e-02, -6.49753138e-02,
          -1.08851148e-02, -8.64707455e-02,  2.06774827e-02,
          -1.58402305e-02,  6.03472814e-02, -5.91415167e-02,
          -1.18792407e-01, -1.01381317e-01,  5.65277226e-02,
          -4.37606312e-03, -1.29619353e-02,  1.38488904e-01,
           1.86557665e-01,  5.23451157e-02, -5.89394867e-02,
          -6.97490796e-02,  1.27489362e-02,  4.31117415e-02,
           1.65056344e-02,  1.28515914e-01, -1.20527163e-01,
          -2.75319278e-01, -3.97180654e-02, -1.22271687e-01,
           1.03002377e-02,  7.21042603e-02, -1.20853990e-01,
          -9.85747352e-02, -6.96794540e-02, -5.07141231e-03,
           3.26720551e-02, -1.80665448e-01, -6.51472658e-02,
           4.82201315e-02, -7.35428780e-02,  1.36212483e-01,
           7.92908669e-02, -3.94001827e-02, -2.38356575e-01,
          -5.16665913e-02],
         [ 1.37774199e-02, -6.31224960e-02,  9.62278023e-02,
          -6.33915961e-02,  3.73509452e-02, -8.46252292e-02,
          -3.24595422e-02,  4.30741236e-02,  6.41578510e-02,
           6.00529984e-02,  7.70413950e-02,  4.30534035e-03,
           6.44683763e-02,  8.62588510e-02,  1.00080967e-02,
          -5.25923558e-02,  8.64840373e-02,  3.58914062e-02,
          -3.49861011e-02, -3.11564580e-02, -3.58449891e-02,
          -1.33209080e-02,  9.12539139e-02, -8.87864828e-03,
           5.44827506e-02,  9.09314305e-03,  2.84097269e-02,
          -8.16088468e-02,  5.81900552e-02,  5.41315600e-02,
           6.25086650e-02, -5.30330278e-02,  1.84381679e-02,
           3.23154032e-04,  6.65258691e-02, -9.42299068e-02,
           7.41480067e-02, -5.67811765e-02,  9.62360278e-02,
          -2.52627507e-02, -1.26602948e-02,  8.54459032e-02,
          -8.91491771e-04, -7.26566613e-02,  9.94138420e-03,
          -7.83243179e-02, -4.62183133e-02, -1.30580962e-02,
           4.13983688e-02,  9.41020921e-02, -9.27253366e-02,
          -7.51162767e-02,  8.19229856e-02, -4.73491326e-02,
          -9.14912596e-02,  3.54268476e-02, -5.77133186e-02,
          -1.85616314e-02,  9.11378637e-02,  3.43257189e-03,
          -8.91625062e-02, -2.64520869e-02,  4.71963659e-02,
           3.39708552e-02]]]], dtype=float32), array([-0.20591556,  0.14514326, -0.18714306, -0.15286477,  0.19717684,
       -0.05903197,  0.27071494, -0.08793979, -0.14250927, -0.0257864 ,
       -0.01114665, -0.10540613, -0.09989524,  0.1265989 , -0.17512612,
       -0.09740609, -0.09919778, -0.0024471 , -0.12088629,  0.07098809,
       -0.21885073,  0.05459898, -0.13559785,  0.18926014,  0.34159714,
       -0.01405801,  0.25420526, -0.18186647, -0.09940007, -0.02564548,
       -0.00650667,  0.06658136, -0.09976107, -0.13021581,  0.01472907,
        0.01185475,  0.05605569,  0.26720235,  0.08646821, -0.0642253 ,
        0.18912297,  0.09973644, -0.01753519, -0.16190453,  0.01476219,
       -0.06883334, -0.05437168, -0.18410897, -0.12060695, -0.16687934,
        0.24370855, -0.02548669,  0.06303626,  0.26398975, -0.12169474,
        0.14192238,  0.065678  , -0.17880934,  0.25757843,  0.06913788,
       -0.01928709, -0.0309678 , -0.01447124, -0.03239029], dtype=float32)]{'name': 'activation_6', 'trainable': True, 'dtype': 'float32', 'activation': 'relu'}[]{'name': 'max_pooling2d_2', 'trainable': True, 'dtype': 'float32', 'pool_size': (2, 2), 'padding': 'valid', 'strides': (2, 2), 'data_format': 'channels_last'}[]{'name': 'conv2d_5', 'trainable': True, 'dtype': 'float32', 'filters': 32, 'kernel_size': (3, 3), 'strides': (1, 1), 'padding': 'same', 'data_format': 'channels_last', 'dilation_rate': (1, 1), 'groups': 1, 'activation': 'linear', 'use_bias': True, 'kernel_initializer': {'module': 'keras.initializers', 'class_name': 'GlorotUniform', 'config': {'seed': None}, 'registered_name': None}, 'bias_initializer': {'module': 'keras.initializers', 'class_name': 'Zeros', 'config': {}, 'registered_name': None}, 'kernel_regularizer': None, 'bias_regularizer': None, 'activity_regularizer': None, 'kernel_constraint': None, 'bias_constraint': None}[array([[[[ 1.63589530e-02,  1.67701811e-01, -7.74205923e-02,
           1.30465655e-02,  4.09150720e-02,  9.16329920e-02,
           2.38248512e-01,  8.79963487e-02, -3.61627415e-02,
           1.51663199e-01, -9.61958393e-02, -1.86192647e-01,
          -7.51764188e-03,  3.62788886e-01,  4.17449623e-02,
           9.39162225e-02, -1.85198858e-02,  6.75868914e-02,
           5.63715436e-02, -1.01955887e-02,  3.38142551e-02,
           4.34601866e-02, -4.50929254e-02,  8.29323977e-02,
           1.64276853e-01, -1.44189030e-01,  1.15307681e-01,
          -1.80052668e-01,  7.94392824e-03,  6.51554316e-02,
          -2.42542252e-02, -1.49356395e-01],
         [-5.56547493e-02,  8.19544792e-02, -1.06572947e-02,
          -1.66445881e-01,  1.57890171e-01, -7.71834888e-03,
          -4.75946255e-02,  4.33227383e-02, -4.83715571e-02,
           1.01912335e-01, -4.01495472e-02, -2.72542592e-02,
           6.78761676e-02, -5.00005670e-02,  2.59110052e-02,
          -2.66448259e-02, -7.98723400e-02,  7.08979517e-02,
          -3.63832712e-02, -5.98931275e-02, -3.74159366e-02,
           1.03054896e-01, -4.28722799e-02, -1.24816550e-02,
           4.52289451e-03, -6.39744895e-03, -2.98035555e-02,
          -1.65341228e-01,  1.49010822e-01,  7.77904838e-02,
           2.68944316e-02,  4.96181734e-02],
         [-1.42614488e-02, -1.01540513e-01, -1.28562704e-01,
          -2.27225032e-02,  2.34899536e-01, -4.25545573e-02,
          -4.05095145e-02, -3.98185812e-02, -5.01590520e-02,
          -4.33039367e-02,  2.20892325e-01,  1.23399146e-01,
           6.18504100e-02,  1.58516824e-01,  9.80823636e-02,
           7.43899718e-02, -7.74794305e-03,  4.29305434e-02,
           1.00737279e-02, -8.33692178e-02, -3.88748534e-02,
           8.17013085e-02,  2.40604603e-03,  2.43990973e-01,
           1.72764286e-01, -5.94267175e-02, -1.50268925e-02,
           1.37939155e-01, -8.17443728e-02, -7.25178048e-02,
          -4.55617122e-02,  9.44757275e-03],
         [ 1.12817874e-02,  3.54633406e-02, -1.03684980e-02,
           6.83179274e-02,  7.37389876e-03, -3.90210748e-02,
           5.61842062e-02,  1.13091487e-02, -1.03247166e-02,
          -5.47141992e-02,  4.87284064e-02,  9.75516140e-02,
           7.31745362e-02,  1.89405620e-01,  5.54165877e-02,
          -3.89004387e-02,  7.00222030e-02,  2.86160479e-03,
          -9.14807990e-02, -1.78715780e-01,  2.16676760e-02,
           5.78904040e-02,  3.05487346e-02,  3.51502001e-02,
           1.08543381e-01, -1.85400695e-02,  1.08518265e-02,
          -2.16309205e-02, -4.66177464e-02, -1.57029197e-01,
          -4.65792511e-03,  2.36101635e-02],
         [ 5.41314622e-03,  2.40003586e-01, -1.24460906e-01,
           4.62807938e-02,  4.03779745e-02, -9.13525000e-03,
          -2.49469280e-02, -1.71875432e-01, -1.64775506e-01,
          -9.01836008e-02, -4.28051651e-02,  1.61549747e-01,
          -1.15852185e-01, -4.55759764e-02,  2.28397436e-02,
           6.61595464e-02, -2.28823185e-01,  1.37514576e-01,
          -6.15627468e-02,  6.66002184e-02, -5.83205670e-02,
          -2.06255063e-01, -4.97625396e-02, -4.99064140e-02,
           2.00596720e-01, -1.49038687e-01, -4.73806225e-02,
          -5.56545556e-02,  2.36009553e-01,  7.03379512e-02,
           7.01163942e-03,  1.08985923e-01],
         [ 1.47991655e-02, -8.08418244e-02, -1.61492676e-02,
          -1.84567482e-03, -4.92845438e-02, -1.04164518e-03,
          -9.67790186e-02, -3.67068755e-03, -7.31628239e-02,
           5.38720004e-02, -2.85308398e-02, -9.27452557e-03,
          -3.20236944e-02, -9.22937319e-02,  6.70880452e-02,
          -3.62018161e-02,  4.97550927e-02,  4.62115370e-02,
           7.66814351e-02,  2.72559337e-02,  6.38056844e-02,
          -2.04433098e-01,  7.57984966e-02, -6.17803447e-02,
           6.49644434e-02,  4.91924174e-02,  5.66800237e-02,
           1.79090872e-02, -3.60554457e-02,  2.15721428e-02,
          -6.83269873e-02,  3.77403758e-02],
         [-2.09970996e-01, -9.55758989e-02,  1.51932454e-02,
          -1.75613202e-02, -1.11309841e-01, -4.16470706e-01,
          -1.72740221e-01,  2.07443815e-02,  5.85421547e-02,
           1.42570422e-03,  7.74312094e-02,  1.26526788e-01,
          -5.06475493e-02,  8.44390541e-02,  6.05557449e-02,
           7.98179209e-02, -8.89549777e-03,  1.27030332e-02,
          -5.44888638e-02, -1.73799068e-01,  1.50341839e-02,
           1.82560223e-04, -3.90306562e-01,  8.79270732e-02,
           1.40540795e-02,  1.06015876e-01, -1.23304307e-01,
          -1.81136262e-02, -9.76816267e-02,  7.75999576e-02,
          -1.32575840e-01, -1.06640913e-01],
         [-9.79773700e-02, -4.19108532e-02,  7.74175972e-02,
          -4.40385863e-02, -3.20628658e-02,  9.47519466e-02,
           5.52377030e-02, -7.17496639e-03,  4.05241512e-02,
           7.90044814e-02, -3.83300409e-02, -6.34937733e-02,
           4.34216261e-02,  2.46021450e-02, -3.80974673e-02,
          -3.17742527e-02, -9.36474185e-03,  1.03147165e-03,
          -4.42603119e-02,  2.07186081e-02, -4.75098267e-02,
          -4.73805144e-02, -8.38109031e-02, -1.42506789e-02,
           9.11500901e-02, -1.84817743e-02,  6.84495121e-02,
          -1.21505687e-03, -4.71802428e-02,  7.36038713e-03,
           1.67352594e-02,  4.45378274e-02],
         [ 9.58581828e-03, -1.29293734e-02,  2.98436154e-02,
          -1.31046239e-04,  1.74370304e-01,  3.55787650e-02,
          -6.42933697e-02, -9.93614271e-02,  3.64213474e-02,
           4.35360596e-02, -6.48326948e-02, -1.04200020e-02,
           6.13125749e-02, -4.11844291e-02,  2.00075302e-02,
          -6.31022602e-02,  3.03613991e-01, -5.32825477e-03,
           1.70106918e-01, -1.67783257e-02, -1.08802933e-02,
          -2.91123986e-01, -1.00412391e-01, -1.97748482e-01,
          -2.71699093e-02, -1.97820082e-01, -1.86566655e-02,
          -9.53039676e-02, -1.69232130e-01, -1.90515351e-02,
          -8.26857835e-02,  1.34877145e-01],
         [ 6.80528879e-02, -5.38984351e-02,  7.42591172e-02,
          -4.81317900e-02,  6.09238781e-02, -9.06159543e-03,
          -5.90486266e-03, -7.97619447e-02, -2.65810005e-02,
          -4.21822965e-02,  3.72819602e-02,  3.31787555e-03,
           3.34423222e-02, -3.85675905e-03,  6.54789805e-03,
          -2.68366355e-02, -1.93156227e-02,  4.40256223e-02,
           6.25366867e-02,  7.89870098e-02, -1.34289730e-02,
          -3.46313529e-02,  2.34209169e-02, -6.88314289e-02,
           3.14592943e-02, -4.92657674e-03,  6.91499710e-02,
           4.70891781e-02, -7.86337703e-02, -4.41583991e-03,
          -4.01950441e-02, -6.18557483e-02],
         [-2.97782011e-02, -8.71950090e-02,  1.31837487e-01,
          -1.86668217e-01, -8.49363506e-02, -5.35768308e-02,
           7.32549056e-02, -7.15924129e-02, -6.95529953e-02,
          -4.13364097e-02,  6.87141484e-03,  7.57572129e-02,
          -3.41357142e-02, -1.51291210e-03, -7.51644224e-02,
           1.39979586e-01, -2.07290635e-01,  7.42195249e-02,
          -4.21975274e-03,  1.02535769e-01,  1.12265281e-01,
          -1.37749851e-01,  4.73083965e-02, -1.11937299e-02,
           1.58398822e-01, -1.71264812e-01, -4.29441500e-03,
          -1.40430093e-01, -6.99454248e-02,  8.29770975e-03,
          -9.15512741e-02,  4.11401130e-02],
         [-1.13900475e-01,  3.56016457e-02,  4.95255738e-02,
           2.66625565e-02,  1.13070749e-01,  5.46356738e-02,
          -4.98698466e-02,  5.71559034e-02, -5.50562367e-02,
           4.45836447e-02,  5.02866805e-02, -1.77784897e-02,
           2.87494995e-02,  1.59977600e-01,  1.15097135e-01,
          -7.81395808e-02,  5.53049743e-02,  1.89691372e-02,
           1.36069944e-02, -9.37759504e-02,  3.72898318e-02,
          -9.96738002e-02, -6.87597468e-02,  3.81325488e-03,
           1.26255766e-01, -7.86686502e-03,  2.46945769e-02,
          -9.90507156e-02, -2.21748315e-02, -5.15170507e-02,
          -3.12677189e-03, -5.55965006e-02],
         [-9.88807231e-02, -9.78945121e-02, -8.63726586e-02,
          -1.59308501e-02, -1.08793043e-02,  4.16368358e-02,
          -7.16172904e-02, -7.99692273e-02, -1.37723193e-01,
          -4.13759463e-02,  2.02009872e-01, -2.36357190e-02,
          -3.07118353e-02,  4.97796237e-02,  8.16345662e-02,
          -4.61882120e-03,  7.85359517e-02,  2.41483040e-02,
          -4.76222187e-02,  5.01425602e-02,  1.04669938e-02,
           4.41778786e-02, -2.65194122e-02,  1.13676347e-01,
          -1.15001528e-03, -4.80671600e-02, -8.30509961e-02,
           4.93929796e-02,  4.97594662e-02, -1.09441914e-01,
           9.41028818e-02,  3.94175984e-02],
         [-1.61868766e-01, -6.55410364e-02, -1.54222891e-01,
           3.67026590e-02, -2.53642052e-01, -2.81106606e-02,
           1.48414373e-01, -6.06817082e-02,  3.45565043e-02,
           6.28626347e-02,  1.04630120e-01, -3.23334411e-02,
           6.17213957e-02,  2.43036911e-01, -1.40231639e-01,
           7.07024708e-02,  1.36070415e-01, -4.30865325e-02,
          -9.06077549e-02, -1.02332965e-01, -6.75680265e-02,
          -2.59966552e-02,  4.84221391e-02,  9.54369083e-02,
          -2.13062808e-01,  3.48995160e-03,  1.53190894e-02,
           2.40903981e-02,  7.82534108e-02,  5.95142171e-02,
          -4.22392450e-02, -1.84643388e-01],
         [-9.13062170e-02, -8.53456929e-02, -1.07062720e-01,
          -8.24607089e-02, -1.05712414e-01,  1.38147056e-01,
           1.27161071e-01,  2.32991539e-02,  2.55086478e-02,
          -9.55375656e-03, -1.46672815e-01, -2.79893703e-03,
           1.53408825e-01, -5.79430573e-02,  6.87647462e-02,
          -3.36025879e-02, -1.38623938e-01,  8.70899633e-02,
          -2.47978374e-01, -7.28047118e-02, -1.58840790e-02,
          -5.44416010e-01, -5.22499718e-02,  1.63690940e-01,
          -4.47022557e-01,  1.61545724e-01,  1.62969843e-01,
          -3.49583030e-01,  8.26829970e-02, -3.72394830e-01,
          -3.92818302e-02, -3.17855477e-01],
         [-1.42533402e-03,  6.66319206e-02, -5.41775487e-03,
          -6.42996654e-02,  5.95631218e-03,  1.80122200e-02,
          -1.04744457e-01, -7.84221217e-02,  2.38067165e-01,
           9.46646184e-02,  7.75054246e-02, -4.83813882e-01,
          -1.00482898e-02, -2.70600766e-01, -3.65728065e-02,
           1.57523807e-02,  3.73337455e-02, -5.79800904e-02,
           9.56823006e-02,  4.97245304e-02, -5.73886521e-02,
          -4.21894461e-01, -1.41610146e-01,  1.45808280e-01,
          -2.67944813e-01, -3.96305919e-01,  1.30769555e-02,
          -2.97056567e-02, -5.02141789e-02, -1.09270334e-01,
          -3.99338938e-02, -2.02880621e-01],
         [ 3.44274752e-02,  5.13729416e-02,  9.20243710e-02,
          -4.83900607e-02, -5.67209236e-02,  8.71288404e-02,
           1.00510502e-02, -1.99120622e-02, -5.97132631e-02,
           2.11338792e-02,  7.14702979e-02, -3.76607962e-02,
          -2.89066415e-02, -5.87169873e-03, -4.54110745e-03,
           9.41519905e-03,  8.73485282e-02,  6.80604726e-02,
           8.34404975e-02,  5.79647198e-02, -4.35642600e-02,
           1.34701247e-03,  4.76332270e-02,  5.49697652e-02,
          -7.59811923e-02, -7.53988549e-02,  5.24129793e-02,
           1.62014104e-02,  7.09449351e-02, -1.21369392e-01,
          -5.27063087e-02,  8.91947299e-02],
         [ 3.00556961e-02, -7.95128569e-02, -1.31785357e-02,
           7.50082210e-02, -5.04441261e-02, -1.63848884e-03,
           3.34723741e-02, -5.86129650e-02, -5.93843423e-02,
           6.47436529e-02, -3.20154652e-02, -6.07993230e-02,
           8.11123326e-02,  7.53321648e-02,  4.98495437e-03,
          -3.18843164e-02,  1.31049091e-02,  2.66433135e-02,
           6.85265139e-02,  1.92265157e-02,  9.05748457e-03,
           2.84814835e-02,  7.16648623e-02,  4.60519176e-03,
           8.22331011e-02, -1.00244014e-02,  7.36442506e-02,
          -7.20510334e-02,  4.09965776e-02,  5.75942174e-02,
          -4.24913503e-02,  3.28384116e-02],
         [-1.30221054e-01,  4.10593972e-02,  4.34776535e-03,
          -1.30257994e-01, -1.03140421e-01,  6.91011995e-02,
          -5.26624657e-02, -4.66329157e-02, -4.99157943e-02,
          -1.15564883e-01, -7.26392493e-02,  5.21295071e-02,
           4.28500213e-03, -1.04969908e-02,  8.21906999e-02,
          -7.88733363e-02,  2.97977865e-01,  3.04799760e-03,
          -1.14551499e-01, -3.79267111e-02, -6.51379898e-02,
          -1.44262224e-01, -8.12254567e-03,  6.01822436e-02,
          -1.38302267e-01,  9.63972583e-02,  5.07972296e-03,
           1.71485990e-02, -9.40276608e-02, -4.38463427e-02,
          -6.19291551e-02, -8.46041813e-02],
         [-3.36332060e-02, -7.08977059e-02, -4.20970693e-02,
          -2.41568834e-02,  2.40367511e-03, -3.51521000e-02,
           7.13733733e-02, -5.54808788e-03, -1.01120509e-01,
           3.48264575e-02, -8.28468278e-02,  4.05510888e-02,
          -5.98047152e-02,  2.42451243e-02,  5.56549542e-02,
          -5.68227991e-02, -4.98787612e-02,  5.56607451e-03,
           9.46570933e-03, -4.13576253e-02, -5.69345802e-02,
          -1.07747354e-01,  6.70831054e-02, -9.63813961e-02,
          -6.53480813e-02, -9.80153158e-02,  5.78692518e-02,
           1.16626117e-02,  7.37393871e-02,  4.24126536e-02,
           6.36817282e-03,  9.84460488e-02],
         [-3.90968136e-02, -6.31313920e-02,  8.19415320e-03,
          -7.85022676e-02,  1.31055444e-01,  9.56856161e-02,
          -8.89179707e-02, -1.26432493e-01,  3.36536020e-01,
          -2.78400891e-02, -5.90397306e-02,  5.37153974e-04,
           6.75154775e-02, -1.66211620e-01,  9.95560214e-02,
          -4.08953018e-02,  2.94163913e-01, -8.50321576e-02,
          -1.00106552e-01,  6.39494732e-02,  6.36400133e-02,
          -1.38323987e-02, -1.81434508e-02, -1.54737726e-01,
          -1.36420667e-01,  6.24854155e-02,  4.90261661e-03,
           5.32033183e-02,  4.83573303e-02, -2.86074907e-01,
          -2.17153449e-02,  6.16798364e-02],
         [ 3.49815935e-02, -1.41696200e-01, -2.44613498e-01,
          -1.89661041e-01,  3.63768078e-02,  3.43078561e-03,
           2.95057688e-02,  9.36429128e-02, -1.24461211e-01,
           1.97870713e-02,  2.75674835e-02,  1.63301110e-01,
          -9.98588949e-02, -1.14960186e-02,  1.55504551e-02,
          -1.74976550e-02, -3.49308282e-01,  1.53383821e-01,
          -1.40352309e-01, -2.83821560e-02,  7.50120506e-02,
           4.78813462e-02, -6.39011860e-02,  3.04568056e-02,
           3.66571546e-02, -2.24802971e-01, -1.61575316e-03,
          -5.14510879e-03,  3.53412557e-04,  8.08824524e-02,
           1.05162151e-02, -1.96178645e-01],
         [-8.19405094e-02, -2.33350154e-02, -1.92257278e-02,
           1.90419760e-02,  9.54126939e-02, -2.75355540e-02,
           5.23286639e-03, -8.41625258e-02,  1.59882009e-01,
          -6.10553920e-02,  8.29188079e-02, -5.92817105e-02,
          -8.89148489e-02, -1.91574898e-02,  1.01705208e-01,
          -2.28908099e-02,  1.80269644e-01, -4.66313362e-02,
           3.19985412e-02,  3.83572876e-02, -8.21442828e-02,
           5.91221787e-02, -2.76523102e-02,  1.28861004e-02,
           2.15045689e-03, -7.73682841e-04, -8.95210076e-03,
           5.93371950e-02, -3.48136052e-02,  1.19471774e-02,
           7.80547876e-03, -1.56069687e-02],
         [-2.42289007e-02,  1.17301412e-01, -6.15926571e-02,
          -6.46403134e-02, -1.16316207e-01, -2.17872977e-01,
          -8.43010843e-03,  1.72147453e-02, -5.10221682e-02,
           8.20202008e-03, -6.87553361e-02, -3.43694049e-03,
          -1.73601538e-01, -1.29264474e-01, -5.25711291e-02,
           1.26765236e-01, -1.05285808e-01, -2.33317516e-03,
          -1.58732876e-01, -2.45486014e-02, -1.61672551e-02,
          -2.52502356e-02,  1.64998360e-02,  1.53348163e-01,
          -7.75381401e-02, -1.47146791e-01, -1.47982389e-01,
           4.16566506e-02,  3.27268869e-01,  1.31706640e-01,
           5.24969958e-02,  5.36708012e-02],
         [-6.68995008e-02,  1.05457157e-02, -3.77585948e-01,
          -2.79950388e-02, -3.66723514e-03, -3.84615093e-01,
          -1.77688465e-01,  5.72326370e-02,  7.91392922e-02,
          -5.36620021e-02, -6.32952750e-02,  1.98023692e-01,
          -8.23004693e-02, -2.44660527e-02, -4.34335694e-02,
           1.72104791e-01, -2.88494527e-01,  1.53075755e-01,
           1.14916474e-01, -8.68825242e-02, -2.83946581e-02,
           1.44598275e-01, -4.55364317e-01,  1.10838212e-01,
           1.94847718e-01, -5.51701933e-02, -9.42504853e-02,
           2.56472565e-02, -4.45702299e-02,  1.56315655e-01,
          -5.16824648e-02, -6.01331191e-03],
         [-7.85223544e-02,  8.26129764e-02,  4.17204425e-02,
          -4.99146655e-02, -5.18105999e-02, -6.02626614e-02,
          -6.46256804e-02,  6.16389289e-02, -4.34989557e-02,
          -3.69448029e-02,  7.14643300e-02, -6.69852942e-02,
           2.00621542e-02, -5.94637953e-02,  3.28184143e-02,
          -8.19457974e-03, -5.89677989e-02, -7.38983974e-03,
           6.87258318e-02, -4.91883270e-02, -3.90272737e-02,
          -3.18752453e-02,  8.09838846e-02,  2.62319518e-04,
           3.15908380e-02, -2.75935978e-02, -1.87386386e-02,
          -7.76363239e-02,  5.02059199e-02, -1.43001452e-02,
          -7.82723655e-04, -1.41372476e-02],
         [-1.54533491e-01,  3.83567698e-02, -1.11917265e-01,
          -9.98371746e-03, -1.13265537e-01, -2.67253608e-01,
          -8.36411119e-02,  6.35849386e-02, -6.88175997e-03,
          -5.34330904e-02,  7.97187388e-02, -2.46537719e-02,
          -1.54679539e-02,  6.10153973e-02, -2.66248696e-02,
           1.01698950e-01, -7.27626011e-02, -5.56949079e-02,
           1.31850142e-03, -7.21262172e-02, -4.73899208e-02,
           6.89054951e-02, -1.11292996e-01,  8.73417705e-02,
           2.79262979e-02,  2.49827504e-02,  3.88999395e-02,
          -1.38342261e-01,  9.11470577e-02,  9.33030099e-02,
          -7.49739707e-02, -7.87248090e-02],
         [-4.79238555e-02, -1.31868180e-02,  8.87632445e-02,
          -8.99937078e-02,  1.33882919e-02, -1.00855194e-02,
          -8.67339894e-02,  6.75160587e-02,  2.97472030e-02,
          -2.61409935e-02,  6.03838935e-02,  4.53877635e-03,
           1.06535614e-01,  3.27151380e-02, -1.30023807e-02,
          -7.46995956e-02,  1.63839772e-01, -3.29891741e-02,
          -8.97795707e-02, -1.38974935e-01, -4.22236882e-02,
          -1.30845591e-01, -6.81752935e-02, -2.94893626e-02,
          -6.44786358e-02,  8.41854364e-02,  7.48853236e-02,
          -9.24766734e-02, -1.64873395e-02, -1.79791898e-01,
           1.53034190e-02, -2.50505675e-02],
         [-1.88960768e-02,  6.40290231e-02,  6.66674227e-02,
           1.85613092e-02,  8.52320716e-02,  1.20213009e-01,
           7.79230371e-02,  1.96492821e-02,  1.36976996e-02,
           1.67864785e-02, -8.53172615e-02,  9.91713703e-02,
          -6.54454082e-02, -3.18179093e-02,  3.25996466e-02,
          -3.58926170e-02,  1.34210765e-01, -9.46851447e-02,
           1.91819489e-01, -4.02352810e-02, -5.57060838e-02,
          -8.30724910e-02, -1.06646031e-01, -7.93161243e-02,
           1.10970303e-01, -1.35168090e-01,  8.76087099e-02,
          -2.24396382e-02, -6.10720105e-02, -5.91113456e-02,
          -4.58247028e-02, -2.31685024e-02],
         [-1.69171412e-02,  3.39917801e-02,  4.76047173e-02,
          -2.20385119e-02,  4.82594669e-02,  4.50402312e-02,
          -5.70743941e-02, -6.08364381e-02, -1.03547625e-01,
          -1.24385189e-02,  1.97056141e-02, -5.53609766e-02,
           4.58348952e-02, -9.50693246e-03, -3.22965346e-02,
           3.15215345e-03,  1.46939218e-01,  7.75463879e-02,
          -8.03854410e-03,  9.15169064e-03,  6.90807924e-02,
          -4.41494957e-02, -2.36609597e-02, -3.84741910e-02,
           2.62054205e-02, -6.50439113e-02,  3.54628079e-02,
           2.48421729e-02,  6.40791357e-02, -1.06536053e-01,
           7.71955997e-02, -7.96442032e-02],
         [ 1.42854573e-02, -6.34778664e-02, -7.65762478e-02,
          -2.19019577e-01,  1.01322504e-02, -8.63128230e-02,
          -1.63712688e-02, -3.45623307e-02,  1.48565806e-02,
          -9.97491274e-03,  3.85504477e-02,  8.50217789e-02,
          -5.02804518e-02,  5.58095239e-02,  3.51914726e-02,
          -1.05220452e-02, -3.46626014e-01,  6.08873256e-02,
           6.80004340e-03, -6.90135285e-02, -1.36992121e-02,
          -2.56149352e-01, -9.82267186e-02,  3.95331867e-02,
           2.52918154e-01, -1.15847684e-01, -4.30207215e-02,
           7.92015344e-02,  1.87556017e-02,  8.89749303e-02,
          -1.06553219e-01, -4.76033166e-02],
         [-8.67172331e-02, -7.89317023e-03, -1.54263556e-01,
           7.09106075e-03,  5.52459322e-02, -3.93779464e-02,
           3.60015690e-01, -1.03149563e-02,  5.86758964e-02,
           2.41129845e-02, -8.26731622e-02, -4.54586111e-02,
          -2.71920227e-02, -2.22464260e-02, -3.39093269e-03,
           6.43557310e-02,  1.08192764e-01, -1.69511348e-01,
          -1.22512795e-01, -5.78581914e-02,  2.71158107e-02,
          -5.48214559e-03,  8.93677473e-02,  1.08364604e-01,
           2.33050101e-02, -1.15505289e-02, -5.59628941e-02,
           4.27029189e-03, -6.79120235e-03,  7.57495537e-02,
           1.05983429e-01, -2.78816342e-01],
         [ 1.94640737e-02, -1.53829036e-02,  8.13814402e-02,
           1.73598416e-02,  7.61233643e-02,  6.00103438e-02,
          -1.03267487e-02, -1.61852427e-02, -1.62475538e-02,
          -7.34386519e-02,  7.56412372e-02, -1.86942669e-03,
           6.07784949e-02, -9.30069387e-02, -2.90378351e-02,
          -3.44311595e-02,  3.76451425e-02,  2.28855610e-02,
          -3.29245143e-02, -3.49818468e-02,  3.22847180e-02,
           3.70589979e-02,  2.98395217e-03,  4.66923565e-02,
           1.74835008e-02, -2.37970483e-02, -7.36905485e-02,
          -1.60611346e-02, -6.73547387e-02, -6.68021962e-02,
          -4.12475616e-02, -6.12254143e-02],
         [-2.92743277e-02, -8.11436251e-02,  4.60441317e-03,
          -1.31193370e-01,  3.56724933e-02, -5.78657761e-02,
          -7.72780459e-03, -4.21166383e-02,  2.95072589e-02,
           5.48235374e-03,  1.19223356e-01, -6.78835213e-02,
           7.12546781e-02,  9.14320163e-03,  1.13684110e-01,
          -9.39014852e-02, -3.33796702e-02,  1.68388570e-03,
           8.98632333e-02, -7.84027800e-02, -8.05804506e-02,
          -2.17971317e-02,  4.91801798e-02, -5.47050796e-02,
          -7.62291029e-02,  8.96528885e-02,  4.87088878e-03,
          -7.64790997e-02,  3.00524756e-02, -1.57410920e-01,
          -5.28857671e-02, -6.64256141e-02],
         [ 2.34320741e-02,  4.62112613e-02,  2.88284291e-02,
           5.33583052e-02,  6.76203594e-02,  6.62933290e-02,
           8.17506984e-02,  6.67440519e-02, -4.00734544e-02,
          -4.71864417e-02,  9.04445127e-02,  3.83490557e-03,
           8.18882585e-02,  1.29568771e-01,  1.42609701e-01,
           1.21755317e-01,  4.01836485e-02,  1.52284041e-01,
          -2.60977633e-03, -6.76177070e-02,  6.50243983e-02,
           5.27395681e-02,  3.72914746e-02, -7.94994906e-02,
          -9.28186625e-02, -5.00210524e-02,  8.13752636e-02,
          -3.34305726e-02, -1.66548230e-02, -9.23821554e-02,
          -5.08383624e-02,  1.45191282e-01],
         [ 6.26509339e-02, -3.24129835e-02,  1.64238796e-01,
          -9.78542566e-02,  7.21730590e-02,  6.28938302e-02,
          -5.21152467e-02, -6.06871359e-02,  4.67991643e-02,
           1.15876846e-01, -4.77799121e-03, -1.31595001e-01,
          -6.09886609e-02,  3.04944459e-02,  7.66480640e-02,
           9.95683949e-03,  3.58485192e-01, -3.00868116e-02,
           3.05046067e-02,  1.51058391e-01,  6.76969364e-02,
           1.59983724e-01, -3.85529734e-02, -4.99538444e-02,
          -2.85774410e-01,  1.38376444e-03,  2.05358993e-02,
          -1.49340197e-01, -1.28603224e-02, -8.92375857e-02,
           6.39689863e-02,  5.25445975e-02],
         [-8.06828290e-02,  9.92749333e-02,  3.02481707e-02,
          -1.16374344e-01, -9.80886258e-03,  1.09839752e-01,
          -7.22686481e-03, -2.97432002e-02, -8.03708136e-02,
           2.21110936e-02,  4.69393507e-02, -1.11789890e-02,
          -9.23753753e-02,  1.01577774e-01,  1.39527312e-02,
          -3.03186546e-03,  1.01525649e-01, -6.13540299e-02,
           1.77851424e-01,  1.10769048e-01,  5.79237714e-02,
           1.14543326e-01, -3.92426074e-01, -9.19541270e-02,
          -1.91338629e-01, -1.91870049e-01,  1.08661450e-01,
          -8.84755794e-03,  5.51763400e-02, -6.18868172e-02,
          -1.85621664e-01,  2.97793120e-01],
         [-2.29392663e-01,  8.23588893e-02, -7.73048177e-02,
           2.55807396e-03, -1.03463374e-01, -2.17240751e-01,
          -2.45066345e-01,  1.60883442e-01,  1.12532832e-01,
           4.97617684e-02,  1.13000490e-01,  8.51576403e-02,
          -1.96904875e-03,  2.90158228e-03,  1.32741043e-02,
           1.15406632e-01,  3.02267019e-02,  6.51734546e-02,
           1.13603786e-01, -1.26679733e-01, -1.05686605e-01,
           1.18528269e-01, -2.91842341e-01, -1.56704895e-02,
           6.10346086e-02,  1.12671278e-01,  1.87262613e-02,
          -3.06891322e-01,  1.87563486e-02,  1.88482940e-01,
          -1.26841217e-01,  4.72242646e-02],
         [-6.06644079e-02,  2.18854666e-01, -5.04762977e-02,
          -5.99577799e-02,  1.22440442e-01,  1.78109914e-01,
          -1.03409640e-01, -6.75473064e-02, -1.18301988e-01,
          -3.89297381e-02,  4.51436341e-02,  1.31995812e-01,
          -7.53643643e-03, -6.22754507e-02, -7.52371252e-02,
           6.41649365e-02,  4.00364324e-02,  8.08795393e-02,
           3.77906822e-02,  1.93527434e-03, -1.27584133e-02,
          -8.65021255e-03, -3.86803374e-02, -4.10177782e-02,
          -1.70294464e-01,  1.61367044e-01, -7.38663524e-02,
          -2.85568982e-01,  1.77429765e-01,  6.41301498e-02,
           3.57544273e-02,  3.63502055e-02],
         [-5.02460897e-02,  5.11097796e-02,  4.36879516e-01,
          -1.92523524e-01,  1.11457430e-01,  6.12700023e-02,
          -1.99120834e-01,  8.06383963e-04, -5.83309568e-02,
          -8.52230657e-03, -2.05227248e-02,  6.29325286e-02,
           2.63636094e-02,  1.17245540e-02, -2.96049099e-02,
           1.93455126e-02, -3.45864892e-02,  1.17206067e-01,
           2.70715337e-02, -9.29723680e-02, -6.24561496e-03,
           3.56124267e-02,  3.31264697e-02, -1.28119379e-01,
          -6.37347102e-02, -1.11492999e-01,  3.98312584e-02,
          -7.59394467e-02,  2.78715622e-02,  5.33998059e-03,
           5.35632707e-02,  7.56993443e-02],
         [ 5.57925971e-03,  7.85221010e-02, -2.26943031e-01,
          -8.68388191e-02, -8.06049630e-02,  3.55319455e-02,
           8.91748294e-02, -1.19777367e-01,  2.77421828e-02,
           5.07075861e-02, -9.75166336e-02,  7.48881027e-02,
          -7.92469233e-02,  1.50198108e-02,  3.09614763e-02,
          -5.39166108e-03,  2.82563031e-01,  2.01804303e-02,
          -8.31822455e-02,  1.64148957e-01, -4.80494164e-02,
           4.16806489e-02, -9.94302556e-02, -1.33445218e-01,
           3.77315991e-02,  4.52803262e-02, -6.28270209e-02,
          -3.60676974e-01, -4.96223718e-02,  1.01058267e-01,
          -9.58719105e-02,  1.98439211e-01],
         [-4.92473245e-02, -2.67599002e-02, -5.51288947e-02,
          -2.26504523e-02, -1.42766327e-01, -7.88412616e-03,
          -3.27033587e-02,  7.70724714e-02,  7.52666732e-03,
           3.07725575e-02, -1.63991615e-01, -5.76853901e-02,
          -3.21871899e-02, -1.88062154e-02, -7.92035088e-03,
           6.16182163e-02,  9.60176140e-02, -9.33604222e-03,
          -5.91955520e-02, -1.22146457e-02,  4.20339480e-02,
           7.90174901e-02, -2.88101099e-03, -3.98476943e-02,
          -4.50196192e-02, -7.53443986e-02,  2.11423710e-02,
          -1.91149879e-02, -2.59063742e-03,  4.74457294e-02,
          -3.59704383e-02, -5.51543050e-02],
         [-3.29351351e-02,  7.20798224e-02,  3.72441635e-02,
           3.11692618e-02, -8.30422789e-02, -2.41033696e-02,
           4.75964174e-02, -6.23027757e-02, -1.69267375e-02,
           3.03387567e-02, -3.19246203e-02, -2.13398878e-02,
           7.17611657e-03, -6.49029762e-02,  4.74175103e-02,
          -5.26881814e-02,  3.60666886e-02, -2.40002964e-02,
           4.81651798e-02, -3.23272422e-02,  4.33331057e-02,
           6.58526719e-02,  4.32196185e-02, -7.46015832e-02,
          -5.59471734e-02,  1.69803817e-02, -3.44353504e-02,
          -4.40559760e-02,  4.63276915e-02, -4.87799607e-02,
          -5.81920110e-02, -7.11030886e-02],
         [-6.04640394e-02,  3.29634212e-02, -7.23425969e-02,
          -2.01101676e-01,  1.02608852e-01,  7.65668973e-02,
          -5.99354059e-02,  1.13005359e-02, -9.99685153e-02,
           3.37178931e-02,  9.69647057e-03, -2.45415699e-02,
           1.00649454e-01,  1.04234843e-02, -4.52315658e-02,
          -3.65551114e-02,  1.00030303e-01, -4.32989672e-02,
           9.69847366e-02,  3.96676734e-03, -9.61995199e-02,
          -1.68430209e-01,  9.70382523e-03,  2.58479081e-02,
          -7.28663728e-02, -8.29658508e-02,  1.28434405e-01,
          -1.07788004e-01,  6.81214333e-02, -1.07298650e-01,
          -4.98791076e-02,  4.96513434e-02],
         [-8.69619995e-02,  3.70227695e-02,  7.17943460e-02,
          -8.93213749e-02, -1.14498235e-01, -2.65444955e-03,
           5.42666763e-02, -6.97451979e-02, -2.62156557e-02,
           5.40584736e-02,  6.98765367e-02,  1.24929875e-01,
          -1.74025390e-02,  7.52856955e-02,  3.66646312e-02,
           6.14246130e-02, -1.86713204e-01, -9.93059389e-03,
          -2.25932613e-01, -2.48350739e-01, -6.02453649e-02,
           7.69686699e-02, -1.72721729e-01,  1.07268933e-02,
           1.10263668e-01,  7.12675825e-02, -5.68857715e-02,
           1.36292487e-01,  2.01251492e-01,  2.28448287e-02,
           1.80444568e-01, -2.08989561e-01],
         [ 1.34794980e-01, -1.76037736e-02, -4.62313145e-02,
          -2.94042416e-02,  9.92043689e-02,  6.48384122e-03,
          -4.77864705e-02,  6.08691536e-02,  1.26356333e-01,
          -2.78014373e-02, -5.77223375e-02,  3.67392451e-02,
           8.06485191e-02, -4.14250977e-02,  2.86533721e-02,
          -1.21305063e-02,  2.59087905e-02,  5.54298842e-03,
           1.93519413e-01, -2.27475032e-01,  8.82501379e-02,
          -7.77102560e-02,  9.00498033e-03,  8.16968009e-02,
          -7.15460908e-03, -4.56892438e-02, -9.66260135e-02,
           2.08966788e-02, -3.62408571e-02, -4.47849184e-02,
          -2.58158986e-02,  1.03381746e-01],
         [ 2.36506630e-02,  8.27315524e-02, -7.41215497e-02,
           7.06229685e-03, -2.85653304e-02,  7.20582753e-02,
           4.94137257e-02, -6.71621859e-02,  5.62926643e-02,
           7.81471357e-02,  6.65549468e-03, -3.81064899e-02,
           3.61065716e-02, -8.23289081e-02,  4.23605591e-02,
           5.50194792e-02,  6.59571812e-02, -7.24242330e-02,
          -6.55294433e-02, -1.32998988e-01, -3.63235399e-02,
          -2.41529681e-02, -2.91937101e-03, -3.09792906e-02,
          -3.39725986e-03, -8.15908983e-03,  1.79265942e-02,
          -6.69263452e-02,  3.84917594e-02, -3.25059742e-02,
          -5.13723008e-02,  3.50685092e-03],
         [-6.27026781e-02, -1.07771628e-01, -1.63648613e-02,
          -9.32380259e-02, -4.80139535e-03,  5.98046593e-02,
          -1.55826416e-02, -1.89392269e-02,  1.09168887e-01,
           2.92058140e-02, -1.63843203e-02, -8.49885717e-02,
           5.87149337e-02,  2.20967785e-01,  6.84086382e-02,
          -7.43300840e-02,  1.38415217e-01,  2.18031276e-02,
          -7.80055225e-02, -1.25981137e-01, -2.62376107e-02,
           4.72939312e-02,  3.38532180e-02,  1.42945722e-01,
           1.46824852e-01, -7.30141029e-02,  9.05939117e-02,
           6.23579649e-03, -6.27813190e-02, -5.13072610e-02,
          -4.80716452e-02,  1.36526590e-02],
         [ 7.70964473e-02, -9.14720669e-02,  7.01781586e-02,
           7.89407566e-02,  3.73090319e-02,  2.25376990e-02,
           6.55393004e-02, -8.25719610e-02, -9.28351209e-02,
          -6.31738231e-02, -8.23478997e-02,  9.10901055e-02,
          -7.10431412e-02, -3.53682935e-01,  1.01989850e-01,
           1.96519271e-02,  1.61843210e-01,  9.10595655e-02,
           1.12516498e-02,  4.94385436e-02,  7.81620368e-02,
          -4.72312458e-02, -1.66068599e-02, -1.99926030e-02,
           1.14159390e-01, -4.50264104e-02,  3.30349058e-02,
          -5.08676991e-02,  1.54678803e-02, -5.25302440e-02,
          -4.15333174e-02, -2.01829486e-02],
         [-2.12872364e-02, -4.27957289e-02, -5.58665060e-02,
          -1.25708640e-01,  9.40162688e-02, -5.92734255e-02,
           5.49869612e-02,  7.55043002e-03, -4.65096235e-02,
          -6.01246022e-04,  1.67015847e-03,  1.07499387e-03,
           9.16192755e-02, -3.84871326e-02, -7.22936995e-04,
           6.30851984e-02,  7.94114470e-02,  6.97648376e-02,
          -1.32578254e-01, -1.20539442e-01, -1.14911990e-02,
          -1.51241407e-01,  7.38972856e-04,  2.07385849e-02,
          -1.25247955e-01,  1.10371828e-01,  1.05879419e-01,
           1.47089869e-01,  1.88770015e-02, -1.39007017e-01,
          -6.87346756e-02, -2.12886743e-02],
         [-6.88000321e-02, -6.19294941e-02, -9.56673995e-02,
           5.30966148e-02, -2.09222361e-01,  5.02600819e-02,
          -5.57022355e-02, -1.11931495e-01, -1.35774449e-01,
           6.95270821e-02,  4.29577976e-02,  1.08565167e-01,
           1.26432339e-02, -8.80028456e-02, -1.14885427e-01,
           4.09259945e-02, -2.34647661e-01,  1.60896741e-02,
          -2.47842208e-01, -4.81252465e-03,  2.31946744e-02,
          -8.05762131e-04,  7.21296221e-02,  2.75829458e-03,
          -1.07231617e-01, -9.35728699e-02,  7.95120895e-02,
          -1.37111917e-01,  2.19773129e-01,  2.27751255e-01,
           4.40452360e-02, -7.07338303e-02],
         [ 4.15802635e-02, -7.31474534e-02, -5.43241091e-02,
           4.76993285e-02, -2.53245871e-05, -4.30307612e-02,
          -6.68231770e-02,  2.24265307e-02, -4.18716185e-02,
          -6.20320253e-02, -1.90859828e-02,  8.40304978e-03,
           5.18032424e-02,  1.45196076e-02,  3.41679417e-02,
           2.64746230e-02,  7.85539150e-02,  7.50003010e-02,
           3.24886478e-02, -3.21688130e-03,  1.86707247e-02,
          -2.85017285e-02, -1.04883965e-03, -4.22682101e-03,
          -7.31641650e-02,  4.38085087e-02, -3.76696363e-02,
          -3.35659571e-02,  7.62825981e-02,  4.48350124e-02,
           5.76389134e-02, -3.39045413e-02],
         [-1.92962550e-02, -2.66215741e-03, -2.21717373e-01,
           8.37894306e-02, -2.34544978e-01,  1.00921147e-01,
          -2.45749913e-02, -1.40189901e-01, -1.87072139e-02,
           2.67835930e-02, -2.56953463e-02,  1.08444229e-01,
           4.05100435e-02, -1.18845947e-01,  4.87904809e-02,
          -2.99481805e-02, -1.23411745e-01, -1.19002454e-01,
          -1.71982590e-02, -8.99047852e-02,  3.70807089e-02,
           6.28197379e-03,  1.29089519e-01,  9.34387222e-02,
          -7.13518187e-02, -9.56472829e-02, -1.43496916e-02,
           2.14858502e-02,  4.74612713e-02, -1.72189344e-02,
           3.22217196e-02, -1.45999834e-01],
         [ 3.97466458e-02,  2.18241870e-01, -1.13755986e-01,
           4.08242159e-02, -2.37208642e-02, -5.16384281e-02,
           7.55591393e-02, -2.83153653e-02,  3.58185619e-02,
           1.65834665e-01, -1.85655907e-01, -4.88809533e-02,
          -1.53502554e-01, -1.14354216e-01, -2.83213127e-02,
           1.88727438e-01, -1.97377145e-01,  1.16063580e-01,
          -3.08213443e-01, -4.10871096e-02, -4.98403423e-02,
           2.03732893e-01, -5.02879322e-02,  8.72473121e-02,
          -5.09956945e-03, -1.20348044e-01,  2.45944820e-02,
          -1.24137439e-01,  2.72388548e-01,  2.31215149e-01,
           4.39578146e-02, -1.49424627e-01],
         [-3.16211097e-02, -7.88558051e-02,  6.72676936e-02,
          -3.30710821e-02, -1.23900184e-02,  1.84182134e-02,
           1.63853988e-01, -3.08653209e-02,  1.80920530e-02,
           2.05981899e-02, -1.44308746e-01,  4.64720689e-02,
          -3.12288199e-02, -3.28745544e-01, -2.97038592e-02,
          -7.38720745e-02,  5.65111749e-02, -4.75477204e-02,
          -4.49421965e-02,  5.20349443e-02,  5.24021871e-02,
          -7.75894672e-02, -7.49642923e-02, -6.02193102e-02,
          -1.10044651e-01,  7.41581470e-02,  6.52585104e-02,
           4.15189974e-02,  9.13310125e-02, -1.93394050e-02,
          -4.84880023e-02, -8.41287300e-02],
         [ 3.91784534e-02,  9.81685892e-02, -2.04809695e-01,
          -6.81037977e-02, -2.52522796e-01, -4.06737961e-02,
          -4.31730505e-03,  1.75947919e-02, -4.98976745e-02,
           1.26938611e-01, -1.53787777e-01,  2.56228577e-02,
          -9.74375233e-02, -2.12842643e-01, -1.24527983e-01,
           3.93880457e-02, -1.37282386e-01,  2.29173079e-02,
           2.39140932e-02,  8.83586798e-03,  1.82753452e-03,
           7.78508699e-03,  2.19999682e-02,  1.17683469e-03,
          -7.90242851e-02, -1.42931849e-01, -2.93751452e-02,
          -1.09243438e-01,  2.87090931e-02,  6.20375313e-02,
          -9.65567604e-02, -1.34829476e-01],
         [-4.23009098e-02, -8.55088979e-03,  1.43135265e-01,
          -6.45094961e-02, -5.50265983e-02,  4.60285842e-02,
          -5.38492575e-02, -1.22546583e-01,  9.30383578e-02,
           1.21099828e-02,  5.61186261e-02, -9.21128541e-02,
          -1.64922345e-02,  9.26718563e-02,  8.15302283e-02,
          -1.01327129e-01,  1.33971632e-01, -5.91822304e-02,
           6.97866976e-02,  1.61472503e-02, -4.94968481e-02,
          -5.83503880e-02, -2.15460882e-02,  1.32305518e-01,
           1.37761921e-01,  3.78420614e-02, -1.10750897e-02,
           1.72099859e-01,  3.50755751e-02,  9.24536958e-03,
          -1.23435475e-01, -3.03267594e-02],
         [ 3.69531363e-02, -2.42966693e-03,  6.46962076e-02,
          -5.67731746e-02,  4.74127494e-02,  9.45961103e-02,
          -1.14392012e-01,  6.70693293e-02,  9.48912501e-02,
          -9.29502323e-02,  4.02755067e-02, -8.11732709e-02,
           3.66171338e-02,  1.23198576e-01,  1.20432153e-01,
           4.39193919e-02,  5.99999875e-02,  4.44759540e-02,
           4.28539068e-02, -8.80293325e-02, -5.54398596e-02,
          -9.72008482e-02,  5.67972707e-03, -3.83824110e-02,
           1.19799808e-01,  1.72689222e-02, -2.70578936e-02,
          -3.81496027e-02, -3.99022400e-02, -1.61970526e-01,
           1.95439178e-02,  3.54014225e-02],
         [ 3.16910865e-03, -1.49387226e-01, -4.90438342e-02,
          -9.05704945e-02, -6.15834892e-02, -2.87805535e-02,
           1.74424034e-02, -1.23789459e-01, -2.10542493e-02,
           8.29404444e-02,  1.41731277e-01,  1.85823310e-02,
          -7.75766373e-02, -8.39534681e-03, -1.37786210e-01,
          -5.04774600e-02,  2.96221580e-02,  5.01200370e-02,
          -1.30409583e-01, -8.40953812e-02, -1.52665721e-02,
           6.75422475e-02, -4.85995114e-02,  6.13225298e-03,
           1.22065417e-01, -1.71419173e-01,  7.25265294e-02,
          -1.82560772e-01,  1.19060010e-01,  1.27905890e-01,
           7.41884438e-03,  1.31341508e-02],
         [-3.43506545e-01,  1.50536686e-01, -2.11938098e-01,
           5.10893911e-02, -8.66533890e-02,  1.81008101e-01,
           4.22812611e-01, -1.83532357e-01, -7.25569725e-02,
          -7.36356340e-03,  7.88860619e-02, -2.13404700e-01,
          -1.00060739e-01, -9.48526710e-02, -8.15044567e-02,
           4.25750054e-02,  1.04382984e-01, -1.08104095e-01,
          -1.83363203e-02, -8.27366114e-02, -2.22376511e-02,
           1.10121600e-01,  2.57521719e-02,  3.41789387e-02,
          -5.45874536e-02,  1.38011888e-01, -1.32669777e-01,
          -2.05391958e-01,  2.52466928e-02,  7.39544034e-02,
           2.38263115e-01,  2.21719995e-01],
         [ 1.17135487e-01,  9.14457738e-02,  4.81718443e-02,
          -6.58060610e-02, -1.40964612e-01, -3.70771587e-02,
           5.27003333e-02, -7.82547444e-02, -1.72137588e-01,
           1.53160557e-01,  6.81727752e-02,  2.30395660e-01,
          -1.89115033e-02, -1.14845991e-01, -3.22239362e-02,
          -4.35510203e-02, -4.12574448e-02,  2.47508436e-02,
           1.55162409e-01,  9.79536399e-02, -6.20372891e-02,
          -4.27721217e-02, -2.67333061e-01, -6.93410635e-02,
          -2.98567951e-01, -5.34495264e-02, -4.75597940e-03,
           3.38647328e-02,  7.74479657e-02, -4.31358367e-02,
          -1.11550339e-01,  6.81055486e-02],
         [-4.53755818e-02,  2.08337307e-02,  4.87997569e-02,
          -4.52637710e-02,  4.48807999e-02,  5.92891350e-02,
          -2.89517269e-02,  7.73939192e-02, -7.75472820e-02,
           7.47826993e-02, -4.64477278e-02, -6.97048753e-02,
          -7.22126141e-02,  2.00393386e-02,  9.53724899e-04,
           2.48952117e-02,  8.06124955e-02, -5.33519536e-02,
          -7.75013939e-02, -3.61486264e-02,  6.27159998e-02,
           4.34648432e-02,  4.29575816e-02,  2.11706739e-02,
           7.13488534e-02,  8.78215209e-03, -5.15975095e-02,
           4.65333201e-02, -3.36749889e-02, -7.11640343e-02,
          -6.30837530e-02, -5.91899417e-02],
         [ 3.80085707e-02, -5.98934107e-02,  2.35343315e-02,
          -3.30335833e-02, -7.05425590e-02,  2.14923359e-02,
          -1.89392641e-01, -2.71603391e-02,  1.49713129e-01,
          -3.59855294e-02,  6.87092617e-02,  1.70139834e-01,
          -1.10569395e-01, -7.55001903e-02, -1.77216172e-01,
          -6.43626899e-02, -2.14636683e-01, -9.30192918e-02,
          -1.32387150e-02, -1.85598247e-02, -6.48258999e-02,
          -9.11536813e-02, -1.37532964e-01,  4.38943543e-02,
           8.85679573e-02, -2.60602161e-02, -1.03580147e-01,
          -1.27796367e-01, -2.52530854e-02, -4.26924415e-02,
          -5.90540692e-02,  9.56834555e-02],
         [ 7.84629025e-03,  1.76486835e-01,  2.61012726e-02,
          -2.15472355e-02, -4.31656018e-02, -4.76479018e-03,
          -2.81153247e-03,  4.87173609e-02,  3.48226950e-02,
           4.61074747e-02, -4.43110131e-02,  2.60178726e-02,
          -1.44406661e-01, -6.35383558e-03,  2.10483193e-01,
           1.85454022e-02, -1.62406713e-01, -1.30191445e-01,
           1.33770809e-01, -6.13191463e-02, -5.94030470e-02,
           1.82149589e-01, -2.11679023e-02, -8.67967401e-03,
          -6.47015348e-02,  1.50887325e-01, -4.58371565e-02,
          -3.46633121e-02, -3.21762562e-02,  1.54618770e-01,
           2.82887388e-02, -8.54969956e-03]],

        [[ 1.00449264e-01,  1.10027120e-01, -6.65690601e-02,
          -2.24304032e-02, -5.43325767e-02,  9.32509676e-02,
           1.78968176e-01,  7.04867914e-02,  4.86958139e-02,
           1.42224863e-01, -1.56595662e-01, -6.73431754e-02,
           7.30132982e-02,  2.54436046e-01,  6.62029535e-02,
          -1.28834201e-02, -3.04232746e-01,  3.69578856e-03,
           9.45575610e-02,  7.65927136e-02, -8.32103938e-02,
           2.45075598e-02, -9.66272876e-02,  9.10799857e-03,
          -4.24724698e-01, -9.36039984e-02,  7.05834769e-04,
           7.03308433e-02, -4.71782349e-02, -4.82737012e-02,
          -9.54446476e-03,  2.01245043e-02],
         [-1.27369434e-01,  8.23075846e-02, -1.28397182e-01,
          -8.86998419e-03,  1.87134668e-02, -7.91234523e-02,
           1.07180499e-01, -5.44028208e-02, -7.54396170e-02,
           8.10571983e-02,  3.90031971e-02, -3.96547765e-02,
           4.30358946e-02,  5.48132658e-02, -2.03214120e-02,
          -5.40352538e-02,  3.09823245e-01,  8.57641473e-02,
          -1.88275620e-01,  4.70155925e-02,  7.16138445e-03,
           1.01495095e-01, -1.86927598e-02,  1.48625642e-01,
          -4.43645865e-02, -3.14094722e-02,  1.94129329e-02,
          -3.98863666e-02, -5.43507449e-02, -3.85822239e-03,
           8.22099149e-02, -1.77053362e-01],
         [ 7.84143060e-02, -1.31983995e-01, -6.91067949e-02,
          -4.43138480e-02,  1.90477580e-01,  7.47405225e-03,
          -1.01832516e-01, -1.23887137e-01, -1.81718078e-02,
          -5.54948710e-02,  1.12383351e-01,  1.00502886e-01,
          -4.74941283e-02,  2.13928118e-01,  7.74174705e-02,
           1.06863789e-01,  1.70845762e-01, -7.64352456e-02,
           5.95671758e-02,  3.65324551e-03,  1.12233078e-02,
           2.60230824e-02, -6.93112100e-03,  3.09118424e-02,
           2.57873628e-03,  1.89990166e-03,  1.81702599e-02,
           9.03900266e-02, -1.29559591e-01, -8.22495967e-02,
           5.18026277e-02,  4.59806137e-02],
         [-8.18093941e-02, -3.88439484e-02, -7.52319247e-02,
          -4.35341755e-03, -2.45423010e-03,  1.58649753e-03,
          -1.16648450e-01, -8.47506151e-02, -2.78832242e-02,
          -7.99755603e-02,  4.46978956e-02,  4.03132401e-02,
           4.44934666e-02,  1.29919320e-01,  2.48459745e-02,
          -5.65749481e-02,  1.72479913e-01, -1.51523221e-02,
          -8.09160843e-02, -8.82885978e-02, -1.10605769e-02,
           8.87179151e-02,  7.68513903e-02, -3.32638696e-02,
           2.53056246e-03, -3.57520059e-02,  4.42389101e-02,
           3.60259227e-02, -5.09174764e-02, -1.14845484e-01,
           5.43858372e-02, -5.12355417e-02],
         [ 4.98110354e-02,  1.21408403e-01,  4.39706594e-02,
           1.10994473e-01,  1.20077252e-01, -4.67911847e-02,
           1.42645672e-01,  2.49191895e-02,  5.13397641e-02,
           2.99623050e-02, -4.12256010e-02,  9.44730863e-02,
          -1.54937292e-02,  8.56384709e-02, -1.82821602e-03,
           5.51412888e-02, -2.51576602e-01,  7.47703537e-02,
           4.75707203e-02,  5.11678681e-02,  4.88346294e-02,
          -1.30768925e-01, -5.27997166e-02,  2.00514406e-01,
          -5.01688803e-03, -3.78465727e-02, -2.05258206e-01,
          -1.43103793e-01,  1.88789427e-01,  1.62663251e-01,
          -4.65564094e-02, -6.64922222e-02],
         [-3.23234946e-02, -9.39642265e-02,  5.36980405e-02,
          -9.43480805e-02, -4.76447679e-02,  5.37301823e-02,
          -9.31301042e-02, -4.80209710e-03, -6.84850439e-02,
           2.01169774e-02, -3.73907723e-02,  1.16439782e-01,
          -4.72255796e-02, -9.44826528e-02,  2.05821283e-02,
           2.66452599e-02, -1.68516651e-01,  8.29695463e-02,
           2.02041175e-02,  7.46855587e-02, -3.79064679e-02,
          -2.78198212e-01, -5.61745763e-02,  6.01183586e-02,
          -2.55392995e-02, -2.70487671e-03, -9.09579545e-02,
           5.18080927e-02,  2.80218869e-02, -1.09578088e-01,
           5.37511706e-03,  3.14694792e-02],
         [-1.99722365e-01, -1.34011894e-01, -7.76214674e-02,
          -9.65316445e-02, -3.96716446e-02, -3.92274112e-01,
          -1.28613070e-01, -9.24610049e-02,  1.45687640e-01,
          -6.20787330e-02,  9.62043256e-02,  1.11730181e-01,
          -1.45030797e-01, -7.11058453e-02, -5.84795848e-02,
           2.84043811e-02,  1.82176419e-02,  1.74042266e-02,
           2.59132367e-02, -1.35124728e-01,  1.65041648e-02,
          -2.47144252e-02, -3.68878305e-01,  2.57726133e-01,
           1.44122645e-01,  1.17085524e-01,  6.16898015e-03,
           7.49777257e-02, -2.37222865e-01,  1.75246403e-01,
           1.09212205e-01, -3.55830282e-01],
         [ 3.80707197e-02,  2.68434994e-02, -2.71177161e-02,
          -2.80551668e-02, -3.97102674e-03,  1.34484377e-02,
           1.52884554e-02, -1.10295609e-01, -2.91227475e-02,
          -7.65307248e-02,  4.48005758e-02, -6.97471946e-02,
          -5.47802597e-02,  4.52120341e-02,  6.36305436e-02,
           5.02580553e-02,  1.39695987e-01,  2.25503203e-02,
           4.73744832e-02, -5.41626886e-02, -7.52258375e-02,
           5.37247807e-02, -1.12201795e-02,  3.93679142e-02,
          -5.70552684e-02, -1.16257463e-02, -5.66892810e-02,
           1.09660355e-02, -5.09460866e-02, -2.56359838e-02,
          -3.05005070e-02,  5.15261255e-02],
         [-7.40023777e-02, -7.62682706e-02,  7.35977292e-02,
          -1.09942116e-01,  4.40256335e-02,  1.94694828e-02,
          -4.51229922e-02,  3.22874524e-02, -4.07817997e-02,
           6.90592006e-02, -5.78619204e-02,  1.06092975e-01,
           4.18589935e-02, -4.90789235e-01,  6.53257519e-02,
          -1.03212498e-01,  4.36738208e-02,  9.94951427e-02,
           3.12441796e-01, -3.85620296e-02, -3.44113819e-02,
          -1.10952154e-01, -3.47898342e-02, -2.47825861e-01,
           1.70042161e-02, -7.01886788e-02, -3.70834805e-02,
          -8.50374475e-02, -3.57005894e-02, -1.70730904e-01,
          -1.62757516e-01,  1.52761713e-01],
         [ 5.02761640e-02,  8.30212831e-02, -1.12306683e-04,
          -5.18572330e-02, -5.42902052e-02,  5.09650223e-02,
          -4.04167660e-02,  2.09226795e-02, -2.61070039e-02,
          -7.98727125e-02, -6.85473010e-02, -2.87520234e-02,
          -6.27513528e-02, -6.06403761e-02, -6.37550978e-03,
          -5.73482700e-02,  7.80139714e-02,  2.75418442e-02,
          -5.32306917e-02,  4.99064848e-02, -2.22257841e-02,
           4.61043082e-02, -5.79364449e-02, -4.63187657e-02,
           5.21642342e-02,  8.10092613e-02,  3.93326208e-02,
          -3.16585265e-02,  2.91307140e-02,  3.30081806e-02,
          -5.47241531e-02,  4.01538573e-02],
         [-1.13220543e-01, -9.32820663e-02,  6.60159905e-03,
          -2.80191470e-02,  4.96814512e-02,  6.57501295e-02,
           1.20083936e-01,  2.89581381e-02,  1.55089781e-01,
           3.83026972e-02, -1.47460168e-02, -6.09258888e-03,
          -9.89021081e-03,  9.46699306e-02,  6.67831600e-02,
          -4.17221300e-02,  1.20949171e-01, -1.73717272e-02,
          -8.25451389e-02, -1.23881817e-01, -4.03361861e-03,
          -1.64878726e-01,  1.15544572e-02, -6.49556145e-02,
           1.63674243e-02,  2.62226984e-02,  5.36679402e-02,
           1.29538691e-02, -9.70632304e-03, -2.90240258e-01,
           3.87783274e-02,  2.19146907e-02],
         [-5.94860082e-03, -1.19731007e-02,  2.27824366e-03,
           3.29907052e-02,  9.06324536e-02,  6.43098727e-02,
          -7.70902783e-02, -4.00245525e-02, -1.08151197e-01,
          -9.24463123e-02, -4.27747145e-02, -1.58224478e-02,
          -8.57904181e-02,  3.66241299e-02, -7.06573203e-03,
           4.88162488e-02,  5.10173514e-02,  1.02337755e-01,
           1.08160311e-02,  1.11223226e-02,  2.29048077e-02,
          -2.48435885e-02, -3.57394032e-02, -2.98565719e-02,
          -1.12467594e-02,  3.03737596e-02,  6.93201050e-02,
           5.08725755e-02,  5.45583479e-02, -5.01402058e-02,
           2.98659783e-02,  2.00725123e-02],
         [ 1.93260964e-02,  3.54805179e-02, -8.38642567e-02,
           7.13783503e-03, -4.64050751e-03,  4.14294079e-02,
          -7.10219517e-02, -8.88328478e-02, -9.90070626e-02,
          -1.03836313e-01,  1.10957064e-01,  3.29674073e-02,
          -3.12382616e-02,  1.62841648e-01, -8.22910294e-03,
           1.55701553e-02, -2.82037910e-02,  1.90747809e-02,
          -5.74021367e-03,  4.75284718e-02,  3.37816663e-02,
