{'batch_input_shape': (None, 224, 224, 4), 'dtype': 'float32', 'sparse': False, 'ragged': False, 'name': 'input_2'}[]{'name': 'conv2d_4', 'trainable': True, 'dtype': 'float32', 'filters': 64, 'kernel_size': (3, 3), 'strides': (1, 1), 'padding': 'same', 'data_format': 'channels_last', 'dilation_rate': (1, 1), 'groups': 1, 'activation': 'linear', 'use_bias': True, 'kernel_initializer': {'module': 'keras.initializers', 'class_name': 'GlorotUniform', 'config': {'seed': None}, 'registered_name': None}, 'bias_initializer': {'module': 'keras.initializers', 'class_name': 'Zeros', 'config': {}, 'registered_name': None}, 'kernel_regularizer': None, 'bias_regularizer': None, 'activity_regularizer': None, 'kernel_constraint': None, 'bias_constraint': None}[array([[[[-9.07117203e-02,  4.84099910e-02,  1.04030855e-01,
           5.60244471e-02,  4.53542098e-02, -6.82956949e-02,
           2.09895279e-02,  6.28511906e-02, -9.43364426e-02,
           9.99169052e-03,  1.50082394e-01, -1.00266516e-01,
          -5.06840125e-02, -1.75158724e-01, -1.77763909e-01,
          -3.46714199e-01, -9.29402635e-02, -9.32542160e-02,
          -8.06643628e-03,  6.77352026e-02, -1.14678085e-01,
           1.63779020e-01, -1.10122591e-01, -4.48802337e-02,
           6.62740245e-02, -4.57594208e-02,  3.54463118e-03,
           8.56462643e-02, -1.09101228e-01, -4.60095098e-03,
           4.09903228e-02, -2.48562060e-02,  8.85469606e-04,
          -3.37217972e-02,  2.66438983e-02, -2.85483859e-02,
          -1.07343346e-01, -5.42505607e-02, -1.25375688e-01,
          -1.54368067e-02, -1.06102534e-01, -1.23573825e-01,
          -6.50464371e-02, -5.46167381e-02,  1.69065744e-01,
           1.58235297e-01, -8.88795033e-02, -1.36500644e-02,
          -9.94089395e-02, -6.85806200e-02, -1.15393162e-01,
          -3.58692780e-02, -1.09877847e-01, -5.24013415e-02,
          -1.08602345e-01, -1.31355479e-01, -6.39455393e-02,
           8.79756659e-02, -1.60358801e-01, -1.80872351e-01,
          -1.07255638e-01, -9.25458595e-02,  3.54336910e-02,
          -9.37563628e-02],
         [-5.27396388e-02,  1.45263493e-01,  1.18312366e-01,
          -1.86720118e-02, -7.08088428e-02, -7.97106922e-02,
           3.18551920e-02,  4.56275493e-02, -4.72575463e-02,
          -7.95891657e-02,  4.55400161e-02,  4.31157239e-02,
           2.89569609e-02,  1.43415844e-02, -2.10934877e-01,
          -3.39252532e-01, -6.77097440e-02,  9.49908867e-02,
          -1.03992447e-01, -4.25906740e-02,  6.79642186e-02,
           2.32011765e-01, -4.27737162e-02,  7.72737116e-02,
          -8.68329499e-03, -9.84250456e-02,  4.30470966e-02,
          -9.88137349e-03,  2.24012677e-02,  8.81483778e-03,
           7.01489151e-02, -1.21347345e-01, -6.41299859e-02,
           1.64290715e-03,  6.13870844e-02, -1.64791003e-01,
          -5.78468814e-02, -1.67502612e-02, -6.62349015e-02,
           1.34170845e-01, -3.65438610e-02,  1.43062798e-02,
           2.37196479e-02,  3.53612266e-02,  9.08864588e-02,
           8.13376755e-02, -2.51400135e-02,  4.61193994e-02,
          -4.97455001e-02,  2.46119965e-02, -1.59852952e-02,
          -7.15112239e-02, -8.54167268e-02, -1.79878488e-01,
           7.31734745e-03,  8.03001504e-03, -1.03036866e-01,
           5.06394841e-02, -2.12910056e-01, -1.94245100e-01,
          -4.52636741e-02,  7.50109777e-02,  2.70300508e-02,
          -8.71460438e-02],
         [-9.23193097e-02,  9.16754920e-03, -3.16787278e-03,
           3.90641727e-02, -4.80156876e-02, -1.41802952e-01,
          -1.91938765e-02, -8.77220482e-02, -1.47769237e-02,
           6.15616143e-03,  9.76769850e-02,  1.38991270e-02,
           1.45556293e-02, -1.47057250e-01, -1.89022794e-01,
          -1.88135579e-01,  2.39039902e-02, -4.08195704e-02,
           7.63449818e-02,  4.09275778e-02, -7.73844048e-02,
           3.34849954e-01, -1.63693521e-02, -6.98582083e-02,
          -1.33005735e-02,  5.17156124e-02, -2.00789683e-02,
           1.00453928e-01, -1.08765677e-01, -8.50546658e-02,
           6.11598194e-02,  3.37311178e-02,  5.07330559e-02,
           4.98003475e-02,  2.03229971e-02, -4.77793925e-02,
          -1.20357171e-01,  9.98229161e-03,  1.59906931e-02,
          -4.39755023e-02, -1.02459490e-01, -1.34716602e-02,
          -6.03735819e-02, -4.42687012e-02,  4.44036424e-02,
           1.06818378e-01,  6.13314882e-02, -1.14514856e-02,
          -9.97378156e-02,  5.39231859e-02, -3.29358689e-02,
           1.19561395e-02,  2.45315731e-02, -4.71915081e-02,
           4.16912660e-02, -5.90207539e-02, -1.43893674e-01,
          -5.06317429e-02, -1.10778593e-01, -3.05472970e-01,
          -6.15364946e-02,  7.59671628e-02,  6.36449233e-02,
          -1.15061954e-01],
         [-7.75408000e-03,  3.68020162e-02,  8.14030394e-02,
          -9.83797684e-02, -3.08876708e-02, -7.44503662e-02,
          -5.92687577e-02, -9.17971581e-02, -4.65159714e-02,
           3.59418914e-02,  4.00679037e-02,  4.97962534e-03,
           1.72539204e-02,  5.35308495e-02, -2.72137225e-02,
           6.23835102e-02,  9.32199582e-02, -5.45468219e-02,
           7.37308338e-02, -4.77114283e-02,  3.91351804e-02,
           9.64750275e-02,  4.29257974e-02,  4.54525575e-02,
          -8.11597705e-03,  9.71993729e-02, -4.83482331e-03,
           4.98168394e-02,  2.77023688e-02, -5.53982332e-02,
          -7.86371827e-02,  5.32766953e-02,  9.69334468e-02,
          -4.91431430e-02, -2.72016078e-02, -4.54721190e-02,
           9.07033756e-02,  3.35115567e-02, -1.92958862e-03,
          -1.49722397e-02, -9.68799293e-02, -7.32462108e-03,
           3.26376334e-02, -6.86509907e-02, -8.69534165e-02,
          -3.22693139e-02, -6.95990175e-02,  7.58828968e-03,
           1.61972269e-02, -2.31343955e-02, -4.15893197e-02,
           7.82442167e-02, -5.51222265e-03, -2.93436125e-02,
          -1.12972036e-02, -4.50215116e-02, -4.15862501e-02,
           2.69600675e-02,  3.22710201e-02, -3.84807326e-02,
          -5.75198829e-02, -3.40053737e-02,  3.23054418e-02,
          -6.42106161e-02]],

        [[-7.06441775e-02,  9.05705392e-02,  5.77394031e-02,
          -2.08052061e-02, -8.44422355e-02, -8.74649659e-02,
           8.40182789e-03, -5.19961640e-02,  1.16642443e-02,
           3.71933877e-02, -1.75205305e-01,  3.05408221e-02,
           6.83110803e-02,  4.14136872e-02,  1.46742851e-01,
          -2.85187870e-01, -7.85102993e-02,  9.15661678e-02,
           9.91773233e-02, -1.12564929e-01, -4.35111709e-02,
          -5.06429486e-02, -6.77140504e-02, -7.28028938e-02,
           2.16366388e-02,  9.55244526e-02, -5.19173481e-02,
          -4.64866459e-02,  3.95809114e-02,  6.90145865e-02,
           4.29154225e-02,  7.94891268e-02, -2.79080383e-02,
          -3.42790522e-02,  6.56989515e-02,  1.68279093e-02,
          -9.98074338e-02, -7.68405525e-03, -1.16518639e-01,
           8.79134387e-02, -3.04554980e-02, -1.65916041e-01,
          -1.69112708e-03, -5.49382232e-02,  1.16662681e-01,
           4.81617935e-02,  8.19114596e-02,  6.50700778e-02,
          -1.38646081e-01,  8.37031901e-02, -1.35986060e-01,
          -8.86145160e-02, -7.33231753e-02, -5.05720563e-02,
          -4.58873138e-02, -6.45019710e-02, -1.73988771e-02,
           6.59263059e-02, -1.60913914e-01, -1.99489668e-01,
          -4.50363606e-02,  6.25923946e-02,  3.30688083e-03,
          -9.95950475e-02],
         [-2.62829456e-02,  8.05132166e-02, -5.96505450e-03,
           6.96104839e-02, -1.03389151e-01,  5.33264652e-02,
           3.23277414e-02, -7.61492923e-02, -1.09636918e-01,
           1.98321138e-02, -2.14889999e-02, -8.08030516e-02,
           6.67414516e-02,  3.19999196e-02,  4.99320887e-02,
          -2.93960005e-01, -2.49724220e-02, -3.16650495e-02,
           2.42813639e-02, -7.68604055e-02, -3.71292047e-02,
           1.21408507e-01,  1.21369902e-02,  7.74986763e-03,
          -1.44965664e-01,  2.59986217e-03,  2.50837281e-02,
           9.73860323e-02, -4.33372371e-02, -3.73308137e-02,
           1.98694170e-02,  7.49369413e-02, -4.86131795e-02,
          -1.13542154e-02,  9.93983746e-02, -2.07475759e-02,
          -1.45211071e-01,  6.09397106e-02,  2.71911491e-02,
           1.82547197e-01, -9.81298313e-02, -1.56689659e-01,
          -5.86678982e-02,  8.97198394e-02,  1.72700167e-01,
           6.80170059e-02, -7.95590132e-03,  3.14976573e-02,
          -1.78622827e-02,  6.92434385e-02, -2.58823428e-02,
           4.12672199e-02, -2.84662824e-02, -6.19448610e-02,
          -5.90435900e-02, -3.99344750e-02, -5.31119946e-03,
           1.43683059e-02, -4.32870053e-02, -2.79337317e-01,
          -1.13683105e-01, -1.83545854e-02, -1.45772845e-01,
          -4.68969494e-02],
         [-4.24092226e-02, -5.76425716e-03, -1.96905853e-03,
          -3.42750363e-02, -8.25157538e-02, -5.30533269e-02,
          -6.66532367e-02,  8.50201026e-03, -3.57589498e-02,
          -6.95944726e-02, -1.36280969e-01, -5.56092300e-02,
           4.19260785e-02,  5.65991215e-02,  4.45476286e-02,
          -2.00637758e-01,  2.72351708e-02, -8.47716406e-02,
          -7.62665123e-02, -3.46735269e-02,  3.41512933e-02,
           1.34589314e-01, -1.53310169e-02, -2.83158049e-02,
          -1.35237023e-01, -9.65318754e-02,  4.67554703e-02,
          -2.57057752e-02, -7.47829154e-02,  1.49811115e-02,
          -5.55209666e-02,  9.11335796e-02, -6.97845593e-02,
           1.79966968e-02,  5.90366460e-02,  9.80112106e-02,
          -1.30651474e-01,  5.90610411e-03, -3.63361128e-02,
           1.46697268e-01, -9.92840007e-02, -1.69197336e-01,
          -2.96541788e-02,  8.02878961e-02,  8.43152851e-02,
           3.79934348e-02,  5.31163439e-02, -5.19359857e-02,
          -1.45972744e-01,  8.84047598e-02, -5.36729246e-02,
          -3.87929119e-02,  8.14917684e-02, -1.81695685e-01,
           2.13194732e-02, -5.69417849e-02, -1.01164110e-01,
          -1.01042744e-02, -8.29210803e-02, -3.25447261e-01,
          -9.16656554e-02, -5.67715392e-02, -8.33921432e-02,
          -1.45600820e-02],
         [-4.76036146e-02,  8.19406435e-02, -2.88057476e-02,
           7.69672468e-02, -4.63240966e-02,  6.83586374e-02,
          -2.04871818e-02,  5.26404008e-02, -8.54912251e-02,
          -4.50226441e-02,  2.25688368e-02, -7.49292225e-03,
          -1.11876205e-02, -4.63823564e-02, -6.19706698e-02,
          -3.94553691e-02,  4.87672314e-02, -1.89798996e-02,
          -5.80651090e-02,  2.49143839e-02,  8.58962908e-02,
          -7.93616995e-02,  9.47969928e-02, -6.01924025e-02,
           2.76067108e-03,  4.46321145e-02,  5.23585603e-02,
           5.49199507e-02, -9.51289311e-02, -9.54324231e-02,
          -4.16396260e-02,  1.78658590e-02,  7.46368095e-02,
           8.50452408e-02, -1.21358410e-02, -9.36054066e-02,
          -5.36053292e-02, -2.78774053e-02, -3.55389491e-02,
          -8.00132528e-02, -2.97016576e-02,  7.91966841e-02,
           2.76476815e-02, -2.36209109e-02,  9.17864591e-03,
           7.56087825e-02, -2.21378282e-02,  1.97847337e-02,
          -8.46569538e-02, -2.76989415e-02,  6.97618648e-02,
          -7.66754150e-04,  5.51241860e-02, -8.64478499e-02,
          -4.76397574e-02,  8.05105641e-02,  6.58631548e-02,
          -5.45104221e-02,  8.22322071e-03, -7.83225670e-02,
           4.41261157e-02, -3.60566750e-02,  5.16738519e-02,
          -7.79622123e-02]],

        [[-7.68573657e-02,  2.25292053e-02,  1.12854011e-01,
           4.00062203e-02, -1.14460140e-01,  4.39236462e-02,
           4.67794500e-02, -6.69269636e-02, -8.31198320e-02,
           1.24001736e-02, -1.58762455e-01,  6.23404607e-02,
           4.26075831e-02, -1.60927733e-03, -9.81646031e-03,
          -1.61908314e-01,  4.20236066e-02, -3.59796584e-02,
           5.30731790e-02, -5.74481674e-02,  2.23912746e-02,
          -1.21012136e-01,  1.88862404e-03,  1.24982437e-02,
          -2.40590405e-02,  8.52379482e-03,  3.59612592e-02,
          -2.49305181e-02, -8.95320848e-02, -3.62840146e-02,
          -7.20085874e-02,  5.70810167e-03, -4.25576344e-02,
           1.00430734e-02, -2.31081158e-01,  7.62790255e-03,
          -4.84676659e-02, -3.08422260e-02, -2.40439549e-02,
           2.49789551e-01,  8.36202130e-02, -2.54140124e-02,
           7.07258098e-03, -3.61423939e-02,  1.31983995e-01,
          -2.40609869e-01, -6.85343072e-02, -5.64154573e-02,
          -1.00513816e-01, -1.58750396e-02, -2.07943112e-01,
           6.28569573e-02,  3.66727300e-02, -1.67336076e-01,
           3.34998481e-02, -1.29240870e-01,  2.08840575e-02,
           8.14095959e-02, -1.48888513e-01, -9.23517123e-02,
          -1.00496784e-01, -3.46408151e-02, -8.81328434e-02,
           3.98143455e-02],
         [-3.20390798e-02, -3.94876562e-02,  1.10432111e-01,
          -5.50346961e-03, -1.57510042e-01, -9.54707935e-02,
           2.64663831e-03,  5.43672629e-02, -4.30262312e-02,
           7.25180879e-02, -7.49397725e-02,  3.18612680e-02,
          -1.07929073e-01, -1.35609940e-01,  1.13437138e-02,
          -3.18711072e-01, -7.38662630e-02,  2.24262197e-02,
           6.84481189e-02,  8.04643631e-02,  8.31986591e-02,
           4.02352661e-02, -1.18963741e-01, -1.56244308e-01,
           6.67572543e-02,  2.61341175e-03, -1.47589650e-02,
           4.17545028e-02, -6.26328439e-02,  4.53852909e-03,
          -9.78919044e-02,  1.18347056e-01, -1.74985379e-02,
           5.03865778e-02, -5.05382419e-02,  4.03248742e-02,
          -7.46632144e-02,  4.14575674e-02, -5.08411117e-02,
           1.79778337e-01, -9.05130431e-02,  5.84157445e-02,
          -2.17460934e-02,  5.77918142e-02,  1.19386427e-02,
          -1.38912275e-01, -1.04088090e-01,  7.04676956e-02,
          -7.61819184e-02, -7.29210628e-03, -1.77868515e-01,
          -1.12680690e-02,  1.08866625e-01, -3.58563066e-02,
          -5.62079297e-03, -4.40211259e-02, -1.39639005e-01,
          -4.76263426e-02, -2.08338842e-01, -1.50503159e-01,
          -1.22025460e-01, -8.66601523e-03,  1.82733573e-02,
           1.42823830e-02],
         [ 6.95904046e-02,  4.17658547e-03, -2.60913069e-03,
           6.75560459e-02,  9.00197774e-03, -4.25079353e-02,
           9.54468995e-02, -6.05559088e-02, -8.95080343e-02,
          -2.63422672e-02, -1.50132686e-01,  3.51752304e-02,
           7.70854205e-02, -7.30804205e-02, -9.65492129e-02,
          -2.97872037e-01,  3.41374315e-02,  1.00408960e-02,
           5.69153167e-02,  7.89579302e-02,  1.36145949e-02,
          -9.46439356e-02, -6.11116514e-02, -1.31859511e-01,
          -3.18942666e-02, -2.30782609e-02,  8.05323422e-02,
           5.33878244e-02, -9.22527686e-02,  1.50651783e-02,
          -8.31807926e-02,  1.01501450e-01,  2.23536771e-02,
          -7.74642825e-02, -2.41529375e-01,  1.62078202e-01,
          -1.14714883e-01, -4.08525355e-02, -2.78708544e-02,
           1.73061788e-01,  2.74896510e-02,  4.28011045e-02,
          -2.14657430e-02,  3.52855748e-03,  3.12413182e-02,
          -2.14323685e-01, -2.51960065e-02, -3.07331942e-02,
          -1.20161092e-02,  1.86275244e-02, -2.31140032e-01,
          -7.85286576e-02,  8.47325101e-02, -2.27483466e-01,
           2.42506284e-02, -7.66770467e-02,  2.43333075e-02,
          -1.50455674e-02, -2.11255118e-01, -1.23585813e-01,
          -4.63676378e-02, -7.64828846e-02, -8.70836079e-02,
          -3.98242623e-02],
         [ 1.53911933e-02,  7.05487356e-02,  1.53086185e-02,
          -5.37553988e-02,  1.34155154e-04, -1.98959187e-02,
           2.90860161e-02,  9.60202143e-02, -6.16003945e-02,
           2.88651884e-03,  5.74844256e-02, -7.05784038e-02,
           4.48398069e-02,  2.60365382e-02,  5.57314977e-02,
          -5.18128313e-02,  7.92183727e-03,  7.88382813e-02,
          -2.17342898e-02,  4.29903194e-02, -2.17685625e-02,
          -6.11170642e-02,  7.29795620e-02, -7.00889826e-02,
          -5.09816073e-02,  8.05894509e-02, -1.09699368e-03,
           9.27967504e-02, -8.51402581e-02,  7.91345537e-03,
          -3.20003405e-02,  6.66017160e-02,  1.57693550e-02,
          -8.45792145e-03,  6.36263862e-02, -1.70802251e-02,
           6.83219507e-02, -1.32659078e-02,  6.26186356e-02,
          -6.06863089e-02, -4.09870595e-02,  4.70033363e-02,
          -6.29705638e-02, -8.20860639e-02, -3.50900739e-03,
           8.57185796e-02,  8.64852890e-02, -8.80006403e-02,
          -2.44960859e-02, -9.43411440e-02, -8.29184800e-03,
          -4.53438424e-02,  1.89593583e-02,  6.13313988e-02,
          -2.53026932e-02,  1.54570565e-02,  8.56347382e-03,
          -8.01517069e-02,  2.51509249e-04,  8.00088421e-02,
           1.33107603e-03,  8.14569667e-02, -4.56878655e-02,
          -7.73450285e-02]]],


       [[[-9.68337134e-02,  2.79776249e-02,  5.65901920e-02,
           2.96901222e-02, -2.47749642e-01, -8.79141316e-03,
           1.33217862e-02, -1.87392253e-02,  5.84549680e-02,
          -8.91315043e-02,  1.83929071e-01,  7.02775642e-02,
           1.00085186e-02, -9.75449458e-02, -2.88533233e-02,
           1.49479970e-01,  6.86365962e-02,  3.88781838e-02,
          -3.92306633e-02,  5.96421026e-02, -5.45661934e-02,
           7.22673386e-02,  2.11333353e-02,  9.95698050e-02,
          -8.96260515e-03, -3.02318521e-02, -3.46971005e-02,
          -8.11201409e-02,  2.65284383e-04, -1.00608476e-01,
           2.22388640e-01, -7.34050050e-02,  5.00882901e-02,
          -2.57372693e-03,  9.32193082e-03, -2.14771345e-01,
           9.73804668e-03, -6.56772032e-02, -1.36898741e-01,
          -1.33071512e-01,  4.90110181e-02, -4.72779460e-02,
          -6.85583949e-02,  5.54949604e-02,  6.49092346e-02,
           8.80129263e-02,  3.05881500e-02, -7.75232837e-02,
          -5.23694605e-02, -1.76794212e-02, -1.88433349e-01,
          -7.77247653e-04, -6.34347424e-02, -1.59007370e-01,
          -7.94843584e-02, -1.24493707e-02,  1.38044342e-01,
           2.95682512e-02, -9.47155282e-02, -1.87015653e-01,
           2.84754243e-02,  1.27813257e-02,  6.11662678e-02,
          -6.14003651e-03],
         [ 1.19732525e-02, -8.59232768e-02,  8.41092020e-02,
          -1.77963730e-02, -1.01192117e-01, -4.50131204e-03,
          -6.25826535e-04,  6.60305843e-02,  2.13446561e-02,
           5.15080132e-02,  1.91762373e-01, -1.13485977e-01,
          -9.22894478e-02, -7.18060955e-02, -2.07041189e-01,
           1.08002633e-01, -1.09352365e-01,  2.39123385e-02,
          -4.44390737e-02, -4.41056974e-02, -6.93420768e-02,
           2.95870043e-02, -3.11337281e-02,  7.71749169e-02,
           9.04047266e-02,  3.61494645e-02,  3.78470309e-02,
          -6.55744448e-02, -8.87849927e-02, -1.24389656e-01,
           9.40647349e-02, -3.18529531e-02,  6.53016567e-02,
          -4.32131328e-02, -6.09275624e-02, -1.84817880e-01,
          -9.23299044e-02, -9.43640471e-02, -7.18118176e-02,
          -4.49701846e-02, -4.51867236e-04, -1.09731823e-01,
           7.71646351e-02,  2.98383199e-02,  4.41443361e-02,
           1.22058876e-01, -2.75828429e-02,  5.86162135e-02,
           5.14564067e-02, -8.79347697e-02, -7.41252825e-02,
          -2.83794128e-03,  1.43675366e-02, -1.18352622e-01,
          -1.28597273e-02, -1.11656122e-01,  1.57569900e-01,
           1.11135304e-01,  1.12543767e-02, -3.19229901e-01,
          -1.17821649e-01, -2.79282406e-02,  1.40159979e-01,
          -5.33842556e-02],
         [-8.15774575e-02, -1.16066225e-01, -2.90339850e-02,
           4.97273691e-02, -8.14489573e-02,  5.40594012e-02,
          -4.88786846e-02,  6.83231205e-02, -6.26085401e-02,
          -6.01293333e-02,  7.68076181e-02,  6.96854070e-02,
          -1.10046556e-02,  2.51302496e-02, -1.09837495e-01,
           1.63003936e-01,  3.43396068e-02, -7.72955716e-02,
          -2.11500674e-02, -8.87714773e-02,  3.05466894e-02,
           1.86288022e-02, -1.30738420e-02, -6.57517314e-02,
           8.45555887e-02, -5.08236466e-03,  8.47606920e-03,
           7.99007807e-03, -5.77887744e-02,  4.00540372e-03,
           1.46853819e-01, -7.23907277e-02, -3.42671648e-02,
           8.33079740e-02,  8.97430331e-02, -6.31085560e-02,
           5.20660030e-03,  3.30269337e-02, -1.89581037e-01,
          -1.15892895e-01, -1.43102750e-01, -7.43614584e-02,
          -7.06450567e-02,  7.82128051e-02, -4.22233380e-02,
          -6.66911714e-03,  3.58188376e-02,  4.57688281e-03,
           7.72163719e-02, -2.20858511e-02, -1.91175312e-01,
          -6.56700507e-02, -1.19247757e-01, -1.32704794e-01,
          -7.44716600e-02,  3.88607755e-02,  7.58994743e-02,
          -6.11620434e-02,  6.92483783e-03, -3.01939905e-01,
          -8.16101115e-03, -6.67109638e-02,  1.19372159e-01,
           5.85129671e-02],
         [ 4.81119975e-02, -3.52132469e-02, -1.99032575e-02,
           2.07612067e-02,  1.49469599e-02, -3.10098827e-02,
          -8.26091692e-02, -1.56152025e-02, -8.10613558e-02,
          -3.28200907e-02,  2.37197950e-02, -1.33145601e-02,
          -2.41164416e-02, -4.78326753e-02, -4.30150852e-02,
          -4.85939980e-02,  2.35953405e-02,  6.88771680e-02,
          -5.09321727e-02, -2.77539417e-02,  3.97196934e-02,
           6.11554906e-02, -1.99521780e-02, -2.54115462e-02,
          -8.62393081e-02,  8.95862803e-02,  7.36937448e-02,
          -8.74097645e-02, -6.88661188e-02,  7.76440576e-02,
           8.73231962e-02,  7.89110437e-02,  8.12798068e-02,
           2.02029049e-02, -3.75017039e-02, -4.77616414e-02,
          -2.29202211e-03, -7.12268353e-02, -7.65300915e-02,
          -4.03517708e-02,  7.31960312e-02, -5.75126112e-02,
          -3.42205241e-02, -9.25339609e-02,  8.02027956e-02,
          -2.08473206e-03,  2.58076414e-02,  3.06991413e-02,
          -7.92706013e-02,  1.95824653e-02,  7.43559822e-02,
          -3.69033851e-02, -2.76597068e-02, -5.26489653e-02,
           1.21613145e-02,  8.28748196e-03, -3.81725207e-02,
          -8.60824138e-02, -7.95324966e-02,  8.96528736e-02,
           7.73017108e-03,  7.73236230e-02, -8.39632899e-02,
          -1.04498118e-02]],

        [[ 3.78397293e-02, -1.15814365e-01, -7.40814656e-02,
          -5.30908955e-03, -1.47664174e-01, -5.91924079e-02,
          -5.06230965e-02,  5.56703024e-02,  1.12613127e-01,
          -1.56161115e-02,  4.31080908e-02, -2.75194440e-02,
          -7.04753846e-02, -1.14650629e-01,  1.21540986e-01,
           1.39166743e-01,  4.11240123e-02, -7.88796917e-02,
           4.42200564e-02, -9.04903486e-02, -9.43123642e-03,
          -8.10800567e-02,  6.35414049e-02,  8.01059753e-02,
          -1.83229774e-01,  4.00422746e-03, -1.43807922e-02,
           1.04543097e-01, -8.23615268e-02, -1.05280206e-01,
           8.61919746e-02,  2.52037980e-02, -2.18058396e-02,
           7.70918950e-02,  1.06878459e-01, -2.55521461e-02,
           1.89664960e-02,  2.78426223e-02, -1.47338482e-02,
          -2.11147696e-01, -4.61597461e-03, -1.48107521e-02,
           5.81505448e-02,  4.23842184e-02,  6.61269873e-02,
           5.38174808e-02,  3.30375182e-03,  3.65649983e-02,
           9.05482247e-02,  5.16437031e-02, -2.22337022e-02,
           4.74233599e-03,  2.37013642e-02, -1.62858471e-01,
          -9.86256748e-02, -1.72580078e-01,  2.12200850e-01,
           2.04265416e-02, -1.63665548e-01,  4.90440577e-02,
          -7.87561387e-03, -7.21306577e-02,  4.25763987e-02,
          -8.61101076e-02],
         [ 4.51538451e-02, -1.31018251e-01,  6.36963472e-02,
          -2.33891495e-02, -1.33658245e-01, -1.00969180e-01,
           6.05143569e-02,  2.17290167e-02,  8.32335129e-02,
          -2.79012937e-02, -6.77573821e-03, -1.15401618e-01,
          -8.26550126e-02,  3.34490202e-02,  1.25033259e-01,
           2.01474428e-01, -1.08149134e-01, -7.38102868e-02,
          -5.01378812e-02, -1.35749606e-02, -2.23954227e-02,
          -8.55415836e-02,  5.78019470e-02, -9.59565938e-02,
          -7.04914778e-02, -6.71010315e-02, -7.56073743e-02,
           1.22609846e-01, -5.92720062e-02,  3.38941510e-03,
          -1.35866273e-02, -6.23331107e-02,  7.29277879e-02,
           5.48111042e-03,  1.16879657e-01,  9.55552980e-02,
          -1.40964389e-01, -3.46090496e-02, -1.52552798e-01,
          -2.00219601e-01, -6.10445030e-02, -1.37160972e-01,
          -3.46520208e-02,  6.74605370e-02, -5.36939278e-02,
           7.48574212e-02,  5.87616898e-02, -9.09143910e-02,
          -7.90200010e-02,  1.11142015e-02, -9.37260762e-02,
          -1.10125160e-02, -2.25796159e-02, -1.14180081e-01,
          -4.92745787e-02, -5.23316935e-02,  2.29353979e-01,
           5.36976792e-02, -1.01245694e-01, -7.52137154e-02,
          -1.44376442e-01, -8.36588368e-02,  7.48705640e-02,
           4.06861752e-02],
         [ 4.01377790e-02, -1.23568363e-01, -4.53815162e-02,
          -5.28417341e-02, -2.19877791e-02,  3.95519696e-02,
           8.89580175e-02, -3.60643566e-02,  9.43743959e-02,
           1.92401018e-02, -5.99966720e-02, -1.05297692e-01,
           4.03044336e-02, -1.29098743e-01,  8.12104195e-02,
           2.92522963e-02,  6.55232742e-02,  9.15863663e-02,
           5.66657819e-02, -9.64283496e-02,  2.26616487e-02,
          -1.64409071e-01,  6.81782514e-02, -8.58000964e-02,
          -3.29068452e-02,  5.15391789e-02, -7.72100016e-02,
           6.27126265e-03,  5.58908172e-02, -6.32518157e-02,
          -7.92718977e-02, -1.19891681e-01, -1.12971157e-01,
          -6.58176169e-02,  8.26458782e-02, -2.35871179e-03,
          -3.36631760e-02, -4.51004729e-02, -1.22718111e-01,
          -8.04814324e-02, -1.04692362e-01, -7.22114667e-02,
          -1.05588228e-01,  1.14847913e-01,  2.65146364e-02,
           6.64159507e-02,  8.18589926e-02,  2.41910890e-02,
          -3.96057591e-02, -2.90057231e-02, -4.91293073e-02,
          -9.26270112e-02,  6.50335550e-02, -2.14216769e-01,
           6.61955625e-02, -1.84245020e-01,  1.10348679e-01,
           6.43153563e-02, -1.15308538e-02,  1.91792753e-02,
          -1.30486712e-01, -9.98371653e-03,  1.18383817e-01,
          -4.41648662e-02],
         [ 7.20535293e-02, -1.70917660e-02,  8.48339275e-02,
          -2.80585214e-02, -6.67108968e-02,  8.58095661e-02,
          -3.12327594e-02,  2.16135830e-02, -4.80625108e-02,
          -8.68835375e-02,  7.70883784e-02, -5.32837808e-02,
          -7.43841752e-02, -7.33485594e-02, -5.20470589e-02,
          -6.15590811e-02,  6.08697608e-02, -1.97752863e-02,
          -3.92303243e-02, -3.98103222e-02, -8.13767686e-02,
          -2.94595435e-02,  3.57236713e-03,  5.78823611e-02,
          -9.33864042e-02,  8.72535035e-02,  2.11093426e-02,
           9.65691581e-02,  7.37416670e-02,  2.25908160e-02,
           1.44651383e-02,  2.80006304e-02,  5.08681759e-02,
           7.84236714e-02, -3.12951729e-02, -2.21716538e-02,
          -9.11864713e-02, -4.52467911e-02,  6.96830824e-02,
          -7.06041083e-02, -4.82643992e-02, -5.71123585e-02,
          -2.62276605e-02, -8.20598304e-02, -5.33478260e-02,
           4.73002270e-02, -4.65488806e-02, -3.70523706e-02,
          -6.90546930e-02, -9.73145813e-02, -2.46783569e-02,
           9.10810605e-02,  1.81391388e-02, -9.31659639e-02,
          -3.09313014e-02,  9.41322744e-03,  3.49631086e-02,
          -4.46774624e-02, -8.48632082e-02,  9.47337598e-03,
           8.28493014e-02, -5.56005910e-02,  2.28677765e-02,
           2.54119709e-02]],

        [[-1.51686454e-02, -7.68571869e-02, -9.04965028e-02,
           4.47695144e-02, -5.62315807e-02,  2.89541762e-03,
           4.34783846e-02, -9.27073061e-02,  3.71552855e-02,
          -6.58973679e-02, -7.96087384e-02,  5.00515439e-02,
           3.17297392e-02, -1.38586193e-01,  5.24731353e-02,
           1.58164799e-01,  1.96943115e-02, -6.76371455e-02,
           5.09174690e-02, -9.28204134e-02, -1.02849053e-02,
          -2.47131929e-01, -4.34466787e-02, -1.10053316e-01,
          -2.80004758e-02, -3.79058835e-03, -8.17341637e-03,
           7.67230541e-02,  6.49907291e-02, -2.11961288e-02,
          -7.18942657e-02, -2.02593002e-02,  3.55897732e-02,
           9.20621827e-02, -6.69196919e-02,  9.57485437e-02,
          -4.84602489e-02, -5.53358346e-04, -1.09623015e-01,
          -6.32547438e-02, -5.71512133e-02, -3.79824489e-02,
          -2.06486695e-03, -4.43513989e-02, -1.09309107e-01,
          -2.18466446e-01,  7.16187060e-02,  6.97647184e-02,
           8.05354267e-02, -8.93426836e-02, -4.29185778e-02,
          -4.52988073e-02,  1.03613243e-01, -1.10892802e-01,
          -7.59036317e-02, -1.50138646e-01,  3.76180746e-02,
           4.44463454e-02, -4.73241918e-02,  1.16394415e-01,
          -1.45392120e-01, -6.88110758e-03,  4.16145585e-02,
          -8.62037614e-02],
         [ 5.15258834e-02, -1.60795674e-01, -1.17610745e-01,
          -1.00929782e-01,  7.79039552e-03,  5.67163005e-02,
           5.89772575e-02, -7.30896601e-03, -3.24331298e-02,
          -1.38268489e-02, -6.10110983e-02, -1.07901674e-02,
           1.09311976e-02,  7.29781968e-05, -1.39308432e-02,
           9.57772136e-02, -5.11861704e-02, -5.90344034e-02,
          -2.68346164e-02, -4.17451821e-02,  9.12177190e-02,
          -1.46777898e-01, -9.01609063e-02, -1.63446680e-01,
          -4.26153168e-02,  3.43692228e-02,  2.83244457e-02,
           9.56684649e-02, -6.03249073e-02,  6.06794050e-03,
          -1.52997285e-01, -1.38056889e-01,  4.60584946e-02,
           8.44211876e-02, -1.93048343e-01,  1.40085787e-01,
          -1.98330451e-02,  5.45427240e-02, -1.22584857e-01,
           3.64875384e-02,  7.53385946e-02, -2.19461098e-02,
          -2.95876171e-02,  9.23562497e-02, -4.61826771e-02,
          -2.43958265e-01, -4.30940390e-02,  2.12592725e-02,
          -3.75578851e-02, -3.61808054e-02, -1.15347743e-01,
          -3.45877036e-02,  5.79788312e-02, -5.67126200e-02,
           2.01906692e-02, -5.44674248e-02,  2.03972772e-01,
          -3.43976822e-03, -1.01744793e-01,  1.80433512e-01,
          -1.20472699e-01, -7.19489232e-02, -2.73003820e-02,
          -1.00940190e-01],
         [ 1.16452519e-02, -1.80706263e-01,  1.14957904e-02,
          -8.84380005e-03, -2.48357598e-02,  5.22275418e-02,
          -9.65439714e-03, -1.03993379e-02, -3.43250968e-02,
          -4.64397781e-02, -1.10733785e-01,  3.25644650e-02,
          -1.11078732e-02, -1.46292135e-01,  2.89474498e-03,
           1.44721242e-02, -8.04281980e-02,  6.90277442e-02,
          -5.20306360e-03, -8.93211141e-02,  2.11742222e-02,
          -2.39872843e-01,  3.29316892e-02, -1.04440726e-01,
          -8.57262984e-02, -4.08041067e-02,  4.31015901e-02,
           6.74327314e-02, -1.01248935e-01,  5.79098351e-02,
          -7.42696077e-02, -1.21034391e-01,  1.07723828e-02,
           2.37318333e-02, -1.12798549e-01,  1.17736354e-01,
           7.29959309e-02,  2.56917588e-02, -1.84884593e-01,
           1.35660181e-02,  7.03457072e-02,  4.03298959e-02,
           1.55929010e-03,  1.04591653e-01,  2.08773762e-02,
          -2.32835874e-01, -9.80606899e-02,  4.79322076e-02,
          -2.65591796e-02, -6.11612648e-02, -3.86759192e-02,
          -4.79946956e-02,  2.01400816e-02, -6.18451014e-02,
          -6.76662847e-02, -8.00608322e-02,  1.26476333e-01,
           6.50904328e-02, -1.17997386e-01,  5.74035719e-02,
          -2.98471767e-02,  4.65735868e-02,  9.74839479e-02,
          -1.28263310e-01],
         [-7.38920867e-02,  9.44530144e-02,  3.79732326e-02,
           7.59714767e-02,  6.08053878e-02,  6.07938543e-02,
          -4.21482362e-02, -8.77397656e-02, -8.55385065e-02,
           5.91585860e-02, -5.80740795e-02, -3.44489962e-02,
          -2.53383070e-03, -3.01916152e-03, -4.09345813e-02,
           5.39627597e-02, -9.75768268e-02,  5.54665253e-02,
           8.45310166e-02,  6.49902746e-02,  1.28798187e-04,
           1.22956559e-02,  3.60582396e-02, -9.04149711e-02,
          -1.49760619e-02, -7.51577243e-02, -8.01598504e-02,
          -8.39449912e-02,  1.76051259e-02,  2.70594433e-02,
          -2.70276740e-02, -4.47270125e-02, -6.74562603e-02,
          -9.08555239e-02, -4.22328711e-03, -5.29766791e-02,
          -4.69356589e-02,  7.10188821e-02,  9.90131423e-02,
           6.43449649e-02, -1.82145834e-02, -7.20696524e-02,
           7.38681033e-02, -8.45240057e-03, -5.95819503e-02,
           2.57296860e-03, -7.40507022e-02,  7.45907426e-04,
           1.94188207e-02,  9.34843048e-02, -7.13043138e-02,
          -8.95124823e-02, -9.46876407e-02, -6.40149564e-02,
           9.00112763e-02,  9.09954682e-02, -9.36703235e-02,
           8.44900981e-02,  1.37569755e-02, -1.22709647e-02,
          -6.85928166e-02,  6.22962490e-02,  5.48891649e-02,
          -2.51941457e-02]]],


       [[[ 1.18785515e-01, -3.36595066e-02,  2.67224014e-02,
          -6.09831661e-02, -1.14733674e-01, -1.13345407e-01,
          -1.27441352e-02, -6.87691569e-02,  1.15306616e-01,
          -9.43378508e-02,  1.07949428e-01,  7.23975003e-02,
          -2.10428145e-02, -1.79871231e-01, -1.55524462e-01,
          -2.76048817e-02, -3.28231193e-02,  1.48878340e-02,
          -4.67751585e-02, -8.22123364e-02, -5.72917378e-03,
          -5.66870384e-02,  2.34764745e-03,  6.15966246e-02,
           1.29413992e-01, -7.06915259e-02, -1.61056779e-02,
          -5.57863228e-02,  4.97954898e-02, -5.02370810e-03,
           7.38055333e-02,  9.48047359e-03,  2.78743263e-02,
          -1.13079794e-01, -1.73135802e-01, -1.57255381e-01,
           1.05322875e-01, -6.84702247e-02,  1.11675002e-01,
          -1.58264283e-02, -2.96590179e-02, -1.35597259e-01,
          -1.29004363e-02,  9.88036469e-02,  1.88924931e-02,
          -4.69811969e-02,  3.09343333e-03, -1.53058106e-02,
          -8.48528836e-03,  2.68800482e-02, -3.73415984e-02,
           5.34157529e-02, -1.37679175e-01, -7.83337429e-02,
           7.37941414e-02,  5.04796114e-03, -1.63162485e-01,
          -9.45403501e-02, -4.81901653e-02, -1.70452639e-01,
          -2.52721123e-02,  5.89824580e-02, -1.05291359e-01,
           1.68604225e-01],
         [ 6.10357486e-02,  6.75037429e-02, -3.97985950e-02,
           4.97681126e-02,  1.83139928e-03,  1.80063341e-02,
          -8.59183148e-02, -1.07520051e-01, -5.39527945e-02,
           9.66140255e-02, -3.01196296e-02,  1.35894716e-02,
          -9.12860185e-02, -7.51484334e-02, -1.53370202e-01,
          -5.82111068e-02,  2.59484369e-02,  3.26584540e-02,
          -7.93407038e-02, -4.35013697e-02,  7.00012296e-02,
          -1.65458158e-01,  5.68760224e-02, -6.76836539e-03,
           2.84163114e-02,  6.72756508e-02,  1.46545786e-02,
          -3.78402472e-02,  9.51083004e-02, -1.12274759e-01,
           1.15281790e-01,  5.11601102e-03, -1.05607346e-01,
           2.71968562e-02, -2.03677997e-01, -1.43804297e-01,
           1.15484245e-01, -8.69103428e-03,  3.40350345e-02,
           1.28638223e-01, -4.06913795e-02, -6.04773760e-02,
          -8.95283595e-02,  8.77061263e-02, -1.30748138e-01,
          -5.26166074e-02, -7.73856044e-02,  5.52767441e-02,
          -3.44224907e-02,  6.09290488e-02,  2.30436791e-02,
          -4.32210006e-02, -1.13155201e-01, -1.39958397e-01,
          -4.45259288e-02, -8.79266709e-02,  3.26728052e-03,
           4.43983749e-02, -1.10935465e-01, -1.27653822e-01,
           1.01557359e-01, -5.73993400e-02, -4.61087339e-02,
           1.88264996e-01],
         [-4.91501428e-02,  2.50198022e-02, -5.77864191e-03,
           5.82502112e-02, -1.16533637e-01, -6.36602640e-02,
          -7.73812309e-02,  1.53347729e-02, -6.39588945e-03,
          -7.78516307e-02,  3.77037153e-02,  7.29065984e-02,
           6.74659805e-03, -4.45751958e-02, -8.57814476e-02,
          -4.97651733e-02, -3.39356624e-02, -3.29268910e-02,
          -2.39847358e-02, -4.82683368e-02,  2.05839183e-02,
          -1.51263669e-01,  1.81553513e-02, -3.68681848e-02,
           1.69563815e-01, -6.26250803e-02, -1.18498512e-01,
          -2.96104909e-03,  9.16793346e-02,  4.16519120e-02,
           1.29389673e-01, -1.07648022e-01, -3.93632054e-03,
           6.11458458e-02, -1.50618345e-01, -2.79727262e-02,
           4.14535813e-02,  3.82423475e-02,  1.45093068e-01,
           5.40061928e-02, -5.81282564e-02, -7.25245178e-02,
          -7.11301565e-02,  2.52919253e-02, -4.46849503e-02,
          -1.09840715e-02,  5.35259694e-02, -7.77229369e-02,
          -7.94106349e-02,  9.27441940e-02, -1.09202124e-01,
          -6.29728660e-02, -1.46493301e-01, -6.28066957e-02,
           2.33182423e-02,  4.02655490e-02, -1.71740308e-01,
           4.57357317e-02, -7.78588653e-02, -1.28114805e-01,
           6.11714385e-02, -1.04908653e-01, -5.48864603e-02,
           1.28628731e-01],
         [-6.96389377e-02,  5.68609908e-02,  9.26854238e-02,
          -5.32639734e-02, -1.08961463e-02,  4.24844995e-02,
          -7.45841712e-02, -9.20855701e-02,  6.49731606e-03,
           5.99747673e-02,  4.75039408e-02, -7.34941661e-02,
           4.46957350e-03, -8.77729282e-02, -7.84501880e-02,
          -5.25593534e-02, -5.12968078e-02,  3.15835327e-03,
          -3.39996815e-02,  8.18032995e-02,  2.60261521e-02,
           4.11262885e-02, -9.75021794e-02,  1.59533247e-02,
           3.84076461e-02, -7.27413893e-02,  2.62445956e-03,
          -1.13751516e-02,  5.74318245e-02,  3.44823077e-02,
           3.34955826e-02,  1.07599124e-02, -6.53415918e-05,
           9.05512497e-02, -8.54127854e-03, -5.80123737e-02,
          -9.72980335e-02, -5.97286448e-02, -1.46194324e-02,
           2.82353535e-02, -2.41334587e-02, -8.38014111e-02,
           4.44862023e-02, -9.02395248e-02,  8.48487094e-02,
           7.76105151e-02, -5.26714623e-02, -7.54694343e-02,
          -8.34305957e-02,  2.04698071e-02, -5.46518974e-02,
           7.55484030e-02,  3.35239246e-02, -6.29435778e-02,
          -2.96536386e-02,  7.70962164e-02, -7.14372694e-02,
           8.45231786e-02, -2.49888375e-02, -4.76711988e-03,
           9.35731307e-02,  1.53903663e-02, -8.70886594e-02,
           9.28320363e-02]],

        [[ 3.44397947e-02,  7.91489333e-03, -9.01514441e-02,
          -8.66581798e-02, -9.19530913e-02, -3.66048403e-02,
          -1.07252218e-01, -8.39869753e-02,  8.43417346e-02,
           9.92085319e-03,  2.41929665e-02, -6.43649772e-02,
          -3.45783830e-02, -5.83757386e-02,  6.27984405e-02,
           1.35391541e-02, -7.34294355e-02,  3.22182216e-02,
           7.66755715e-02,  6.34357557e-02,  2.82946695e-02,
          -1.77044973e-01,  3.86632234e-02, -1.29881561e-01,
          -5.60959987e-02,  8.84368941e-02,  4.05143102e-04,
           1.00838162e-01, -5.37556484e-02, -5.81705607e-02,
           2.43095066e-02, -1.34520931e-02, -1.62088256e-02,
           3.49099785e-02, -2.44479060e-01, -1.22656422e-02,
           6.12185635e-02, -4.00490090e-02,  4.63123359e-02,
          -1.35441571e-01, -6.87868595e-02,  5.97119853e-02,
          -2.47960482e-02,  4.11408134e-02, -9.01178643e-02,
           4.40256745e-02, -1.32740259e-01, -3.18600163e-02,
           2.79953815e-02,  3.53404135e-02, -1.11083381e-01,
          -6.85279677e-03, -1.22678302e-01, -6.32514060e-02,
          -5.71649224e-02, -1.22219749e-01, -1.26045525e-01,
           1.69903338e-02, -7.40931034e-02,  3.75514291e-02,
           3.20833661e-02,  6.06037937e-02, -8.15039873e-02,
           4.95802239e-02],
         [ 1.33588240e-01, -4.03076634e-02, -1.16936713e-01,
           1.92052033e-02, -1.02605022e-01,  5.27163851e-04,
          -8.17065239e-02, -3.20511982e-02,  8.90212655e-02,
          -8.95431638e-02, -4.93655093e-02, -2.61281729e-02,
          -2.97710411e-02, -8.06147307e-02,  1.32941723e-01,
          -1.09234359e-02, -6.26731291e-02, -1.43046286e-02,
          -1.08622117e-02, -2.13855412e-02,  5.97690269e-02,
          -1.21288456e-01, -2.32025329e-02,  1.37771834e-02,
          -3.17330174e-02, -6.36083186e-02, -8.38434622e-02,
           1.08605940e-02,  3.15788463e-02, -2.56782509e-02,
           4.57434133e-02,  8.73225629e-02, -1.79355964e-02,
           9.06931087e-02, -1.47012934e-01,  1.38124041e-02,
           1.58331826e-01, -1.00524865e-01,  7.64741749e-02,
          -1.22466162e-01,  6.66748732e-02, -5.66349104e-02,
          -7.81417415e-02,  1.03928402e-01, -8.32949057e-02,
           8.40928853e-02, -6.86207637e-02, -9.33580920e-02,
          -1.35631543e-02,  1.02644727e-01, -1.48680747e-01,
          -5.44194430e-02, -2.59431787e-02, -1.40951514e-01,
           7.99936205e-02, -1.43363521e-01, -1.12786904e-01,
           8.78587961e-02, -1.78435028e-01,  6.11751266e-02,
          -4.27054353e-02, -4.68683615e-02, -1.53164923e-01,
          -3.97920720e-02],
         [ 1.78693002e-03, -2.86389664e-02, -6.78890422e-02,
          -8.15234631e-02,  2.98596034e-03,  1.78210996e-02,
          -7.42246136e-02, -6.05158731e-02,  1.57161593e-01,
           4.25533974e-04, -3.53841186e-02,  1.08590920e-03,
          -1.28635049e-01, -1.02309376e-01,  1.13613546e-01,
          -3.39044593e-02,  6.29109666e-02, -5.00414670e-02,
           4.51236591e-02, -5.53579554e-02,  7.14777038e-02,
          -1.41261324e-01, -9.51763690e-02, -7.99099216e-04,
          -4.65418883e-02, -1.90144014e-02, -2.13857032e-02,
          -7.28546605e-02,  5.16021252e-02, -5.45663126e-02,
           9.46403481e-03, -4.92177755e-02, -9.72852558e-02,
          -2.19729841e-02, -1.11554161e-01, -1.00820549e-02,
           1.05197646e-01, -3.05153821e-02,  1.35275379e-01,
          -3.28922272e-02,  5.93102351e-02,  4.55208458e-02,
           2.33324394e-02,  1.72508471e-02, -1.20909691e-01,
          -5.37049733e-02,  2.62802523e-02, -1.05553545e-01,
          -1.48209427e-02, -5.43718226e-03, -1.60107508e-01,
          -1.04094170e-01, -1.22565724e-01, -8.62991065e-02,
          -2.46489677e-03, -1.45109400e-01,  1.59765186e-03,
          -9.03285444e-02, -7.84598142e-02,  5.84849976e-02,
           1.15479313e-01,  6.77346215e-02, -1.09670535e-01,
           5.43873794e-02],
         [-8.14494491e-02, -6.65113255e-02, -6.26453087e-02,
           7.50101581e-02,  5.02980724e-02,  5.51784113e-02,
           6.10539839e-02,  8.09036866e-02, -1.70085728e-02,
           3.98204997e-02,  4.63187695e-03, -2.85250396e-02,
          -1.05729625e-02,  2.39951015e-02,  5.69408312e-02,
           5.34055158e-02,  3.00655290e-02,  9.84370932e-02,
          -4.74702567e-03,  4.58442420e-03,  8.93257484e-02,
          -5.00161275e-02, -8.53948817e-02,  7.68894330e-02,
           7.31350482e-03,  9.67920199e-02,  4.77986857e-02,
          -4.13385443e-02, -1.89006478e-02, -9.55144539e-02,
           4.52318266e-02,  6.10740110e-02, -3.75771299e-02,
          -2.44282186e-02, -3.88179570e-02, -4.33756337e-02,
          -6.90753013e-02,  6.21844009e-02, -9.59054083e-02,
           8.62763599e-02, -8.75288844e-02, -6.88074306e-02,
           3.52657214e-02,  4.52197567e-02,  8.79259929e-02,
          -1.26962662e-02,  2.59692371e-02, -1.08347163e-02,
          -5.62091321e-02, -4.05586883e-02, -9.30946693e-02,
           4.87710461e-02,  5.44812903e-02,  2.12839618e-02,
          -5.97074442e-02, -7.42889643e-02,  3.64111289e-02,
           5.37497625e-02, -5.65494262e-02,  4.23751697e-02,
          -9.29708257e-02,  4.13103029e-02, -5.35138771e-02,
          -8.82041603e-02]],

        [[ 1.34511441e-01, -6.64591640e-02, -7.36415908e-02,
          -3.34251113e-02,  8.72066841e-02, -8.42011534e-03,
          -6.36630356e-02, -4.30065356e-02,  1.18522840e-02,
          -7.01530278e-02, -7.83229396e-02, -1.59985423e-02,
          -5.62507138e-02, -2.54032966e-02, -8.10398087e-02,
           3.45167778e-02,  4.29370487e-03, -8.27096924e-02,
           7.01908767e-02, -2.44368427e-02, -3.71454842e-02,
          -4.24169637e-02,  2.21663024e-02, -1.47534132e-01,
           1.26627460e-02, -4.38943245e-02, -4.71646385e-03,
           7.63151869e-02, -5.95044605e-02,  5.60382754e-02,
          -1.55417249e-01, -1.28308743e-01,  1.65373571e-02,
           3.95254157e-02, -6.86930493e-02,  1.27184868e-01,
           1.24783278e-01,  6.66407729e-03, -1.78635046e-02,
          -7.85150677e-02,  5.69155626e-02, -9.86374319e-02,
           1.45187033e-02,  8.27163085e-02, -1.73263550e-01,
          -8.34022537e-02, -1.39361676e-02, -2.74379514e-02,
           6.97551668e-02,  7.43782371e-02, -9.82225612e-02,
           4.55308706e-02, -9.81108770e-02, -1.42055079e-01,
          -6.44252002e-02, -1.65902182e-01, -1.82730958e-01,
          -8.65741298e-02, -1.47602424e-01,  1.66808218e-01,
          -8.86951983e-02, -7.75092915e-02, -1.38135269e-01,
          -1.77777242e-02],
         [ 3.38342786e-02,  8.56369659e-02, -7.34068081e-02,
          -1.32290736e-01,  1.31210443e-02, -9.19798091e-02,
          -4.59384918e-02,  5.62838614e-02,  1.06295295e-01,
           2.10442431e-02,  8.62591788e-02, -9.16307196e-02,
           7.10065942e-04, -1.63897216e-01, -4.83368747e-02,
           8.16907268e-03,  5.87750152e-02, -2.10717972e-02,
           4.23433147e-02, -1.55212181e-02,  8.97032320e-02,
          -1.97953716e-01, -1.05847999e-01, -2.32328977e-02,
          -3.71746980e-02, -5.28965294e-02, -6.99601099e-02,
           1.76422447e-02,  3.42984572e-02, -3.64927910e-02,
          -9.43445787e-02, -5.23598418e-02, -6.11476041e-02,
           3.18815187e-02, -1.01115778e-01,  8.84903893e-02,
           1.85469165e-01, -2.69523524e-02,  5.60567938e-02,
          -9.83864516e-02, -5.03843427e-02, -3.23999114e-02,
           2.93444507e-02,  5.22536077e-02, -1.48483351e-01,
          -2.35171422e-01, -4.97029051e-02,  2.71427892e-02,
           2.66743805e-02,  6.62714839e-02, -1.75622821e-01,
           8.33040848e-02, -8.66073593e-02, -9.69285592e-02,
           6.28486276e-02, -4.08329107e-02, -1.06501378e-01,
          -1.74062012e-03, -1.51478164e-02,  2.10566476e-01,
           8.05236548e-02,  4.92621213e-02, -5.90144619e-02,
          -1.32346436e-01],
         [-2.63982229e-02, -9.27892402e-02, -9.51872095e-02,
          -7.25879371e-02,  1.25831246e-01,  1.05451643e-02,
          -7.03814626e-02, -6.70092786e-03,  2.37371102e-02,
          -7.22783152e-03,  6.35355785e-02, -9.18459985e-03,
           3.28082331e-02, -4.22699973e-02,  4.55013216e-02,
          -1.28042504e-01,  6.49755672e-02,  3.00963540e-02,
          -1.53235691e-02, -5.05603850e-02,  9.46966484e-02,
          -6.05021976e-02, -5.25359027e-02, -6.86396211e-02,
          -5.04379114e-03, -8.64707455e-02,  6.39191596e-03,
          -1.61177181e-02,  5.29962853e-02, -5.91415167e-02,
          -1.28411993e-01, -1.17618725e-01,  5.65277226e-02,
          -2.51936330e-03, -9.33384616e-03,  1.41163528e-01,
           2.15379611e-01,  4.34727930e-02, -9.45165008e-02,
          -8.47146139e-02,  1.38437068e-02,  5.98369949e-02,
           1.48592340e-02,  1.22111559e-01, -1.38604477e-01,
          -1.49806991e-01, -2.22383514e-02, -9.09628272e-02,
           1.13893161e-02,  7.32096434e-02, -7.77975544e-02,
          -9.85747352e-02,  2.33740080e-02, -3.50744314e-02,
           3.26720551e-02, -1.27910912e-01, -8.42994824e-02,
           5.39256297e-02, -5.32345362e-02,  1.70445874e-01,
           9.79507640e-02, -3.94001827e-02, -1.39652237e-01,
          -5.67897260e-02],
         [ 1.37774199e-02, -6.31224960e-02,  9.62278023e-02,
          -6.33915961e-02,  3.73509452e-02, -8.46252292e-02,
          -3.24595422e-02,  4.30741236e-02,  6.41578510e-02,
           6.00529984e-02,  7.70413950e-02,  4.30534035e-03,
           6.44683763e-02,  8.62588510e-02,  1.00080967e-02,
          -5.25923558e-02,  8.64840373e-02,  3.58914062e-02,
          -3.49861011e-02, -3.11564580e-02, -3.58449891e-02,
          -1.33209080e-02,  9.12539139e-02, -8.87864828e-03,
           5.44827506e-02,  9.09314305e-03,  2.84097269e-02,
          -8.16088468e-02,  5.81900552e-02,  5.41315600e-02,
           6.25086650e-02, -5.30330278e-02,  1.84381679e-02,
           3.23154032e-04,  6.65258691e-02, -9.42299068e-02,
           7.41480067e-02, -5.67811765e-02,  9.62360278e-02,
          -2.52627507e-02, -1.26602948e-02,  8.54459032e-02,
          -8.91491771e-04, -7.26566613e-02,  9.94138420e-03,
          -7.83243179e-02, -4.62183133e-02, -1.30580962e-02,
           4.13983688e-02,  9.41020921e-02, -9.27253366e-02,
          -7.51162767e-02,  8.19229856e-02, -4.73491326e-02,
          -9.14912596e-02,  3.54268476e-02, -5.77133186e-02,
          -1.85616314e-02,  9.11378637e-02,  3.43257189e-03,
          -8.91625062e-02, -2.64520869e-02,  4.71963659e-02,
           3.39708552e-02]]]], dtype=float32), array([-0.17345577,  0.09879228, -0.1455681 , -0.1284023 ,  0.17512085,
       -0.05903197,  0.2358953 , -0.08541319, -0.10809458, -0.02134388,
        0.00857704, -0.10770345, -0.08578576,  0.10061008, -0.11574238,
       -0.07579785, -0.09919778, -0.0024471 , -0.09757069, -0.02885478,
       -0.16320136,  0.06637495, -0.15288036,  0.1751776 ,  0.30560058,
       -0.01405801,  0.21274213, -0.14938486, -0.08416006, -0.02564548,
       -0.01884656,  0.11692001, -0.09976107, -0.10846815, -0.07950558,
        0.00519112,  0.06118397,  0.22515918,  0.07029123,  0.0219656 ,
        0.16139513,  0.07476714, -0.01228981, -0.13056596,  0.03258294,
       -0.03118925, -0.07570505, -0.14696267, -0.11959828, -0.13471729,
        0.12580226, -0.02548669,  0.08846444,  0.24440947, -0.12169474,
        0.09284298, -0.04927319, -0.15446137,  0.13004936,  0.11714261,
       -0.07905672, -0.0309678 , -0.0314529 , -0.00164365], dtype=float32)]{'name': 'activation_6', 'trainable': True, 'dtype': 'float32', 'activation': 'relu'}[]{'name': 'max_pooling2d_2', 'trainable': True, 'dtype': 'float32', 'pool_size': (2, 2), 'padding': 'valid', 'strides': (2, 2), 'data_format': 'channels_last'}[]{'name': 'conv2d_5', 'trainable': True, 'dtype': 'float32', 'filters': 32, 'kernel_size': (3, 3), 'strides': (1, 1), 'padding': 'same', 'data_format': 'channels_last', 'dilation_rate': (1, 1), 'groups': 1, 'activation': 'linear', 'use_bias': True, 'kernel_initializer': {'module': 'keras.initializers', 'class_name': 'GlorotUniform', 'config': {'seed': None}, 'registered_name': None}, 'bias_initializer': {'module': 'keras.initializers', 'class_name': 'Zeros', 'config': {}, 'registered_name': None}, 'kernel_regularizer': None, 'bias_regularizer': None, 'activity_regularizer': None, 'kernel_constraint': None, 'bias_constraint': None}[array([[[[ 1.63589530e-02,  1.52129397e-01, -1.13996796e-01,
           1.30465655e-02,  8.98859650e-02,  6.44300804e-02,
           2.40431890e-01,  3.79659161e-02, -8.40973631e-02,
           1.47273660e-01, -7.43793771e-02, -2.32025191e-01,
          -4.37119650e-03,  2.90208519e-01, -2.27909703e-02,
           1.17359526e-01, -4.67550475e-03,  2.92665698e-02,
           4.06966805e-02, -1.74727067e-02,  3.38377841e-02,
           4.24559191e-02, -4.50929254e-02,  5.07698953e-02,
           1.06586866e-01, -1.29069224e-01,  1.11782782e-01,
          -1.51715308e-01, -4.34898697e-02,  4.80665602e-02,
          -1.78464653e-03, -1.86634034e-01],
         [-5.56547493e-02,  6.19192012e-02,  5.75763918e-03,
          -1.02293484e-01, -5.98155819e-02, -9.29433759e-03,
          -4.77524810e-02, -4.83935811e-02, -1.61037929e-02,
           6.39856309e-02, -3.56231742e-02, -7.80845359e-02,
           6.31498992e-02,  4.59683873e-02, -6.67772861e-03,
          -2.06693932e-02, -1.95503414e-01, -2.57261451e-02,
          -7.79007748e-02, -6.40638173e-02, -4.86893393e-02,
           1.25736311e-01, -4.28722799e-02,  8.47274736e-02,
           8.93932506e-02,  7.03242476e-05, -2.44619772e-02,
          -8.89015049e-02,  7.87876993e-02,  6.28594235e-02,
           5.54069839e-02,  1.42646894e-01],
         [-1.42614488e-02, -8.69024321e-02, -1.31127566e-01,
          -2.71524861e-02,  2.55945712e-01, -4.24767472e-02,
          -4.23466004e-02, -2.81327050e-02, -2.71513034e-02,
          -3.65737528e-02,  2.35753119e-01,  1.32961094e-01,
           6.29504696e-02,  1.79668531e-01,  7.12129846e-02,
           7.34675080e-02, -2.00712606e-02,  1.85607914e-02,
           1.74300689e-02, -8.33692178e-02, -3.89089622e-02,
           1.02482572e-01,  2.40604603e-03,  2.72891968e-01,
           1.90694407e-01, -5.04889674e-02, -2.60416381e-02,
           1.37509450e-01, -7.61819482e-02, -6.24774136e-02,
          -4.48224135e-02,  1.26236379e-02],
         [ 1.12817874e-02,  3.51979285e-02, -1.03684980e-02,
           6.82150200e-02,  9.24130902e-03, -3.90210748e-02,
           5.61842062e-02,  1.24832457e-02, -6.61341147e-03,
          -5.51695563e-02,  5.43283857e-02,  9.82312337e-02,
           7.32260644e-02,  1.88557044e-01,  5.52635789e-02,
          -3.94473448e-02,  6.95337281e-02,  2.90772552e-03,
          -9.15059745e-02, -1.78715780e-01,  2.16640327e-02,
           6.01529218e-02,  3.05487346e-02,  3.41361016e-02,
           1.10915631e-01, -1.82791222e-02,  1.07016684e-02,
          -2.16273014e-02, -4.65204120e-02, -1.56376615e-01,
          -4.57028346e-03,  2.36101635e-02],
         [ 5.41314622e-03,  2.87618756e-01, -4.82833907e-02,
           6.45297691e-02,  6.88138828e-02, -2.56642364e-02,
           2.73416825e-02, -1.42230824e-01, -4.94949184e-02,
          -5.99009953e-02, -8.77010375e-02,  7.52269477e-02,
          -2.87218485e-03,  6.75705820e-02,  3.12029496e-02,
           1.77270755e-01, -1.34886757e-01,  1.17408969e-01,
           3.14769968e-02,  6.66587874e-02, -5.99148385e-02,
          -1.83957964e-01, -4.97625396e-02,  4.04053032e-02,
           9.01199207e-02, -1.39875948e-01, -8.93414207e-03,
          -1.16097014e-02,  1.39983222e-01,  7.39864185e-02,
           2.58181449e-02,  3.40447612e-02],
         [ 1.47991655e-02, -8.08418244e-02, -1.61492676e-02,
          -1.84567482e-03, -4.92845438e-02, -1.04164518e-03,
          -9.67790186e-02, -3.67068755e-03, -7.31628239e-02,
           5.38720004e-02, -2.85308398e-02, -9.27452557e-03,
          -3.20236944e-02, -9.22937319e-02,  6.70880452e-02,
          -3.62018161e-02,  4.97550927e-02,  4.62115370e-02,
           7.66814351e-02,  2.72559337e-02,  6.38056844e-02,
          -2.04433098e-01,  7.57984966e-02, -6.17803447e-02,
           6.49644434e-02,  4.91924174e-02,  5.66800237e-02,
           1.79090872e-02, -3.60554457e-02,  2.15721428e-02,
          -6.83269873e-02,  3.77403758e-02],
         [-2.09970996e-01, -1.20628260e-01, -7.55650848e-02,
           4.04184088e-02, -9.06814337e-02, -2.69937873e-01,
          -6.08156547e-02,  2.68780421e-02,  4.57128324e-02,
          -1.87275130e-02,  6.33199513e-02,  1.19201824e-01,
          -6.59757927e-02,  8.03328902e-02,  8.65105540e-02,
           5.77242561e-02, -6.44419994e-03, -1.07706815e-03,
          -2.98498664e-02, -1.70147792e-01,  4.09670472e-02,
          -9.76829883e-03, -3.90451193e-01,  8.87763575e-02,
           1.90689228e-02,  8.47020969e-02, -1.28984675e-01,
          -2.14543641e-01, -9.78885219e-02,  6.08441979e-02,
          -1.12551115e-01, -1.70275614e-01],
         [-9.79773700e-02, -4.19108532e-02,  7.74175972e-02,
          -4.40385863e-02, -3.20628658e-02,  9.47519466e-02,
           5.52377030e-02, -7.17496639e-03,  4.05241512e-02,
           7.90044814e-02, -3.83300409e-02, -6.34937733e-02,
           4.34216261e-02,  2.46021450e-02, -3.80974673e-02,
          -3.17742527e-02, -9.36474185e-03,  1.03147165e-03,
          -4.42603119e-02,  2.07186081e-02, -4.75098267e-02,
          -4.73805144e-02, -8.38109031e-02, -1.42506789e-02,
           9.11500901e-02, -1.84817743e-02,  6.84495121e-02,
          -1.21505687e-03, -4.71802428e-02,  7.36038713e-03,
           1.67352594e-02,  4.45378274e-02],
         [ 9.58581828e-03,  1.02308569e-02,  7.57289454e-02,
           1.11272251e-02,  2.00650200e-01,  1.92441586e-02,
          -1.11989707e-01, -4.85432483e-02,  5.77445421e-03,
           5.44852167e-02, -1.01264119e-01,  2.00287942e-02,
           6.15010895e-02, -1.80391580e-01,  5.50645962e-03,
          -4.22174335e-02,  3.00501972e-01,  1.95107628e-02,
           1.60712898e-01, -9.03266948e-04, -1.44555978e-02,
          -2.78454810e-01, -1.00727506e-01, -1.81031957e-01,
          -1.00881480e-01, -1.13306314e-01, -2.97720321e-02,
          -8.43467191e-03, -1.27519354e-01, -1.68293528e-02,
          -5.80877252e-02,  1.29726872e-01],
         [ 6.80528879e-02, -5.37608899e-02,  7.42404461e-02,
          -4.81317900e-02,  6.08589873e-02, -9.06159543e-03,
          -5.90486266e-03, -7.98124224e-02, -2.66443063e-02,
          -4.22206596e-02,  3.68021987e-02,  3.26387119e-03,
           3.35342288e-02, -4.62544663e-03,  6.55187527e-03,
          -2.68278532e-02, -1.92994103e-02,  4.42166515e-02,
           6.25366867e-02,  7.89870098e-02, -1.34289730e-02,
          -3.46647650e-02,  2.34209169e-02, -6.90944269e-02,
           3.08593269e-02, -4.74402681e-03,  6.90060407e-02,
           4.70200069e-02, -7.86375776e-02, -4.42588981e-03,
          -4.01950441e-02, -6.18272312e-02],
         [-2.97782011e-02, -5.14656790e-02,  1.61516160e-01,
          -1.43536016e-01, -1.39971375e-01, -8.08352046e-03,
          -3.97957154e-02, -2.44823378e-02, -7.78864771e-02,
          -1.88100133e-02,  6.99023306e-02,  1.94316015e-01,
          -3.25974226e-02, -6.44366071e-02, -6.27255440e-02,
           1.41091898e-01, -1.91683248e-01,  3.67778726e-02,
          -7.05143511e-02,  9.84963775e-02,  9.49604213e-02,
          -1.03289142e-01,  4.73083965e-02, -2.49972623e-02,
           8.46699625e-02, -1.66825876e-01, -1.03575736e-02,
          -2.49295905e-02, -2.58990284e-02, -5.62148429e-02,
          -7.10428581e-02,  1.09650390e-02],
         [-1.13900475e-01,  3.40257213e-02,  5.00390530e-02,
           2.66625565e-02,  1.15395844e-01,  5.46356738e-02,
          -5.00113517e-02,  5.60428277e-02, -5.53951561e-02,
           4.36451733e-02,  4.50744927e-02, -1.60903502e-02,
           2.87425965e-02,  1.77879378e-01,  1.15131512e-01,
          -7.75444657e-02,  5.53137809e-02,  1.94862615e-02,
           1.36069944e-02, -9.37759504e-02,  3.72593850e-02,
          -9.96273682e-02, -6.87597468e-02, -4.32435743e-04,
           1.42309040e-01, -7.88174570e-03,  2.45035011e-02,
          -9.94682983e-02, -2.21748315e-02, -4.49910834e-02,
          -3.12677189e-03, -5.55965006e-02],
         [-9.88807231e-02, -1.01025969e-01, -8.90569687e-02,
          -9.92941204e-03, -2.70463973e-02,  4.14813794e-02,
          -7.16850609e-02, -9.03802738e-02, -1.28552929e-01,
          -4.84164953e-02,  1.80345058e-01, -2.85918526e-02,
          -3.57541665e-02,  5.53662293e-02,  8.97590369e-02,
          -2.27758028e-02,  7.57601932e-02,  1.69817619e-02,
          -4.76921163e-02,  5.01425602e-02,  1.04669938e-02,
           4.47788276e-02, -2.65194122e-02,  1.07384458e-01,
           1.31765881e-03, -3.49518545e-02, -8.82321075e-02,
           4.90896739e-02,  4.53937948e-02, -9.54243466e-02,
           9.40660536e-02,  3.96644920e-02],
         [-1.61868766e-01, -4.04543914e-02, -1.54689923e-01,
           5.63067310e-02, -9.95185375e-02, -2.81106606e-02,
           1.56034678e-01, -1.68452095e-02,  6.64314404e-02,
           3.00262216e-02,  7.90053010e-02, -6.74017193e-03,
           8.35799277e-02,  2.76791543e-01, -6.96167499e-02,
           5.33524528e-02,  1.42596662e-01, -1.11288942e-01,
          -7.64134973e-02, -1.02332965e-01, -6.72093257e-02,
          -2.52674278e-02,  4.84221391e-02,  8.08795020e-02,
          -1.27979249e-01,  3.29147242e-02, -5.77166351e-03,
           8.26243907e-02,  3.84396240e-02,  5.70059568e-02,
          -3.92252803e-02, -1.95087194e-01],
         [-9.13062170e-02,  1.29301893e-03, -6.66872365e-03,
          -8.15242231e-02, -4.77056131e-02,  1.46168888e-01,
           2.20510840e-01,  1.03805050e-01, -5.54296337e-02,
          -1.07449638e-02, -9.02927965e-02, -1.83502123e-01,
           1.19007379e-01, -3.10063623e-02,  1.22911647e-01,
           5.08604608e-02,  6.68553859e-02, -8.12920742e-03,
          -1.56203434e-01, -6.57945797e-02, -1.67421456e-02,
          -5.66656351e-01, -5.22499718e-02, -2.31033843e-02,
          -2.72477478e-01,  1.12812974e-01,  1.52773812e-01,
          -1.51678115e-01,  1.06038593e-01, -2.61520594e-01,
          -2.64434479e-02, -1.83873042e-01],
         [-1.42533402e-03, -2.47834232e-02, -1.04296729e-01,
          -6.43131286e-02, -1.12029977e-01,  1.48108631e-01,
          -7.70390555e-02, -1.08165368e-01,  1.39994100e-01,
          -4.25110348e-02,  8.16785991e-02, -3.80997092e-01,
          -4.16581891e-02, -3.58011782e-01, -1.83633994e-02,
           5.52337989e-03,  5.45636527e-02, -1.90464183e-04,
           9.75883976e-02,  5.58364056e-02, -5.68412729e-02,
          -4.44363296e-01, -1.41610146e-01,  1.36875853e-01,
          -2.36620054e-01, -2.40540162e-01, -1.86145101e-02,
          -1.45589337e-01, -1.00500524e-01, -1.51614487e-01,
          -3.48780192e-02, -1.23787820e-01],
         [ 3.44274752e-02,  5.13729416e-02,  9.20243710e-02,
          -4.83900607e-02, -5.67209236e-02,  8.71288404e-02,
           1.00510502e-02, -1.99120622e-02, -5.97132631e-02,
           2.11338792e-02,  7.14702979e-02, -3.76607962e-02,
          -2.89066415e-02, -5.87169873e-03, -4.54110745e-03,
           9.41519905e-03,  8.73485282e-02,  6.80604726e-02,
           8.34404975e-02,  5.79647198e-02, -4.35642600e-02,
           1.34701247e-03,  4.76332270e-02,  5.49697652e-02,
          -7.59811923e-02, -7.53988549e-02,  5.24129793e-02,
           1.62014104e-02,  7.09449351e-02, -1.21369392e-01,
          -5.27063087e-02,  8.91947299e-02],
         [ 3.00556961e-02, -7.95128569e-02, -1.31785357e-02,
           7.50082210e-02, -5.04441261e-02, -1.63848884e-03,
           3.34723741e-02, -5.86129650e-02, -5.93843423e-02,
           6.47436529e-02, -3.20154652e-02, -6.07993230e-02,
           8.11123326e-02,  7.53321648e-02,  4.98495437e-03,
          -3.18843164e-02,  1.31049091e-02,  2.66433135e-02,
           6.85265139e-02,  1.92265157e-02,  9.05748457e-03,
           2.84814835e-02,  7.16648623e-02,  4.60519176e-03,
           8.22331011e-02, -1.00244014e-02,  7.36442506e-02,
          -7.20510334e-02,  4.09965776e-02,  5.75942174e-02,
          -4.24913503e-02,  3.28384116e-02],
         [-1.30221054e-01,  5.33931106e-02,  1.51508655e-02,
          -1.13121688e-01, -1.17904089e-01,  6.74941987e-02,
          -2.89452393e-02, -2.83597223e-02, -2.87088584e-02,
          -1.04085751e-01, -8.96470547e-02,  3.03768702e-02,
           8.86865426e-03,  7.20280595e-03,  7.29966834e-02,
          -6.86717778e-02,  2.97515750e-01, -7.83619378e-03,
          -9.49767977e-02, -3.83540392e-02, -6.55531138e-02,
          -1.33047163e-01, -8.38234741e-03,  4.30059060e-02,
          -1.46904752e-01,  1.08538814e-01,  1.02001820e-02,
           3.39966938e-02, -8.42004195e-02, -2.25320514e-02,
          -5.41324168e-02, -6.04204684e-02],
         [-3.36332060e-02, -3.67888175e-02, -4.12897803e-02,
          -1.96720511e-02, -1.25376927e-02, -3.60781439e-02,
           7.08473846e-02, -5.14831729e-02, -4.90794368e-02,
           5.17402925e-02, -3.11954040e-02,  1.72971953e-02,
          -5.94291240e-02,  3.28697897e-02,  7.90214837e-02,
          -6.37720525e-02, -6.56558275e-02, -2.02160161e-02,
           4.27726135e-02, -4.13576253e-02, -5.69489710e-02,
          -7.45152310e-02,  6.70831054e-02, -6.44149855e-02,
           6.24752864e-02, -7.61956945e-02,  5.03697321e-02,
           3.25388163e-02,  7.31240511e-02, -1.71276610e-02,
           6.36817282e-03,  4.82276194e-02],
         [-3.90968136e-02, -7.67275766e-02,  4.75699641e-02,
          -7.79618472e-02,  1.06303707e-01,  8.17382634e-02,
          -1.55444860e-01, -2.93966495e-02,  3.39126915e-01,
          -3.01253814e-02, -3.60321924e-02, -7.22385664e-03,
           5.57167344e-02, -1.55602798e-01,  4.96420711e-02,
          -3.66829596e-02,  1.94923118e-01, -4.77313548e-02,
           3.41589227e-02,  7.02125281e-02,  6.47382215e-02,
          -1.27753485e-02, -1.85688939e-02, -7.89693668e-02,
          -9.37288105e-02,  1.18027858e-01, -1.20118121e-02,
           4.83814478e-02,  2.16535069e-02, -2.81610250e-01,
           5.29398024e-03,  5.00068702e-02],
         [ 3.49815935e-02,  1.58554800e-02, -1.90398127e-01,
          -1.33744165e-01, -2.18276590e-01,  3.50868073e-03,
          -1.67572051e-02,  3.22607011e-02,  8.55728704e-03,
           1.82620101e-02,  4.73676110e-03,  2.81432509e-01,
          -7.21091628e-02,  7.60549903e-02,  2.07590889e-02,
          -5.48940971e-02, -4.66556072e-01, -6.16761670e-02,
           1.22162392e-02, -2.83821560e-02,  6.94185123e-02,
           1.74199119e-01, -6.39011860e-02, -2.98238397e-02,
           2.16455847e-01, -2.42451862e-01,  1.27604390e-02,
          -1.63496643e-01,  1.14406690e-01,  6.28145486e-02,
           2.68133879e-02, -3.55827749e-01],
         [-8.19405094e-02, -3.03615499e-02, -1.87027045e-02,
           1.90419760e-02,  8.85291174e-02, -2.74846461e-02,
           5.23286639e-03, -9.34175998e-02,  1.59296662e-01,
          -7.13342130e-02,  3.72751132e-02, -6.74948618e-02,
          -8.10046345e-02, -4.80787978e-02,  1.11494988e-01,
          -1.04682157e-02,  1.66208073e-01, -1.92597471e-02,
           2.83640251e-02,  3.83572876e-02, -8.21442828e-02,
           5.91537468e-02, -2.76523102e-02,  2.69048638e-03,
          -1.54440536e-03, -1.21955934e-03,  2.16830820e-02,
           5.99177070e-02, -2.23773271e-02,  2.60092616e-02,
           7.80547876e-03, -1.09261330e-02],
         [-2.42289007e-02,  2.09777892e-01, -2.40407959e-02,
          -2.54218336e-02, -1.00562461e-01, -2.19753027e-01,
           1.95880439e-02,  9.50167179e-02,  4.72041965e-02,
           5.27299158e-02, -1.52384415e-01,  3.49426977e-02,
          -8.94238725e-02, -3.70726772e-02,  2.20574662e-02,
           2.13387802e-01, -6.00636601e-02, -2.04541925e-02,
          -4.89674844e-02, -2.44903732e-02, -2.25917287e-02,
          -4.29268414e-03,  1.64998360e-02,  1.16478845e-01,
          -3.16428989e-02, -1.54007629e-01, -1.34402186e-01,
           1.00134961e-01,  7.93515071e-02,  6.92179948e-02,
           7.32994899e-02,  5.95884994e-02],
         [-6.68995008e-02,  9.13200062e-03, -3.39675695e-01,
           3.58730815e-02, -5.64970672e-02, -3.26543301e-01,
          -1.46969959e-01,  6.82584420e-02,  7.42027387e-02,
          -5.46442829e-02, -7.66837224e-02,  2.02265948e-01,
          -6.74926117e-02, -5.68695068e-02, -4.45111804e-02,
           1.76199287e-01, -2.01749012e-01,  1.77974746e-01,
           5.55537902e-02, -1.04590036e-01, -2.51850784e-02,
           1.30827501e-01, -4.55364704e-01,  9.15756226e-02,
           1.15721352e-01, -1.13240294e-01, -8.22920576e-02,
           8.21291953e-02, -4.03970070e-02,  1.51052535e-01,
          -3.53038423e-02, -9.36946180e-03],
         [-7.85223544e-02,  8.26129764e-02,  4.17204425e-02,
          -4.99146655e-02, -5.18105999e-02, -6.02626614e-02,
          -6.46256804e-02,  6.16389289e-02, -4.34989557e-02,
          -3.69448029e-02,  7.14643300e-02, -6.69852942e-02,
           2.00621542e-02, -5.94637953e-02,  3.28184143e-02,
          -8.19457974e-03, -5.89677989e-02, -7.38983974e-03,
           6.87258318e-02, -4.91883270e-02, -3.90272737e-02,
          -3.18752453e-02,  8.09838846e-02,  2.62319518e-04,
           3.15908380e-02, -2.75935978e-02, -1.87386386e-02,
          -7.76363239e-02,  5.02059199e-02, -1.43001452e-02,
          -7.82723655e-04, -1.41372476e-02],
         [-1.54533491e-01,  2.24552713e-02, -1.25665084e-01,
           4.64262888e-02, -8.32649618e-02, -1.91801891e-01,
          -2.22904589e-02,  9.01712850e-02, -6.55654771e-03,
          -6.50068894e-02,  6.60407320e-02, -3.19412276e-02,
          -2.51997393e-02,  4.32927608e-02, -5.81684476e-03,
           8.37640986e-02, -3.08709443e-02, -4.69590500e-02,
          -6.91855419e-03, -6.97167143e-02, -3.11660245e-02,
           5.61716594e-02, -1.11492366e-01,  9.56488475e-02,
           2.03888025e-02,  2.40374866e-04,  3.84978354e-02,
          -1.65171489e-01,  1.30650699e-01,  8.90396908e-02,
          -5.37705496e-02, -8.99832994e-02],
         [-4.79238555e-02,  3.89083149e-03,  8.03983286e-02,
          -6.75925985e-02, -1.96367614e-02, -5.46322030e-04,
          -9.22626927e-02,  4.69804071e-02,  2.56336797e-02,
          -2.51030717e-02,  7.30486214e-02,  1.75407641e-02,
           9.87124890e-02,  3.28076892e-02, -3.34125124e-02,
          -6.82015121e-02,  1.66752458e-01, -4.28757221e-02,
          -8.77957493e-02, -9.50092450e-02,  1.80173665e-03,
          -8.73075873e-02, -6.88557476e-02,  9.11296811e-03,
          -2.80594341e-02,  7.59785995e-02,  6.45951852e-02,
          -1.05475977e-01, -3.62337939e-02, -1.60778835e-01,
           3.90454791e-02, -3.36985253e-02],
         [-1.88960768e-02,  6.35215491e-02,  3.42671387e-02,
           2.23721508e-02,  9.80889201e-02,  8.60826820e-02,
           4.99420539e-02,  7.76493922e-02, -1.03971886e-03,
           1.53191183e-02, -8.88280496e-02, -3.91858146e-02,
          -5.88590540e-02, -9.69147235e-02,  1.36463540e-02,
          -3.55541855e-02,  6.00754097e-02, -7.21737742e-02,
           2.26694748e-01, -3.18479389e-02, -5.76541349e-02,
          -8.08125362e-02, -1.06646031e-01, -8.38722959e-02,
           8.28090236e-02, -9.27927867e-02,  8.99866074e-02,
          -2.47814730e-02, -6.32404536e-02, -7.77048469e-02,
          -1.73999537e-02, -1.39137236e-02],
         [-1.69171412e-02,  3.39917801e-02,  4.76047173e-02,
          -2.20385119e-02,  4.82594669e-02,  4.50402312e-02,
          -5.70743941e-02, -6.08364381e-02, -1.03547625e-01,
          -1.24385189e-02,  1.97056141e-02, -5.53609766e-02,
           4.58348952e-02, -9.50693246e-03, -3.22965346e-02,
           3.15215345e-03,  1.46939218e-01,  7.75463879e-02,
          -8.03854410e-03,  9.15169064e-03,  6.90807924e-02,
          -4.41494957e-02, -2.36609597e-02, -3.84741910e-02,
           2.62054205e-02, -6.50439113e-02,  3.54628079e-02,
           2.48421729e-02,  6.40791357e-02, -1.06536053e-01,
           7.71955997e-02, -7.96442032e-02],
         [ 1.42854573e-02, -5.32005504e-02, -1.11438073e-02,
          -1.61906928e-01,  5.15425354e-02, -6.94440752e-02,
          -5.00097200e-02, -4.95664589e-02,  3.60731483e-02,
           1.53222005e-03,  3.57987545e-02,  1.21709935e-01,
          -5.87682799e-02,  5.59313260e-02,  6.78438470e-02,
          -4.31707967e-03, -2.59685278e-01,  3.08094323e-02,
          -2.38937307e-02, -4.13022116e-02, -3.12073547e-02,
          -1.90788969e-01, -9.87565890e-02,  1.60080176e-02,
           1.95792839e-01, -1.20496914e-01, -4.28020917e-02,
           9.27913859e-02, -1.82428677e-02,  1.00972712e-01,
          -8.34734887e-02, -8.02539736e-02],
         [-8.67172331e-02,  1.20311968e-01, -1.33645162e-01,
           2.33158320e-02, -4.12907638e-02, -3.88639830e-02,
           3.16002429e-01,  1.43749360e-02,  7.54112899e-02,
           6.79420754e-02, -2.25736320e-01, -4.37367819e-02,
           8.61370191e-02,  3.18578444e-02,  2.60408106e-03,
           7.26174936e-02,  6.10127207e-03,  2.35904213e-02,
           3.75833772e-02, -5.78581914e-02,  2.76777502e-02,
          -8.59462023e-02,  8.93677473e-02,  1.05272315e-01,
          -1.04429208e-01, -1.26852551e-02,  1.86980460e-02,
           1.44217491e-01, -8.39848742e-02,  4.32964042e-02,
           1.11214921e-01, -1.75678670e-01],
         [ 1.94640737e-02, -1.53829036e-02,  8.13814402e-02,
           1.73598416e-02,  7.61233643e-02,  6.00103438e-02,
          -1.03267487e-02, -1.61852427e-02, -1.62475538e-02,
          -7.34386519e-02,  7.56412372e-02, -1.86942669e-03,
           6.07784949e-02, -9.30069387e-02, -2.90378351e-02,
          -3.44311595e-02,  3.76451425e-02,  2.28855610e-02,
          -3.29245143e-02, -3.49818468e-02,  3.22847180e-02,
           3.70589979e-02,  2.98395217e-03,  4.66923565e-02,
           1.74835008e-02, -2.37970483e-02, -7.36905485e-02,
          -1.60611346e-02, -6.73547387e-02, -6.68021962e-02,
          -4.12475616e-02, -6.12254143e-02],
         [-2.92743277e-02, -5.55186868e-02, -8.16044305e-03,
          -1.18203960e-01,  5.93240149e-02, -5.32126874e-02,
          -1.03004128e-02, -1.61670502e-02, -1.93746164e-02,
           1.93686169e-02,  1.05803519e-01, -5.30377142e-02,
           8.43401253e-02, -8.37417878e-03,  9.15139169e-02,
          -6.88734055e-02,  7.63264857e-03, -1.48812970e-02,
           1.25152528e-01, -5.26617654e-02, -6.38067946e-02,
          -8.56491700e-02,  4.87167090e-02, -8.13378487e-03,
          -6.81917816e-02,  9.80473310e-02,  1.28870336e-02,
          -4.69383486e-02,  2.61905845e-02, -1.46637201e-01,
          -2.86527723e-02, -4.91859950e-02],
         [ 2.34320741e-02,  4.89195697e-02,  2.88284291e-02,
           5.36454543e-02,  6.77858889e-02,  6.62933290e-02,
           8.17506984e-02,  6.60394356e-02, -4.27373908e-02,
          -5.08113578e-02,  9.36373398e-02,  3.27407173e-03,
           8.16851109e-02,  1.40378892e-01,  1.42515734e-01,
           1.27885118e-01,  4.05470878e-02,  1.51146501e-01,
          -2.61060032e-03, -6.76177070e-02,  6.50243983e-02,
           5.04028350e-02,  3.72914746e-02, -8.32955912e-02,
          -9.45563465e-02, -4.92252931e-02,  8.12573805e-02,
          -3.34543437e-02, -1.67583376e-02, -9.67410728e-02,
          -5.08383624e-02,  1.45403460e-01],
         [ 6.26509339e-02, -4.62311581e-02,  7.65207335e-02,
          -7.80321062e-02,  4.27671224e-02, -2.20988281e-02,
           2.51339115e-02,  7.32459500e-03, -3.24422233e-02,
           1.06560662e-01,  2.44360827e-02, -1.55029461e-01,
          -6.46370798e-02,  7.50199333e-02,  3.65817808e-02,
           9.53933410e-03,  2.21143827e-01, -4.79095243e-02,
          -8.48373398e-02,  1.74123317e-01,  7.01555759e-02,
           1.96002461e-02, -3.93984243e-02,  3.73594351e-02,
          -2.49934927e-01, -5.58123589e-02,  1.61717907e-02,
          -1.96161062e-01,  4.43094969e-02, -1.03989869e-01,
           7.47952685e-02,  8.37158039e-03],
         [-8.06828290e-02,  1.12123564e-01, -4.73233722e-02,
          -6.17340729e-02,  4.93425727e-02,  2.45191418e-02,
          -8.79622325e-02,  3.25102694e-02, -8.01058337e-02,
           1.44309960e-02,  4.38229516e-02, -4.65258174e-02,
          -8.36707652e-02,  4.28356379e-02, -8.54040217e-03,
           2.67452840e-02,  9.57763270e-02, -2.54851915e-02,
           1.49581879e-01,  9.47468504e-02,  2.80326810e-02,
           2.87096947e-02, -3.92426074e-01, -3.45550887e-02,
          -2.80111343e-01, -2.55140454e-01,  9.36495289e-02,
           6.28027394e-02,  6.65969253e-02, -3.83756645e-02,
          -1.66306570e-01,  2.15689689e-01],
         [-2.29392663e-01,  6.31384104e-02, -7.40166157e-02,
           6.19336478e-02, -7.38010406e-02, -1.00055128e-01,
          -1.78210273e-01,  1.86458886e-01,  1.07471950e-01,
           3.45237479e-02,  1.02043450e-01,  7.25275800e-02,
          -1.26954364e-02, -2.16124672e-02,  3.77629958e-02,
           9.34559405e-02,  5.02252430e-02,  9.48737711e-02,
           6.50419071e-02, -1.32750914e-01, -8.93114805e-02,
           9.67886895e-02, -2.91857451e-01, -1.45933079e-02,
           2.72410028e-02,  6.81786612e-02,  1.16860289e-02,
          -2.85079122e-01,  6.43440112e-02,  1.78947702e-01,
          -1.06561787e-01,  1.99870802e-02],
         [-6.06644079e-02,  1.57464258e-02, -8.88974667e-02,
          -2.03536469e-02,  4.11582217e-02,  4.69969176e-02,
          -7.41308182e-02,  6.70461655e-02, -1.48131326e-01,
          -2.10858047e-01,  4.01321314e-02,  3.94454412e-02,
           2.28677895e-02, -4.25768942e-02, -1.33794323e-01,
           1.09699361e-01,  1.62172411e-02,  2.16247380e-01,
           9.51977447e-03, -1.69281419e-02, -3.19111161e-02,
          -4.81831729e-02, -3.86803374e-02, -3.44029954e-03,
          -8.68857875e-02, -6.02140501e-02, -4.90790047e-02,
          -3.75422955e-01,  1.84348479e-01, -1.38992500e-02,
           5.94914295e-02,  2.81642992e-02],
         [-5.02460897e-02,  9.86492485e-02,  3.81793141e-01,
          -1.43542916e-01,  6.03625085e-03,  5.03224730e-02,
          -1.93590596e-01, -9.32780728e-02, -4.27053869e-02,
          -1.36977136e-02,  1.42296813e-02,  1.19834371e-01,
           5.39864227e-02,  1.44412937e-02, -1.49425687e-02,
           2.19821222e-02, -6.34996966e-02,  1.18631288e-01,
          -7.93024004e-02, -9.28696021e-02,  1.79716037e-04,
           3.35311815e-02,  3.31264697e-02, -3.64854224e-02,
          -5.14079221e-02, -1.65811256e-01,  4.37663160e-02,
          -5.37939295e-02, -7.76329031e-03,  1.17281768e-02,
           7.57711604e-02, -1.90665901e-01],
         [ 5.57925971e-03,  1.52988322e-02,  1.24069437e-01,
          -4.31351885e-02, -1.24568313e-01, -4.46730703e-02,
           1.13235809e-01, -1.03619276e-02,  1.55989811e-01,
           4.97721285e-02, -1.49785653e-01,  2.50664763e-02,
          -6.86072335e-02,  8.37487057e-02, -3.06930784e-02,
           3.67942713e-02,  2.32727677e-01,  1.60294831e-01,
          -3.26739959e-02,  1.63536847e-01, -5.17884269e-02,
           2.73790080e-02, -9.94302556e-02, -1.15358248e-01,
           2.54127011e-02, -8.00681487e-03, -8.54475051e-02,
          -1.27368912e-01, -4.72225584e-02,  7.41286874e-02,
          -7.58159161e-02,  1.35561556e-01],
         [-4.92473245e-02,  6.11357531e-03, -4.90988269e-02,
          -1.27671799e-02, -5.74705824e-02, -9.34375823e-03,
          -2.10956354e-02,  9.80363414e-02,  2.45905556e-02,
           5.66858053e-03, -1.88591167e-01, -8.94994289e-02,
           1.29023036e-02,  6.32715523e-02, -1.02787744e-02,
           4.71726321e-02,  1.05911918e-01, -4.05830778e-02,
          -3.44406329e-02, -1.22146457e-02,  4.20599505e-02,
           6.33937716e-02, -2.88101099e-03, -4.11394536e-02,
          -4.85144705e-02, -6.22883067e-02,  1.49178645e-02,
           2.99495868e-02, -2.22261790e-02,  1.53254801e-02,
          -3.13549079e-02, -7.64899999e-02],
         [-3.29351351e-02,  7.11439028e-02,  3.89058255e-02,
           3.11986189e-02, -8.19533691e-02, -2.42982153e-02,
           4.80431132e-02, -6.15063049e-02, -1.59319118e-02,
           3.34062651e-02, -3.19369957e-02, -2.58041564e-02,
           8.54589418e-03, -6.68892264e-02,  4.93124239e-02,
          -5.20667545e-02,  3.54547985e-02, -2.13104580e-02,
           4.80177626e-02, -3.23272422e-02,  4.33164351e-02,
           6.66583702e-02,  4.32196185e-02, -7.50176460e-02,
          -5.80159090e-02,  1.69591159e-02, -3.28938402e-02,
          -4.51711006e-02,  4.60170321e-02, -4.81219031e-02,
          -5.81920110e-02, -7.14391619e-02],
         [-6.04640394e-02,  3.71994227e-02, -6.01237193e-02,
          -1.56875849e-01,  1.05481215e-01,  8.95937532e-02,
          -7.30424523e-02,  1.66993607e-02, -9.08044055e-02,
           2.68824734e-02,  1.00157857e-02, -1.65233407e-02,
           8.71758163e-02, -1.16443960e-02, -5.59569076e-02,
          -4.06712443e-02,  1.14561990e-01, -3.18487845e-02,
           1.11739203e-01,  4.83929627e-02, -5.40596135e-02,
          -1.19301260e-01,  9.04667471e-03,  4.31388803e-02,
          -6.53584152e-02, -7.82274753e-02,  1.14289045e-01,
          -1.01992190e-01,  7.55163655e-02, -7.70459399e-02,
          -2.80316062e-02,  5.99848926e-02],
         [-8.69619995e-02,  3.91942710e-02, -4.09433432e-02,
          -3.14874388e-02, -1.38941109e-01, -3.33520882e-02,
           1.14880256e-01, -7.65259787e-02, -2.45103799e-02,
           4.03483696e-02,  5.51226586e-02,  1.49162948e-01,
          -3.02026458e-02,  4.67324182e-02,  5.11465035e-02,
           6.43335879e-02, -2.01567426e-01, -5.16499169e-02,
          -1.81558967e-01, -2.36311898e-01, -3.77777219e-02,
           1.04499802e-01, -1.73956648e-01,  5.09604104e-02,
           1.26205683e-01,  7.99960345e-02, -6.39750808e-02,
           4.27043550e-02,  1.26013651e-01,  8.80036503e-03,
           2.00683326e-01, -3.04707497e-01],
         [ 1.34794980e-01, -2.21962035e-02, -4.63488959e-02,
          -1.85292996e-02,  6.26045987e-02,  3.25861643e-03,
          -5.82691170e-02,  4.90218140e-02,  1.87509686e-01,
          -8.11952446e-03,  9.15737152e-02,  7.28734061e-02,
           6.21509887e-02,  4.32686470e-02, -3.66915390e-02,
           1.15771137e-01,  3.30787920e-03, -4.22097631e-02,
           1.11201383e-01, -2.27475032e-01,  8.13924223e-02,
           1.21164490e-02,  9.00498033e-03,  2.23604627e-02,
           2.25830972e-02, -4.61155921e-02, -3.94174643e-02,
           1.33647934e-01, -5.15038334e-02, -9.58956406e-02,
          -7.09261466e-03,  2.28215810e-02],
         [ 2.36506630e-02,  7.23719746e-02, -6.82053715e-02,
           7.15182861e-03, -4.85947402e-03,  7.16226101e-02,
           4.90937568e-02, -6.56782389e-02,  5.04025295e-02,
           6.92461655e-02,  2.83651873e-02, -5.38308695e-02,
           1.94167551e-02, -5.94620146e-02,  7.17477277e-02,
           5.45681156e-02,  7.47313797e-02, -6.13905899e-02,
          -6.44195229e-02, -1.32998988e-01, -3.63235399e-02,
          -2.45280247e-02, -2.91937101e-03, -4.27814908e-02,
          -1.25494218e-02,  1.60670810e-04,  1.92569625e-02,
          -6.72865734e-02,  4.42719012e-02, -4.06560004e-02,
          -5.13723008e-02,  1.75740812e-02],
         [-6.27026781e-02, -1.07172213e-01, -1.58216227e-02,
          -9.31366980e-02,  7.71703525e-03,  5.98046593e-02,
          -1.57935768e-02, -1.80999562e-02,  1.17422342e-01,
           2.57330816e-02, -9.14728735e-03, -7.36565441e-02,
           5.49108945e-02,  2.30381176e-01,  5.91352545e-02,
          -7.71422833e-02,  1.33415267e-01,  1.15030333e-02,
          -7.92878494e-02, -1.25981137e-01, -2.62376107e-02,
           4.73328158e-02,  3.38532180e-02,  1.42674133e-01,
           1.64887488e-01, -6.95994347e-02,  8.66012350e-02,
           6.23579649e-03, -6.53509274e-02, -4.22870368e-02,
          -4.80716452e-02,  1.29691437e-02],
         [ 7.70964473e-02, -9.14720669e-02,  7.01781064e-02,
           7.89407566e-02,  3.73090319e-02,  2.25003902e-02,
           6.55393004e-02, -8.25770125e-02, -9.28351209e-02,
          -6.33289441e-02, -8.23478997e-02,  9.10203531e-02,
          -7.10434318e-02, -3.53682935e-01,  1.01973161e-01,
           1.96246393e-02,  1.61835954e-01,  9.10595655e-02,
           1.12516498e-02,  4.94385436e-02,  7.81620368e-02,
          -4.72312458e-02, -1.66068599e-02, -2.01460291e-02,
           1.14167899e-01, -4.50264104e-02,  3.30113284e-02,
          -5.08676991e-02,  1.52363451e-02, -5.25302440e-02,
          -4.15333174e-02, -2.03369763e-02],
         [-2.12872364e-02, -4.09209840e-02, -4.69689183e-02,
          -1.06992364e-01,  5.78831583e-02, -4.35097441e-02,
           4.48755175e-02,  1.87033359e-02, -4.80600446e-02,
           1.90758915e-03,  3.05934506e-03, -4.22843220e-03,
           9.52469558e-02, -1.00791026e-02, -3.43421102e-02,
           7.57881254e-02,  5.73694706e-02,  7.54893571e-02,
          -7.24293292e-02, -8.38152841e-02, -1.61757122e-03,
          -2.28479840e-02,  1.69713734e-04,  1.49916327e-02,
          -7.81133920e-02,  1.11213401e-01,  1.12159416e-01,
           7.24946484e-02,  5.26839234e-02, -1.00960173e-01,
          -4.34646904e-02,  2.01304667e-02],
         [-6.88000321e-02,  2.98224650e-02, -9.68136862e-02,
           6.61108196e-02, -7.23744780e-02,  5.00881001e-02,
          -2.11378932e-02, -2.67607290e-02, -2.26007681e-02,
           4.64073457e-02,  1.00362357e-02,  4.51109298e-02,
           8.59902278e-02,  4.25106212e-02, -6.61495179e-02,
           7.83006102e-02, -1.85882106e-01, -2.23996211e-02,
          -1.32939011e-01, -4.75056330e-03,  2.14621648e-02,
           3.68085615e-02,  7.21296221e-02,  4.69501205e-02,
          -3.48621160e-02, -7.26223588e-02,  9.86378193e-02,
          -3.32146175e-02,  5.72778806e-02,  1.62441537e-01,
           4.61731441e-02, -1.22679584e-01],
         [ 4.15802635e-02, -7.31474534e-02, -5.43241091e-02,
           4.76993285e-02, -2.53245871e-05, -4.30307612e-02,
          -6.68231770e-02,  2.24265307e-02, -4.18716185e-02,
          -6.20320253e-02, -1.90859828e-02,  8.40304978e-03,
           5.18032424e-02,  1.45196076e-02,  3.41679417e-02,
           2.64746230e-02,  7.85539150e-02,  7.50003010e-02,
           3.24886478e-02, -3.21688130e-03,  1.86707247e-02,
          -2.85017285e-02, -1.04883965e-03, -4.22682101e-03,
          -7.31641650e-02,  4.38085087e-02, -3.76696363e-02,
          -3.35659571e-02,  7.62825981e-02,  4.48350124e-02,
           5.76389134e-02, -3.39045413e-02],
         [-1.92962550e-02,  2.92198313e-03, -2.25409448e-01,
           9.15247425e-02, -7.71181211e-02,  8.67986530e-02,
          -1.15597099e-02, -5.60388863e-02, -7.16718584e-02,
           5.89090958e-02, -7.67303184e-02, -9.78283584e-02,
           2.68910881e-02, -1.21215381e-01,  1.11843742e-01,
           5.25887683e-02, -5.04422374e-02, -7.08517134e-02,
           4.41340804e-02, -8.99047852e-02,  3.82917039e-02,
          -6.29386827e-02,  1.29089519e-01, -1.19465403e-02,
          -1.34259820e-01, -7.75965601e-02,  6.33091014e-03,
           1.17279656e-01,  7.17089251e-02,  1.08361077e-02,
           3.95275131e-02,  7.66120292e-03],
         [ 3.97466458e-02,  2.03322336e-01,  7.50434473e-02,
           8.43078196e-02, -1.03127271e-01, -7.38700852e-02,
           1.12290099e-01,  3.52805923e-03,  1.90446377e-01,
           1.96166724e-01, -2.92256385e-01, -7.13198632e-02,
          -8.32642168e-02, -3.49829830e-02,  5.51080368e-02,
           2.84157097e-01, -2.79370159e-01,  1.89499974e-01,
          -9.38425437e-02, -4.08868715e-02, -5.36686368e-02,
           2.59974599e-01, -5.02879322e-02, -5.19872736e-03,
           5.16774021e-02, -1.07240938e-01,  1.16579067e-02,
           7.53689408e-02, -3.37651260e-02,  1.81852102e-01,
           5.42512909e-02, -6.96565732e-02],
         [-3.16211097e-02, -7.88558051e-02,  6.72676936e-02,
          -3.30710821e-02, -1.23900184e-02,  1.84182134e-02,
           1.63853988e-01, -3.08653209e-02,  1.80920530e-02,
           2.05981899e-02, -1.44308746e-01,  4.64720689e-02,
          -3.12288199e-02, -3.28745544e-01, -2.97038592e-02,
          -7.38720745e-02,  5.65111749e-02, -4.75477204e-02,
          -4.49421965e-02,  5.20349443e-02,  5.24021871e-02,
          -7.75894672e-02, -7.49642923e-02, -6.02193102e-02,
          -1.10044651e-01,  7.41581470e-02,  6.52585104e-02,
           4.15189974e-02,  9.13310125e-02, -1.93394050e-02,
          -4.84880023e-02, -8.41287300e-02],
         [ 3.91784534e-02,  1.26385629e-01, -2.05607250e-01,
          -5.33332862e-02, -1.80013612e-01, -4.06737961e-02,
           1.54592330e-03,  5.46312556e-02, -2.68863086e-02,
           8.74414518e-02, -1.80109143e-01,  1.55732110e-02,
          -6.93763793e-02, -2.12197840e-01, -8.53689909e-02,
           1.61841977e-02, -1.54861107e-01, -2.25172695e-02,
           4.96486127e-02,  8.83586798e-03,  1.59402424e-03,
           1.38010513e-02,  2.19999682e-02, -1.19976830e-02,
          -3.00157685e-02, -1.05105370e-01, -3.14488709e-02,
          -4.08290066e-02,  4.38689068e-03, -8.51398241e-03,
          -9.59468037e-02, -1.46800011e-01],
         [-4.23009098e-02, -4.01079236e-03,  1.59051027e-02,
          -8.00918639e-02,  9.46652070e-02,  4.06739041e-02,
          -6.68421015e-02,  3.33931334e-02,  5.77373616e-02,
           2.55391020e-02,  9.09092426e-02, -4.47488427e-02,
           5.48726227e-03,  5.32913115e-03,  8.15248713e-02,
          -1.05773263e-01,  6.29353598e-02, -2.22609323e-02,
           8.41443017e-02,  1.67783443e-02, -4.77166660e-02,
          -1.34806275e-01, -2.15460882e-02, -1.15229778e-01,
           8.39185119e-02,  1.14413299e-01, -7.89966527e-03,
          -1.12165257e-01,  5.12137227e-02, -8.22064579e-02,
          -1.15162753e-01,  8.40108246e-02],
         [ 3.69531363e-02,  2.79213302e-02,  6.45289198e-02,
          -3.41025442e-02,  1.31659769e-02,  1.02950282e-01,
          -1.18808329e-01,  4.24213633e-02,  8.55600089e-02,
          -8.13193396e-02,  4.70516086e-02, -6.70134500e-02,
           3.65259908e-02,  1.21586233e-01,  8.54429305e-02,
           5.90687022e-02,  7.38252923e-02,  1.49605107e-02,
           1.01651596e-02, -4.78238165e-02, -2.91256551e-02,
          -7.68070668e-02,  5.09486627e-03, -8.39551445e-03,
           1.37218952e-01,  1.00833699e-02, -3.12960222e-02,
          -7.15913326e-02, -7.13202804e-02, -1.64742321e-01,
           4.55583185e-02,  1.90055296e-02],
         [ 3.16910865e-03, -8.90601650e-02, -5.19720167e-02,
          -8.40316042e-02,  5.33701256e-02, -3.09235994e-02,
           3.79482023e-02, -9.29805487e-02,  3.77209559e-02,
           2.35447362e-02,  8.36412683e-02, -7.57961422e-02,
           1.40421828e-02,  7.79714882e-02, -1.10754706e-01,
          -3.99307199e-02,  6.52808025e-02,  5.15430346e-02,
          -5.36484607e-02, -8.40953812e-02, -1.56230554e-02,
           6.34569600e-02, -4.85995114e-02,  5.21957539e-02,
           7.41986632e-02, -1.30774051e-01,  3.62603888e-02,
          -7.00906739e-02, -4.01856825e-02,  8.12991932e-02,
           8.94753449e-03, -2.13002749e-02],
         [-3.43506545e-01,  6.39660135e-02, -7.16667101e-02,
           4.85680141e-02, -6.86113015e-02,  3.17997462e-03,
           5.76159716e-01, -9.47872177e-02,  7.84922689e-02,
          -4.82042320e-02,  2.01908243e-03, -5.40261827e-02,
          -1.48076355e-01, -3.02555144e-01, -6.47428036e-02,
           1.49763352e-03,  8.25855210e-02,  7.41830841e-02,
           1.10992387e-01, -8.53016600e-02, -2.81557087e-02,
           6.92103133e-02,  2.57521719e-02, -1.44271518e-03,
          -2.08251402e-01,  3.59070934e-02, -1.22531489e-01,
          -1.20296806e-01,  7.88718928e-03,  4.86149080e-02,
           2.47417822e-01,  1.78304508e-01],
         [ 1.17135487e-01,  4.13537817e-03,  4.43835855e-02,
          -6.75512850e-02, -1.33281007e-01, -6.68401942e-02,
           6.20313957e-02, -8.93368050e-02, -1.36120081e-01,
           1.21648483e-01,  1.07062012e-02,  1.74824044e-01,
          -1.23052215e-02, -1.16979159e-01, -4.21003029e-02,
           1.23508289e-01, -1.85731411e-01, -8.29316080e-02,
           1.30668342e-01,  9.72041786e-02, -6.20414317e-02,
          -3.49781848e-02, -2.67333061e-01, -7.43613914e-02,
          -2.38991618e-01, -6.63173720e-02, -4.19133641e-02,
           7.36244768e-02, -4.76370417e-02, -1.17716938e-01,
          -1.11645155e-01, -5.96988797e-02],
         [-4.53755818e-02,  2.08337307e-02,  4.87997569e-02,
          -4.52637710e-02,  4.48807999e-02,  5.92891350e-02,
          -2.89517269e-02,  7.73939192e-02, -7.75472820e-02,
           7.47826993e-02, -4.64477278e-02, -6.97048753e-02,
          -7.22126141e-02,  2.00393386e-02,  9.53724899e-04,
           2.48952117e-02,  8.06124955e-02, -5.33519536e-02,
          -7.75013939e-02, -3.61486264e-02,  6.27159998e-02,
           4.34648432e-02,  4.29575816e-02,  2.11706739e-02,
           7.13488534e-02,  8.78215209e-03, -5.15975095e-02,
           4.65333201e-02, -3.36749889e-02, -7.11640343e-02,
          -6.30837530e-02, -5.91899417e-02],
         [ 3.80085707e-02, -5.94145618e-02, -5.33212237e-02,
          -3.53857279e-02, -6.54460043e-02,  2.08296590e-02,
          -1.86267316e-01, -3.70610543e-02,  1.12111606e-01,
          -4.72717397e-02, -5.13715558e-02,  1.41052440e-01,
          -7.50001371e-02, -1.04821853e-01, -1.76697493e-01,
          -2.42481437e-02, -3.14697325e-01, -1.99016929e-02,
          -4.85447352e-04, -1.85598247e-02, -6.46711811e-02,
          -1.38009265e-01, -1.37532964e-01, -5.99536300e-03,
           8.45797360e-02, -4.21759263e-02,  8.22577905e-03,
          -1.48678675e-01,  6.72006384e-02, -5.69254644e-02,
          -5.85300624e-02,  1.32867277e-01],
         [ 7.84629025e-03,  8.23211223e-02, -5.04053421e-02,
          -1.17342109e-02, -4.66966070e-02,  4.91183735e-02,
          -8.39200765e-02,  7.97876418e-02, -6.51845783e-02,
          -7.13482797e-02, -6.99796714e-03, -7.22875372e-02,
          -5.08745089e-02,  2.06981879e-02,  6.56243563e-02,
           9.72047634e-03, -1.37828365e-01, -3.04782186e-02,
           3.81396152e-02, -5.87256588e-02, -6.32138178e-02,
          -1.09101757e-02, -2.11679023e-02, -2.21822113e-02,
          -5.34451678e-02, -8.76145735e-02, -4.77822905e-04,
          -4.83747534e-02, -1.07504707e-02,  7.62078017e-02,
           2.76318621e-02,  1.21863214e-02]],

        [[ 1.00449264e-01,  9.47765633e-02, -1.07147984e-01,
          -2.20388658e-02, -6.18692627e-03,  7.31652901e-02,
           1.66298434e-01,  2.36328319e-03,  1.23087186e-02,
           1.32428259e-01, -1.37490720e-01, -1.24940693e-01,
           7.76148140e-02,  1.84961855e-01,  9.41217225e-03,
           5.91078307e-03, -2.86057562e-01, -4.17122506e-02,
           7.68216252e-02,  6.98326156e-02, -8.31353515e-02,
           2.44785473e-02, -9.66272876e-02, -3.77503969e-02,
          -4.67801511e-01, -9.00442153e-02,  4.45826817e-03,
           7.13748783e-02, -6.75659701e-02, -7.37083107e-02,
           9.23879258e-03, -1.30347703e-02],
         [-1.27364650e-01,  9.75427851e-02, -1.48505107e-01,
          -5.22204023e-03, -5.56946285e-02, -6.07617237e-02,
           1.16071425e-01, -8.80033746e-02, -4.71127704e-02,
           2.69316453e-02,  7.31314272e-02, -1.26795039e-01,
           4.65517603e-02,  1.22128330e-01, -1.43739387e-01,
          -4.77166101e-02,  3.49319428e-01, -8.23552981e-02,
          -1.88270375e-01,  4.84804623e-02,  1.19051198e-02,
           1.22629203e-01, -1.86927598e-02,  2.18902007e-01,
          -9.03799832e-02, -2.52622738e-02,  1.67593993e-02,
          -1.07874721e-01, -6.04413263e-02, -1.90124735e-02,
           1.10579066e-01, -7.91240931e-02],
         [ 7.84143060e-02, -1.10833131e-01, -6.91105202e-02,
          -4.68282253e-02,  2.16495529e-01,  7.48556899e-03,
          -1.04087152e-01, -1.14009976e-01,  4.14992543e-03,
          -5.35107553e-02,  1.26251832e-01,  1.09792434e-01,
          -3.81853729e-02,  2.39363268e-01,  5.16754463e-02,
           1.14647865e-01,  1.80501014e-01, -9.77736935e-02,
           6.67014569e-02,  3.65324551e-03,  1.12233078e-02,
           4.65483218e-02, -6.93112100e-03,  6.28581271e-02,
           1.67082641e-02,  9.19339713e-03,  1.12574426e-02,
           9.00230482e-02, -1.29166424e-01, -7.24588484e-02,
           5.17971776e-02,  5.37638478e-02],
         [-8.18093941e-02, -3.86639014e-02, -7.52319247e-02,
          -4.31304425e-03,  8.85555753e-04,  1.58649753e-03,
          -1.16657816e-01, -8.43377784e-02, -2.31289715e-02,
          -8.04105699e-02,  4.77424413e-02,  4.18557338e-02,
           4.47903872e-02,  1.30214900e-01,  2.46512257e-02,
          -5.60972467e-02,  1.74538717e-01, -1.52513878e-02,
          -8.09871256e-02, -8.82885978e-02, -1.10605769e-02,
           9.02077928e-02,  7.68513903e-02, -3.35381106e-02,
           3.35997925e-03, -3.58390994e-02,  4.41464558e-02,
           3.60254385e-02, -5.09174764e-02, -1.13985464e-01,
           5.44854626e-02, -5.11892885e-02],
         [ 4.98110354e-02,  2.54316598e-01,  4.49098721e-02,
           9.08214971e-02,  6.90608025e-02, -4.72155921e-02,
           1.75933480e-01,  4.41446528e-02,  9.55491513e-02,
          -1.54102864e-02, -8.83265585e-02,  6.74800947e-02,
           4.78509739e-02,  9.72723886e-02,  3.65408622e-02,
           1.64412245e-01, -1.17704809e-01,  1.05564333e-02,
           6.79785982e-02,  5.12929112e-02,  4.42266874e-02,
          -1.47644266e-01, -5.27997166e-02,  1.77639663e-01,
           8.00668150e-02, -6.75142631e-02, -1.12425141e-01,
          -6.58951178e-02,  1.18735962e-01,  4.12385948e-02,
          -2.58716140e-02, -1.08911045e-01],
         [-3.23234946e-02, -9.39642265e-02,  5.36980405e-02,
          -9.43480805e-02, -4.76447679e-02,  5.37301823e-02,
          -9.31301042e-02, -4.80209710e-03, -6.84850439e-02,
           2.01169774e-02, -3.73907723e-02,  1.16439782e-01,
          -4.72255796e-02, -9.44826528e-02,  2.05821283e-02,
           2.66452599e-02, -1.68516651e-01,  8.29695463e-02,
           2.02041175e-02,  7.46855587e-02, -3.79064679e-02,
          -2.78198212e-01, -5.61745763e-02,  6.01183586e-02,
          -2.55392995e-02, -2.70487671e-03, -9.09579545e-02,
           5.18080927e-02,  2.80218869e-02, -1.09578088e-01,
           5.37511706e-03,  3.14694792e-02],
         [-1.91921264e-01, -1.63604632e-01, -7.88828880e-02,
          -7.27142766e-02, -6.73050527e-03, -2.11219147e-01,
          -1.04353234e-01, -1.05328806e-01,  1.27386302e-01,
          -8.02368075e-02,  8.95785168e-02,  1.08582303e-01,
          -1.60697564e-01, -8.77966881e-02, -1.99269205e-02,
           4.38363338e-03,  3.99568453e-02,  1.70402341e-02,
           1.17174357e-01, -1.35269627e-01,  3.44485119e-02,
          -3.62192504e-02, -3.68878305e-01,  2.15151697e-01,
           1.39213711e-01,  9.21011195e-02, -7.86316395e-03,
          -1.13526300e-01, -3.06039125e-01,  1.62898287e-01,
           1.28795177e-01, -3.55931491e-01],
         [ 3.80707197e-02,  2.68434994e-02, -2.71177161e-02,
          -2.80551668e-02, -3.97102674e-03,  1.34484377e-02,
           1.52884554e-02, -1.10295609e-01, -2.91227475e-02,
          -7.65307248e-02,  4.48005758e-02, -6.97471946e-02,
          -5.47802597e-02,  4.52120341e-02,  6.36305436e-02,
           5.02580553e-02,  1.39695987e-01,  2.25503203e-02,
           4.73744832e-02, -5.41626886e-02, -7.52258375e-02,
           5.37247807e-02, -1.12201795e-02,  3.93679142e-02,
          -5.70552684e-02, -1.16257463e-02, -5.66892810e-02,
           1.09660355e-02, -5.09460866e-02, -2.56359838e-02,
          -3.05005070e-02,  5.15261255e-02],
         [-6.84261248e-02, -5.93763627e-02,  1.19073063e-01,
          -6.83336630e-02,  2.99364198e-02,  9.06236377e-03,
          -6.45602942e-02,  8.43061507e-02, -8.86284038e-02,
           7.66898468e-02, -8.39111209e-02,  1.03956878e-01,
           4.18013223e-02, -5.72477400e-01,  6.81229532e-02,
          -8.68245065e-02,  1.39657110e-02,  8.50585997e-02,
           3.04999441e-01, -1.93738379e-02, -3.17985341e-02,
          -8.89507011e-02, -3.51061113e-02, -2.05813989e-01,
          -1.03921093e-01,  1.08968532e-02, -4.52825949e-02,
          -4.98460792e-02,  4.99304058e-03, -1.85684815e-01,
          -1.34449184e-01,  1.63838282e-01],
         [ 5.02761640e-02,  8.29793215e-02, -1.12306683e-04,
          -5.18244021e-02, -5.40663749e-02,  5.09650223e-02,
          -4.04167660e-02,  2.08537374e-02, -2.61232946e-02,
          -7.95512199e-02, -6.91965222e-02, -2.86254641e-02,
          -6.27528429e-02, -6.13308586e-02, -6.35426911e-03,
          -5.72974905e-02,  7.80371204e-02,  2.75043398e-02,
          -5.31631336e-02,  4.99064848e-02, -2.22257841e-02,
           4.60690111e-02, -5.79364449e-02, -4.61612120e-02,
           5.25919646e-02,  8.09655786e-02,  3.93758565e-02,
          -3.16585265e-02,  2.91307140e-02,  3.30176912e-02,
          -5.47241531e-02,  4.01624665e-02],
         [-1.13452345e-01,  1.25386463e-02,  1.20645069e-01,
          -1.82510633e-02,  9.50000361e-02,  1.03404455e-01,
          -1.26509383e-01,  6.39890358e-02,  7.01939538e-02,
           6.63790628e-02,  5.29152751e-02,  2.52936799e-02,
          -1.60480402e-02,  1.10325202e-01,  7.73949549e-02,
          -9.14625544e-03,  5.87227419e-02, -1.41260726e-02,
          -1.28779514e-02, -1.19872585e-01,  9.26210824e-03,
          -2.12871104e-01,  1.15544572e-02,  2.64090616e-02,
           3.80883669e-03,  2.72186678e-02,  2.90077180e-02,
           1.32562280e-01,  4.65244725e-02, -3.46074879e-01,
           6.54617324e-02, -3.22094224e-02],
         [-5.94860082e-03, -1.33902496e-02,  2.27824366e-03,
           3.29907052e-02,  8.62104818e-02,  6.43098727e-02,
          -7.70627633e-02, -4.06355225e-02, -1.09668516e-01,
          -9.24483240e-02, -4.56288233e-02, -1.58251263e-02,
          -8.55910853e-02,  3.82383466e-02, -7.19109550e-03,
           4.32459228e-02,  4.25506644e-02,  1.03156053e-01,
           1.08160311e-02,  1.11223226e-02,  2.29244977e-02,
          -2.48435494e-02, -3.57394032e-02, -2.88985465e-02,
          -1.12111727e-02,  3.03858854e-02,  6.92871287e-02,
           5.04286475e-02,  5.45583479e-02, -4.98147421e-02,
           2.98640225e-02,  2.05193907e-02],
         [ 1.93260964e-02,  3.16252150e-02, -8.39099810e-02,
           1.57201234e-02, -2.23428309e-02,  4.14294079e-02,
          -7.12406412e-02, -9.67008397e-02, -9.23305675e-02,
          -1.08169854e-01,  8.72798935e-02,  2.56705936e-02,
          -3.58365960e-02,  1.59299865e-01, -4.51992918e-03,
          -1.54237356e-03, -3.15132365e-02,  1.18762674e-02,
          -5.20806620e-03,  4.75284718e-02,  3.37816663e-02,
