{'batch_input_shape': (None, 224, 224, 4), 'dtype': 'float32', 'sparse': False, 'ragged': False, 'name': 'input_2'}[]{'name': 'conv2d_4', 'trainable': True, 'dtype': 'float32', 'filters': 64, 'kernel_size': (3, 3), 'strides': (1, 1), 'padding': 'same', 'data_format': 'channels_last', 'dilation_rate': (1, 1), 'groups': 1, 'activation': 'linear', 'use_bias': True, 'kernel_initializer': {'module': 'keras.initializers', 'class_name': 'GlorotUniform', 'config': {'seed': None}, 'registered_name': None}, 'bias_initializer': {'module': 'keras.initializers', 'class_name': 'Zeros', 'config': {}, 'registered_name': None}, 'kernel_regularizer': None, 'bias_regularizer': None, 'activity_regularizer': None, 'kernel_constraint': None, 'bias_constraint': None}[array([[[[-1.19289197e-01,  6.17440566e-02,  6.10971600e-02,
           2.91481465e-02, -5.32965362e-02, -6.82956949e-02,
           2.17486657e-02,  5.88881150e-02, -9.82761160e-02,
          -1.91211875e-03,  1.66590050e-01, -1.13781326e-01,
          -6.78344518e-02, -2.95880675e-01, -4.76753712e-01,
          -6.38392985e-01, -9.29402635e-02, -9.39125270e-02,
          -3.14459614e-02,  2.87471324e-01, -1.16370462e-01,
           3.32307890e-02, -1.66392908e-01, -1.25490472e-01,
           6.85722008e-02, -4.57594208e-02,  2.03602994e-03,
           9.13098305e-02, -9.83686373e-02, -8.42230096e-02,
           2.23880373e-02, -9.47561264e-02,  8.85469606e-04,
          -4.68042083e-02, -1.25403970e-01, -3.23770940e-02,
          -8.24814141e-02, -5.03494702e-02, -4.01571877e-02,
          -4.09915969e-02, -1.45392433e-01, -2.55053997e-01,
          -6.44051954e-02, -4.52116206e-02,  1.17081568e-01,
           9.49524418e-02, -7.89884999e-02, -5.02869114e-02,
          -9.94089395e-02, -7.22570121e-02, -4.53371108e-02,
          -3.58692780e-02, -1.55558705e-01, -2.30281390e-02,
          -1.08602345e-01, -3.21069181e-01, -1.10605955e-01,
           8.66613612e-02, -3.47222865e-01, -1.38482302e-01,
          -1.43265218e-01,  6.33965284e-02, -2.41422001e-02,
          -1.21836513e-01],
         [-8.13171044e-02,  1.58598632e-01,  7.53786638e-02,
          -4.55483049e-02, -1.69459850e-01, -7.97106922e-02,
           3.26143354e-02,  4.16644588e-02, -5.11971451e-02,
          -9.14929733e-02,  6.20480664e-02,  2.96010748e-02,
           1.18065299e-02, -1.06380083e-01, -5.09924889e-01,
          -6.30931675e-01, -6.77097440e-02,  9.43325758e-02,
          -1.27371952e-01,  1.77144319e-01,  6.62717149e-02,
           1.01462975e-01, -9.90439653e-02, -3.33650340e-03,
          -6.38485933e-03, -9.84250456e-02,  4.15384844e-02,
          -4.21765400e-03,  3.31338719e-02, -7.08072484e-02,
           5.15465662e-02, -1.91246569e-01, -6.41299859e-02,
          -1.14397109e-02, -9.06609371e-02, -1.68619394e-01,
          -3.29846852e-02, -1.28492592e-02,  1.89833865e-02,
           1.08616345e-01, -7.58332610e-02, -1.17173694e-01,
           2.43607704e-02,  4.47663292e-02,  3.89029197e-02,
           1.80547275e-02, -1.52490316e-02,  9.48254764e-03,
          -4.97455001e-02,  2.09355187e-02,  5.40706813e-02,
          -7.15112239e-02, -1.31097063e-01, -1.50505215e-01,
           7.31734745e-03, -1.81683302e-01, -1.49696663e-01,
           4.93251421e-02, -3.99774075e-01, -1.51855320e-01,
          -8.12734589e-02,  2.30953231e-01, -3.25458683e-02,
          -1.15226217e-01],
         [-1.20896779e-01,  2.25018114e-02, -4.61015813e-02,
           1.21878665e-02, -1.46666646e-01, -1.41802952e-01,
          -1.84347499e-02, -9.16851237e-02, -1.87164992e-02,
          -5.74765448e-03,  1.14185140e-01,  3.84537881e-04,
          -2.59480253e-03, -2.67778754e-01, -4.88012731e-01,
          -4.79816854e-01,  2.39039902e-02, -4.14778590e-02,
           5.29654324e-02,  2.60663480e-01, -7.90768266e-02,
           2.04301119e-01, -7.26395175e-02, -1.50468513e-01,
          -1.10021261e-02,  5.17156124e-02, -2.15875898e-02,
           1.06117472e-01, -9.80330631e-02, -1.64676726e-01,
           4.25574966e-02, -3.61688584e-02,  5.07330559e-02,
           3.67179476e-02, -1.31724760e-01, -5.16081601e-02,
          -9.54955444e-02,  1.38832852e-02,  1.01209171e-01,
          -6.95302561e-02, -1.41749501e-01, -1.44951597e-01,
          -5.97323291e-02, -3.48635912e-02, -7.57971965e-03,
           4.35353145e-02,  7.12225884e-02, -4.80883271e-02,
          -9.97378156e-02,  5.02468087e-02,  3.71201262e-02,
           1.19561395e-02, -2.11489759e-02, -1.78182907e-02,
           4.16912660e-02, -2.48733997e-01, -1.90553412e-01,
          -5.19460849e-02, -2.97643214e-01, -2.63082176e-01,
          -9.75462869e-02,  2.31909424e-01,  4.06896416e-03,
          -1.43141836e-01],
         [-7.75408000e-03,  3.68020162e-02,  8.14030394e-02,
          -9.83797684e-02, -3.08876708e-02, -7.44503662e-02,
          -5.92687577e-02, -9.17971581e-02, -4.65159714e-02,
           3.59418914e-02,  4.00679037e-02,  4.97962534e-03,
           1.72539204e-02,  5.35308495e-02, -2.72137225e-02,
           6.23835102e-02,  9.32199582e-02, -5.45468219e-02,
           7.37308338e-02, -4.77114283e-02,  3.91351804e-02,
           9.64750275e-02,  4.29257974e-02,  4.54525575e-02,
          -8.11597705e-03,  9.71993729e-02, -4.83482331e-03,
           4.98168394e-02,  2.77023688e-02, -5.53982332e-02,
          -7.86371827e-02,  5.32766953e-02,  9.69334468e-02,
          -4.91431430e-02, -2.72016078e-02, -4.54721190e-02,
           9.07033756e-02,  3.35115567e-02, -1.92958862e-03,
          -1.49722397e-02, -9.68799293e-02, -7.32462108e-03,
           3.26376334e-02, -6.86509907e-02, -8.69534165e-02,
          -3.22693139e-02, -6.95990175e-02,  7.58828968e-03,
           1.61972269e-02, -2.31343955e-02, -4.15893197e-02,
           7.82442167e-02, -5.51222265e-03, -2.93436125e-02,
          -1.12972036e-02, -4.50215116e-02, -4.15862501e-02,
           2.69600675e-02,  3.22710201e-02, -3.84807326e-02,
          -5.75198829e-02, -3.40053737e-02,  3.23054418e-02,
          -6.42106161e-02]],

        [[-9.47216600e-02,  9.91494656e-02,  1.50371231e-02,
          -4.59237285e-02,  8.09586328e-03, -8.74649659e-02,
           9.35515948e-03, -5.37695065e-02,  5.86174941e-03,
           1.28255608e-02, -1.58455446e-01, -2.71366034e-02,
           5.44495098e-02,  3.47407982e-02,  2.14015320e-01,
          -6.45259917e-01, -7.85102993e-02,  9.14964527e-02,
           4.62521277e-02, -2.15508014e-01, -6.18700422e-02,
          -7.24471137e-02, -1.23305693e-01, -7.40421191e-02,
           2.72940788e-02,  9.55244526e-02, -5.72397932e-02,
          -3.44461538e-02,  5.67689575e-02,  3.14405747e-02,
           2.29512788e-02,  1.13958009e-01, -2.79080383e-02,
          -4.32446860e-02, -2.02496555e-02,  9.90516786e-03,
          -1.21579006e-01, -1.02065885e-02, -7.11005256e-02,
           9.30584967e-02, -3.45521607e-03, -2.78834015e-01,
          -4.24295105e-03, -4.61242534e-02,  1.27222180e-01,
           1.33723110e-01,  2.35140547e-01,  2.79363357e-02,
          -1.38646081e-01,  8.15361291e-02, -1.35971963e-01,
          -8.86145160e-02, -6.80149421e-02,  5.22248000e-02,
          -4.58873138e-02, -1.62228689e-01, -3.50648016e-02,
           6.89187348e-02, -2.42269337e-01, -1.54782102e-01,
           9.92595777e-02,  9.16059390e-02, -3.18639055e-02,
          -1.29350096e-01],
         [-5.03605865e-02,  8.90921205e-02, -4.86673266e-02,
           4.44919616e-02, -1.08509837e-02,  5.33264652e-02,
           3.32811512e-02, -7.79226422e-02, -1.15439519e-01,
          -4.53568529e-03, -4.73916810e-03, -1.38480633e-01,
           5.28798848e-02,  2.53271982e-02,  1.17204748e-01,
          -6.54032528e-01, -2.49724220e-02, -3.17348205e-02,
          -2.86436863e-02, -1.79803684e-01, -5.54880761e-02,
           9.96043459e-02, -4.34550196e-02,  6.51041651e-03,
          -1.39308944e-01,  2.59986217e-03,  1.97611544e-02,
           1.09426275e-01, -2.61491202e-02, -7.49048069e-02,
          -9.47634471e-05,  1.09405786e-01, -4.86131795e-02,
          -2.03198604e-02,  1.34497052e-02, -2.76703835e-02,
          -1.66982353e-01,  5.84171563e-02,  7.26095513e-02,
           1.87692672e-01, -7.11297765e-02, -2.69607693e-01,
          -6.12197369e-02,  9.85337943e-02,  1.83259606e-01,
           1.53577998e-01,  1.45273283e-01, -5.63610112e-03,
          -1.78622827e-02,  6.70763850e-02, -2.58677062e-02,
           4.12672199e-02, -2.31580120e-02,  4.08520177e-02,
          -5.90435900e-02, -1.37661368e-01, -2.29771379e-02,
           1.73609164e-02, -1.24641865e-01, -2.34629318e-01,
           3.06126736e-02,  1.06589543e-02, -1.80943489e-01,
          -7.66523778e-02],
         [-6.64866939e-02,  2.81445938e-03, -4.46713343e-02,
          -5.93935587e-02,  1.00223497e-02, -5.30533269e-02,
          -6.56999052e-02,  6.72868174e-03, -4.15614098e-02,
          -9.39623043e-02, -1.19531319e-01, -1.13286786e-01,
           2.80644912e-02,  4.99265715e-02,  1.11820243e-01,
          -5.60710073e-01,  2.72351708e-02, -8.48413557e-02,
          -1.29191726e-01, -1.37616247e-01,  1.57924518e-02,
           1.12785153e-01, -7.09230453e-02, -2.95551307e-02,
          -1.29580289e-01, -9.65318754e-02,  4.14330326e-02,
          -1.36653595e-02, -5.75950034e-02, -2.25928947e-02,
          -7.54849762e-02,  1.25602350e-01, -6.97845593e-02,
           9.03101638e-03, -2.69119088e-02,  9.10885856e-02,
          -1.52422756e-01,  3.38356383e-03,  9.08220466e-03,
           1.51842713e-01, -7.22839460e-02, -2.82115251e-01,
          -3.22060063e-02,  8.91018510e-02,  9.48746875e-02,
           1.23554692e-01,  2.06345439e-01, -8.90697166e-02,
          -1.45972744e-01,  8.62376988e-02, -5.36581203e-02,
          -3.87929119e-02,  8.67999718e-02, -7.88985714e-02,
           2.13194732e-02, -1.54668733e-01, -1.18830137e-01,
          -7.11171422e-03, -1.64276123e-01, -2.80739278e-01,
           5.26301116e-02, -2.77581979e-02, -1.18562654e-01,
          -4.43155356e-02],
         [-4.76036146e-02,  8.19406435e-02, -2.88057476e-02,
           7.69672468e-02, -4.63240966e-02,  6.83586374e-02,
          -2.04871818e-02,  5.26404008e-02, -8.54912251e-02,
          -4.50226441e-02,  2.25688368e-02, -7.49292225e-03,
          -1.11876205e-02, -4.63823564e-02, -6.19706698e-02,
          -3.94553691e-02,  4.87672314e-02, -1.89798996e-02,
          -5.80651090e-02,  2.49143839e-02,  8.58962908e-02,
          -7.93616995e-02,  9.47969928e-02, -6.01924025e-02,
           2.76067108e-03,  4.46321145e-02,  5.23585603e-02,
           5.49199507e-02, -9.51289311e-02, -9.54324231e-02,
          -4.16396260e-02,  1.78658590e-02,  7.46368095e-02,
           8.50452408e-02, -1.21358410e-02, -9.36054066e-02,
          -5.36053292e-02, -2.78774053e-02, -3.55389491e-02,
          -8.00132528e-02, -2.97016576e-02,  7.91966841e-02,
           2.76476815e-02, -2.36209109e-02,  9.17864591e-03,
           7.56087825e-02, -2.21378282e-02,  1.97847337e-02,
          -8.46569538e-02, -2.76989415e-02,  6.97618648e-02,
          -7.66754150e-04,  5.51241860e-02, -8.64478499e-02,
          -4.76397574e-02,  8.05105641e-02,  6.58631548e-02,
          -5.45104221e-02,  8.22322071e-03, -7.83225670e-02,
           4.41261157e-02, -3.60566750e-02,  5.16738519e-02,
          -7.79622123e-02]],

        [[-9.98301953e-02,  4.20149416e-02,  7.06419870e-02,
           1.64974257e-02, -1.39782891e-01,  4.39236462e-02,
           4.52268608e-02, -6.70092702e-02, -7.08421767e-02,
           2.83915404e-04, -1.46662191e-01,  9.15344656e-02,
           3.07384599e-02,  1.88895494e-01, -1.84439104e-02,
          -3.98513377e-01,  4.20236066e-02, -3.63292880e-02,
           2.09986027e-02, -1.63983241e-01,  4.61453013e-03,
          -1.03239320e-01, -3.81086171e-02, -2.39235554e-02,
          -2.35037636e-02,  8.52379482e-03,  2.75377017e-02,
          -1.59854386e-02, -6.47091344e-02,  3.36905010e-02,
          -5.84792867e-02,  2.61930991e-02, -4.25576344e-02,
           6.21968741e-03, -3.46484184e-01, -1.55732911e-02,
          -4.25866209e-02, -2.89126579e-02,  3.25273238e-02,
           2.18518257e-01,  8.69082659e-02, -1.05476394e-01,
          -1.03558938e-03, -2.71876957e-02,  1.22646622e-01,
          -4.01949078e-01, -1.07583478e-01, -9.42540914e-02,
          -1.00513816e-01, -1.80333555e-02, -1.85413390e-01,
           6.28569573e-02,  4.32122732e-03, -8.54669437e-02,
           3.34998481e-02, -3.48272175e-01, -1.44418953e-02,
           8.06929246e-02, -3.04775178e-01, -8.41152519e-02,
          -8.88680145e-02, -9.59651843e-02, -1.12822473e-01,
           1.19106568e-01],
         [-5.50121479e-02, -2.00017001e-02,  6.82200864e-02,
          -2.90122628e-02, -1.82832301e-01, -9.54707935e-02,
           1.09418610e-03,  5.42849563e-02, -3.07486150e-02,
           6.04019463e-02, -6.28397390e-02,  6.10556155e-02,
          -1.19798176e-01,  5.48953004e-02,  2.71626282e-03,
          -5.55317760e-01, -7.38662630e-02,  2.20765993e-02,
           3.63734514e-02, -2.60705985e-02,  6.54216856e-02,
           5.80074340e-02, -1.58960998e-01, -1.92666143e-01,
           6.73125833e-02,  2.61341175e-03, -2.31824741e-02,
           5.06996736e-02, -3.78097333e-02,  7.45129436e-02,
          -8.43625292e-02,  1.38831928e-01, -1.74985379e-02,
           4.65632379e-02, -1.65941626e-01,  1.71236414e-02,
          -6.87825680e-02,  4.33871597e-02,  5.73013024e-03,
           1.48507029e-01, -8.72249901e-02, -2.16465779e-02,
          -2.98542827e-02,  6.67465255e-02,  2.60125729e-03,
          -3.00251245e-01, -1.43136770e-01,  3.26290652e-02,
          -7.61819184e-02, -9.45044681e-03, -1.55337811e-01,
          -1.12680690e-02,  7.65152276e-02,  4.60128784e-02,
          -5.62079297e-03, -2.63052493e-01, -1.74964726e-01,
          -4.83430661e-02, -3.64225596e-01, -1.42266467e-01,
          -1.10396951e-01, -6.99902847e-02, -6.41653547e-03,
           9.35746953e-02],
         [ 4.66173105e-02,  2.36624405e-02, -4.48212177e-02,
           4.40472551e-02, -1.63201764e-02, -4.25079353e-02,
           9.38945040e-02, -6.06382154e-02, -7.72303268e-02,
          -3.84585038e-02, -1.38032421e-01,  6.43695742e-02,
           6.52163178e-02,  1.17424466e-01, -1.05176695e-01,
          -5.34478366e-01,  3.41374315e-02,  9.69127100e-03,
           2.48406585e-02, -2.75770836e-02, -4.16219328e-03,
          -7.68711194e-02, -1.01108737e-01, -1.68281242e-01,
          -3.13389413e-02, -2.30782609e-02,  7.21088499e-02,
           6.23329915e-02, -6.74299821e-02,  8.50396603e-02,
          -6.96514100e-02,  1.21986300e-01,  2.23536771e-02,
          -8.12876597e-02, -3.56932878e-01,  1.38876870e-01,
          -1.08834356e-01, -3.89229544e-02,  2.87004765e-02,
           1.41790435e-01,  3.07776351e-02, -3.72610986e-02,
          -2.95739323e-02,  1.24833295e-02,  2.19039004e-02,
          -3.75662804e-01, -6.42450675e-02, -6.85718358e-02,
          -1.20161092e-02,  1.64691880e-02, -2.08610341e-01,
          -7.85286576e-02,  5.23808487e-02, -1.45614684e-01,
           2.42506284e-02, -2.95708954e-01, -1.09926201e-02,
          -1.57622714e-02, -3.67141902e-01, -1.15349412e-01,
          -3.47388014e-02, -1.37807429e-01, -1.11773245e-01,
           3.94682363e-02],
         [ 1.53911933e-02,  7.05487356e-02,  1.53086185e-02,
          -5.37553988e-02,  1.34155154e-04, -1.98959187e-02,
           2.90860161e-02,  9.60202143e-02, -6.16003945e-02,
           2.88651884e-03,  5.74844256e-02, -7.05784038e-02,
           4.48398069e-02,  2.60365382e-02,  5.57314977e-02,
          -5.18128313e-02,  7.92183727e-03,  7.88382813e-02,
          -2.17342898e-02,  4.29903194e-02, -2.17685625e-02,
          -6.11170642e-02,  7.29795620e-02, -7.00889826e-02,
          -5.09816073e-02,  8.05894509e-02, -1.09699368e-03,
           9.27967504e-02, -8.51402581e-02,  7.91345537e-03,
          -3.20003405e-02,  6.66017160e-02,  1.57693550e-02,
          -8.45792145e-03,  6.36263862e-02, -1.70802251e-02,
           6.83219507e-02, -1.32659078e-02,  6.26186356e-02,
          -6.06863089e-02, -4.09870595e-02,  4.70033363e-02,
          -6.29705638e-02, -8.20860639e-02, -3.50900739e-03,
           8.57185796e-02,  8.64852890e-02, -8.80006403e-02,
          -2.44960859e-02, -9.43411440e-02, -8.29184800e-03,
          -4.53438424e-02,  1.89593583e-02,  6.13313988e-02,
          -2.53026932e-02,  1.54570565e-02,  8.56347382e-03,
          -8.01517069e-02,  2.51509249e-04,  8.00088421e-02,
           1.33107603e-03,  8.14569667e-02, -4.56878655e-02,
          -7.73450285e-02]]],


       [[[-1.11186862e-01,  2.67265309e-02,  1.55852791e-02,
           7.71536166e-03, -1.31105676e-01, -8.79141316e-03,
           1.44367367e-02, -2.41896976e-02,  5.63658960e-02,
          -9.33770984e-02,  1.64631978e-01,  1.52265415e-01,
          -1.09288106e-02, -1.69386923e-01, -4.02804941e-01,
           1.70148030e-01,  6.86365962e-02,  4.01240066e-02,
          -6.10910282e-02,  1.67357638e-01, -6.59211650e-02,
           8.54797140e-02,  4.69755121e-02,  4.54062372e-02,
          -1.10562220e-02, -3.02318521e-02, -4.26909328e-02,
          -8.07194635e-02,  1.55736436e-03,  3.97669431e-03,
           2.24125803e-01, -1.48021385e-01,  5.00882901e-02,
          -1.85101498e-02,  5.00474535e-02, -2.07444176e-01,
           1.00659281e-02, -6.99329674e-02, -1.24831699e-01,
          -1.47175804e-01,  2.15303022e-02,  3.56147881e-04,
          -6.99401721e-02,  6.42360970e-02,  8.89134184e-02,
           1.80573855e-02, -1.02776937e-01, -1.02966830e-01,
          -5.32206409e-02, -2.82928012e-02, -2.35668287e-01,
          -7.77247653e-04, -5.54208178e-03, -5.21111377e-02,
          -7.94843584e-02, -1.72310665e-01,  1.24548152e-01,
           2.21537668e-02, -5.18117286e-02, -1.30827442e-01,
          -1.06223099e-01, -1.69070363e-01,  1.08184628e-01,
           6.83102338e-03],
         [-2.37990310e-03, -8.71742219e-02,  4.31043059e-02,
          -3.97711173e-02,  1.54516436e-02, -4.50131204e-03,
           4.89108730e-04,  6.05800934e-02,  1.92554984e-02,
           4.72621880e-02,  1.72465250e-01, -3.14979628e-02,
          -1.13226719e-01, -1.43648401e-01, -5.80993533e-01,
           1.28670990e-01, -1.09352365e-01,  2.51581818e-02,
          -6.63000420e-02,  6.36103451e-02, -8.06970075e-02,
           4.27997336e-02, -5.29164821e-03,  2.30113678e-02,
           8.83110166e-02,  3.61494645e-02,  2.98533477e-02,
          -6.51737526e-02, -8.74928087e-02, -1.98044032e-02,
           9.58026648e-02, -1.06469251e-01,  6.53016567e-02,
          -5.91495000e-02, -2.02021245e-02, -1.77490816e-01,
          -9.20021012e-02, -9.86197516e-02, -5.97443357e-02,
          -5.90738505e-02, -2.79325936e-02, -6.20979071e-02,
           7.57828578e-02,  3.85793597e-02,  6.81486130e-02,
           5.21034077e-02, -1.60948351e-01,  3.31726633e-02,
           5.06052263e-02, -9.85481590e-02, -1.21360630e-01,
          -2.83794128e-03,  7.22601190e-02, -1.14564477e-02,
          -1.28597273e-02, -2.71518111e-01,  1.44073769e-01,
           1.03720427e-01,  5.41579016e-02, -2.63042331e-01,
          -2.52520412e-01, -2.09779873e-01,  1.87178731e-01,
          -4.04132828e-02],
         [-9.59306061e-02, -1.17317140e-01, -7.00388923e-02,
           2.77525969e-02,  3.51948999e-02,  5.40594012e-02,
          -4.77638058e-02,  6.28726706e-02, -6.46974891e-02,
          -6.43751621e-02,  5.75105734e-02,  1.51673242e-01,
          -3.19419950e-02, -4.67113331e-02, -4.83788908e-01,
           1.83672011e-01,  3.43396068e-02, -7.60496780e-02,
          -4.30104360e-02,  1.89445801e-02,  1.91913806e-02,
           3.18414196e-02,  1.27682770e-02, -1.19914912e-01,
           8.24619234e-02, -5.08236466e-03,  4.82334639e-04,
           8.39062780e-03, -5.64968362e-02,  1.08590588e-01,
           1.48590982e-01, -1.47007167e-01, -3.42671648e-02,
           6.73714578e-02,  1.30468652e-01, -5.57802990e-02,
           5.53452689e-03,  2.87712235e-02, -1.77513584e-01,
          -1.29997134e-01, -1.70583352e-01, -2.67276503e-02,
          -7.20268264e-02,  8.69537666e-02, -1.82190128e-02,
          -7.66247064e-02, -9.75462124e-02, -2.08666902e-02,
           7.63652250e-02, -3.26992311e-02, -2.38410220e-01,
          -6.56700507e-02, -6.13553300e-02, -2.58085392e-02,
          -7.44716600e-02, -1.21000670e-01,  6.24029860e-02,
          -6.85768649e-02,  4.98283692e-02, -2.45751098e-01,
          -1.42859191e-01, -2.48562753e-01,  1.66390926e-01,
           7.14839846e-02],
         [ 4.81119975e-02, -3.52132469e-02, -1.99032575e-02,
           2.07612067e-02,  1.49469599e-02, -3.10098827e-02,
          -8.26091692e-02, -1.56152025e-02, -8.10613558e-02,
          -3.28200907e-02,  2.37197950e-02, -1.33145601e-02,
          -2.41164416e-02, -4.78326753e-02, -4.30150852e-02,
          -4.85939980e-02,  2.35953405e-02,  6.88771680e-02,
          -5.09321727e-02, -2.77539417e-02,  3.97196934e-02,
           6.11554906e-02, -1.99521780e-02, -2.54115462e-02,
          -8.62393081e-02,  8.95862803e-02,  7.36937448e-02,
          -8.74097645e-02, -6.88661188e-02,  7.76440576e-02,
           8.73231962e-02,  7.89110437e-02,  8.12798068e-02,
           2.02029049e-02, -3.75017039e-02, -4.77616414e-02,
          -2.29202211e-03, -7.12268353e-02, -7.65300915e-02,
          -4.03517708e-02,  7.31960312e-02, -5.75126112e-02,
          -3.42205241e-02, -9.25339609e-02,  8.02027956e-02,
          -2.08473206e-03,  2.58076414e-02,  3.06991413e-02,
          -7.92706013e-02,  1.95824653e-02,  7.43559822e-02,
          -3.69033851e-02, -2.76597068e-02, -5.26489653e-02,
           1.21613145e-02,  8.28748196e-03, -3.81725207e-02,
          -8.60824138e-02, -7.95324966e-02,  8.96528736e-02,
           7.73017108e-03,  7.73236230e-02, -8.39632899e-02,
          -1.04498118e-02]],

        [[ 2.52646729e-02, -1.04757592e-01, -1.15177490e-01,
          -1.91166271e-02, -7.81240314e-02, -5.91924079e-02,
          -5.25947586e-02,  5.18432744e-02,  1.20436057e-01,
          -2.18235068e-02,  8.70331600e-02, -5.42448387e-02,
          -9.24885422e-02, -9.58192199e-02,  1.77682430e-01,
           1.78907290e-01,  4.11240123e-02, -7.90004134e-02,
           5.51359728e-03, -2.39696234e-01,  8.92972341e-04,
          -5.13213836e-02,  9.16622058e-02,  9.34378728e-02,
          -1.82167515e-01,  4.00422746e-03, -2.35622488e-02,
           1.10382833e-01, -8.45626593e-02, -2.87032157e-01,
           1.09173730e-01,  2.60892306e-02, -2.18058396e-02,
           6.71337396e-02,  2.87703037e-01,  1.70738865e-02,
           4.89772558e-02,  2.43290067e-02, -2.64369510e-02,
          -1.98667929e-01, -5.94483782e-03,  3.98229313e-05,
           5.55730797e-02,  5.10328151e-02,  1.13527335e-01,
           1.48939505e-01,  1.65743232e-01,  8.68405495e-03,
           8.93965214e-02,  4.44470495e-02,  8.57138336e-02,
           4.74233599e-03,  1.25553131e-01, -3.56750824e-02,
          -9.86256748e-02, -1.79307207e-01,  2.20272183e-01,
           1.55321863e-02, -9.37997848e-02,  9.46838781e-02,
          -5.42243049e-02, -1.52003184e-01,  9.97435004e-02,
          -1.60662949e-01],
         [ 3.25787999e-02, -1.19961530e-01,  2.26003490e-02,
          -3.71966884e-02, -6.41181022e-02, -1.00969180e-01,
           5.85426316e-02,  1.79019906e-02,  9.10564512e-02,
          -3.41086611e-02,  3.71491946e-02, -1.42127082e-01,
          -1.04668170e-01,  5.22805750e-02,  1.81174695e-01,
           2.41214976e-01, -1.08149134e-01, -7.39310086e-02,
          -8.88445005e-02, -1.62780955e-01, -1.20711466e-02,
          -5.57829477e-02,  8.59226361e-02, -8.26246813e-02,
          -6.94296435e-02, -6.71010315e-02, -8.47891197e-02,
           1.28449619e-01, -6.14729933e-02, -1.78362533e-01,
           9.39523242e-03, -6.14476167e-02,  7.29277879e-02,
          -4.47697937e-03,  2.97704518e-01,  1.38181403e-01,
          -1.10953234e-01, -3.81226726e-02, -1.64255932e-01,
          -1.87739834e-01, -6.23732470e-02, -1.22310244e-01,
          -3.72294858e-02,  7.61098117e-02, -6.29350729e-03,
           1.69979647e-01,  2.21201330e-01, -1.18795276e-01,
          -8.01717043e-02,  3.91761027e-03,  1.42214289e-02,
          -1.10125160e-02,  7.92721733e-02,  1.30035598e-02,
          -4.92745787e-02, -5.90586849e-02,  2.37425283e-01,
           4.88033108e-02, -3.13798822e-02, -2.95738876e-02,
          -1.90724626e-01, -1.63531259e-01,  1.32037759e-01,
          -3.38662528e-02],
         [ 2.75627226e-02, -1.12511583e-01, -8.64775330e-02,
          -6.66492507e-02,  4.75522354e-02,  3.95519696e-02,
           8.69863033e-02, -3.98913845e-02,  1.02197304e-01,
           1.30327195e-02, -1.60718001e-02, -1.32023424e-01,
           1.82912853e-02, -1.10267639e-01,  1.37352452e-01,
           6.89926893e-02,  6.55232742e-02,  9.14656445e-02,
           1.79591589e-02, -2.45634273e-01,  3.29858549e-02,
          -1.34650201e-01,  9.62990299e-02, -7.24681839e-02,
          -3.18450108e-02,  5.15391789e-02, -8.63917768e-02,
           1.21112401e-02,  5.36897369e-02, -2.45003670e-01,
          -5.62901050e-02, -1.19005993e-01, -1.12971157e-01,
          -7.57757425e-02,  2.63470829e-01,  4.02672403e-02,
          -3.65236308e-03, -4.86141108e-02, -1.34421438e-01,
          -6.80013448e-02, -1.06021106e-01, -5.73605224e-02,
          -1.08165860e-01,  1.23497218e-01,  7.39151686e-02,
           1.61537841e-01,  2.44298756e-01, -3.68985487e-03,
          -4.07573655e-02, -3.62022221e-02,  5.88183627e-02,
          -9.26270112e-02,  1.66885301e-01, -8.70334581e-02,
           6.61955625e-02, -1.90972120e-01,  1.18420467e-01,
           5.94207458e-02,  5.83350621e-02,  6.48192987e-02,
          -1.76834926e-01, -8.98563787e-02,  1.75550640e-01,
          -1.18717186e-01],
         [ 7.20535293e-02, -1.70917660e-02,  8.48339275e-02,
          -2.80585214e-02, -6.67108968e-02,  8.58095661e-02,
          -3.12327594e-02,  2.16135830e-02, -4.80625108e-02,
          -8.68835375e-02,  7.70883784e-02, -5.32837808e-02,
          -7.43841752e-02, -7.33485594e-02, -5.20470589e-02,
          -6.15590811e-02,  6.08697608e-02, -1.97752863e-02,
          -3.92303243e-02, -3.98103222e-02, -8.13767686e-02,
          -2.94595435e-02,  3.57236713e-03,  5.78823611e-02,
          -9.33864042e-02,  8.72535035e-02,  2.11093426e-02,
           9.65691581e-02,  7.37416670e-02,  2.25908160e-02,
           1.44651383e-02,  2.80006304e-02,  5.08681759e-02,
           7.84236714e-02, -3.12951729e-02, -2.21716538e-02,
          -9.11864713e-02, -4.52467911e-02,  6.96830824e-02,
          -7.06041083e-02, -4.82643992e-02, -5.71123585e-02,
          -2.62276605e-02, -8.20598304e-02, -5.33478260e-02,
           4.73002270e-02, -4.65488806e-02, -3.70523706e-02,
          -6.90546930e-02, -9.73145813e-02, -2.46783569e-02,
           9.10810605e-02,  1.81391388e-02, -9.31659639e-02,
          -3.09313014e-02,  9.41322744e-03,  3.49631086e-02,
          -4.46774624e-02, -8.48632082e-02,  9.47337598e-03,
           8.28493014e-02, -5.56005910e-02,  2.28677765e-02,
           2.54119709e-02]],

        [[-3.17532904e-02, -2.40558144e-02, -1.30838558e-01,
           3.67076807e-02, -4.03041132e-02,  2.89541762e-03,
           4.18295264e-02, -9.31809396e-02,  5.52501082e-02,
          -8.13559890e-02, -5.86941056e-02,  4.85565402e-02,
           2.38611232e-02, -2.42199197e-01,  1.89405214e-03,
           2.14933053e-01,  1.96943115e-02, -6.76588193e-02,
           2.37874128e-02,  5.89572340e-02, -9.01049469e-03,
          -2.11847737e-01, -6.89789606e-03, -7.31745362e-02,
          -3.03772166e-02, -3.79058835e-03, -2.53472105e-02,
           7.91145861e-02,  6.28441051e-02,  1.29390404e-01,
          -8.40355009e-02, -5.62699586e-02,  3.55897732e-02,
           8.32661167e-02, -2.23092005e-01,  1.19272016e-01,
           3.40741826e-06, -8.09144881e-03, -5.65919057e-02,
          -6.10506572e-02, -1.28299251e-01,  2.42954597e-01,
          -3.85044864e-03, -3.64672765e-02, -8.03823993e-02,
          -5.06258726e-01, -5.30755259e-02,  3.85988802e-02,
           7.93080479e-02, -9.68641192e-02, -9.77729335e-02,
          -4.52988073e-02,  1.12608150e-01, -8.75073075e-02,
          -7.59036317e-02, -2.79452831e-01,  7.65130855e-03,
           3.41200009e-02, -2.89200936e-02,  8.78777653e-02,
          -2.38847941e-01, -1.57503411e-01,  9.33301598e-02,
          -1.24397129e-01],
         [ 3.49412337e-02, -1.07993297e-01, -1.57952800e-01,
          -1.08991630e-01,  2.37177685e-02,  5.67163005e-02,
           5.73284030e-02, -7.78259570e-03, -1.43382456e-02,
          -2.92854514e-02, -4.00965326e-02, -1.22850593e-02,
           3.06258537e-03, -1.03539802e-01, -6.45100027e-02,
           1.52545229e-01, -5.11861704e-02, -5.90561070e-02,
          -5.39646968e-02,  1.10032775e-01,  9.24923047e-02,
          -1.11493692e-01, -5.36122881e-02, -1.26566827e-01,
          -4.49919030e-02,  3.43692228e-02,  1.11506591e-02,
           9.80599895e-02, -6.24712072e-02,  1.56654865e-01,
          -1.65138200e-01, -1.74068496e-01,  4.60584946e-02,
           7.56251290e-02, -3.49220127e-01,  1.63609296e-01,
           2.86305901e-02,  4.70047630e-02, -6.95537552e-02,
           3.86917070e-02,  4.19059210e-03,  2.58991063e-01,
          -3.13732289e-02,  1.00240581e-01, -1.72559768e-02,
          -5.31750798e-01, -1.67788252e-01, -9.90657136e-03,
          -3.87853049e-02, -4.37024273e-02, -1.70202166e-01,
          -3.45877036e-02,  6.69734478e-02, -3.33272815e-02,
           2.01906692e-02, -1.83781892e-01,  1.74005732e-01,
          -1.37661528e-02, -8.33409652e-02,  1.51917458e-01,
          -2.13928521e-01, -2.22571194e-01,  2.44154036e-02,
          -1.39133617e-01],
         [-4.93952539e-03, -1.27903834e-01, -2.88462583e-02,
          -1.69056524e-02, -8.90833326e-03,  5.22275418e-02,
          -1.13032758e-02, -1.08729685e-02, -1.62302237e-02,
          -6.18983582e-02, -8.98191631e-02,  3.10695097e-02,
          -1.89764816e-02, -2.49905109e-01, -4.76843789e-02,
           7.12404177e-02, -8.04281980e-02,  6.90060705e-02,
          -3.23331244e-02,  6.24566004e-02,  2.24486571e-02,
          -2.04588562e-01,  6.94805384e-02, -6.75619394e-02,
          -8.81029740e-02, -4.08041067e-02,  2.59277821e-02,
           6.98242784e-02, -1.03395559e-01,  2.08496422e-01,
          -8.64108726e-02, -1.57045990e-01,  1.07723828e-02,
           1.49360718e-02, -2.68970877e-01,  1.41259864e-01,
           1.21459544e-01,  1.81536414e-02, -1.31853431e-01,
           1.57701634e-02, -8.02263792e-04,  3.21267754e-01,
          -2.26284887e-04,  1.12475961e-01,  4.98042405e-02,
          -5.20628035e-01, -2.22754449e-01,  1.67663544e-02,
          -2.77866051e-02, -6.86827749e-02, -9.35304090e-02,
          -4.79946956e-02,  2.91353446e-02, -3.84597853e-02,
          -6.76662847e-02, -2.09375352e-01,  9.65094119e-02,
           5.47641478e-02, -9.95935649e-02,  2.88871937e-02,
          -1.23302974e-01, -1.04048759e-01,  1.49198979e-01,
          -1.66456729e-01],
         [-7.38920867e-02,  9.44530144e-02,  3.79732326e-02,
           7.59714767e-02,  6.08053878e-02,  6.07938543e-02,
          -4.21482362e-02, -8.77397656e-02, -8.55385065e-02,
           5.91585860e-02, -5.80740795e-02, -3.44489962e-02,
          -2.53383070e-03, -3.01916152e-03, -4.09345813e-02,
           5.39627597e-02, -9.75768268e-02,  5.54665253e-02,
           8.45310166e-02,  6.49902746e-02,  1.28798187e-04,
           1.22956559e-02,  3.60582396e-02, -9.04149711e-02,
          -1.49760619e-02, -7.51577243e-02, -8.01598504e-02,
          -8.39449912e-02,  1.76051259e-02,  2.70594433e-02,
          -2.70276740e-02, -4.47270125e-02, -6.74562603e-02,
          -9.08555239e-02, -4.22328711e-03, -5.29766791e-02,
          -4.69356589e-02,  7.10188821e-02,  9.90131423e-02,
           6.43449649e-02, -1.82145834e-02, -7.20696524e-02,
           7.38681033e-02, -8.45240057e-03, -5.95819503e-02,
           2.57296860e-03, -7.40507022e-02,  7.45907426e-04,
           1.94188207e-02,  9.34843048e-02, -7.13043138e-02,
          -8.95124823e-02, -9.46876407e-02, -6.40149564e-02,
           9.00112763e-02,  9.09954682e-02, -9.36703235e-02,
           8.44900981e-02,  1.37569755e-02, -1.22709647e-02,
          -6.85928166e-02,  6.22962490e-02,  5.48891649e-02,
          -2.51941457e-02]]],


       [[[ 1.02757469e-01, -3.00599691e-02, -1.25775952e-02,
          -7.43318722e-02, -1.31747484e-01, -1.13345407e-01,
          -9.05239303e-03, -6.87691569e-02,  9.34967920e-02,
          -9.93906036e-02,  5.51580936e-02,  1.52610928e-01,
          -4.21280563e-02, -3.58914852e-01, -4.79334503e-01,
          -6.15026206e-02, -3.28231193e-02,  1.21959457e-02,
          -6.29310012e-02, -5.05763888e-02, -3.21650170e-02,
          -9.79783908e-02, -1.14586968e-02,  6.82991594e-02,
           1.19713366e-01, -7.06915259e-02, -2.80000782e-03,
          -5.87661229e-02,  4.37089168e-02,  2.77017020e-02,
           7.10554421e-02,  6.16872050e-02,  2.78743263e-02,
          -1.32440522e-01, -2.99489021e-01, -1.63628608e-01,
           6.23832047e-02, -6.62987754e-02,  8.53552669e-02,
           2.39501689e-02, -4.49922755e-02, -2.69859374e-01,
          -1.64962579e-02,  1.09549433e-01,  1.98305212e-02,
          -1.01651251e-01, -1.39651686e-01, -4.47143242e-02,
          -8.70410912e-03,  1.86839588e-02, -3.06077078e-02,
           5.34157529e-02, -3.27496707e-01, -1.53585775e-02,
           7.37941414e-02, -2.25938395e-01, -1.57087535e-01,
          -1.14911906e-01, -1.88495159e-01, -1.58395305e-01,
           2.85639670e-02, -2.76298216e-03, -2.86404371e-01,
           1.95243761e-01],
         [ 4.50080521e-02,  7.11028948e-02, -7.90985748e-02,
           3.64193954e-02, -1.51824718e-02,  1.80063341e-02,
          -8.22263956e-02, -1.07520051e-01, -7.57626817e-02,
           9.15612727e-02, -8.29107985e-02,  9.38026905e-02,
          -1.12371281e-01, -2.54191130e-01, -4.77180302e-01,
          -9.21088383e-02,  2.59484369e-02,  2.99665574e-02,
          -9.54967588e-02, -1.18649472e-02,  4.35654484e-02,
          -2.06749439e-01,  4.30698059e-02, -6.57511555e-05,
           1.87156759e-02,  6.72756508e-02,  2.79602949e-02,
          -4.08200547e-02,  8.90218094e-02, -7.95492306e-02,
           1.12531677e-01,  5.73227853e-02, -1.05607346e-01,
           7.83642847e-03, -3.30031157e-01, -1.50177538e-01,
           7.25446269e-02, -6.51927758e-03,  7.71507062e-03,
           1.68414444e-01, -5.60246892e-02, -1.94739416e-01,
          -9.31240693e-02,  9.84518975e-02, -1.29809603e-01,
          -1.07286617e-01, -2.20130831e-01,  2.58682221e-02,
          -3.46412994e-02,  5.27329519e-02,  2.97774542e-02,
          -4.32210006e-02, -3.02972794e-01, -7.69827664e-02,
          -4.45259288e-02, -3.18913251e-01,  9.34188347e-03,
           2.40266118e-02, -2.51240730e-01, -1.15596317e-01,
           1.55393317e-01, -1.19144946e-01, -2.27222458e-01,
           2.14904562e-01],
         [-6.51781410e-02,  2.86193658e-02, -4.50786389e-02,
           4.49014939e-02, -1.33547291e-01, -6.36602640e-02,
          -7.36893192e-02,  1.53347729e-02, -2.82054115e-02,
          -8.29043835e-02, -1.50873140e-02,  1.53120056e-01,
          -1.43386684e-02, -2.23617896e-01, -4.09591556e-01,
          -8.36627856e-02, -3.39356624e-02, -3.56187969e-02,
          -4.01406102e-02, -1.66319404e-02, -5.85199613e-03,
          -1.92554951e-01,  4.34905151e-03, -3.01655885e-02,
           1.59862578e-01, -6.26250803e-02, -1.05193049e-01,
          -5.94064873e-03,  8.55929181e-02,  7.43772686e-02,
           1.26638889e-01, -5.54409474e-02, -3.93632054e-03,
           4.17853296e-02, -2.76971549e-01, -3.43460701e-02,
          -1.48631167e-03,  4.04142514e-02,  1.18772998e-01,
           9.37827006e-02, -7.34617263e-02, -2.06786558e-01,
          -7.47258663e-02,  3.60378735e-02, -4.37469110e-02,
          -6.56542853e-02, -8.92192721e-02, -1.07131414e-01,
          -7.96293840e-02,  8.45483169e-02, -1.02468133e-01,
          -6.29728660e-02, -3.36311042e-01,  1.68460465e-04,
           2.33182423e-02, -1.90720677e-01, -1.65665373e-01,
           2.53639445e-02, -2.18163759e-01, -1.16057321e-01,
           1.15007468e-01, -1.66654259e-01, -2.35999987e-01,
           1.55268237e-01],
         [-6.96389377e-02,  5.68609908e-02,  9.26854238e-02,
          -5.32639734e-02, -1.08961463e-02,  4.24844995e-02,
          -7.45841712e-02, -9.20855701e-02,  6.49731606e-03,
           5.99747673e-02,  4.75039408e-02, -7.34941661e-02,
           4.46957350e-03, -8.77729282e-02, -7.84501880e-02,
          -5.25593534e-02, -5.12968078e-02,  3.15835327e-03,
          -3.39996815e-02,  8.18032995e-02,  2.60261521e-02,
           4.11262885e-02, -9.75021794e-02,  1.59533247e-02,
           3.84076461e-02, -7.27413893e-02,  2.62445956e-03,
          -1.13751516e-02,  5.74318245e-02,  3.44823077e-02,
           3.34955826e-02,  1.07599124e-02, -6.53415918e-05,
           9.05512497e-02, -8.54127854e-03, -5.80123737e-02,
          -9.72980335e-02, -5.97286448e-02, -1.46194324e-02,
           2.82353535e-02, -2.41334587e-02, -8.38014111e-02,
           4.44862023e-02, -9.02395248e-02,  8.48487094e-02,
           7.76105151e-02, -5.26714623e-02, -7.54694343e-02,
          -8.34305957e-02,  2.04698071e-02, -5.46518974e-02,
           7.55484030e-02,  3.35239246e-02, -6.29435778e-02,
          -2.96536386e-02,  7.70962164e-02, -7.14372694e-02,
           8.45231786e-02, -2.49888375e-02, -4.76711988e-03,
           9.35731307e-02,  1.53903663e-02, -8.70886594e-02,
           9.28320363e-02]],

        [[ 1.49632012e-02,  2.50336714e-02, -1.24951035e-01,
          -8.92723501e-02, -1.41529888e-01, -3.66048403e-02,
          -1.05215900e-01, -8.39869753e-02,  8.48000050e-02,
           4.40073200e-03,  1.63101889e-02, -7.16010556e-02,
          -5.79743385e-02, -1.61346391e-01,  1.13522679e-01,
          -1.91583596e-02, -7.34294355e-02,  3.13993692e-02,
           6.65383860e-02, -1.82416178e-02,  1.84569061e-02,
          -7.77818188e-02, -1.59586128e-02, -1.52336627e-01,
          -6.08749650e-02,  8.84368941e-02,  1.17749469e-02,
           1.02884822e-01, -5.40936552e-02, -1.53100654e-01,
           3.39403898e-02, -2.09701825e-02, -1.62088256e-02,
           2.59023961e-02, -3.58365297e-01, -1.78657621e-02,
           5.57914525e-02, -2.90984772e-02,  8.32652748e-02,
          -1.22935496e-01, -5.01273423e-02, -1.60143673e-01,
          -3.18441875e-02,  5.55728264e-02, -1.18517935e-01,
           8.70530978e-02, -9.41495374e-02, -5.82379401e-02,
           2.72102561e-02,  3.56433503e-02, -7.56815001e-02,
          -6.85279677e-03, -1.86129987e-01,  3.63275292e-03,
          -5.71649224e-02, -2.62962997e-01, -1.26712352e-01,
           4.07547690e-03, -7.34899938e-02,  8.51897746e-02,
           7.64441043e-02,  5.52631505e-02, -2.39278406e-01,
           1.36946127e-01],
         [ 1.14111662e-01, -2.31888909e-02, -1.51736170e-01,
           1.65909883e-02, -1.52182311e-01,  5.27163851e-04,
          -7.96701983e-02, -3.20511982e-02,  8.94795358e-02,
          -9.50630829e-02, -5.72483167e-02, -3.33646648e-02,
          -5.31670004e-02, -1.83585450e-01,  1.83665812e-01,
          -4.36211079e-02, -6.26731291e-02, -1.51235024e-02,
          -2.09992528e-02, -1.03062779e-01,  4.99311015e-02,
          -2.20249277e-02, -7.78243691e-02, -8.67773779e-03,
          -3.65120098e-02, -6.36083186e-02, -7.24735036e-02,
           1.29074464e-02,  3.12408656e-02, -1.20608218e-01,
           5.53743429e-02,  7.98044279e-02, -1.79355964e-02,
           8.16851631e-02, -2.60899186e-01,  8.21224879e-03,
           1.52904689e-01, -8.95738527e-02,  1.13427125e-01,
          -1.09960027e-01,  8.53344053e-02, -2.76490718e-01,
          -8.51897895e-02,  1.18360750e-01, -1.11695021e-01,
           1.27120152e-01, -3.00300755e-02, -1.19735986e-01,
          -1.43482797e-02,  1.02947749e-01, -1.13278724e-01,
          -5.44194430e-02, -8.93954113e-02, -7.40677044e-02,
           7.99936205e-02, -2.84106404e-01, -1.13453813e-01,
           7.49439746e-02, -1.77832454e-01,  1.08813509e-01,
           1.65536650e-03, -5.22090085e-02, -3.10941577e-01,
           4.75738645e-02],
         [-1.76897943e-02, -1.15200654e-02, -1.02688633e-01,
          -8.41376334e-02, -4.65909354e-02,  1.78210996e-02,
          -7.21883103e-02, -6.05158731e-02,  1.57619789e-01,
          -5.09458315e-03, -4.32668962e-02, -6.15061820e-03,
          -1.52031034e-01, -2.05279902e-01,  1.64337680e-01,
          -6.66021407e-02,  6.29109666e-02, -5.08603193e-02,
           3.49867716e-02, -1.37035295e-01,  6.16397038e-02,
          -4.19980846e-02, -1.49797902e-01, -2.32540686e-02,
          -5.13208732e-02, -1.90144014e-02, -1.00159319e-02,
          -7.08080083e-02,  5.12642115e-02, -1.49496228e-01,
           1.90949347e-02, -5.67356534e-02, -9.72852558e-02,
          -3.09806466e-02, -2.25440383e-01, -1.56821329e-02,
           9.97704417e-02, -1.95648707e-02,  1.72228366e-01,
          -2.03858670e-02,  7.79698640e-02, -1.74335077e-01,
           1.62843037e-02,  3.16830911e-02, -1.49310380e-01,
          -1.06776590e-02,  6.48708791e-02, -1.31931439e-01,
          -1.56060681e-02, -5.13430312e-03, -1.24705531e-01,
          -1.04094170e-01, -1.86017379e-01, -1.94148943e-02,
          -2.46489677e-03, -2.85852373e-01,  9.30651149e-04,
          -1.03243381e-01, -7.78566748e-02,  1.06123403e-01,
           1.59840286e-01,  6.23939149e-02, -2.67445087e-01,
           1.41753301e-01],
         [-8.14494491e-02, -6.65113255e-02, -6.26453087e-02,
           7.50101581e-02,  5.02980724e-02,  5.51784113e-02,
           6.10539839e-02,  8.09036866e-02, -1.70085728e-02,
           3.98204997e-02,  4.63187695e-03, -2.85250396e-02,
          -1.05729625e-02,  2.39951015e-02,  5.69408312e-02,
           5.34055158e-02,  3.00655290e-02,  9.84370932e-02,
          -4.74702567e-03,  4.58442420e-03,  8.93257484e-02,
          -5.00161275e-02, -8.53948817e-02,  7.68894330e-02,
           7.31350482e-03,  9.67920199e-02,  4.77986857e-02,
          -4.13385443e-02, -1.89006478e-02, -9.55144539e-02,
           4.52318266e-02,  6.10740110e-02, -3.75771299e-02,
          -2.44282186e-02, -3.88179570e-02, -4.33756337e-02,
          -6.90753013e-02,  6.21844009e-02, -9.59054083e-02,
           8.62763599e-02, -8.75288844e-02, -6.88074306e-02,
           3.52657214e-02,  4.52197567e-02,  8.79259929e-02,
          -1.26962662e-02,  2.59692371e-02, -1.08347163e-02,
          -5.62091321e-02, -4.05586883e-02, -9.30946693e-02,
           4.87710461e-02,  5.44812903e-02,  2.12839618e-02,
          -5.97074442e-02, -7.42889643e-02,  3.64111289e-02,
           5.37497625e-02, -5.65494262e-02,  4.23751697e-02,
          -9.29708257e-02,  4.13103029e-02, -5.35138771e-02,
          -8.82041603e-02]],

        [[ 1.10759377e-01,  7.74338981e-03, -1.05207138e-01,
          -3.46785337e-02,  1.00115061e-01, -8.42011534e-03,
          -5.98162971e-02, -4.30065356e-02, -5.87385939e-03,
          -8.21313560e-02, -7.62509406e-02, -5.29406779e-02,
          -7.41549283e-02, -1.05681576e-01, -1.06159791e-01,
           2.12449897e-02,  4.29370487e-03, -8.28792155e-02,
           5.09699285e-02,  5.12746871e-02, -5.37777506e-02,
           6.65233806e-02, -2.04590373e-02, -1.80658728e-01,
           7.18418462e-03, -4.38943245e-02,  1.15170078e-02,
           7.80554563e-02, -6.91531748e-02,  1.44073710e-01,
          -1.52452737e-01, -8.20129886e-02,  1.65373571e-02,
           3.05472072e-02, -9.73780006e-02,  9.61980820e-02,
           8.63763541e-02,  1.65394042e-02,  3.75539549e-02,
          -3.77092883e-02,  3.44567858e-02, -1.72715932e-01,
           1.15569010e-02,  9.32029188e-02, -1.61580890e-01,
          -3.14844847e-01, -4.15858142e-02, -5.87468334e-02,
           6.86661452e-02,  7.15189055e-02, -1.87671974e-01,
           4.55308706e-02, -2.16832370e-01, -1.49056688e-01,
          -6.44252002e-02, -4.07847255e-01, -1.71715587e-01,
          -1.03017062e-01, -2.31818810e-01,  8.61372799e-02,
          -8.91418606e-02, -5.35610914e-02, -2.26149321e-01,
          -3.15073580e-02],
         [ 1.00822058e-02,  1.59839466e-01, -1.04972355e-01,
          -1.33544117e-01,  2.60296930e-02, -9.19798091e-02,
          -4.20918390e-02,  5.62838614e-02,  8.85692388e-02,
           9.06597637e-03,  8.83311629e-02, -1.28572911e-01,
          -1.71941519e-02, -2.44174898e-01, -7.34567270e-02,
          -5.10262651e-03,  5.87750152e-02, -2.12413929e-02,
           2.31224466e-02,  6.01903573e-02,  7.30707273e-02,
          -8.90139118e-02, -1.48473442e-01, -5.63573837e-02,
          -4.26532626e-02, -5.28965294e-02, -5.37265837e-02,
           1.93828139e-02,  2.46496927e-02,  5.15434891e-02,
          -9.13804695e-02, -6.06455188e-03, -6.11476041e-02,
           2.29030605e-02, -1.29800647e-01,  5.75037636e-02,
           1.47062480e-01, -1.70769561e-02,  1.11473970e-01,
          -5.75807095e-02, -7.28432387e-02, -1.06478229e-01,
           2.63826158e-02,  6.27404377e-02, -1.36800766e-01,
          -4.66615200e-01, -7.73521885e-02, -4.16610530e-03,
           2.55852919e-02,  6.34121895e-02, -2.65071720e-01,
           8.33040848e-02, -2.05328882e-01, -1.03930630e-01,
           6.28486276e-02, -2.82778263e-01, -9.54863057e-02,
          -1.81835517e-02, -9.93637443e-02,  1.29895940e-01,
           8.00766647e-02,  7.32101947e-02, -1.47028238e-01,
          -1.46076053e-01],
         [-5.01504429e-02, -1.85867026e-02, -1.26752749e-01,
          -7.38413930e-02,  1.38740063e-01,  1.05451643e-02,
          -6.65346980e-02, -6.70092786e-03,  6.01096777e-03,
          -1.92061365e-02,  6.56073913e-02, -4.61266227e-02,
           1.49040148e-02, -1.22548468e-01,  2.03815550e-02,
          -1.41314134e-01,  6.49755672e-02,  2.99267583e-02,
          -3.45443450e-02,  2.51511689e-02,  7.80641735e-02,
           4.84380424e-02, -9.51611251e-02, -1.01764664e-01,
          -1.05223870e-02, -8.64707455e-02,  2.26253979e-02,
          -1.43771954e-02,  4.33473997e-02,  2.88946740e-02,
          -1.25447571e-01, -7.13229403e-02,  5.65277226e-02,
          -1.14977732e-02, -3.80188152e-02,  1.10177018e-01,
           1.76972926e-01,  5.33481948e-02, -3.90990265e-02,
          -4.39088568e-02, -8.61504301e-03, -1.42413881e-02,
           1.18974363e-02,  1.32598564e-01, -1.26922086e-01,
          -3.81250411e-01, -4.98880073e-02, -1.22271687e-01,
           1.03002377e-02,  7.03503191e-02, -1.67247057e-01,
          -9.85747352e-02, -9.53471139e-02, -4.20763567e-02,
           3.26720551e-02, -3.69856209e-01, -7.32843205e-02,
           3.74828540e-02, -1.37450933e-01,  8.97750631e-02,
           9.75040942e-02, -1.54520432e-02, -2.27666408e-01,
          -7.05196261e-02],
         [ 1.37774199e-02, -6.31224960e-02,  9.62278023e-02,
          -6.33915961e-02,  3.73509452e-02, -8.46252292e-02,
          -3.24595422e-02,  4.30741236e-02,  6.41578510e-02,
           6.00529984e-02,  7.70413950e-02,  4.30534035e-03,
           6.44683763e-02,  8.62588510e-02,  1.00080967e-02,
          -5.25923558e-02,  8.64840373e-02,  3.58914062e-02,
          -3.49861011e-02, -3.11564580e-02, -3.58449891e-02,
          -1.33209080e-02,  9.12539139e-02, -8.87864828e-03,
           5.44827506e-02,  9.09314305e-03,  2.84097269e-02,
          -8.16088468e-02,  5.81900552e-02,  5.41315600e-02,
           6.25086650e-02, -5.30330278e-02,  1.84381679e-02,
           3.23154032e-04,  6.65258691e-02, -9.42299068e-02,
           7.41480067e-02, -5.67811765e-02,  9.62360278e-02,
          -2.52627507e-02, -1.26602948e-02,  8.54459032e-02,
          -8.91491771e-04, -7.26566613e-02,  9.94138420e-03,
          -7.83243179e-02, -4.62183133e-02, -1.30580962e-02,
           4.13983688e-02,  9.41020921e-02, -9.27253366e-02,
          -7.51162767e-02,  8.19229856e-02, -4.73491326e-02,
          -9.14912596e-02,  3.54268476e-02, -5.77133186e-02,
          -1.85616314e-02,  9.11378637e-02,  3.43257189e-03,
          -8.91625062e-02, -2.64520869e-02,  4.71963659e-02,
           3.39708552e-02]]]], dtype=float32), array([-0.21128778,  0.0584536 , -0.18714306, -0.15286477,  0.13855167,
       -0.05903197,  0.2888134 , -0.09096767, -0.12956451, -0.04297807,
       -0.02057557, -0.14795089, -0.09989524,  0.1056146 , -0.1626426 ,
       -0.0683036 , -0.09919778, -0.01357138, -0.12171199,  0.02217692,
       -0.24199234,  0.0520021 , -0.13814352,  0.15928695,  0.36096212,
       -0.01405801,  0.2650491 , -0.19563176, -0.11399914, -0.00708537,
       -0.00199493,  0.04289932, -0.09976107, -0.14501311, -0.03309365,
        0.00603962,  0.0539452 ,  0.28427097,  0.03161501, -0.08399898,
        0.15041909,  0.05692578, -0.02447351, -0.17859405, -0.01133701,
       -0.0508035 , -0.08558846, -0.18410897, -0.12060695, -0.18427294,
        0.17936966, -0.02548669,  0.03864973,  0.24405882, -0.12169474,
        0.13286474,  0.05029122, -0.20352437,  0.20520128,  0.00628137,
        0.0067801 ,  0.02034403, -0.00484171, -0.06162837], dtype=float32)]{'name': 'activation_6', 'trainable': True, 'dtype': 'float32', 'activation': 'relu'}[]{'name': 'max_pooling2d_2', 'trainable': True, 'dtype': 'float32', 'pool_size': (2, 2), 'padding': 'valid', 'strides': (2, 2), 'data_format': 'channels_last'}[]{'name': 'conv2d_5', 'trainable': True, 'dtype': 'float32', 'filters': 32, 'kernel_size': (3, 3), 'strides': (1, 1), 'padding': 'same', 'data_format': 'channels_last', 'dilation_rate': (1, 1), 'groups': 1, 'activation': 'linear', 'use_bias': True, 'kernel_initializer': {'module': 'keras.initializers', 'class_name': 'GlorotUniform', 'config': {'seed': None}, 'registered_name': None}, 'bias_initializer': {'module': 'keras.initializers', 'class_name': 'Zeros', 'config': {}, 'registered_name': None}, 'kernel_regularizer': None, 'bias_regularizer': None, 'activity_regularizer': None, 'kernel_constraint': None, 'bias_constraint': None}[array([[[[ 1.63589530e-02,  1.61988124e-01, -7.28633106e-02,
           1.30465655e-02,  4.24547642e-02,  9.27186534e-02,
           2.32643738e-01,  7.97205940e-02, -3.06753796e-02,
           1.53928161e-01, -1.00308836e-01, -1.89736739e-01,
          -8.67059734e-03,  3.66916060e-01,  4.12496552e-02,
           9.26382840e-02,  4.97089420e-03,  5.09294122e-02,
           5.32535166e-02, -6.87664142e-03,  3.38142551e-02,
           4.34601866e-02, -4.50929254e-02,  7.37573281e-02,
           1.43805966e-01, -1.43572778e-01,  1.14044115e-01,
          -1.82016492e-01,  3.82939470e-03,  7.03117177e-02,
          -2.42542252e-02, -1.48600906e-01],
         [-5.56547493e-02,  9.72357020e-02, -4.12461534e-02,
          -2.33399525e-01,  1.55043483e-01,  6.10671453e-02,
          -1.27353474e-01,  1.84569173e-02, -8.72694924e-02,
           9.72430483e-02, -6.27115890e-02, -4.65971790e-02,
           8.63060430e-02, -1.21113323e-01,  6.11140840e-02,
          -4.28437591e-02, -1.01898022e-01,  3.64551954e-02,
          -6.94163591e-02, -1.03250146e-01, -1.70213021e-02,
           7.48965815e-02, -4.28722799e-02, -8.94460827e-02,
          -9.68535244e-02, -8.07890948e-03, -3.79231162e-02,
          -2.00852811e-01,  1.44786447e-01,  7.86725432e-02,
           2.68944316e-02,  1.67303011e-01],
         [-1.42614488e-02, -1.01540513e-01, -1.28562704e-01,
          -2.27225032e-02,  2.34899536e-01, -4.25545573e-02,
          -4.05095145e-02, -3.98185812e-02, -5.01590520e-02,
          -4.33039367e-02,  2.20892325e-01,  1.23399146e-01,
           6.18504100e-02,  1.58516824e-01,  9.80823636e-02,
           7.43899718e-02, -7.74794305e-03,  4.29305434e-02,
           1.00737279e-02, -8.33692178e-02, -3.88748534e-02,
           8.17013085e-02,  2.40604603e-03,  2.43990973e-01,
           1.72764286e-01, -5.94267175e-02, -1.50268925e-02,
           1.37939155e-01, -8.17443728e-02, -7.25178048e-02,
          -4.55617122e-02,  9.44757275e-03],
         [ 1.12817874e-02,  3.54633406e-02, -1.03684980e-02,
           6.83179274e-02,  7.37389876e-03, -3.90210748e-02,
           5.61842062e-02,  1.13091487e-02, -1.03247166e-02,
          -5.47141992e-02,  4.87284064e-02,  9.75516140e-02,
           7.31745362e-02,  1.89405620e-01,  5.54165877e-02,
          -3.89004387e-02,  7.00222030e-02,  2.86160479e-03,
          -9.14807990e-02, -1.78715780e-01,  2.16676760e-02,
           5.78904040e-02,  3.05487346e-02,  3.51502001e-02,
           1.08543381e-01, -1.85400695e-02,  1.08518265e-02,
          -2.16309205e-02, -4.66177464e-02, -1.57029197e-01,
          -4.65792511e-03,  2.36101635e-02],
         [ 5.41314622e-03,  2.31873021e-01,  7.94952065e-02,
           1.90848522e-02,  4.07002680e-02,  2.90301796e-02,
          -8.09120759e-02, -1.97085872e-01, -1.81925297e-01,
          -1.09553173e-01, -4.00692783e-02,  8.49436373e-02,
          -1.12666771e-01,  3.64303542e-03,  1.39903605e-01,
           5.55655994e-02, -1.60581902e-01,  1.27518028e-01,
           7.48654678e-02,  6.08162358e-02, -6.66809231e-02,
          -1.75770402e-01, -4.97625396e-02, -1.09071620e-01,
           1.25910968e-01, -1.06498830e-01,  3.14809605e-02,
          -4.62926514e-02,  1.76563740e-01,  7.01278076e-02,
           7.01163942e-03,  6.02545366e-02],
         [ 1.47991655e-02, -8.08418244e-02, -1.61492676e-02,
          -1.84567482e-03, -4.92845438e-02, -1.04164518e-03,
          -9.67790186e-02, -3.67068755e-03, -7.31628239e-02,
           5.38720004e-02, -2.85308398e-02, -9.27452557e-03,
          -3.20236944e-02, -9.22937319e-02,  6.70880452e-02,
          -3.62018161e-02,  4.97550927e-02,  4.62115370e-02,
           7.66814351e-02,  2.72559337e-02,  6.38056844e-02,
          -2.04433098e-01,  7.57984966e-02, -6.17803447e-02,
           6.49644434e-02,  4.91924174e-02,  5.66800237e-02,
           1.79090872e-02, -3.60554457e-02,  2.15721428e-02,
          -6.83269873e-02,  3.77403758e-02],
         [-2.09970996e-01, -7.78603777e-02,  5.86574897e-03,
          -8.27538297e-02, -1.08209953e-01, -4.81046230e-01,
          -1.93282485e-01, -6.58259913e-03,  4.58656102e-02,
           8.14187434e-03,  6.44754320e-02,  1.29697219e-01,
          -3.95628773e-02,  6.80186525e-02,  6.53848946e-02,
           9.72777829e-02, -1.06924120e-02,  1.49576867e-03,
          -2.56754234e-02, -3.00710469e-01, -4.78648028e-04,
          -1.42751848e-02, -3.90306562e-01,  7.18296766e-02,
          -2.74559599e-03,  8.03664029e-02, -1.23302244e-01,
           6.07101200e-03, -1.08013876e-01,  6.77778944e-02,
          -1.32575840e-01, -1.37233734e-01],
         [-9.79773700e-02, -4.19108532e-02,  7.74175972e-02,
          -4.40385863e-02, -3.20628658e-02,  9.47519466e-02,
           5.52377030e-02, -7.17496639e-03,  4.05241512e-02,
           7.90044814e-02, -3.83300409e-02, -6.34937733e-02,
           4.34216261e-02,  2.46021450e-02, -3.80974673e-02,
          -3.17742527e-02, -9.36474185e-03,  1.03147165e-03,
          -4.42603119e-02,  2.07186081e-02, -4.75098267e-02,
          -4.73805144e-02, -8.38109031e-02, -1.42506789e-02,
           9.11500901e-02, -1.84817743e-02,  6.84495121e-02,
          -1.21505687e-03, -4.71802428e-02,  7.36038713e-03,
           1.67352594e-02,  4.45378274e-02],
         [ 9.58581828e-03, -2.66176797e-02, -2.31595449e-02,
          -1.99367329e-02,  1.49149626e-01,  2.72944868e-02,
          -3.93761657e-02, -1.01981953e-01,  2.24613817e-03,
           3.27663943e-02, -4.07847203e-02, -5.05053364e-02,
           6.05466999e-02, -3.33053768e-02,  1.39666656e-02,
          -7.92564228e-02,  2.83181578e-01, -1.33913560e-02,
           1.50318101e-01, -3.08647268e-02, -5.05248643e-03,
          -3.65179092e-01, -1.00412391e-01, -2.05471233e-01,
          -6.85044006e-02, -1.94872022e-01, -1.75221041e-02,
          -1.22203454e-01, -1.63010240e-01, -2.62823328e-02,
          -8.26857835e-02,  1.20001554e-01],
         [ 6.80528879e-02, -5.57326563e-02,  7.60141537e-02,
          -5.41868992e-02,  6.10434338e-02, -9.06159543e-03,
          -5.91086550e-03, -7.62193650e-02, -2.67463364e-02,
          -4.37025689e-02,  5.32728843e-02, -1.34081277e-03,
           3.51890884e-02, -9.46623646e-03,  9.50355735e-03,
          -3.17196585e-02, -2.03172509e-02,  4.81071547e-02,
           6.25527278e-02,  7.89870098e-02, -1.34289730e-02,
          -3.35908346e-02,  2.34209169e-02, -7.27715790e-02,
           3.29514854e-02,  8.58654210e-04,  6.91803023e-02,
           4.64681275e-02, -7.75263160e-02, -8.11020937e-03,
          -4.01950441e-02, -6.09623529e-02],
         [-2.97782011e-02, -7.40133300e-02,  2.69192308e-01,
          -2.76814312e-01, -7.41968900e-02,  4.78393137e-02,
           1.69528536e-02, -3.27193551e-02, -1.07321985e-01,
           2.64851842e-02,  8.79761763e-03,  6.12056255e-02,
          -1.04449568e-02, -1.97005253e-02, -6.37472123e-02,
           1.17242694e-01, -1.69597253e-01,  5.46037816e-02,
           8.76829177e-02,  1.18769661e-01,  1.46727845e-01,
          -9.13997814e-02,  4.73083965e-02, -5.33353277e-02,
           1.35954037e-01, -8.11329260e-02, -9.03111696e-03,
          -1.92469478e-01,  2.58099101e-02, -1.80198665e-04,
          -9.15512741e-02,  9.01648924e-02],
         [-1.13900475e-01,  2.76621729e-01, -5.71015850e-03,
           2.43900884e-02, -5.58685437e-02,  4.94887754e-02,
          -3.30841616e-02,  5.56667277e-04, -7.07575530e-02,
          -5.23668807e-03,  6.74276380e-03, -1.41792849e-01,
           6.73694015e-02,  8.46937597e-02, -5.35497293e-02,
          -3.15325288e-03, -1.64405540e-01, -5.90517782e-02,
           4.52307686e-02, -9.38966125e-02,  4.19674702e-02,
          -9.33981538e-02, -6.87597468e-02,  4.74986024e-02,
           4.11470756e-02, -5.40037500e-03,  2.35288739e-02,
          -1.15892291e-01,  7.86871016e-02, -5.00363410e-02,
          -3.12677189e-03, -1.83263779e-01],
         [-9.88807231e-02, -9.78945121e-02, -8.63726586e-02,
          -1.59308501e-02, -1.08793043e-02,  4.16368358e-02,
          -7.16172904e-02, -7.99692273e-02, -1.37723193e-01,
          -4.13759463e-02,  2.02009872e-01, -2.36357190e-02,
          -3.07118353e-02,  4.97796237e-02,  8.16345662e-02,
          -4.61882120e-03,  7.85359517e-02,  2.41483040e-02,
          -4.76222187e-02,  5.01425602e-02,  1.04669938e-02,
           4.41778786e-02, -2.65194122e-02,  1.13676347e-01,
          -1.15001528e-03, -4.80671600e-02, -8.30509961e-02,
           4.93929796e-02,  4.97594662e-02, -1.09441914e-01,
           9.41028818e-02,  3.94175984e-02],
         [-1.61868766e-01,  5.46664000e-02,  2.15644520e-02,
           7.11331097e-03, -1.87159196e-01, -2.81106606e-02,
           1.39499411e-01, -1.19166352e-01,  4.87543605e-02,
           5.83374081e-03,  7.57843629e-02,  1.55557990e-01,
           3.46150212e-02,  9.07439068e-02, -1.54105216e-01,
           3.65961604e-02, -1.12281881e-01, -3.92304547e-03,
          -4.88084555e-02, -1.02332965e-01, -7.10263401e-02,
           1.88597515e-02,  4.84221391e-02, -4.60537076e-02,
          -2.92215824e-01,  6.97430298e-02, -1.16074709e-02,
          -1.28384754e-02,  1.00248799e-01,  7.26369992e-02,
          -4.22392450e-02, -1.70653835e-01],
         [-9.13062170e-02, -1.30358964e-01,  4.33088886e-03,
          -8.55762810e-02, -1.49163201e-01,  2.96290219e-02,
           1.54435664e-01,  5.44605479e-02, -7.64832497e-02,
          -1.33975580e-01, -9.55077112e-02, -8.71016607e-02,
           1.46950826e-01,  4.73067127e-02, -2.96428916e-03,
          -1.07100084e-01, -2.28868425e-01, -9.77782533e-02,
          -2.96620339e-01, -2.18102634e-01, -1.58840790e-02,
          -6.85332596e-01, -5.22499718e-02,  1.04071192e-01,
          -7.97681570e-01,  2.32453793e-01,  1.50640398e-01,
          -2.78612852e-01, -1.14070643e-02, -4.17584449e-01,
          -3.92818302e-02, -3.74077171e-01],
         [-1.42533402e-03,  2.32106801e-02,  1.94436051e-02,
          -6.46295846e-02, -7.09001813e-03,  7.61649236e-02,
          -1.04697183e-01,  2.01534294e-02,  1.77463084e-01,
           1.62120745e-01,  6.09870441e-02, -3.55815142e-01,
           1.78791303e-02, -1.30191863e-01, -2.36353669e-02,
           6.97912946e-02,  2.62357965e-02, -6.40786253e-03,
           1.14592560e-01,  1.80264376e-02, -5.74039631e-02,
          -4.53361690e-01, -1.41610146e-01,  2.28164718e-02,
          -3.39772731e-01, -4.61726755e-01,  1.35376425e-02,
           2.30370350e-02, -5.54445013e-02, -1.45377263e-01,
          -3.99338938e-02, -1.85991138e-01],
         [ 3.44274752e-02,  5.13729416e-02,  9.20243710e-02,
          -4.83900607e-02, -5.67209236e-02,  8.71288404e-02,
           1.00510502e-02, -1.99120622e-02, -5.97132631e-02,
           2.11338792e-02,  7.14702979e-02, -3.76607962e-02,
          -2.89066415e-02, -5.87169873e-03, -4.54110745e-03,
           9.41519905e-03,  8.73485282e-02,  6.80604726e-02,
           8.34404975e-02,  5.79647198e-02, -4.35642600e-02,
           1.34701247e-03,  4.76332270e-02,  5.49697652e-02,
          -7.59811923e-02, -7.53988549e-02,  5.24129793e-02,
           1.62014104e-02,  7.09449351e-02, -1.21369392e-01,
          -5.27063087e-02,  8.91947299e-02],
         [ 3.00556961e-02, -7.95194060e-02, -1.31759280e-02,
           7.50039592e-02, -5.04388884e-02, -1.63848884e-03,
           3.34723741e-02, -5.85538447e-02, -5.94015792e-02,
           6.47272989e-02, -3.20549160e-02, -6.07993081e-02,
           8.11084658e-02,  7.52309561e-02,  4.96320706e-03,
          -3.18992883e-02,  1.31062614e-02,  2.66358908e-02,
           6.85265139e-02,  1.92265157e-02,  9.05748457e-03,
           2.85159349e-02,  7.16648623e-02,  4.61927382e-03,
           8.22874159e-02, -1.00355735e-02,  7.36448020e-02,
          -7.20603392e-02,  4.09877039e-02,  5.76362759e-02,
          -4.24913503e-02,  3.28393690e-02],
         [-1.30221054e-01,  4.31298576e-02,  5.48502291e-03,
          -1.30257994e-01, -1.02046788e-01,  7.24151209e-02,
          -5.36764190e-02, -4.32813875e-02, -5.09441681e-02,
          -1.13544136e-01, -7.16822892e-02,  5.62511757e-02,
           3.86068341e-03, -9.26312245e-03,  7.28144273e-02,
          -7.78820440e-02,  2.98992902e-01,  3.95736657e-03,
          -1.13963507e-01, -4.01447676e-02, -6.51379898e-02,
          -1.44262224e-01, -8.12254567e-03,  6.18549176e-02,
          -1.37743935e-01,  9.71996263e-02,  5.28321834e-03,
           2.70560887e-02, -8.39983672e-02, -4.36630659e-02,
          -6.19291551e-02, -9.14884806e-02],
         [-3.36332060e-02, -6.33324981e-02,  2.44217906e-02,
          -1.00895405e-01,  1.54358566e-01,  9.37797651e-02,
           2.26270482e-02,  4.36101109e-02, -1.14896379e-01,
          -2.02344749e-02, -2.57430715e-03, -3.26803848e-02,
          -4.58503561e-03, -3.41204815e-02,  1.41401943e-02,
          -2.60811448e-02,  4.57948819e-02,  1.65939517e-02,
          -1.76764905e-01, -3.82785164e-02, -1.74032729e-02,
          -4.66697514e-02,  6.70831054e-02, -7.75324851e-02,
          -4.53007258e-02,  1.58837009e-02,  2.00540721e-02,
          -3.20992507e-02,  1.19549697e-02,  1.00863084e-01,
           6.36817282e-03,  6.57282844e-02],
         [-3.90968136e-02, -4.86792512e-02, -6.33438006e-02,
          -7.85022676e-02,  1.06508590e-01,  8.79519209e-02,
          -5.96156977e-02, -9.19834897e-02,  3.76754910e-01,
          -1.88507903e-02, -5.88301755e-02, -1.29696280e-02,
           7.11874366e-02, -1.88009381e-01,  5.43915331e-02,
          -4.50567193e-02,  2.65410155e-01, -1.03824787e-01,
          -1.59343526e-01,  2.89181527e-02,  6.37131259e-02,
          -2.21745651e-02, -1.81434508e-02, -1.32313535e-01,
          -1.74284905e-01,  7.92533234e-02,  1.40243107e-02,
           5.09574898e-02,  2.15565227e-02, -2.66226679e-01,
          -2.17153449e-02,  2.55285650e-02],
         [ 3.49815935e-02, -1.75382525e-01, -2.01923385e-01,
          -2.74943411e-01,  1.25405803e-01,  1.41153196e-02,
           4.82324660e-02,  8.77300128e-02, -1.52980387e-01,
          -1.09300697e-02,  5.27272820e-02,  1.21676907e-01,
          -1.67263538e-01, -1.57569163e-02, -3.79543789e-02,
          -2.10621860e-02, -1.06850274e-01,  1.14248991e-01,
          -1.10048957e-01, -2.87966188e-02,  6.97200000e-02,
           5.95673062e-02, -6.39011860e-02,  5.75809963e-02,
          -5.66162020e-02, -2.33034655e-01, -7.66651556e-02,
           2.69895550e-02, -1.17711522e-01,  1.01617917e-01,
           1.05162151e-02, -7.02112839e-02],
         [-8.19405094e-02, -1.47322286e-02, -2.72477418e-02,
           1.90623328e-02,  1.35630414e-01, -3.44723053e-02,
          -1.70636754e-02, -6.77041635e-02,  1.27450079e-01,
          -1.95612758e-02,  9.71353725e-02, -6.11235984e-02,
          -4.34540771e-02, -4.66775745e-02,  5.87477461e-02,
           3.50130387e-02,  1.83757514e-01, -8.45573470e-02,
          -1.79986237e-04,  3.89697105e-02, -8.21442828e-02,
           5.95669821e-02, -2.76523102e-02, -6.66464446e-03,
          -4.31769853e-03, -3.01960371e-02,  1.99517906e-02,
           5.00981547e-02, -6.95504993e-02, -1.86871849e-02,
           7.80547876e-03, -2.93217134e-02],
         [-2.42289007e-02,  7.23755285e-02,  1.55581757e-01,
          -1.00961313e-01, -8.62196237e-02, -2.17828408e-01,
          -1.60789508e-02,  6.16141269e-03, -8.29930082e-02,
          -1.47854220e-02, -3.98205407e-02, -8.61940067e-03,
          -1.73001155e-01, -1.23196654e-01, -1.93733182e-02,
           1.36921540e-01, -1.26484707e-01, -7.59499520e-02,
          -1.72185898e-02, -2.48838719e-02, -1.83143523e-02,
          -6.13267627e-03,  1.64998360e-02,  6.66043088e-02,
          -1.42392784e-01, -1.19452477e-01, -6.33885562e-02,
           8.25060233e-02,  2.99944818e-01,  1.47787407e-01,
           5.24969958e-02,  4.65140231e-02],
         [-6.68995008e-02,  2.08914764e-02, -2.78724432e-01,
          -9.27287415e-02, -6.25326578e-03, -3.72516215e-01,
          -1.62638500e-01,  9.71779004e-02,  6.95221648e-02,
          -3.98203619e-02, -5.75392283e-02,  1.87052637e-01,
          -7.23854527e-02, -9.45760868e-03, -4.47068475e-02,
           1.63959637e-01, -3.13060790e-01,  1.38731822e-01,
           1.85709149e-02, -2.42687121e-01, -3.50177325e-02,
           1.29866451e-01, -4.55364317e-01,  1.14575051e-01,
           1.95779115e-01, -5.87249212e-02, -8.75066966e-02,
           1.94973480e-02,  2.08453573e-02,  1.50349081e-01,
          -5.16824648e-02, -4.27883454e-02],
         [-7.85223544e-02,  8.26129764e-02,  4.17204425e-02,
          -4.99146655e-02, -5.18105999e-02, -6.02626614e-02,
          -6.46256804e-02,  6.16389289e-02, -4.34989557e-02,
          -3.69448029e-02,  7.14643300e-02, -6.69852942e-02,
           2.00621542e-02, -5.94637953e-02,  3.28184143e-02,
          -8.19457974e-03, -5.89677989e-02, -7.38983974e-03,
           6.87258318e-02, -4.91883270e-02, -3.90272737e-02,
          -3.18752453e-02,  8.09838846e-02,  2.62319518e-04,
           3.15908380e-02, -2.75935978e-02, -1.87386386e-02,
          -7.76363239e-02,  5.02059199e-02, -1.43001452e-02,
          -7.82723655e-04, -1.41372476e-02],
         [-1.54533491e-01,  3.59660387e-02, -9.31841731e-02,
          -7.18593150e-02, -1.14694983e-01, -2.35329702e-01,
          -8.93440619e-02,  5.27574457e-02, -2.84031034e-02,
          -6.17870502e-02,  7.95961246e-02, -2.93827783e-02,
          -7.81173445e-03,  4.04062495e-02,  2.29574880e-03,
           9.76868495e-02, -7.74888396e-02, -5.46820760e-02,
           2.13346761e-02, -1.85110882e-01, -5.95272854e-02,
           5.20704985e-02, -1.11292996e-01,  5.07310517e-02,
           1.24688242e-02,  3.94074852e-03,  3.68988514e-02,
          -1.33371338e-01,  1.30038545e-01,  8.09995085e-02,
          -7.49739707e-02, -2.04685181e-02],
         [-4.79238555e-02, -1.39160566e-02,  1.08428292e-01,
          -1.51146710e-01,  1.61977522e-02, -6.19543204e-03,
          -9.40259770e-02,  6.54243380e-02,  2.28343718e-02,
          -2.82139126e-02,  6.65198639e-02,  6.48175180e-03,
           1.10594794e-01,  5.01748286e-02,  2.56293151e-03,
          -6.91718087e-02,  1.52938247e-01, -2.85619665e-02,
          -5.87205403e-02, -5.46624847e-02, -5.17376475e-02,
          -1.15382016e-01, -6.81752935e-02, -3.42912078e-02,
          -4.72532697e-02,  8.80172774e-02,  7.31776208e-02,
          -6.93288893e-02, -5.50881587e-03, -1.92982092e-01,
           1.53034190e-02, -3.62091549e-02],
         [-1.88960768e-02,  7.16381967e-02,  4.28344756e-02,
           1.79844853e-02,  8.82606804e-02,  1.21678323e-01,
           8.21611360e-02,  1.74001101e-02,  1.27125448e-02,
           1.81897357e-02, -8.93296748e-02,  6.84277639e-02,
          -6.75156415e-02, -3.43376771e-02,  3.38606127e-02,
          -4.37911078e-02,  1.20300010e-01, -9.89245027e-02,
           2.06278667e-01, -7.07659125e-02, -5.31516969e-02,
          -8.17561075e-02, -1.06646031e-01, -6.54680356e-02,
           9.54897031e-02, -1.27911523e-01,  8.24186802e-02,
          -7.72410817e-03, -7.64604509e-02, -4.06385325e-02,
          -4.58247028e-02, -4.12814766e-02],
         [-1.69171412e-02,  4.88459244e-02,  8.06283355e-02,
          -3.00489683e-02, -6.00051656e-02,  2.82174468e-01,
          -6.02397919e-02, -1.44934505e-01,  8.02019238e-02,
          -8.10351688e-03,  1.24743603e-01,  6.85321540e-02,
           4.97875586e-02,  1.02093495e-01, -1.79790571e-01,
          -7.10139005e-03,  1.63246721e-01, -9.34411511e-02,
           1.23983636e-01, -7.10289227e-03,  6.79665133e-02,
          -6.61922097e-02, -2.36609597e-02, -4.47053649e-03,
          -6.03812858e-02, -9.38070752e-03,  2.07232852e-02,
           5.23669319e-03,  5.27044162e-02, -1.13133058e-01,
           7.71955997e-02, -1.22906841e-01],
         [ 1.42854573e-02, -6.59733787e-02, -5.23280427e-02,
          -3.16318661e-01, -5.61415392e-04, -5.95860593e-02,
          -5.70711354e-03, -4.77521606e-02,  1.06215971e-02,
           6.53417083e-03,  4.59690653e-02,  8.27561319e-02,
          -4.15138267e-02,  6.43832386e-02,  5.20476848e-02,
          -1.34415878e-02, -3.63090485e-01,  3.97565104e-02,
           2.35362202e-02, -2.70779748e-02,  3.68000865e-02,
          -2.56953329e-01, -9.82267186e-02,  2.65552923e-02,
           2.58040786e-01, -1.14330262e-01, -4.57433052e-02,
           7.72755817e-02,  1.84721742e-02,  8.65322351e-02,
          -1.06553219e-01, -6.66457340e-02],
         [-8.67172331e-02,  8.07379112e-02, -1.09729871e-01,
          -4.58460562e-02,  7.17994422e-02, -5.36261611e-02,
           3.16398591e-01, -6.01248117e-03,  9.21891555e-02,
           2.29675584e-02, -6.44595549e-02,  4.32506762e-02,
           4.91280220e-02,  1.25103574e-02, -1.33849293e-01,
           8.01831111e-03,  8.35495293e-02, -1.38330683e-01,
          -4.87290099e-02, -6.00022450e-02,  2.63331980e-02,
           2.38315668e-02,  8.93677473e-02,  7.42556602e-02,
           3.00898612e-03, -7.54909366e-02, -8.16759765e-02,
          -1.36882320e-01,  5.35243610e-03,  7.96572492e-02,
           1.05983429e-01, -2.90835351e-01],
         [ 1.94640737e-02, -1.53829036e-02,  8.13814402e-02,
           1.73598416e-02,  7.61233643e-02,  6.00103438e-02,
          -1.03267487e-02, -1.61852427e-02, -1.62475538e-02,
          -7.34386519e-02,  7.56412372e-02, -1.86942669e-03,
           6.07784949e-02, -9.30069387e-02, -2.90378351e-02,
          -3.44311595e-02,  3.76451425e-02,  2.28855610e-02,
          -3.29245143e-02, -3.49818468e-02,  3.22847180e-02,
           3.70589979e-02,  2.98395217e-03,  4.66923565e-02,
           1.74835008e-02, -2.37970483e-02, -7.36905485e-02,
          -1.60611346e-02, -6.73547387e-02, -6.68021962e-02,
          -4.12475616e-02, -6.12254143e-02],
         [-2.92743277e-02, -7.53640234e-02, -7.29737338e-03,
          -1.31087333e-01,  3.99268884e-03, -7.27943629e-02,
          -2.04878356e-02, -5.76742627e-02,  2.84750815e-02,
           8.70659854e-03,  1.05265997e-01, -8.12798962e-02,
           6.88093454e-02, -2.90436111e-02,  1.05074853e-01,
          -8.86756405e-02, -7.05580488e-02, -1.62412729e-02,
           6.07914627e-02, -4.84376848e-02, -8.05805549e-02,
          -3.18376757e-02,  4.91801798e-02, -2.74156164e-02,
          -1.45957708e-01,  7.33590499e-02,  3.85802705e-03,
          -3.92022543e-02,  6.23226613e-02, -1.60418928e-01,
          -5.28857671e-02, -8.60215575e-02],
         [ 2.34320741e-02,  4.50912192e-02,  2.88508609e-02,
           5.36720343e-02,  6.72947615e-02,  6.62933290e-02,
           8.17289501e-02,  6.46140724e-02, -3.82194854e-02,
          -4.55950908e-02,  8.84095952e-02,  2.80818008e-02,
           8.21853131e-02,  1.29345372e-01,  1.41872436e-01,
           1.19074114e-01,  3.94264907e-02,  1.51778474e-01,
          -2.60620215e-03, -6.76177070e-02,  6.50243983e-02,
           4.89892624e-02,  3.72914746e-02, -7.89957419e-02,
          -1.12485044e-01, -5.00199422e-02,  8.14808607e-02,
          -3.41816023e-02, -1.77345909e-02, -9.67836827e-02,
          -5.08383624e-02,  1.45363137e-01],
         [ 6.26509339e-02, -3.07017509e-02,  1.42876104e-01,
          -1.62362680e-01,  4.58609350e-02,  3.95315848e-02,
          -3.81178898e-03, -6.56591952e-02,  4.86794300e-02,
           9.31934491e-02,  1.60664078e-02, -1.36258781e-01,
          -5.88192306e-02, -1.39569966e-02,  6.86942562e-02,
           1.23704402e-02,  3.27880830e-01, -3.49431373e-02,
           2.33013667e-02,  1.76916406e-01,  4.11466621e-02,
           8.52463916e-02, -3.85529734e-02, -3.76981124e-02,
          -2.53169775e-01, -9.08010174e-03,  1.07034175e-02,
          -1.25125155e-01,  4.48806547e-02, -1.10365294e-01,
           6.39689863e-02,  4.60266024e-02],
         [-8.06828290e-02,  9.16642472e-02, -4.61963034e-04,
          -1.47471219e-01,  7.68521056e-02,  1.24614350e-01,
           4.59051542e-02,  8.92859045e-03, -7.69156292e-02,
           2.60284357e-02,  6.06882237e-02, -3.91298421e-02,
          -9.04346183e-02,  5.42191975e-02,  5.40751889e-02,
          -3.16035300e-02,  1.29209071e-01, -4.26984206e-02,
           1.08616471e-01,  1.50624346e-02,  7.21229985e-02,
           3.23437080e-02, -3.92426074e-01, -7.72358775e-02,
          -2.28575930e-01, -1.10422939e-01,  1.10663369e-01,
          -1.44520437e-03,  8.70644301e-02, -7.41538256e-02,
          -1.85621664e-01,  2.63692200e-01],
         [-2.29392663e-01,  8.67871568e-02, -9.32410806e-02,
          -5.59884124e-02, -1.04731224e-01, -2.29248106e-01,
          -2.31464103e-01,  1.70815095e-01,  9.80016291e-02,
           4.80360240e-02,  1.07995257e-01,  7.13540316e-02,
           8.30261968e-03,  8.28600721e-04,  2.82941014e-02,
           1.20279923e-01,  5.10405749e-02,  5.79512790e-02,
           8.93075466e-02, -2.71136105e-01, -1.26473024e-01,
           1.02479488e-01, -2.91842341e-01, -3.14537846e-02,
           5.78523465e-02,  9.48263928e-02,  2.25236751e-02,
          -2.92416930e-01,  5.64433001e-02,  1.80905506e-01,
          -1.26841217e-01,  7.37983435e-02],
         [-6.06644079e-02,  1.29509747e-01, -1.81116849e-01,
          -1.09812565e-01,  1.40398741e-01,  1.83966726e-01,
          -1.84408143e-01, -1.48919880e-01, -8.64477754e-02,
          -5.37159629e-02,  1.10763004e-02,  1.11528210e-01,
          -1.09718954e-02, -4.55325097e-02, -1.16705243e-02,
           4.48057288e-03,  1.14052743e-01,  4.15527411e-02,
           8.12287480e-02, -1.45307213e-01,  1.18931206e-02,
          -6.05815947e-02, -3.86803374e-02, -7.31152743e-02,
          -2.10159495e-01,  9.32180285e-02, -7.34923631e-02,
          -2.88976640e-01,  1.65577143e-01,  8.49621817e-02,
           3.57544273e-02,  1.55259073e-01],
         [-5.02460897e-02,  1.73170462e-01,  3.75169605e-01,
          -2.68096119e-01,  2.45119096e-03, -5.86396493e-02,
          -2.15716273e-01,  7.18210684e-03, -5.66681847e-02,
           2.91857473e-03, -3.17862704e-02,  6.67327195e-02,
           4.13607471e-02, -1.49509553e-02, -3.66548002e-02,
           3.67929339e-02, -4.99996915e-02,  7.80231059e-02,
           3.96477617e-02, -2.31469944e-01, -6.23944029e-03,
           5.24267592e-02,  3.31264697e-02, -8.47168937e-02,
          -2.08349172e-02, -9.66183692e-02,  8.51233490e-03,
          -2.72379816e-02,  9.90432780e-03, -1.33969765e-02,
           5.35632707e-02, -1.03303744e-02],
         [ 5.57925971e-03,  3.05524673e-02, -2.28560284e-01,
          -1.34489730e-01, -5.10784388e-02,  1.27599657e-01,
           7.86768422e-02, -1.72249958e-01,  3.90749425e-03,
           1.98279936e-02, -8.43823254e-02,  2.52659433e-02,
          -5.69958203e-02,  6.66420087e-02,  1.48435697e-01,
          -4.41490039e-02,  3.62679273e-01,  1.85927544e-02,
           1.50097117e-01,  1.58712864e-01, -5.42153716e-02,
           3.42894644e-02, -9.94302556e-02, -1.37603611e-01,
           1.11260973e-01,  3.89499515e-02, -3.42848487e-02,
          -4.03272569e-01, -1.33603783e-02,  1.08842365e-01,
          -9.58719105e-02,  2.68276662e-01],
         [-4.92473245e-02,  3.63326967e-02,  7.04538897e-02,
          -3.63769419e-02,  1.03663489e-01,  6.75883191e-03,
          -6.67873323e-02,  7.16705099e-02,  4.12116572e-02,
           5.26645109e-02, -6.49865121e-02,  5.12083210e-02,
          -4.52816635e-02, -1.26082022e-02, -3.76123413e-02,
           1.11762322e-01,  2.12921768e-01, -5.30387610e-02,
          -7.17166960e-02, -1.30286459e-02,  4.02343757e-02,
           1.09339468e-01, -2.88101099e-03, -7.57143721e-02,
          -1.30237509e-02, -5.33980429e-02,  1.22397561e-02,
           8.55011344e-02, -5.16249286e-03,  9.40227881e-02,
          -3.59704383e-02, -8.69377553e-02],
         [-3.29351351e-02,  7.20454380e-02,  3.72461304e-02,
           3.11692618e-02, -8.30422789e-02, -2.40938254e-02,
           4.75765429e-02, -6.22800142e-02, -1.69267375e-02,
           3.04499194e-02, -3.19246203e-02, -2.13101134e-02,
           7.22201308e-03, -6.49029762e-02,  4.74316142e-02,
          -5.25731742e-02,  3.60666513e-02, -2.39805877e-02,
           4.81651798e-02, -3.23272422e-02,  4.33331057e-02,
           6.58526719e-02,  4.32196185e-02, -7.45253265e-02,
          -5.59329391e-02,  1.69803817e-02, -3.44262384e-02,
          -4.38695177e-02,  4.62138094e-02, -4.87851724e-02,
          -5.81920110e-02, -7.11433291e-02],
         [-6.04640394e-02,  3.51644456e-02, -6.27045557e-02,
          -2.84996986e-01,  1.01298824e-01,  8.18100572e-02,
          -6.24018572e-02,  9.94438399e-03, -1.12107098e-01,
           3.66713256e-02,  1.75207742e-02, -2.17741020e-02,
           1.11807339e-01,  1.48382215e-02, -3.13514397e-02,
          -2.77093928e-02,  1.06914893e-01, -5.46008050e-02,
           1.10003531e-01,  7.34806880e-02, -8.52174014e-02,
          -1.60726190e-01,  9.70382523e-03,  2.12773122e-02,
          -6.78283498e-02, -8.55654553e-02,  1.35668322e-01,
          -9.49715599e-02,  7.53521249e-02, -1.24795608e-01,
          -4.98791076e-02,  5.25383539e-02],
         [-8.69619995e-02,  5.36555797e-02,  3.56137082e-02,
          -1.70416161e-01, -1.50455967e-01, -2.77717896e-02,
           3.82624976e-02, -1.05708607e-01, -5.37425727e-02,
           3.35830823e-02,  5.67234121e-02,  1.17845759e-01,
          -1.28833456e-02,  7.22481757e-02,  3.08895055e-02,
           5.48643507e-02, -1.67206824e-01, -4.52045649e-02,
          -2.23359346e-01, -2.96434700e-01, -3.54049504e-02,
           5.31024486e-02, -1.72721729e-01,  4.65009687e-03,
           1.09905727e-01,  4.70128879e-02, -8.01636651e-02,
           1.46740571e-01,  1.37261286e-01,  2.17104657e-03,
           1.80444568e-01, -1.89553574e-01],
         [ 1.34794980e-01,  9.85905007e-02, -6.16889484e-02,
          -3.94340344e-02,  3.14640887e-02,  6.48384122e-03,
          -1.12078100e-01,  2.65949339e-01,  6.73375353e-02,
           9.15718600e-02,  1.22454181e-01,  2.77025402e-02,
           9.98113230e-02, -2.02610027e-02, -1.65719420e-01,
          -4.97650951e-02, -3.35209668e-02, -2.96035528e-01,
           3.47030759e-02, -2.27449715e-01,  8.68646801e-02,
           4.32488099e-02,  9.00498033e-03,  2.51401775e-02,
          -2.16974989e-01, -6.15246827e-04, -2.87252426e-01,
           4.58250381e-02,  3.01623970e-01, -4.94298674e-02,
          -2.58158986e-02,  1.14706784e-01],
         [ 2.36506630e-02,  7.88633972e-02, -2.47190706e-03,
          -9.83694382e-03,  2.04332381e-01,  2.66191624e-02,
           9.17392373e-02,  1.52262047e-01,  5.13440697e-03,
           1.91218302e-01,  6.63475692e-02, -6.91925436e-02,
           1.77768201e-01, -3.36851962e-02, -1.30727202e-01,
          -6.24737609e-03,  1.53735712e-01,  1.71909295e-02,
          -6.90289140e-02, -1.40953377e-01, -3.63235399e-02,
          -9.38180983e-02, -2.91937101e-03,  1.04864292e-01,
          -3.72849256e-02,  1.12338513e-02,  1.60583362e-01,
          -1.04142457e-01,  1.22767957e-02, -8.62507597e-02,
          -5.13723008e-02,  2.04525292e-02],
         [-6.27026781e-02, -1.07771628e-01, -1.63648613e-02,
          -9.32380259e-02, -4.80139535e-03,  5.98046593e-02,
          -1.55826416e-02, -1.89392269e-02,  1.09168887e-01,
           2.92058140e-02, -1.63843203e-02, -8.49885717e-02,
           5.87149337e-02,  2.20967785e-01,  6.84086382e-02,
          -7.43300840e-02,  1.38415217e-01,  2.18031276e-02,
          -7.80055225e-02, -1.25981137e-01, -2.62376107e-02,
           4.72939312e-02,  3.38532180e-02,  1.42945722e-01,
           1.46824852e-01, -7.30141029e-02,  9.05939117e-02,
           6.23579649e-03, -6.27813190e-02, -5.13072610e-02,
          -4.80716452e-02,  1.36526590e-02],
         [ 7.70964473e-02, -9.14720669e-02,  7.01781586e-02,
           7.89407566e-02,  3.73090319e-02,  2.25376990e-02,
           6.55393004e-02, -8.25719610e-02, -9.28351209e-02,
          -6.31738231e-02, -8.23478997e-02,  9.10901055e-02,
          -7.10431412e-02, -3.53682935e-01,  1.01989850e-01,
           1.96519271e-02,  1.61843210e-01,  9.10595655e-02,
           1.12516498e-02,  4.94385436e-02,  7.81620368e-02,
          -4.72312458e-02, -1.66068599e-02, -1.99926030e-02,
           1.14159390e-01, -4.50264104e-02,  3.30349058e-02,
          -5.08676991e-02,  1.54678803e-02, -5.25302440e-02,
          -4.15333174e-02, -2.01829486e-02],
         [-2.12872364e-02, -4.75829393e-02, -5.87054938e-02,
          -1.34018093e-01,  9.59665552e-02, -5.58099672e-02,
           3.54957916e-02, -4.06459579e-03, -3.50367092e-02,
          -1.16253132e-02,  1.95056815e-02,  4.27450538e-02,
           8.32046121e-02, -4.91939411e-02,  1.81580279e-02,
           5.71613200e-02,  5.67589477e-02,  9.19689536e-02,
          -9.37637985e-02, -7.53600970e-02,  3.62591818e-03,
          -1.24735206e-01,  7.38972856e-04,  1.48538286e-02,
          -8.48432034e-02,  1.29491612e-01,  9.36630219e-02,
           1.70970991e-01,  2.10466515e-03, -1.20028794e-01,
          -6.87346756e-02, -1.17091695e-02],
         [-6.88000321e-02, -7.27533326e-02,  8.26696903e-02,
           2.17413530e-02, -1.52369559e-01,  5.02611250e-02,
          -6.48928881e-02, -1.00387879e-01, -1.58009410e-01,
           5.33787794e-02,  3.61800082e-02,  1.36694178e-01,
           1.85412751e-03, -7.17571005e-02, -8.98812562e-02,
           6.38584122e-02, -1.89755827e-01,  1.72875561e-02,
          -1.06498785e-01, -4.62904293e-03,  2.65389085e-02,
           3.64878140e-02,  7.21296221e-02, -2.28499211e-02,
          -7.17033371e-02, -2.69212499e-02,  1.11393243e-01,
          -4.86463234e-02,  1.98010653e-01,  2.59832412e-01,
           4.40452360e-02, -2.66238227e-02],
         [ 4.15802635e-02, -7.31474534e-02, -5.43241091e-02,
           4.76993285e-02, -2.53245871e-05, -4.30307612e-02,
          -6.68231770e-02,  2.24265307e-02, -4.18716185e-02,
          -6.20320253e-02, -1.90859828e-02,  8.40304978e-03,
           5.18032424e-02,  1.45196076e-02,  3.41679417e-02,
           2.64746230e-02,  7.85539150e-02,  7.50003010e-02,
           3.24886478e-02, -3.21688130e-03,  1.86707247e-02,
          -2.85017285e-02, -1.04883965e-03, -4.22682101e-03,
          -7.31641650e-02,  4.38085087e-02, -3.76696363e-02,
          -3.35659571e-02,  7.62825981e-02,  4.48350124e-02,
           5.76389134e-02, -3.39045413e-02],
         [-1.92962550e-02,  1.18503489e-01, -1.12210825e-01,
           3.81404459e-02, -1.36260659e-01,  1.05393313e-01,
          -3.72642986e-02, -1.17318638e-01,  9.88980308e-02,
          -6.24658365e-04,  1.91576444e-02,  1.57277361e-01,
          -5.11532016e-02,  1.95890758e-02, -2.89842673e-02,
          -6.70418143e-03, -9.42229256e-02,  4.59079668e-02,
          -1.31466612e-01, -8.96972045e-02,  3.60213481e-02,
           6.98460564e-02,  1.29089519e-01,  2.74570230e-02,
           3.38470601e-02, -1.52919114e-01, -1.04269043e-01,
          -2.41388250e-02,  1.76398203e-01, -5.58335260e-02,
           3.22217196e-02, -3.25615317e-01],
         [ 3.97466458e-02,  1.88317224e-01, -4.85312380e-02,
          -8.52946937e-03, -9.87894926e-03, -5.52646704e-02,
           1.20592684e-01, -6.65651038e-02, -1.23075889e-02,
           1.30366445e-01, -1.75373495e-01, -5.36763631e-02,
          -1.75780043e-01, -7.70684481e-02, -6.05747364e-02,
           1.50902852e-01, -2.78439492e-01,  1.03839591e-01,
          -1.68837160e-01, -4.44457941e-02, -5.22210412e-02,
           1.60765037e-01, -5.02879322e-02,  3.19312178e-02,
          -3.51227000e-02, -1.90654531e-01,  4.51954417e-02,
          -1.59228563e-01,  3.10833812e-01,  2.37885267e-01,
           4.39578146e-02, -2.34135747e-01],
         [-3.16211097e-02, -7.88558051e-02,  6.72676936e-02,
          -3.30710821e-02, -1.23900184e-02,  1.84182134e-02,
           1.63853988e-01, -3.08653209e-02,  1.80920530e-02,
           2.05981899e-02, -1.44308746e-01,  4.64720689e-02,
          -3.12288199e-02, -3.28745544e-01, -2.97038592e-02,
          -7.38720745e-02,  5.65111749e-02, -4.75477204e-02,
          -4.49421965e-02,  5.20349443e-02,  5.24021871e-02,
          -7.75894672e-02, -7.49642923e-02, -6.02193102e-02,
          -1.10044651e-01,  7.41581470e-02,  6.52585104e-02,
           4.15189974e-02,  9.13310125e-02, -1.93394050e-02,
          -4.84880023e-02, -8.41287300e-02],
         [ 3.91784534e-02,  1.96007296e-01, -1.46009326e-01,
          -6.79089651e-02, -1.40404508e-01, -4.06737961e-02,
          -1.40245939e-02,  9.51916948e-02, -6.47646561e-02,
           1.06244959e-01, -1.69991404e-01,  1.88324943e-01,
          -1.16227545e-01, -2.94630647e-01, -1.13970496e-01,
           9.08368900e-02, -1.88753411e-01,  8.97148848e-02,
           8.27765539e-02,  8.83586798e-03, -1.60420767e-03,
           7.96565786e-02,  2.19999682e-02, -6.71952665e-02,
           3.82681079e-02, -7.31869414e-02, -1.99142825e-02,
          -3.85377295e-02, -1.73970405e-02,  1.55092984e-01,
          -9.65567604e-02, -1.51403263e-01],
         [-4.23009098e-02, -8.38314518e-02, -1.81817692e-02,
          -9.87447202e-02, -9.69658121e-02,  6.28814474e-02,
           1.39221013e-01, -1.38730988e-01,  6.47215769e-02,
           1.66337658e-02, -1.73734576e-02, -4.44677062e-02,
           4.16569645e-03,  3.67794745e-02,  7.20507503e-02,
          -4.62976955e-02,  1.54093415e-01, -1.47655308e-01,
           5.30957542e-02,  6.18442185e-02, -6.00657500e-02,
          -6.40606135e-02, -2.15460882e-02,  1.47573307e-01,
           1.65576711e-01, -1.36263579e-01, -3.20346951e-02,
           1.37774587e-01, -4.52850275e-02, -1.22319730e-02,
          -1.23435475e-01, -5.79934455e-02],
         [ 3.69531363e-02, -1.48754260e-02,  4.71497476e-02,
          -9.89459306e-02,  4.73203473e-02,  7.57452175e-02,
          -1.18832238e-01,  3.37587819e-02,  8.19172338e-02,
          -1.03584982e-01,  4.51316610e-02, -5.28939143e-02,
           3.03028300e-02,  1.37528852e-01,  1.44402787e-01,
           4.91645709e-02,  4.21600528e-02,  6.42235801e-02,
           7.64134675e-02, -2.23871600e-02, -5.40460795e-02,
          -3.65798324e-02,  5.67972707e-03, -3.97976898e-02,
           1.72578976e-01,  1.30617535e-02, -3.97319607e-02,
          -5.27120233e-02, -6.68407008e-02, -1.61138982e-01,
           1.95439178e-02,  2.17828620e-02],
         [ 3.16910865e-03, -9.93665308e-02,  1.32748082e-01,
          -1.10792913e-01, -2.82280846e-03, -2.87750103e-02,
           6.08591596e-03, -1.38915658e-01, -2.31663398e-02,
           7.58225620e-02,  1.04472525e-01,  8.49310830e-02,
          -1.08220577e-01,  2.94875074e-02, -6.74385577e-02,
           1.24776852e-03,  7.55663775e-03,  3.48855108e-02,
           2.31745886e-03, -8.41525346e-02, -1.84396151e-02,
           1.06079102e-01, -4.85995114e-02, -6.91153407e-02,
           5.40305302e-02, -8.01276714e-02,  7.60735348e-02,
          -7.85316005e-02,  3.48159857e-02,  1.85255960e-01,
           7.41884438e-03,  6.57977313e-02],
         [-3.43506545e-01,  3.38076428e-02, -1.14581443e-01,
           2.84698177e-02, -1.62121907e-01,  3.02171052e-01,
           1.86343238e-01, -6.87565422e-03,  1.26884915e-02,
           5.78292497e-02,  4.38894480e-02, -2.84287900e-01,
          -3.71808372e-02, -7.60105178e-02, -1.21308163e-01,
          -5.24107404e-02,  1.49238810e-01, -9.95066166e-02,
          -1.33191720e-01, -3.02131772e-02, -2.48234421e-02,
           2.31687967e-02,  2.57521719e-02,  1.07070379e-01,
           7.30851106e-03,  2.32256745e-04, -1.40493676e-01,
          -1.75307363e-01, -3.11606713e-02, -1.84332468e-02,
           2.38263115e-01,  2.48183176e-01],
         [ 1.17135487e-01, -1.84185296e-01, -7.42779160e-03,
          -6.64556473e-02, -2.71263402e-02, -1.21918870e-02,
           6.68520555e-02,  1.67463459e-02, -6.11983053e-02,
           9.00304019e-02,  1.71878427e-01,  5.00555709e-02,
           5.03266901e-02, -2.91022360e-02,  4.31485064e-02,
          -3.91577221e-02, -8.04425105e-02,  2.92521548e-02,
           2.60445744e-01,  8.30999389e-02, -3.85874733e-02,
          -5.32266758e-02, -2.67333061e-01, -1.13944441e-01,
          -2.73168087e-01, -8.65614787e-02, -7.32736476e-03,
           8.80715773e-02,  5.07229418e-02,  3.73564661e-03,
          -1.11550339e-01,  8.83984193e-02],
         [-4.53755818e-02, -6.83048517e-02,  6.37454260e-03,
          -3.93096916e-02,  9.40462481e-03,  6.90567642e-02,
          -3.33498567e-02,  1.04521289e-01, -8.23150724e-02,
           2.97577959e-02, -4.02425788e-02, -1.95978418e-01,
          -1.50465235e-01,  1.33054554e-01, -3.87243778e-02,
          -2.89813951e-02,  3.04659400e-02, -6.20558523e-02,
          -5.77226095e-02, -3.61486264e-02,  5.92950247e-02,
           7.10152313e-02,  4.29575816e-02,  4.54869010e-02,
           2.26349905e-01, -1.95861477e-02, -1.14415519e-01,
           2.03430597e-02, -2.65870281e-02,  4.14003283e-02,
          -6.30837530e-02,  4.54113372e-02],
         [ 3.80085707e-02, -6.79013208e-02,  2.46867258e-03,
          -6.22315146e-02, -5.84805431e-03,  2.14923359e-02,
          -1.89805940e-01,  3.21192890e-02,  2.12738812e-01,
          -1.15198856e-02,  2.16560036e-01,  1.42015338e-01,
          -8.73755366e-02, -8.19131508e-02, -9.83853415e-02,
          -7.55082890e-02,  2.58001182e-02, -9.13150162e-02,
           5.41693754e-02, -1.85598247e-02, -6.48258999e-02,
          -3.71915698e-02, -1.37532964e-01,  7.33090639e-02,
          -4.04859670e-02, -7.23202452e-02, -2.01910198e-01,
          -1.29861444e-01, -1.03100892e-02, -1.07175633e-01,
          -5.90540692e-02,  7.08594993e-02],
         [ 7.84629025e-03,  1.47980034e-01,  3.26074623e-02,
          -4.37902324e-02, -3.73703837e-02,  9.09326524e-02,
          -2.86407825e-02,  5.85663579e-02,  1.12150773e-01,
           7.23176226e-02, -3.27285342e-02, -3.67424078e-02,
          -9.62907895e-02, -1.55463954e-02,  1.73198074e-01,
           3.50706801e-02, -2.12906435e-01, -1.51415080e-01,
           2.37309247e-01, -8.48251358e-02, -5.12903221e-02,
           1.98554650e-01, -2.11679023e-02,  2.79775690e-02,
          -1.01883307e-01,  2.73737520e-01, -2.09423192e-02,
           3.69570591e-02, -1.42839709e-02,  1.93865672e-01,
           2.82887388e-02, -2.64764577e-02]],

        [[ 1.00415029e-01,  1.17062747e-01, -4.44181152e-02,
          -2.23613251e-02, -5.53402901e-02,  1.02578543e-01,
           1.74503624e-01,  5.31504191e-02,  4.87386286e-02,
           1.43993735e-01, -1.53017476e-01, -8.44959095e-02,
           7.45942518e-02,  2.63703257e-01,  5.84669262e-02,
          -1.49005027e-02, -3.09871644e-01,  1.21874632e-02,
           9.69197080e-02,  7.89048299e-02, -8.32448751e-02,
           2.45075598e-02, -9.66272876e-02,  1.14898114e-02,
          -3.99512231e-01, -9.17168558e-02,  3.76554928e-03,
           9.74299237e-02, -2.22672205e-02, -2.66641304e-02,
          -9.54446476e-03,  2.80048084e-02],
         [-1.27413571e-01,  7.37253949e-02, -1.68050349e-01,
          -2.76818909e-02, -6.04523495e-02, -5.11689894e-02,
           8.19392279e-02, -5.23587428e-02, -1.03234991e-01,
           1.25279397e-01,  1.48242945e-02, -4.96003479e-02,
           4.20266353e-02, -2.25300062e-02,  2.65370496e-03,
          -4.17472273e-02,  2.24114701e-01,  1.15092888e-01,
          -2.41396755e-01,  2.73866970e-02,  3.25731598e-02,
           7.74244070e-02, -1.86927598e-02,  1.20312370e-01,
          -3.39194164e-02, -2.06270479e-02,  1.34441927e-02,
          -8.29241239e-03, -5.37051931e-02, -6.38850126e-03,
           8.22099149e-02, -1.37699723e-01],
         [ 7.84143060e-02, -1.31983995e-01, -6.91067949e-02,
          -4.43138480e-02,  1.90477580e-01,  7.47405225e-03,
          -1.01832516e-01, -1.23887137e-01, -1.81718078e-02,
          -5.54948710e-02,  1.12383351e-01,  1.00502886e-01,
          -4.74941283e-02,  2.13928118e-01,  7.74174705e-02,
           1.06863789e-01,  1.70845762e-01, -7.64352456e-02,
           5.95671758e-02,  3.65324551e-03,  1.12233078e-02,
           2.60230824e-02, -6.93112100e-03,  3.09118424e-02,
           2.57873628e-03,  1.89990166e-03,  1.81702599e-02,
           9.03900266e-02, -1.29559591e-01, -8.22495967e-02,
           5.18026277e-02,  4.59806137e-02],
         [-8.18093941e-02, -3.88439484e-02, -7.52319247e-02,
          -4.35341755e-03, -2.45423010e-03,  1.58649753e-03,
          -1.16648450e-01, -8.47506151e-02, -2.78832242e-02,
          -7.99755603e-02,  4.46978956e-02,  4.03132401e-02,
           4.44934666e-02,  1.29919320e-01,  2.48459745e-02,
          -5.65749481e-02,  1.72479913e-01, -1.51523221e-02,
          -8.09160843e-02, -8.82885978e-02, -1.10605769e-02,
           8.87179151e-02,  7.68513903e-02, -3.32638696e-02,
           2.53056246e-03, -3.57520059e-02,  4.42389101e-02,
           3.60259227e-02, -5.09174764e-02, -1.14845484e-01,
           5.43858372e-02, -5.12355417e-02],
         [ 4.98110354e-02,  1.56809822e-01,  8.38301927e-02,
           1.39409348e-01,  5.42490557e-02, -4.82696556e-02,
           1.30288213e-01,  4.09539826e-02, -1.21286558e-02,
           4.93784733e-02, -5.45065813e-02,  7.72294253e-02,
           2.40470190e-02,  8.14463478e-03, -2.71587651e-02,
           7.07973391e-02, -3.28819484e-01,  1.85337052e-01,
           1.32655455e-02,  5.13521843e-02,  5.76554649e-02,
          -1.11856654e-01, -5.27997166e-02,  1.40220925e-01,
          -3.95625457e-02,  2.50639077e-02, -8.69872272e-02,
          -8.78435746e-02,  4.28372145e-01,  1.77162200e-01,
          -4.65564094e-02, -8.88865963e-02],
         [-3.23234946e-02, -9.39642265e-02,  5.36980405e-02,
          -9.43480805e-02, -4.76447679e-02,  5.37301823e-02,
          -9.31301042e-02, -4.80209710e-03, -6.84850439e-02,
           2.01169774e-02, -3.73907723e-02,  1.16439782e-01,
          -4.72255796e-02, -9.44826528e-02,  2.05821283e-02,
           2.66452599e-02, -1.68516651e-01,  8.29695463e-02,
           2.02041175e-02,  7.46855587e-02, -3.79064679e-02,
          -2.78198212e-01, -5.61745763e-02,  6.01183586e-02,
          -2.55392995e-02, -2.70487671e-03, -9.09579545e-02,
           5.18080927e-02,  2.80218869e-02, -1.09578088e-01,
           5.37511706e-03,  3.14694792e-02],
         [-2.08781779e-01, -1.14378177e-01, -7.97438323e-02,
          -1.20405152e-01, -4.42439094e-02, -4.27656263e-01,
          -1.44260913e-01, -8.14254805e-02,  1.35701448e-01,
          -5.68249896e-02,  9.31307524e-02,  1.20719038e-01,
          -1.38746068e-01, -9.88002494e-02, -4.53494117e-02,
           3.90768163e-02,  3.07572596e-02,  1.33845711e-03,
          -5.11802686e-03, -3.09129506e-01,  3.05998195e-02,
          -3.98911610e-02, -3.68878305e-01,  2.83506751e-01,
           1.54598519e-01,  1.05048314e-01,  1.19499816e-02,
           8.84402394e-02, -3.24018329e-01,  1.60095334e-01,
           1.09212205e-01, -4.25920367e-01],
         [ 3.80707197e-02,  2.68434994e-02, -2.71177161e-02,
          -2.80551668e-02, -3.97102674e-03,  1.34484377e-02,
           1.52884554e-02, -1.10295609e-01, -2.91227475e-02,
          -7.65307248e-02,  4.48005758e-02, -6.97471946e-02,
          -5.47802597e-02,  4.52120341e-02,  6.36305436e-02,
           5.02580553e-02,  1.39695987e-01,  2.25503203e-02,
           4.73744832e-02, -5.41626886e-02, -7.52258375e-02,
           5.37247807e-02, -1.12201795e-02,  3.93679142e-02,
          -5.70552684e-02, -1.16257463e-02, -5.66892810e-02,
           1.09660355e-02, -5.09460866e-02, -2.56359838e-02,
          -3.05005070e-02,  5.15261255e-02],
         [-1.00246280e-01, -7.14629441e-02,  6.64365888e-02,
          -1.50498956e-01,  4.05225046e-02, -6.34586019e-03,
          -4.70558032e-02, -1.12376630e-03,  1.37664573e-02,
           7.23844469e-02, -4.42507640e-02,  9.08808708e-02,
           4.20920029e-02, -5.13935864e-01,  3.06585245e-02,
          -1.19501486e-01,  5.61168529e-02,  1.13821678e-01,
           2.44147182e-01, -7.02864677e-02, -2.78619975e-02,
          -1.28182948e-01, -3.47898342e-02, -2.63737828e-01,
          -2.33902186e-02, -1.02041565e-01, -3.67327072e-02,
          -1.04636818e-01, -3.78885381e-02, -1.35465771e-01,
          -1.62757516e-01,  1.55552372e-01],
         [ 5.02761640e-02,  8.09628367e-02, -1.12306683e-04,
          -6.34482205e-02, -5.72540984e-02,  5.09650223e-02,
          -4.04167660e-02,  2.12191772e-02, -2.92832181e-02,
          -8.28531086e-02, -6.07587062e-02, -3.17829587e-02,
          -6.34846538e-02, -6.84832931e-02, -2.98848213e-03,
          -6.55873716e-02,  7.54953325e-02,  3.33328657e-02,
          -5.32306917e-02,  4.99064848e-02, -2.22257841e-02,
           4.67073284e-02, -5.79364449e-02, -5.09954840e-02,
           5.12133986e-02,  8.79250765e-02,  3.95244546e-02,
          -3.21635120e-02,  2.91287154e-02,  2.53403857e-02,
          -5.47241531e-02,  4.15600538e-02],
         [-1.13941237e-01, -7.79804662e-02,  1.26665145e-01,
          -6.87945113e-02,  4.79828343e-02,  5.51697239e-02,
           1.53786972e-01,  1.40945129e-02,  1.22246727e-01,
           6.65230453e-02, -3.46258432e-02,  1.28855661e-01,
          -2.02344675e-02,  8.00868273e-02,  8.08479935e-02,
           9.87328310e-03,  7.89241642e-02,  2.22208053e-02,
           9.55631286e-02, -4.00713161e-02, -3.67208122e-04,
          -1.44588634e-01,  1.15544572e-02, -5.18173650e-02,
           7.47480020e-02, -3.00646457e-03,  6.95096552e-02,
          -2.38587316e-02, -5.50464867e-03, -3.71245265e-01,
           3.87783274e-02, -3.63992117e-02],
         [-5.94860082e-03,  2.69785989e-02, -9.86717828e-03,
           3.30741778e-02,  8.35895613e-02,  6.48471192e-02,
          -9.88951996e-02,  5.60699143e-02, -3.88155617e-02,
          -9.48195159e-02, -3.10754832e-02,  3.69551778e-02,
          -1.32526726e-01,  3.38171003e-03,  8.26310925e-03,
           3.97918634e-02,  7.57622123e-02,  1.90833449e-01,
          -1.27123352e-02,  7.39264954e-03,  2.25690063e-02,
          -2.70063132e-02, -3.57394032e-02, -4.41245474e-02,
          -5.34863696e-02,  4.60744882e-03,  7.28826448e-02,
           4.94588688e-02,  6.41650930e-02, -4.27403897e-02,
           2.98659783e-02,  8.51604193e-02],
         [ 1.93260964e-02,  3.54805179e-02, -8.38642567e-02,
           7.13783503e-03, -4.64050751e-03,  4.14294079e-02,
          -7.10219517e-02, -8.88328478e-02, -9.90070626e-02,
          -1.03836313e-01,  1.10957064e-01,  3.29674073e-02,
          -3.12382616e-02,  1.62841648e-01, -8.22910294e-03,
           1.55701553e-02, -2.82037910e-02,  1.90747809e-02,
          -5.74021367e-03,  4.75284718e-02,  3.37816663e-02,
