{'batch_input_shape': (None, 224, 224, 4), 'dtype': 'float32', 'sparse': False, 'ragged': False, 'name': 'input_2'}[]{'name': 'conv2d_4', 'trainable': True, 'dtype': 'float32', 'filters': 64, 'kernel_size': (3, 3), 'strides': (1, 1), 'padding': 'same', 'data_format': 'channels_last', 'dilation_rate': (1, 1), 'groups': 1, 'activation': 'linear', 'use_bias': True, 'kernel_initializer': {'module': 'keras.initializers', 'class_name': 'GlorotUniform', 'config': {'seed': None}, 'registered_name': None}, 'bias_initializer': {'module': 'keras.initializers', 'class_name': 'Zeros', 'config': {}, 'registered_name': None}, 'kernel_regularizer': None, 'bias_regularizer': None, 'activity_regularizer': None, 'kernel_constraint': None, 'bias_constraint': None}[array([[[[-9.12762657e-02,  5.12944870e-02,  9.47976783e-02,
           5.60281686e-02,  1.81789957e-02, -6.82956949e-02,
           2.45130025e-02,  6.28511906e-02, -8.97826105e-02,
           9.99273453e-03,  1.09228358e-01, -8.86760950e-02,
          -5.06425574e-02, -1.18370160e-01, -1.59074932e-01,
          -2.64002919e-01, -9.29402635e-02, -9.32542160e-02,
          -1.30550321e-02,  6.76785335e-02, -1.18533485e-01,
           7.85567388e-02, -1.10122479e-01, -5.76074906e-02,
           6.80525377e-02, -4.57594208e-02,  1.79218326e-03,
           8.49216357e-02, -1.09072201e-01, -4.60095098e-03,
           3.19668502e-02, -1.82869378e-02,  8.85469606e-04,
          -2.50159502e-02,  4.88819275e-03, -1.94406714e-02,
          -1.24387883e-01, -4.82082814e-02, -1.15742169e-01,
          -4.10677604e-02, -1.09843269e-01, -1.12850450e-01,
          -6.50464371e-02, -5.85448109e-02,  1.77336052e-01,
           1.57191530e-01, -1.01782613e-01, -1.17111476e-02,
          -9.94089395e-02, -6.50804341e-02, -7.67557994e-02,
          -3.58692780e-02, -1.29716918e-01, -6.80954009e-02,
          -1.08602345e-01, -1.13731682e-01, -1.91027131e-02,
           8.63693431e-02, -7.93333799e-02, -1.90947518e-01,
          -1.07255630e-01, -9.25417319e-02,  2.68357806e-02,
          -7.55376816e-02],
         [-5.33043891e-02,  1.48147970e-01,  1.09079190e-01,
          -1.86682921e-02, -9.79841799e-02, -7.97106922e-02,
           3.53785120e-02,  4.56275493e-02, -4.27040085e-02,
          -7.95881525e-02,  4.68552159e-03,  5.47065139e-02,
           2.89984234e-02,  7.11300075e-02, -1.92245901e-01,
          -2.56541252e-01, -6.77097440e-02,  9.49908867e-02,
          -1.08981095e-01, -4.26473767e-02,  6.41088337e-02,
           1.46789804e-01, -4.27735932e-02,  6.45467341e-02,
          -6.90431427e-03, -9.84250456e-02,  4.12947908e-02,
          -1.06059965e-02,  2.24310793e-02,  8.81483778e-03,
           6.11255988e-02, -1.14777975e-01, -6.41299859e-02,
           1.03486320e-02,  3.96313891e-02, -1.55683488e-01,
          -7.48915970e-02, -1.07079940e-02, -5.66010997e-02,
           1.08540736e-01, -4.02846485e-02,  2.50298176e-02,
           2.37196479e-02,  3.14331762e-02,  9.91557091e-02,
           8.02932903e-02, -3.80433314e-02,  4.80583049e-02,
          -4.97455001e-02,  2.81124003e-02,  2.26518344e-02,
          -7.15112239e-02, -1.05256006e-01, -1.95572436e-01,
           7.31734745e-03,  2.56534424e-02, -5.81939034e-02,
           4.90334369e-02, -1.31884649e-01, -2.04320267e-01,
          -4.52636480e-02,  7.50151053e-02,  1.84321590e-02,
          -6.89273551e-02],
         [-9.28838626e-02,  1.20521327e-02, -1.24011654e-02,
           3.90678942e-02, -7.51909390e-02, -1.41802952e-01,
          -1.56704392e-02, -8.77220482e-02, -1.02231540e-02,
           6.15720591e-03,  5.68220802e-02,  2.54900139e-02,
           1.45970862e-02, -9.02686566e-02, -1.70333818e-01,
          -1.05425462e-01,  2.39039902e-02, -4.08195704e-02,
           7.13563338e-02,  4.08708751e-02, -8.12397674e-02,
           2.49628678e-01, -1.63692255e-02, -8.25852305e-02,
          -1.15215527e-02,  5.17156124e-02, -2.18314622e-02,
           9.97293144e-02, -1.08736649e-01, -8.50546658e-02,
           5.21364175e-02,  4.03003320e-02,  5.07330559e-02,
           5.85061312e-02, -1.43268635e-03, -3.86718027e-02,
          -1.37401119e-01,  1.60245188e-02,  2.56244577e-02,
          -6.96067140e-02, -1.06200211e-01, -2.74816598e-03,
          -6.03735819e-02, -4.81967665e-02,  5.26730791e-02,
           1.05774008e-01,  4.84281480e-02, -9.51256882e-03,
          -9.97378156e-02,  5.74236065e-02,  5.70124434e-03,
           1.19561395e-02,  4.69246274e-03, -6.28854334e-02,
           4.16912660e-02, -4.13972512e-02, -9.90509018e-02,
          -5.22377826e-02, -2.97531970e-02, -3.15549076e-01,
          -6.15364686e-02,  7.59712905e-02,  5.50470613e-02,
          -9.68432650e-02],
         [-7.75408000e-03,  3.68020162e-02,  8.14030394e-02,
          -9.83797684e-02, -3.08876708e-02, -7.44503662e-02,
          -5.92687577e-02, -9.17971581e-02, -4.65159714e-02,
           3.59418914e-02,  4.00679037e-02,  4.97962534e-03,
           1.72539204e-02,  5.35308495e-02, -2.72137225e-02,
           6.23835102e-02,  9.32199582e-02, -5.45468219e-02,
           7.37308338e-02, -4.77114283e-02,  3.91351804e-02,
           9.64750275e-02,  4.29257974e-02,  4.54525575e-02,
          -8.11597705e-03,  9.71993729e-02, -4.83482331e-03,
           4.98168394e-02,  2.77023688e-02, -5.53982332e-02,
          -7.86371827e-02,  5.32766953e-02,  9.69334468e-02,
          -4.91431430e-02, -2.72016078e-02, -4.54721190e-02,
           9.07033756e-02,  3.35115567e-02, -1.92958862e-03,
          -1.49722397e-02, -9.68799293e-02, -7.32462108e-03,
           3.26376334e-02, -6.86509907e-02, -8.69534165e-02,
          -3.22693139e-02, -6.95990175e-02,  7.58828968e-03,
           1.61972269e-02, -2.31343955e-02, -4.15893197e-02,
           7.82442167e-02, -5.51222265e-03, -2.93436125e-02,
          -1.12972036e-02, -4.50215116e-02, -4.15862501e-02,
           2.69600675e-02,  3.22710201e-02, -3.84807326e-02,
          -5.75198829e-02, -3.40053737e-02,  3.23054418e-02,
          -6.42106161e-02]],

        [[-6.86119273e-02,  1.07340179e-01,  6.11096807e-02,
          -2.08034888e-02, -9.82444510e-02, -8.74649659e-02,
           1.17720133e-02, -5.19961640e-02,  8.73833429e-03,
           3.72065268e-02, -1.43281922e-01,  4.20430377e-02,
           7.00553358e-02,  7.24303946e-02,  1.15458176e-01,
          -2.05062866e-01, -7.85102993e-02,  9.15661678e-02,
           9.45891663e-02, -1.12580232e-01, -4.53051813e-02,
          -8.34620818e-02, -6.77137822e-02, -7.79133365e-02,
           2.25932784e-02,  9.55244526e-02, -5.20651452e-02,
          -4.94487472e-02,  3.96527313e-02,  6.90145865e-02,
           4.35507409e-02,  3.57687697e-02, -2.79080383e-02,
          -2.72708628e-02,  2.40112022e-02,  2.37938911e-02,
          -1.02298096e-01, -8.71837896e-04, -1.27079353e-01,
           5.04010357e-02, -3.08174975e-02, -1.24411359e-01,
          -1.69112708e-03, -5.99431098e-02,  1.17853269e-01,
           3.89748774e-02,  7.56864324e-02,  6.74212798e-02,
          -1.38646081e-01,  8.54847133e-02, -8.26939791e-02,
          -8.86145160e-02, -9.92377400e-02, -4.37296666e-02,
          -4.58873138e-02, -4.38553281e-02,  1.38044162e-02,
           6.22285828e-02, -9.14494246e-02, -1.89400062e-01,
          -4.50363606e-02,  6.26011416e-02,  1.28412237e-02,
          -7.17463046e-02],
         [-2.42510419e-02,  9.72828567e-02, -2.59473408e-03,
           6.96121901e-02, -1.17191374e-01,  5.33264652e-02,
           3.56977955e-02, -7.61492923e-02, -1.12562545e-01,
           1.98452510e-02,  1.04340734e-02, -6.93008080e-02,
           6.84857070e-02,  6.30166680e-02,  1.86477154e-02,
          -2.13835165e-01, -2.49724220e-02, -3.16650495e-02,
           1.96931809e-02, -7.68757090e-02, -3.89231853e-02,
           8.85893032e-02,  1.21372752e-02,  2.63950997e-03,
          -1.44008681e-01,  2.59986217e-03,  2.49360036e-02,
           9.44238082e-02, -4.32654172e-02, -3.73308137e-02,
           2.05047168e-02,  3.12165841e-02, -4.86131795e-02,
          -4.34603775e-03,  5.77105395e-02, -1.37815662e-02,
          -1.47701159e-01,  6.77518323e-02,  1.66302305e-02,
           1.45034909e-01, -9.84917879e-02, -1.15184948e-01,
          -5.86678982e-02,  8.47150534e-02,  1.73890874e-01,
           5.88300712e-02, -1.41807236e-02,  3.38487364e-02,
          -1.78622827e-02,  7.10249543e-02,  2.74095219e-02,
           4.12672199e-02, -5.43805175e-02, -5.51023819e-02,
          -5.90435900e-02, -1.92877892e-02,  2.58921403e-02,
           1.06706219e-02,  2.61772238e-02, -2.69247741e-01,
          -1.13683105e-01, -1.83458235e-02, -1.36238068e-01,
          -1.90481953e-02],
         [-4.03773412e-02,  1.10049937e-02,  1.40125805e-03,
          -3.42733152e-02, -9.63179618e-02, -5.30533269e-02,
          -6.32828698e-02,  8.50201026e-03, -3.86850052e-02,
          -6.95813745e-02, -1.04358077e-01, -4.41070348e-02,
           4.36702110e-02,  8.76159295e-02,  1.32631715e-02,
          -1.20513022e-01,  2.72351708e-02, -8.47716406e-02,
          -8.08546469e-02, -3.46888416e-02,  3.23572494e-02,
           1.01770408e-01, -1.53307319e-02, -3.34260687e-02,
          -1.34280086e-01, -9.65318754e-02,  4.66076620e-02,
          -2.86678020e-02, -7.47113526e-02,  1.49811115e-02,
          -5.48856370e-02,  4.74131964e-02, -6.97845593e-02,
           2.50049643e-02,  1.73488632e-02,  1.04977451e-01,
          -1.33141562e-01,  1.27183460e-02, -4.68970872e-02,
           1.09185189e-01, -9.96459797e-02, -1.27692655e-01,
          -2.96541788e-02,  7.52830878e-02,  8.55057985e-02,
           2.88065113e-02,  4.68915328e-02, -4.95849065e-02,
          -1.45972744e-01,  9.01862830e-02, -3.81050922e-04,
          -3.87929119e-02,  5.55771813e-02, -1.74853086e-01,
           2.13194732e-02, -3.62951271e-02, -6.99607953e-02,
          -1.38019593e-02, -1.34568391e-02, -3.15357655e-01,
          -9.16656554e-02, -5.67627884e-02, -7.38579854e-02,
           1.32887652e-02],
         [-4.76036146e-02,  8.19406435e-02, -2.88057476e-02,
           7.69672468e-02, -4.63240966e-02,  6.83586374e-02,
          -2.04871818e-02,  5.26404008e-02, -8.54912251e-02,
          -4.50226441e-02,  2.25688368e-02, -7.49292225e-03,
          -1.11876205e-02, -4.63823564e-02, -6.19706698e-02,
          -3.94553691e-02,  4.87672314e-02, -1.89798996e-02,
          -5.80651090e-02,  2.49143839e-02,  8.58962908e-02,
          -7.93616995e-02,  9.47969928e-02, -6.01924025e-02,
           2.76067108e-03,  4.46321145e-02,  5.23585603e-02,
           5.49199507e-02, -9.51289311e-02, -9.54324231e-02,
          -4.16396260e-02,  1.78658590e-02,  7.46368095e-02,
           8.50452408e-02, -1.21358410e-02, -9.36054066e-02,
          -5.36053292e-02, -2.78774053e-02, -3.55389491e-02,
          -8.00132528e-02, -2.97016576e-02,  7.91966841e-02,
           2.76476815e-02, -2.36209109e-02,  9.17864591e-03,
           7.56087825e-02, -2.21378282e-02,  1.97847337e-02,
          -8.46569538e-02, -2.76989415e-02,  6.97618648e-02,
          -7.66754150e-04,  5.51241860e-02, -8.64478499e-02,
          -4.76397574e-02,  8.05105641e-02,  6.58631548e-02,
          -5.45104221e-02,  8.22322071e-03, -7.83225670e-02,
           4.41261157e-02, -3.60566750e-02,  5.16738519e-02,
          -7.79622123e-02]],

        [[-5.29805608e-02,  3.95765230e-02,  1.08179443e-01,
           4.00102884e-02, -1.02218606e-01,  4.39236462e-02,
           5.08265086e-02, -6.69269636e-02, -8.42777193e-02,
           1.24898050e-02, -1.67275250e-01,  7.32443705e-02,
           4.44151163e-02,  4.39852327e-02,  2.69692112e-02,
          -9.81170684e-02,  4.20236066e-02, -3.59796584e-02,
           6.69513196e-02, -5.75694852e-02,  2.45302729e-02,
          -1.03422560e-01,  1.88862404e-03,  3.24724875e-02,
          -2.06810813e-02,  8.52379482e-03,  3.64950784e-02,
          -2.64020227e-02, -8.95332396e-02, -3.62840146e-02,
          -1.04063697e-01, -3.28756906e-02, -4.25576344e-02,
           1.70633364e-02, -2.18450412e-01,  3.44022475e-02,
          -5.89585565e-02, -2.47312002e-02, -3.59526165e-02,
           2.12046653e-01,  7.28972331e-02, -1.99607629e-02,
           7.07258098e-03, -4.01133485e-02,  1.41624272e-01,
          -2.31954366e-01, -6.85731173e-02, -5.37909418e-02,
          -1.00513816e-01, -1.18634338e-02, -1.56808555e-01,
           6.28569573e-02, -1.27386609e-02, -1.43520996e-01,
           3.34998481e-02, -1.13253981e-01,  5.58304079e-02,
           8.13671798e-02, -9.02023017e-02, -9.74865481e-02,
          -1.00496784e-01, -3.46407257e-02, -1.03771284e-01,
           4.03759554e-02],
         [-8.16247892e-03, -2.24404056e-02,  1.05757542e-01,
          -5.49938669e-03, -1.45268813e-01, -9.54707935e-02,
           6.69387868e-03,  5.43672629e-02, -4.41844091e-02,
           7.26077035e-02, -8.34517926e-02,  4.27652262e-02,
          -1.06121667e-01, -9.00154486e-02,  4.81293015e-02,
          -2.54919767e-01, -7.38662630e-02,  2.24262197e-02,
           8.23264271e-02,  8.03430676e-02,  8.53379816e-02,
           5.78243881e-02, -1.18963741e-01, -1.36269435e-01,
           7.01349676e-02,  2.61341175e-03, -1.42252948e-02,
           4.02831584e-02, -6.26339987e-02,  4.53852909e-03,
          -1.29946768e-01,  7.97633529e-02, -1.74985379e-02,
           5.74066825e-02, -3.79072428e-02,  6.70991391e-02,
          -8.51543546e-02,  4.75685708e-02, -6.27497658e-02,
           1.42035604e-01, -1.01236023e-01,  6.38689920e-02,
          -2.17460934e-02,  5.38208671e-02,  2.15789899e-02,
          -1.30256668e-01, -1.04126900e-01,  7.30921850e-02,
          -7.61819184e-02, -3.28054372e-03, -1.26733959e-01,
          -1.12680690e-02,  5.94552048e-02, -1.20413983e-02,
          -5.62079297e-03, -2.80341748e-02, -1.04692966e-01,
          -4.76686470e-02, -1.49652824e-01, -1.55637801e-01,
          -1.22025460e-01, -8.66591744e-03,  2.63473974e-03,
           1.48441037e-02],
         [ 9.34671983e-02,  2.12238636e-02, -7.28356512e-03,
           6.75600991e-02,  2.12433953e-02, -4.25079353e-02,
           9.94938686e-02, -6.05559088e-02, -9.06659439e-02,
          -2.62526274e-02, -1.58645481e-01,  4.60791849e-02,
           7.88928270e-02, -2.74858270e-02, -5.97635396e-02,
          -2.34081402e-01,  3.41374315e-02,  1.00408960e-02,
           7.07936138e-02,  7.88366348e-02,  1.57536101e-02,
          -7.70543888e-02, -6.11116514e-02, -1.11884981e-01,
          -2.85163205e-02, -2.30782609e-02,  8.10655653e-02,
           5.19164801e-02, -9.22539234e-02,  1.50651783e-02,
          -1.15235873e-01,  6.29177839e-02,  2.23536771e-02,
          -7.04439953e-02, -2.28898630e-01,  1.88852623e-01,
          -1.25205413e-01, -3.47415246e-02, -3.97794656e-02,
           1.35319054e-01,  1.67667996e-02,  4.82542552e-02,
          -2.14657430e-02, -4.42260265e-04,  4.08817604e-02,
          -2.05668181e-01, -2.52348427e-02, -2.81086341e-02,
          -1.20161092e-02,  2.26391125e-02, -1.80005476e-01,
          -7.85286576e-02,  3.53209637e-02, -2.03668371e-01,
           2.42506284e-02, -6.06900416e-02,  5.92796616e-02,
          -1.50879826e-02, -1.52569100e-01, -1.28720358e-01,
          -4.63676266e-02, -7.64828101e-02, -1.02722026e-01,
          -3.92626375e-02],
         [ 1.53911933e-02,  7.05487356e-02,  1.53086185e-02,
          -5.37553988e-02,  1.34155154e-04, -1.98959187e-02,
           2.90860161e-02,  9.60202143e-02, -6.16003945e-02,
           2.88651884e-03,  5.74844256e-02, -7.05784038e-02,
           4.48398069e-02,  2.60365382e-02,  5.57314977e-02,
          -5.18128313e-02,  7.92183727e-03,  7.88382813e-02,
          -2.17342898e-02,  4.29903194e-02, -2.17685625e-02,
          -6.11170642e-02,  7.29795620e-02, -7.00889826e-02,
          -5.09816073e-02,  8.05894509e-02, -1.09699368e-03,
           9.27967504e-02, -8.51402581e-02,  7.91345537e-03,
          -3.20003405e-02,  6.66017160e-02,  1.57693550e-02,
          -8.45792145e-03,  6.36263862e-02, -1.70802251e-02,
           6.83219507e-02, -1.32659078e-02,  6.26186356e-02,
          -6.06863089e-02, -4.09870595e-02,  4.70033363e-02,
          -6.29705638e-02, -8.20860639e-02, -3.50900739e-03,
           8.57185796e-02,  8.64852890e-02, -8.80006403e-02,
          -2.44960859e-02, -9.43411440e-02, -8.29184800e-03,
          -4.53438424e-02,  1.89593583e-02,  6.13313988e-02,
          -2.53026932e-02,  1.54570565e-02,  8.56347382e-03,
          -8.01517069e-02,  2.51509249e-04,  8.00088421e-02,
           1.33107603e-03,  8.14569667e-02, -4.56878655e-02,
          -7.73450285e-02]]],


       [[[-9.39410552e-02,  5.18228449e-02,  3.29220891e-02,
           2.96939816e-02, -1.71022803e-01, -8.79141316e-03,
           1.71889942e-02, -1.87392253e-02,  6.38067052e-02,
          -8.91315043e-02,  1.41983047e-01,  8.06871206e-02,
           1.00415340e-02, -1.15912959e-01, -4.48676432e-03,
           1.05916671e-01,  6.86365962e-02,  3.88781838e-02,
          -5.20023480e-02,  5.96346557e-02, -5.32950051e-02,
           4.83539179e-02,  3.05454005e-02,  9.10588503e-02,
          -6.11720048e-03, -3.02318521e-02, -3.32542285e-02,
          -8.19263533e-02,  2.23863448e-04, -1.00608476e-01,
           1.92332804e-01, -6.91295341e-02,  5.00882901e-02,
           3.74377100e-03, -1.16906716e-02, -1.84143499e-01,
           3.81494388e-02, -6.02015629e-02, -9.94963646e-02,
          -1.51520610e-01,  6.89776763e-02, -3.57336737e-02,
          -6.85583949e-02,  4.97189499e-02,  5.86196296e-02,
           9.20654908e-02,  1.60273351e-02, -7.55193904e-02,
          -5.23694605e-02, -1.46569544e-02, -1.23320170e-01,
          -7.77247653e-04, -5.86497784e-02, -1.57582283e-01,
          -7.94843584e-02,  8.76021013e-03,  1.35765597e-01,
           2.76497342e-02, -8.43572393e-02, -1.68648928e-01,
           2.84754243e-02,  1.27811907e-02,  2.87698619e-02,
          -4.71240357e-02],
         [ 1.48659013e-02, -6.20780885e-02,  6.04410470e-02,
          -1.77925136e-02, -2.44651847e-02, -4.50131204e-03,
           3.24148708e-03,  6.60305843e-02,  2.66964678e-02,
           5.15080132e-02,  1.49816364e-01, -1.03076428e-01,
          -9.22564566e-02, -9.01741087e-02, -1.82674378e-01,
           6.44394383e-02, -1.09352365e-01,  2.39123385e-02,
          -5.72107658e-02, -4.41131443e-02, -6.80710450e-02,
           5.67382155e-03, -2.17216630e-02,  6.86639771e-02,
           9.32504684e-02,  3.61494645e-02,  3.92899290e-02,
          -6.63806275e-02, -8.88265520e-02, -1.24389656e-01,
           6.40092120e-02, -2.75778752e-02,  6.53016567e-02,
          -3.68955359e-02, -8.19400698e-02, -1.54189914e-01,
          -6.39186874e-02, -8.88886899e-02, -3.44095267e-02,
          -6.34195805e-02,  1.95148550e-02, -9.81877893e-02,
           7.71646351e-02,  2.40624063e-02,  3.78548205e-02,
           1.26111433e-01, -4.21437621e-02,  6.06200472e-02,
           5.14564067e-02, -8.49121660e-02, -9.01189446e-03,
          -2.83794128e-03,  1.91525649e-02, -1.16927490e-01,
          -1.28597273e-02, -9.04465988e-02,  1.55291125e-01,
           1.09216779e-01,  2.16127541e-02, -3.00863683e-01,
          -1.17821649e-01, -2.79283710e-02,  1.07763574e-01,
          -9.43683609e-02],
         [-7.86848068e-02, -9.22210366e-02, -5.27021140e-02,
           4.97312136e-02, -4.72191116e-03,  5.40594012e-02,
          -4.50113453e-02,  6.83231205e-02, -5.72569109e-02,
          -6.01293333e-02,  3.48626636e-02,  8.00949633e-02,
          -1.09716402e-02,  6.76216837e-03, -8.54709148e-02,
           1.19440101e-01,  3.43396068e-02, -7.72955716e-02,
          -3.39218341e-02, -8.87789130e-02,  3.18178646e-02,
          -5.28443186e-03, -3.66168586e-03, -7.42626563e-02,
           8.74013305e-02, -5.08236466e-03,  9.91899054e-03,
           7.18352664e-03, -5.78301847e-02,  4.00540372e-03,
           1.16797723e-01, -6.81151971e-02, -3.42671648e-02,
           8.96253511e-02,  6.87305778e-02, -3.24811190e-02,
           3.36179584e-02,  3.85023803e-02, -1.52178347e-01,
          -1.34342074e-01, -1.23136103e-01, -6.28174320e-02,
          -7.06450567e-02,  7.24364668e-02, -4.85128500e-02,
          -2.61666998e-03,  2.12580804e-02,  6.58071134e-03,
           7.72163719e-02, -1.90634280e-02, -1.26062170e-01,
          -6.56700507e-02, -1.14462741e-01, -1.31279722e-01,
          -7.44716600e-02,  6.00703433e-02,  7.36207217e-02,
          -6.30804375e-02,  1.72832478e-02, -2.83573687e-01,
          -8.16101115e-03, -6.67110756e-02,  8.69757235e-02,
           1.75288152e-02],
         [ 4.81119975e-02, -3.52132469e-02, -1.99032575e-02,
           2.07612067e-02,  1.49469599e-02, -3.10098827e-02,
          -8.26091692e-02, -1.56152025e-02, -8.10613558e-02,
          -3.28200907e-02,  2.37197950e-02, -1.33145601e-02,
          -2.41164416e-02, -4.78326753e-02, -4.30150852e-02,
          -4.85939980e-02,  2.35953405e-02,  6.88771680e-02,
          -5.09321727e-02, -2.77539417e-02,  3.97196934e-02,
           6.11554906e-02, -1.99521780e-02, -2.54115462e-02,
          -8.62393081e-02,  8.95862803e-02,  7.36937448e-02,
          -8.74097645e-02, -6.88661188e-02,  7.76440576e-02,
           8.73231962e-02,  7.89110437e-02,  8.12798068e-02,
           2.02029049e-02, -3.75017039e-02, -4.77616414e-02,
          -2.29202211e-03, -7.12268353e-02, -7.65300915e-02,
          -4.03517708e-02,  7.31960312e-02, -5.75126112e-02,
          -3.42205241e-02, -9.25339609e-02,  8.02027956e-02,
          -2.08473206e-03,  2.58076414e-02,  3.06991413e-02,
          -7.92706013e-02,  1.95824653e-02,  7.43559822e-02,
          -3.69033851e-02, -2.76597068e-02, -5.26489653e-02,
           1.21613145e-02,  8.28748196e-03, -3.81725207e-02,
          -8.60824138e-02, -7.95324966e-02,  8.96528736e-02,
           7.73017108e-03,  7.73236230e-02, -8.39632899e-02,
          -1.04498118e-02]],

        [[ 2.78653689e-02, -8.89745280e-02, -7.78693855e-02,
          -5.30694658e-03, -1.60167545e-01, -5.91924079e-02,
          -4.69335690e-02,  5.56703024e-02,  1.06221952e-01,
          -1.56095102e-02,  3.93959768e-02, -1.60131399e-02,
          -6.86451346e-02, -9.55872610e-02,  8.71718451e-02,
           1.05289109e-01,  4.11240123e-02, -7.88796917e-02,
           3.05652115e-02, -9.04918984e-02, -1.18498513e-02,
          -5.10410927e-02,  7.10982606e-02,  9.42115337e-02,
          -1.82871163e-01,  4.00422746e-03, -1.45289237e-02,
           1.01581514e-01, -8.22855979e-02, -1.05280206e-01,
           8.28942657e-02,  2.92828884e-02, -2.18058396e-02,
           8.07448030e-02,  8.73584971e-02, -1.93420816e-02,
           3.78722884e-02,  3.22523266e-02,  1.43693723e-02,
          -1.91950038e-01,  7.60274241e-03, -2.01669261e-02,
           5.81505448e-02,  3.55461277e-02,  6.58739060e-02,
           4.39377837e-02, -5.07632596e-03,  3.87918055e-02,
           9.05482247e-02,  5.21614701e-02,  2.30662227e-02,
           4.74233599e-03,  2.29725800e-02, -1.18330367e-01,
          -9.86256748e-02, -1.49066851e-01,  1.99388385e-01,
           1.70746092e-02, -1.17342867e-01,  6.95848912e-02,
          -7.87561387e-03, -7.21278489e-02,  3.10669877e-02,
          -6.74390569e-02],
         [ 3.51794995e-02, -1.04178816e-01,  5.99084906e-02,
          -2.33870149e-02, -1.46161556e-01, -1.00969180e-01,
           6.42040521e-02,  2.17290167e-02,  7.68423602e-02,
          -2.78946925e-02, -1.04878619e-02, -1.03895396e-01,
          -8.08247626e-02,  5.25124259e-02,  9.06640217e-02,
           1.67596668e-01, -1.08149134e-01, -7.38102868e-02,
          -6.37927502e-02, -1.35765374e-02, -2.48138923e-02,
          -5.55025972e-02,  6.53589666e-02, -8.18509907e-02,
          -7.01325536e-02, -6.71010315e-02, -7.57555664e-02,
           1.19648255e-01, -5.91960214e-02,  3.38941510e-03,
          -1.68843027e-02, -5.82540333e-02,  7.29277879e-02,
           9.13435221e-03,  9.73596945e-02,  1.01765469e-01,
          -1.22058250e-01, -3.01993005e-02, -1.23450026e-01,
          -1.81021988e-01, -4.88258228e-02, -1.42517567e-01,
          -3.46520208e-02,  6.06225431e-02, -5.39475083e-02,
           6.49777055e-02,  5.03816605e-02, -8.86875689e-02,
          -7.90200010e-02,  1.16319880e-02, -4.84260954e-02,
          -1.10125160e-02, -2.33083963e-02, -6.96518049e-02,
          -4.92745787e-02, -2.88182367e-02,  2.16541499e-01,
           5.03457263e-02, -5.49228825e-02, -5.46735339e-02,
          -1.44376442e-01, -8.36560279e-02,  6.33608699e-02,
           5.93574122e-02],
         [ 3.01634371e-02, -9.67288166e-02, -4.91692722e-02,
          -5.28395995e-02, -3.44911441e-02,  3.95519696e-02,
           9.26479921e-02, -3.60643566e-02,  8.79832283e-02,
           1.92467030e-02, -6.37090579e-02, -9.37914625e-02,
           4.21348736e-02, -1.10035233e-01,  4.68415022e-02,
          -4.62556304e-03,  6.55232742e-02,  9.15863663e-02,
           4.30109575e-02, -9.64298993e-02,  2.02431548e-02,
          -1.34370133e-01,  7.57351071e-02, -7.16945082e-02,
          -3.25479284e-02,  5.15391789e-02, -7.73582011e-02,
           3.30966618e-03,  5.59668019e-02, -6.32518157e-02,
          -8.25695992e-02, -1.15812503e-01, -1.12971157e-01,
          -6.21646158e-02,  6.31259233e-02,  3.85137042e-03,
          -1.47571862e-02, -4.06906344e-02, -9.36147422e-02,
          -6.12838492e-02, -9.24737677e-02, -7.75674805e-02,
          -1.05588228e-01,  1.08010016e-01,  2.62611080e-02,
           5.65362759e-02,  7.34789744e-02,  2.64178850e-02,
          -3.96057591e-02, -2.84879040e-02, -3.82941519e-03,
          -9.26270112e-02,  6.43046647e-02, -1.69688731e-01,
           6.61955625e-02, -1.60731792e-01,  9.75356624e-02,
           6.09636642e-02,  3.47919166e-02,  3.97194363e-02,
          -1.30486712e-01, -9.98088717e-03,  1.06874153e-01,
          -2.54938416e-02],
         [ 7.20535293e-02, -1.70917660e-02,  8.48339275e-02,
          -2.80585214e-02, -6.67108968e-02,  8.58095661e-02,
          -3.12327594e-02,  2.16135830e-02, -4.80625108e-02,
          -8.68835375e-02,  7.70883784e-02, -5.32837808e-02,
          -7.43841752e-02, -7.33485594e-02, -5.20470589e-02,
          -6.15590811e-02,  6.08697608e-02, -1.97752863e-02,
          -3.92303243e-02, -3.98103222e-02, -8.13767686e-02,
          -2.94595435e-02,  3.57236713e-03,  5.78823611e-02,
          -9.33864042e-02,  8.72535035e-02,  2.11093426e-02,
           9.65691581e-02,  7.37416670e-02,  2.25908160e-02,
           1.44651383e-02,  2.80006304e-02,  5.08681759e-02,
           7.84236714e-02, -3.12951729e-02, -2.21716538e-02,
          -9.11864713e-02, -4.52467911e-02,  6.96830824e-02,
          -7.06041083e-02, -4.82643992e-02, -5.71123585e-02,
          -2.62276605e-02, -8.20598304e-02, -5.33478260e-02,
           4.73002270e-02, -4.65488806e-02, -3.70523706e-02,
          -6.90546930e-02, -9.73145813e-02, -2.46783569e-02,
           9.10810605e-02,  1.81391388e-02, -9.31659639e-02,
          -3.09313014e-02,  9.41322744e-03,  3.49631086e-02,
          -4.46774624e-02, -8.48632082e-02,  9.47337598e-03,
           8.28493014e-02, -5.56005910e-02,  2.28677765e-02,
           2.54119709e-02]],

        [[-1.04961656e-02, -3.27856950e-02, -8.67611021e-02,
           4.47718985e-02, -3.38167604e-03,  2.89541762e-03,
           4.86076735e-02, -9.27073061e-02,  3.63533609e-02,
          -6.58973679e-02, -5.50843589e-02,  6.08131066e-02,
           3.35917249e-02, -1.01252936e-01,  7.77269378e-02,
           1.35772884e-01,  1.96943115e-02, -6.76371455e-02,
           5.77447005e-02, -9.28223133e-02, -1.21800732e-02,
          -2.47132733e-01, -4.34475020e-02, -6.78037703e-02,
          -2.61171665e-02, -3.79058835e-03, -4.96629532e-03,
           7.58614168e-02,  6.53055012e-02, -2.11961288e-02,
          -5.43804169e-02,  2.75787860e-02,  3.55897732e-02,
           9.58635584e-02, -5.27557246e-02,  8.12610835e-02,
          -4.38911282e-02,  6.06597075e-03, -6.42229319e-02,
          -6.99781254e-02, -4.80892733e-02, -2.16213353e-02,
          -2.06486695e-03, -4.88694832e-02, -9.70611647e-02,
          -2.00840160e-01,  7.15770125e-02,  7.20102191e-02,
           8.05354267e-02, -8.53623971e-02, -3.43474932e-02,
          -4.52988073e-02,  6.99005499e-02, -9.79674831e-02,
          -7.59036317e-02, -1.30016282e-01,  2.55818050e-02,
           4.65893447e-02,  4.14586114e-03,  9.49344411e-02,
          -1.45392120e-01, -6.88255904e-03,  1.94309894e-02,
          -2.48678550e-02],
         [ 5.61983772e-02, -1.16723984e-01, -1.13875344e-01,
          -1.00927420e-01,  6.06401600e-02,  5.67163005e-02,
           6.41064346e-02, -7.30896601e-03, -3.32350470e-02,
          -1.38268489e-02, -3.64864767e-02, -2.85316346e-05,
           1.27931433e-02,  3.74057330e-02,  1.13231316e-02,
           7.33850524e-02, -5.11861704e-02, -5.90344034e-02,
          -2.00073719e-02, -4.17471081e-02,  8.93221796e-02,
          -1.46778792e-01, -9.01617184e-02, -1.21197544e-01,
          -4.07320037e-02,  3.43692228e-02,  3.15315351e-02,
           9.48068276e-02, -6.00100495e-02,  6.06794050e-03,
          -1.35484517e-01, -9.02187154e-02,  4.60584946e-02,
           8.82225707e-02, -1.78883836e-01,  1.25597835e-01,
          -1.52639383e-02,  6.11621663e-02, -7.71847740e-02,
           2.97642965e-02,  8.44006464e-02, -5.58490166e-03,
          -2.95876171e-02,  8.78381059e-02, -3.39346491e-02,
          -2.26331979e-01, -4.31357287e-02,  2.35047471e-02,
          -3.75578851e-02, -3.22007909e-02, -1.06776640e-01,
          -3.45877036e-02,  2.42660064e-02, -4.37872894e-02,
           2.01906692e-02, -3.43452655e-02,  1.91936508e-01,
          -1.29681977e-03, -5.02749719e-02,  1.58973694e-01,
          -1.20472699e-01, -7.19503537e-02, -4.94839735e-02,
          -3.96042950e-02],
         [ 1.63177326e-02, -1.36634409e-01,  1.52309490e-02,
          -8.84141214e-03,  2.80139837e-02,  5.22275418e-02,
          -4.52517159e-03, -1.03993379e-02, -3.51270102e-02,
          -4.64397781e-02, -8.62095356e-02,  4.33260240e-02,
          -9.24592745e-03, -1.08959019e-01,  2.81486660e-02,
          -7.92001281e-03, -8.04281980e-02,  6.90277442e-02,
           1.62421563e-03, -8.93230140e-02,  1.92791019e-02,
          -2.39873782e-01,  3.29308659e-02, -6.21911585e-02,
          -8.38427022e-02, -4.08041067e-02,  4.63085398e-02,
           6.65710941e-02, -1.00934163e-01,  5.79098351e-02,
          -5.67557886e-02, -7.31961876e-02,  1.07723828e-02,
           2.75332965e-02, -9.86347869e-02,  1.03248894e-01,
           7.75650889e-02,  3.23110893e-02, -1.39484435e-01,
           6.84254337e-03,  7.94077590e-02,  5.66910766e-02,
           1.55929010e-03,  1.00073531e-01,  3.31253782e-02,
          -2.15209588e-01, -9.81023833e-02,  5.01776822e-02,
          -2.65591796e-02, -5.71812466e-02, -3.01048420e-02,
          -4.79946956e-02, -1.35727338e-02, -4.89197560e-02,
          -6.76662847e-02, -5.99390008e-02,  1.14439674e-01,
           6.72336146e-02, -6.65275753e-02,  3.59434597e-02,
          -2.98471767e-02,  4.65721413e-02,  7.53005445e-02,
          -6.69277608e-02],
         [-7.38920867e-02,  9.44530144e-02,  3.79732326e-02,
           7.59714767e-02,  6.08053878e-02,  6.07938543e-02,
          -4.21482362e-02, -8.77397656e-02, -8.55385065e-02,
           5.91585860e-02, -5.80740795e-02, -3.44489962e-02,
          -2.53383070e-03, -3.01916152e-03, -4.09345813e-02,
           5.39627597e-02, -9.75768268e-02,  5.54665253e-02,
           8.45310166e-02,  6.49902746e-02,  1.28798187e-04,
           1.22956559e-02,  3.60582396e-02, -9.04149711e-02,
          -1.49760619e-02, -7.51577243e-02, -8.01598504e-02,
          -8.39449912e-02,  1.76051259e-02,  2.70594433e-02,
          -2.70276740e-02, -4.47270125e-02, -6.74562603e-02,
          -9.08555239e-02, -4.22328711e-03, -5.29766791e-02,
          -4.69356589e-02,  7.10188821e-02,  9.90131423e-02,
           6.43449649e-02, -1.82145834e-02, -7.20696524e-02,
           7.38681033e-02, -8.45240057e-03, -5.95819503e-02,
           2.57296860e-03, -7.40507022e-02,  7.45907426e-04,
           1.94188207e-02,  9.34843048e-02, -7.13043138e-02,
          -8.95124823e-02, -9.46876407e-02, -6.40149564e-02,
           9.00112763e-02,  9.09954682e-02, -9.36703235e-02,
           8.44900981e-02,  1.37569755e-02, -1.22709647e-02,
          -6.85928166e-02,  6.22962490e-02,  5.48891649e-02,
          -2.51941457e-02]]],


       [[[ 1.20733745e-01, -2.05560010e-02,  3.19623686e-02,
          -6.09831661e-02, -8.96850973e-02, -1.13345407e-01,
          -8.87372997e-03, -6.87691569e-02,  1.20753601e-01,
          -9.43347439e-02,  1.28666714e-01,  8.14465135e-02,
          -2.10403167e-02, -1.41531587e-01, -1.26199618e-01,
          -9.09580570e-03, -3.28231193e-02,  1.48878340e-02,
          -5.55899143e-02, -8.22216347e-02, -2.80769519e-03,
          -9.58815962e-03,  1.11369193e-02,  5.27806208e-02,
           1.33384153e-01, -7.06915259e-02, -1.78761184e-02,
          -5.38588427e-02,  5.06731160e-02, -5.02370810e-03,
           8.72775912e-02, -3.24372272e-03,  2.78743263e-02,
          -1.04051813e-01, -9.11407992e-02, -1.88141122e-01,
           1.00891076e-01, -6.31154999e-02,  1.25391826e-01,
          -9.21561643e-02, -3.42769995e-02, -1.23258211e-01,
          -1.29004363e-02,  9.40657854e-02,  2.26750448e-02,
          -4.24453206e-02,  7.46222585e-03, -1.53058106e-02,
          -8.48528836e-03,  2.95330286e-02, -1.90517176e-02,
           5.34157529e-02, -7.62429610e-02, -7.99857080e-02,
           7.37941414e-02,  3.39156352e-02, -1.54282376e-01,
          -8.94186273e-02,  1.71293467e-02, -1.61886960e-01,
          -2.52720676e-02,  5.89904897e-02, -6.49838448e-02,
           7.41439238e-02],
         [ 6.29840717e-02,  8.06071758e-02, -3.45586762e-02,
           4.97681126e-02,  2.68801227e-02,  1.80063341e-02,
          -8.20478275e-02, -1.07520051e-01, -4.85058948e-02,
           9.66171324e-02, -9.40241572e-03,  2.26383433e-02,
          -9.12835300e-02, -3.68085429e-02, -1.24045581e-01,
          -3.97021025e-02,  2.59484369e-02,  3.26584540e-02,
          -8.81555155e-02, -4.35106941e-02,  7.29222521e-02,
          -1.18359774e-01,  6.56655207e-02, -1.55843338e-02,
           3.23863402e-02,  6.72756508e-02,  1.28841568e-02,
          -3.59127708e-02,  9.59858298e-02, -1.12274759e-01,
           1.28753722e-01, -7.60816084e-03, -1.05607346e-01,
           3.62248532e-02, -1.21682875e-01, -1.74690112e-01,
           1.11052394e-01, -3.33633414e-03,  4.77514789e-02,
           5.23086302e-02, -4.53093424e-02, -4.81381118e-02,
          -8.95283595e-02,  8.29682499e-02, -1.26966149e-01,
          -4.80807759e-02, -7.30167627e-02,  5.52767441e-02,
          -3.44224907e-02,  6.35823980e-02,  4.13333252e-02,
          -4.32210006e-02, -5.17193265e-02, -1.41610950e-01,
          -4.45259288e-02, -5.90591393e-02,  1.21467337e-02,
           4.95203510e-02, -4.56159711e-02, -1.19087905e-01,
           1.01557381e-01, -5.73913082e-02, -5.80148585e-03,
           9.38044637e-02],
         [-4.72015366e-02,  3.81234847e-02, -5.38700202e-04,
           5.82502112e-02, -9.14850906e-02, -6.36602640e-02,
          -7.35107586e-02,  1.53347729e-02, -9.48794885e-04,
          -7.78485239e-02,  5.84209412e-02,  8.19556117e-02,
           6.74910191e-03, -6.23548590e-03, -5.64567856e-02,
          -3.12559940e-02, -3.39356624e-02, -3.29268910e-02,
          -3.27994078e-02, -4.82776612e-02,  2.35053860e-02,
          -1.04165360e-01,  2.69445907e-02, -4.56841141e-02,
           1.73533991e-01, -6.26250803e-02, -1.20268732e-01,
          -1.03360228e-03,  9.25568640e-02,  4.16519120e-02,
           1.42861858e-01, -1.20372087e-01, -3.93632054e-03,
           7.01738149e-02, -6.86232969e-02, -5.88585883e-02,
           3.70214544e-02,  4.35970612e-02,  1.58809572e-01,
          -2.23234929e-02, -6.27462193e-02, -6.01851195e-02,
          -7.11301565e-02,  2.05542985e-02, -4.09024395e-02,
          -6.44805375e-03,  5.78948148e-02, -7.77229369e-02,
          -7.94106349e-02,  9.53976139e-02, -9.09123719e-02,
          -6.29728660e-02, -8.50570574e-02, -6.44586980e-02,
           2.33182423e-02,  6.91331699e-02, -1.62860230e-01,
           5.08577302e-02, -1.25394780e-02, -1.19548902e-01,
           6.11714758e-02, -1.04900599e-01, -1.45791527e-02,
           3.41689549e-02],
         [-6.96389377e-02,  5.68609908e-02,  9.26854238e-02,
          -5.32639734e-02, -1.08961463e-02,  4.24844995e-02,
          -7.45841712e-02, -9.20855701e-02,  6.49731606e-03,
           5.99747673e-02,  4.75039408e-02, -7.34941661e-02,
           4.46957350e-03, -8.77729282e-02, -7.84501880e-02,
          -5.25593534e-02, -5.12968078e-02,  3.15835327e-03,
          -3.39996815e-02,  8.18032995e-02,  2.60261521e-02,
           4.11262885e-02, -9.75021794e-02,  1.59533247e-02,
           3.84076461e-02, -7.27413893e-02,  2.62445956e-03,
          -1.13751516e-02,  5.74318245e-02,  3.44823077e-02,
           3.34955826e-02,  1.07599124e-02, -6.53415918e-05,
           9.05512497e-02, -8.54127854e-03, -5.80123737e-02,
          -9.72980335e-02, -5.97286448e-02, -1.46194324e-02,
           2.82353535e-02, -2.41334587e-02, -8.38014111e-02,
           4.44862023e-02, -9.02395248e-02,  8.48487094e-02,
           7.76105151e-02, -5.26714623e-02, -7.54694343e-02,
          -8.34305957e-02,  2.04698071e-02, -5.46518974e-02,
           7.55484030e-02,  3.35239246e-02, -6.29435778e-02,
          -2.96536386e-02,  7.70962164e-02, -7.14372694e-02,
           8.45231786e-02, -2.49888375e-02, -4.76711988e-03,
           9.35731307e-02,  1.53903663e-02, -8.70886594e-02,
           9.28320363e-02]],

        [[ 2.00536363e-02,  1.81047823e-02, -8.15194845e-02,
          -8.66581798e-02, -1.55994222e-01, -3.66048403e-02,
          -1.04857743e-01, -8.39869753e-02,  7.53151849e-02,
           9.92361177e-03,  3.64018278e-03, -5.35922870e-02,
          -3.45775597e-02, -5.47873043e-02,  2.52429564e-02,
           3.96525040e-02, -7.34294355e-02,  3.22182216e-02,
           7.81070217e-02,  6.33717254e-02,  2.71695592e-02,
          -1.72292531e-01,  4.52334806e-02, -1.17733732e-01,
          -5.45622408e-02,  8.84368941e-02, -3.23011493e-03,
           1.01833612e-01, -5.29739112e-02, -5.81705607e-02,
           2.81430501e-02, -4.15915363e-02, -1.62088256e-02,
           4.02906425e-02, -1.30427510e-01, -2.19517518e-02,
           4.04971540e-02, -3.92301567e-02,  4.08213064e-02,
          -1.86206922e-01, -6.91287741e-02,  6.51317090e-02,
          -2.47960482e-02,  3.47890370e-02, -8.45130980e-02,
           3.57106924e-02, -1.21491365e-01, -3.18600163e-02,
           2.79953815e-02,  3.55268195e-02, -6.25004768e-02,
          -6.85279677e-03, -4.75426205e-02, -6.62171170e-02,
          -5.71649224e-02, -9.86759216e-02, -1.27467006e-01,
           1.98765974e-02, -3.12570110e-02,  2.27731895e-02,
           3.20833661e-02,  6.06242344e-02, -3.09174191e-02,
           4.77660960e-03],
         [ 1.19202711e-01, -3.01177483e-02, -1.08304754e-01,
           1.92052033e-02, -1.66646227e-01,  5.27163851e-04,
          -7.93120340e-02, -3.20511982e-02,  7.99947083e-02,
          -8.95404294e-02, -6.99184611e-02, -1.53556168e-02,
          -2.97702160e-02, -7.70263299e-02,  9.53861326e-02,
           1.51899653e-02, -6.26731291e-02, -1.43046286e-02,
          -9.43084992e-03, -2.14495696e-02,  5.86436987e-02,
          -1.16536371e-01, -1.66322812e-02,  2.59250496e-02,
          -3.01993154e-02, -6.36083186e-02, -8.74787346e-02,
           1.18561834e-02,  3.23605835e-02, -2.56782509e-02,
           4.95769605e-02,  5.91832735e-02, -1.79355964e-02,
           9.60737616e-02, -3.29611152e-02,  4.12626937e-03,
           1.37609914e-01, -9.97059420e-02,  7.09831864e-02,
          -1.73231363e-01,  6.63330108e-02, -5.12151867e-02,
          -7.81417415e-02,  9.75766629e-02, -7.76901394e-02,
           7.57776648e-02, -5.73715903e-02, -9.33580920e-02,
          -1.35631543e-02,  1.02831133e-01, -1.00098051e-01,
          -5.44194430e-02,  4.91925254e-02, -1.43916994e-01,
           7.99936205e-02, -1.19819820e-01, -1.14208899e-01,
           9.07450095e-02, -1.35598943e-01,  4.63967137e-02,
          -4.27054353e-02, -4.68479209e-02, -1.02578729e-01,
          -8.45956281e-02],
         [-1.25991944e-02, -1.84490532e-02, -5.92567883e-02,
          -8.15234631e-02, -6.10553510e-02,  1.78210996e-02,
          -7.18301460e-02, -6.05158731e-02,  1.48134828e-01,
           4.28297499e-04, -5.59367612e-02,  1.18585192e-02,
          -1.28634244e-01, -9.87209678e-02,  7.60580078e-02,
          -7.79106934e-03,  6.29109666e-02, -5.00414670e-02,
           4.65549827e-02, -5.54219745e-02,  7.03526884e-02,
          -1.36508927e-01, -8.86063129e-02,  1.13487141e-02,
          -4.50081006e-02, -1.90144014e-02, -2.50209533e-02,
          -7.18591958e-02,  5.23838624e-02, -5.45663126e-02,
           1.32976212e-02, -7.73571059e-02, -9.72852558e-02,
          -1.65923759e-02,  2.49743881e-03, -1.97681859e-02,
           8.44758898e-02, -2.96963956e-02,  1.29784673e-01,
          -8.36580843e-02,  5.89683019e-02,  5.09405583e-02,
           2.33324394e-02,  1.08992495e-02, -1.15304753e-01,
          -6.20201193e-02,  3.75294946e-02, -1.05553545e-01,
          -1.48209427e-02, -5.25079668e-03, -1.11524768e-01,
          -1.04094170e-01, -4.74300459e-02, -8.92648771e-02,
          -2.46489677e-03, -1.21565655e-01,  1.75708774e-04,
          -8.74423385e-02, -3.56237069e-02,  4.37067188e-02,
           1.15479313e-01,  6.77550435e-02, -5.90837821e-02,
           9.58376657e-03],
         [-8.14494491e-02, -6.65113255e-02, -6.26453087e-02,
           7.50101581e-02,  5.02980724e-02,  5.51784113e-02,
           6.10539839e-02,  8.09036866e-02, -1.70085728e-02,
           3.98204997e-02,  4.63187695e-03, -2.85250396e-02,
          -1.05729625e-02,  2.39951015e-02,  5.69408312e-02,
           5.34055158e-02,  3.00655290e-02,  9.84370932e-02,
          -4.74702567e-03,  4.58442420e-03,  8.93257484e-02,
          -5.00161275e-02, -8.53948817e-02,  7.68894330e-02,
           7.31350482e-03,  9.67920199e-02,  4.77986857e-02,
          -4.13385443e-02, -1.89006478e-02, -9.55144539e-02,
           4.52318266e-02,  6.10740110e-02, -3.75771299e-02,
          -2.44282186e-02, -3.88179570e-02, -4.33756337e-02,
          -6.90753013e-02,  6.21844009e-02, -9.59054083e-02,
           8.62763599e-02, -8.75288844e-02, -6.88074306e-02,
           3.52657214e-02,  4.52197567e-02,  8.79259929e-02,
          -1.26962662e-02,  2.59692371e-02, -1.08347163e-02,
          -5.62091321e-02, -4.05586883e-02, -9.30946693e-02,
           4.87710461e-02,  5.44812903e-02,  2.12839618e-02,
          -5.97074442e-02, -7.42889643e-02,  3.64111289e-02,
           5.37497625e-02, -5.65494262e-02,  4.23751697e-02,
          -9.29708257e-02,  4.13103029e-02, -5.35138771e-02,
          -8.82041603e-02]],

        [[ 1.32538840e-01, -5.27406633e-02, -7.91439563e-02,
          -3.34251113e-02,  4.88889962e-02, -8.42011534e-03,
          -6.01086989e-02, -4.30065356e-02,  1.87488683e-02,
          -7.01464489e-02, -1.05914377e-01, -4.74848924e-03,
          -5.62462173e-02, -3.74659314e-03, -6.17827959e-02,
           5.97156212e-02,  4.29370487e-03, -8.27096924e-02,
           9.28204358e-02, -2.44451091e-02, -3.62727866e-02,
          -1.79304797e-02,  2.21657455e-02, -1.24452159e-01,
           1.40672009e-02, -4.38943245e-02, -8.71104188e-03,
           7.84534439e-02, -5.89481816e-02,  5.60382754e-02,
          -1.32412836e-01, -8.88161138e-02,  1.65373571e-02,
           4.55045812e-02, -6.88645169e-02,  1.14667721e-01,
           1.11724332e-01,  8.90490413e-03, -3.80013473e-02,
          -7.16931745e-02,  4.75282483e-02, -7.29598701e-02,
           1.45187033e-02,  7.86327422e-02, -1.86217472e-01,
          -5.76067008e-02, -1.39361676e-02, -2.74379514e-02,
           6.97551668e-02,  7.63308778e-02, -5.98673150e-02,
           4.55308706e-02, -5.72134554e-02, -1.43019602e-01,
          -6.44252002e-02, -1.35117903e-01, -1.85106710e-01,
          -8.01718086e-02, -1.32611111e-01,  1.41168669e-01,
          -8.86951983e-02, -7.75088444e-02, -1.26583219e-01,
           4.40589356e-05],
         [ 3.18615809e-02,  9.93556082e-02, -7.89091736e-02,
          -1.32290736e-01, -2.51966473e-02, -9.19798091e-02,
          -4.23838310e-02,  5.62838614e-02,  1.13191940e-01,
           2.10508350e-02,  5.86677678e-02, -8.03808942e-02,
           7.14576396e-04, -1.42240688e-01, -2.90800873e-02,
           3.33680101e-02,  5.87750152e-02, -2.10717972e-02,
           6.49727508e-02, -1.55294910e-02,  9.05757919e-02,
          -1.73467129e-01, -1.05848528e-01, -1.50606516e-04,
          -3.57702821e-02, -5.28965294e-02, -7.39541724e-02,
           1.97806451e-02,  3.48547362e-02, -3.64927910e-02,
          -7.13396743e-02, -1.28670698e-02, -6.11476041e-02,
           3.78606804e-02, -1.01287246e-01,  7.59734586e-02,
           1.72410518e-01, -2.47116573e-02,  3.59187834e-02,
          -9.15645435e-02, -5.97716644e-02, -6.72224909e-03,
           2.93444507e-02,  4.81697880e-02, -1.61437273e-01,
          -2.09376618e-01, -4.97029051e-02,  2.71427892e-02,
           2.66743805e-02,  6.82241321e-02, -1.37267455e-01,
           8.33040848e-02, -4.57098484e-02, -9.78930891e-02,
           6.28486276e-02, -1.00485059e-02, -1.08876809e-01,
           4.66167880e-03, -1.56720504e-04,  1.84926942e-01,
           8.05236548e-02,  4.92625758e-02, -4.74619679e-02,
          -1.14524812e-01],
         [-2.83709504e-02, -7.90705904e-02, -1.00689575e-01,
          -7.25879371e-02,  8.75136703e-02,  1.05451643e-02,
          -6.68270439e-02, -6.70092786e-03,  3.06338035e-02,
          -7.22123357e-03,  3.59442644e-02,  2.06543040e-03,
           3.28127295e-02, -2.06132010e-02,  6.47582263e-02,
          -1.02843426e-01,  6.49755672e-02,  3.00963540e-02,
           7.30591221e-03, -5.05686477e-02,  9.55692157e-02,
          -3.60158272e-02, -5.25364466e-02, -4.55572680e-02,
          -3.63934576e-03, -8.64707455e-02,  2.39733607e-03,
          -1.39793213e-02,  5.35525642e-02, -5.91415167e-02,
          -1.05407514e-01, -7.81260952e-02,  5.65277226e-02,
           3.45985335e-03, -9.50515084e-03,  1.28646284e-01,
           2.02320963e-01,  4.57135998e-02, -1.14654310e-01,
          -7.78928697e-02,  4.45625838e-03,  8.55145156e-02,
           1.48592340e-02,  1.18027970e-01, -1.51558384e-01,
          -1.24012247e-01, -2.22383514e-02, -9.09628272e-02,
           1.13893161e-02,  7.51622990e-02, -3.94422300e-02,
          -9.85747352e-02,  6.42716885e-02, -3.60390656e-02,
           3.26720551e-02, -9.71261635e-02, -8.66749287e-02,
           6.03280589e-02, -3.82434763e-02,  1.44806340e-01,
           9.79507640e-02, -3.93997282e-02, -1.28100187e-01,
          -3.89680900e-02],
         [ 1.37774199e-02, -6.31224960e-02,  9.62278023e-02,
          -6.33915961e-02,  3.73509452e-02, -8.46252292e-02,
          -3.24595422e-02,  4.30741236e-02,  6.41578510e-02,
           6.00529984e-02,  7.70413950e-02,  4.30534035e-03,
           6.44683763e-02,  8.62588510e-02,  1.00080967e-02,
          -5.25923558e-02,  8.64840373e-02,  3.58914062e-02,
          -3.49861011e-02, -3.11564580e-02, -3.58449891e-02,
          -1.33209080e-02,  9.12539139e-02, -8.87864828e-03,
           5.44827506e-02,  9.09314305e-03,  2.84097269e-02,
          -8.16088468e-02,  5.81900552e-02,  5.41315600e-02,
           6.25086650e-02, -5.30330278e-02,  1.84381679e-02,
           3.23154032e-04,  6.65258691e-02, -9.42299068e-02,
           7.41480067e-02, -5.67811765e-02,  9.62360278e-02,
          -2.52627507e-02, -1.26602948e-02,  8.54459032e-02,
          -8.91491771e-04, -7.26566613e-02,  9.94138420e-03,
          -7.83243179e-02, -4.62183133e-02, -1.30580962e-02,
           4.13983688e-02,  9.41020921e-02, -9.27253366e-02,
          -7.51162767e-02,  8.19229856e-02, -4.73491326e-02,
          -9.14912596e-02,  3.54268476e-02, -5.77133186e-02,
          -1.85616314e-02,  9.11378637e-02,  3.43257189e-03,
          -8.91625062e-02, -2.64520869e-02,  4.71963659e-02,
           3.39708552e-02]]]], dtype=float32), array([-0.13609102,  0.10652777, -0.1339231 , -0.12839907,  0.22315882,
       -0.05903197,  0.21264729, -0.08541319, -0.10900945, -0.02117311,
       -0.02634856, -0.09610626, -0.08460448,  0.04928897, -0.06234308,
       -0.06026484, -0.09919778, -0.0024471 , -0.10995855, -0.02901379,
       -0.14390765,  0.03932809, -0.14541629,  0.15390143,  0.27861226,
       -0.01405801,  0.18961942, -0.12090474, -0.08262614, -0.02564548,
        0.00147748,  0.10428042, -0.09976107, -0.07690665, -0.05749689,
        0.00866273,  0.05631827,  0.20197742,  0.07487429, -0.01706084,
        0.12833251,  0.04681311, -0.01228981, -0.10837512,  0.03940633,
       -0.02717683, -0.07840079, -0.14271076, -0.11959828, -0.10625818,
        0.0573949 , -0.02548669,  0.10680491,  0.2485064 , -0.12169474,
        0.09990413, -0.05243419, -0.13288568,  0.05892658,  0.10291891,
       -0.07905669, -0.03094614, -0.02361821, -0.00632145], dtype=float32)]{'name': 'activation_6', 'trainable': True, 'dtype': 'float32', 'activation': 'relu'}[]{'name': 'max_pooling2d_2', 'trainable': True, 'dtype': 'float32', 'pool_size': (2, 2), 'padding': 'valid', 'strides': (2, 2), 'data_format': 'channels_last'}[]{'name': 'conv2d_5', 'trainable': True, 'dtype': 'float32', 'filters': 32, 'kernel_size': (3, 3), 'strides': (1, 1), 'padding': 'same', 'data_format': 'channels_last', 'dilation_rate': (1, 1), 'groups': 1, 'activation': 'linear', 'use_bias': True, 'kernel_initializer': {'module': 'keras.initializers', 'class_name': 'GlorotUniform', 'config': {'seed': None}, 'registered_name': None}, 'bias_initializer': {'module': 'keras.initializers', 'class_name': 'Zeros', 'config': {}, 'registered_name': None}, 'kernel_regularizer': None, 'bias_regularizer': None, 'activity_regularizer': None, 'kernel_constraint': None, 'bias_constraint': None}[array([[[[ 1.63589530e-02,  9.02721286e-02, -7.26590827e-02,
           1.42323934e-02, -3.66427898e-02,  7.21499100e-02,
           2.39434004e-01, -1.61292441e-02, -5.37559390e-02,
           1.42846227e-01, -7.90736973e-02, -1.23080626e-01,
          -2.65205484e-02,  2.66539186e-01, -7.75537938e-02,
           1.32638678e-01,  4.21981774e-02,  5.54955825e-02,
           6.01327159e-02, -9.38684493e-03,  3.38377841e-02,
           4.22691815e-02, -4.80740145e-02,  5.90968039e-03,
           1.14837900e-01, -1.42613217e-01,  7.01909512e-02,
          -1.30632535e-01, -6.18722215e-02,  3.87610383e-02,
          -1.54533272e-03, -1.16306886e-01],
         [-5.56547493e-02,  6.05113655e-02,  5.69139142e-03,
          -7.41221458e-02, -1.12847954e-01, -9.30576771e-03,
          -7.54109845e-02, -4.33812886e-02,  1.54875685e-02,
           6.33131340e-02, -1.36347022e-03, -6.36289790e-02,
           5.47749214e-02,  6.86920956e-02, -2.05208808e-02,
          -2.71554645e-02, -2.00132862e-01, -1.84779242e-02,
          -4.15766612e-02, -6.40585870e-02, -4.86893393e-02,
           1.41319752e-01, -4.28722613e-02,  9.51711610e-02,
           9.66247320e-02,  1.67838112e-02, -3.12869437e-02,
          -6.54955506e-02,  4.19652835e-02,  7.88516179e-02,
           5.54069839e-02,  3.89699191e-02],
         [-1.42614488e-02, -8.67005065e-02, -1.31613284e-01,
          -2.71524861e-02,  2.57294029e-01, -4.20266390e-02,
          -4.22652178e-02, -2.15791818e-02, -2.72883698e-02,
          -3.53171527e-02,  2.38577396e-01,  1.34230971e-01,
           6.27322644e-02,  1.86588854e-01,  6.94202557e-02,
           7.47771934e-02, -1.91456862e-02,  1.35196978e-02,
           1.68322884e-02, -8.33692178e-02, -3.89089622e-02,
           9.71124470e-02,  2.40604603e-03,  2.79772758e-01,
           1.90625697e-01, -5.09229638e-02, -2.55522151e-02,
           1.37509450e-01, -7.43834600e-02, -6.43013194e-02,
          -4.48224135e-02,  1.23597309e-02],
         [ 1.12817874e-02,  3.51979285e-02, -1.03684980e-02,
           6.82150200e-02,  9.24130902e-03, -3.90210748e-02,
           5.61842062e-02,  1.24832457e-02, -6.61341147e-03,
          -5.51695563e-02,  5.43283857e-02,  9.82312337e-02,
           7.32260644e-02,  1.88557044e-01,  5.52635789e-02,
          -3.94473448e-02,  6.95337281e-02,  2.90772552e-03,
          -9.15059745e-02, -1.78715780e-01,  2.16640327e-02,
           6.01529218e-02,  3.05487346e-02,  3.41361016e-02,
           1.10915631e-01, -1.82791222e-02,  1.07016684e-02,
          -2.16273014e-02, -4.65204120e-02, -1.56376615e-01,
          -4.57028346e-03,  2.36101635e-02],
         [ 5.41314622e-03,  1.73627123e-01, -4.82833907e-02,
           2.87263561e-02,  9.18931887e-02, -2.55596973e-02,
           7.10971579e-02, -8.04304034e-02, -5.54336980e-02,
          -4.62202653e-02, -6.22300953e-02,  1.24512397e-01,
           4.58684154e-02,  2.56997626e-02,  6.75683245e-02,
           1.62548617e-01, -2.10340261e-01,  1.77908063e-01,
           9.33706611e-02,  6.68008402e-02, -5.99148385e-02,
          -1.82218447e-01, -4.97625396e-02,  5.56951985e-02,
           1.29891217e-01, -1.14907898e-01, -1.31354993e-02,
          -1.26357544e-02,  1.84516516e-02,  2.70796511e-02,
           2.58181449e-02,  4.61557768e-02],
         [ 1.47991655e-02, -8.08418244e-02, -1.61492676e-02,
          -1.84567482e-03, -4.92845438e-02, -1.04164518e-03,
          -9.67790186e-02, -3.67068755e-03, -7.31628239e-02,
           5.38720004e-02, -2.85308398e-02, -9.27452557e-03,
          -3.20236944e-02, -9.22937319e-02,  6.70880452e-02,
          -3.62018161e-02,  4.97550927e-02,  4.62115370e-02,
           7.66814351e-02,  2.72559337e-02,  6.38056844e-02,
          -2.04433098e-01,  7.57984966e-02, -6.17803447e-02,
           6.49644434e-02,  4.91924174e-02,  5.66800237e-02,
           1.79090872e-02, -3.60554457e-02,  2.15721428e-02,
          -6.83269873e-02,  3.77403758e-02],
         [-2.09970996e-01, -1.32521078e-01, -1.32057533e-01,
           4.09100354e-02, -7.20540211e-02, -2.21268520e-01,
          -5.90899326e-02,  8.50392431e-02,  4.15343978e-02,
          -1.89916119e-02,  8.03253725e-02,  1.07750222e-01,
          -6.73880428e-02,  1.13748930e-01,  1.19182512e-01,
           5.32465689e-02,  3.24084796e-02,  1.92146990e-02,
          -3.59170809e-02, -1.34459347e-01,  4.09670472e-02,
          -1.69345811e-02, -2.93549061e-01,  1.36958018e-01,
           5.97406849e-02,  1.25025108e-01, -1.31103724e-01,
          -2.08754480e-01, -1.11924782e-01,  3.75248343e-02,
          -1.12354085e-01, -1.02163151e-01],
         [-9.79773700e-02, -4.19108532e-02,  7.74175972e-02,
          -4.40385863e-02, -3.20628658e-02,  9.47519466e-02,
           5.52377030e-02, -7.17496639e-03,  4.05241512e-02,
           7.90044814e-02, -3.83300409e-02, -6.34937733e-02,
           4.34216261e-02,  2.46021450e-02, -3.80974673e-02,
          -3.17742527e-02, -9.36474185e-03,  1.03147165e-03,
          -4.42603119e-02,  2.07186081e-02, -4.75098267e-02,
          -4.73805144e-02, -8.38109031e-02, -1.42506789e-02,
           9.11500901e-02, -1.84817743e-02,  6.84495121e-02,
          -1.21505687e-03, -4.71802428e-02,  7.36038713e-03,
           1.67352594e-02,  4.45378274e-02],
         [ 9.58581828e-03,  6.15003984e-03,  1.39212474e-01,
           3.25156376e-02,  2.00266466e-01,  1.77600607e-02,
          -6.40003104e-03, -4.18404341e-02, -1.01811737e-01,
           6.71458021e-02, -1.05491355e-01,  2.03998964e-02,
           6.90638795e-02, -2.20831916e-01, -2.61598397e-02,
          -2.78033167e-02,  2.61359334e-01,  7.04954145e-03,
           1.30985633e-01, -1.30983880e-02, -1.44555978e-02,
          -2.56939590e-01, -9.66920331e-02, -2.21482635e-01,
          -7.74433762e-02, -1.24663852e-01, -2.34839581e-02,
           3.36040556e-02, -8.49649459e-02, -6.42285198e-02,
          -5.77930026e-02,  2.03520849e-01],
         [ 6.80528879e-02, -5.37608899e-02,  7.42404461e-02,
          -4.81317900e-02,  6.08589873e-02, -9.06159543e-03,
          -5.90486266e-03, -7.98124224e-02, -2.66443063e-02,
          -4.22206596e-02,  3.68021987e-02,  3.26387119e-03,
           3.35342288e-02, -4.62636305e-03,  6.55233441e-03,
          -2.68278532e-02, -1.92993227e-02,  4.42166515e-02,
           6.25366867e-02,  7.89870098e-02, -1.34289730e-02,
          -3.46659049e-02,  2.34209169e-02, -6.90952390e-02,
           3.08593269e-02, -4.74421121e-03,  6.90060407e-02,
           4.70200069e-02, -7.86375776e-02, -4.42588981e-03,
          -4.01950441e-02, -6.18272312e-02],
         [-2.97782011e-02, -1.26039386e-01,  4.33077924e-02,
          -6.20418377e-02,  9.46214795e-02,  5.25518917e-02,
          -9.27898064e-02, -8.37038551e-03,  6.32738471e-02,
           3.86218959e-03,  1.02143452e-01,  8.46854299e-02,
          -4.67418097e-02,  1.02408454e-02,  5.69006021e-04,
           1.93480492e-01, -4.01842326e-01,  6.88335970e-02,
           1.58293508e-02,  1.05572611e-01,  9.49604213e-02,
          -1.72183309e-02,  1.95665788e-02, -8.29819068e-02,
           1.25646368e-01, -2.42647752e-02, -2.84106787e-02,
           1.13211580e-01,  3.24654765e-02, -1.49986550e-01,
          -7.11033419e-02, -4.42184694e-02],
         [-1.13900475e-01,  4.33797799e-02,  4.59225439e-02,
           2.66716853e-02,  1.18274271e-01,  6.16396703e-02,
          -4.84464914e-02,  4.89055179e-02, -5.61861917e-02,
           4.79056612e-02,  3.47093381e-02, -1.87085047e-02,
           3.55246551e-02,  1.85590446e-01,  1.16717339e-01,
          -7.62362033e-02,  7.62897655e-02,  1.67637412e-02,
           7.81044271e-03, -9.37767401e-02,  3.72593850e-02,
          -1.01442426e-01, -6.74812049e-02,  8.17930140e-03,
           1.20550103e-01, -9.19667352e-03,  3.15762162e-02,
          -9.73039493e-02, -1.76675264e-02, -4.57785726e-02,
          -3.12677189e-03, -5.28047197e-02],
         [-9.88807231e-02, -1.01025969e-01, -8.90569687e-02,
          -9.92941204e-03, -2.70386785e-02,  4.14813794e-02,
          -7.16850609e-02, -9.03767645e-02, -1.28553733e-01,
          -4.84164953e-02,  1.80343702e-01, -2.85923295e-02,
          -3.57541665e-02,  5.53644896e-02,  8.97614062e-02,
          -2.27758065e-02,  7.57631510e-02,  1.69819109e-02,
          -4.76921163e-02,  5.01425602e-02,  1.04669938e-02,
           4.47830483e-02, -2.65194122e-02,  1.07374907e-01,
           1.31696195e-03, -3.49541269e-02, -8.82321075e-02,
           4.90896739e-02,  4.53938507e-02, -9.54244509e-02,
           9.40660536e-02,  3.96637917e-02],
         [-1.61868766e-01, -1.41498353e-02, -1.54689923e-01,
           4.50505167e-02, -6.49321005e-02, -2.81106606e-02,
           1.56475842e-01,  1.15740253e-02,  9.58587900e-02,
          -6.36645919e-03,  5.16651347e-02, -1.86519995e-02,
           7.60717839e-02,  2.93191373e-01, -6.15418404e-02,
           7.49311149e-02,  1.73180059e-01, -9.79892239e-02,
          -6.90421537e-02, -1.02332965e-01, -6.72093257e-02,
          -2.03441735e-02,  4.84221391e-02,  1.27830058e-01,
          -9.84671116e-02,  3.36199664e-02, -1.03426324e-02,
           8.26243907e-02,  4.67214249e-02,  3.41883078e-02,
          -3.92252803e-02, -1.56685054e-01],
         [-9.13062170e-02,  3.32279019e-02,  1.54954260e-02,
          -7.61731938e-02, -1.03068493e-01,  7.87620321e-02,
           2.75184184e-01,  2.90934533e-01, -5.82620949e-02,
          -7.80214742e-02, -5.24461083e-02, -1.75037116e-01,
           6.66612163e-02, -3.45755555e-02,  1.06807232e-01,
          -1.32624079e-02,  1.44406676e-01,  3.77311148e-02,
          -1.13981925e-01, -4.62285951e-02, -1.67421456e-02,
          -3.71086776e-01, -4.00430188e-02, -1.06996432e-01,
          -1.67819634e-01,  1.28345164e-02,  1.11581795e-01,
          -1.72980025e-01,  3.19041759e-02, -2.35855043e-01,
          -2.54144501e-02, -1.36981919e-01],
         [-1.42533402e-03, -2.42986064e-02, -6.21946948e-03,
          -6.00586981e-02, -8.94332454e-02,  1.62960306e-01,
          -6.51254058e-02, -1.14931107e-01, -1.88865457e-02,
          -3.18566337e-02,  1.41392201e-01, -2.18358278e-01,
          -2.80256588e-02, -2.73371160e-01, -1.54641680e-02,
           1.11774886e-02,  1.62692890e-01,  4.94979024e-02,
           1.01436697e-01,  9.11502540e-02, -5.68412729e-02,
          -3.37097347e-01, -1.41610146e-01,  1.94103375e-01,
          -2.07682908e-01, -2.07123205e-01, -1.83034055e-02,
          -1.72107071e-01, -5.22361882e-02, -2.14000762e-01,
          -3.48780192e-02, -8.07425566e-03],
         [ 3.44274752e-02,  5.13729416e-02,  9.20243710e-02,
          -4.83900607e-02, -5.67209236e-02,  8.71288404e-02,
           1.00510502e-02, -1.99120622e-02, -5.97132631e-02,
           2.11338792e-02,  7.14702979e-02, -3.76607962e-02,
          -2.89066415e-02, -5.87169873e-03, -4.54110745e-03,
           9.41519905e-03,  8.73485282e-02,  6.80604726e-02,
           8.34404975e-02,  5.79647198e-02, -4.35642600e-02,
           1.34701247e-03,  4.76332270e-02,  5.49697652e-02,
          -7.59811923e-02, -7.53988549e-02,  5.24129793e-02,
           1.62014104e-02,  7.09449351e-02, -1.21369392e-01,
          -5.27063087e-02,  8.91947299e-02],
         [ 3.00556961e-02, -7.95128569e-02, -1.31785357e-02,
           7.50082210e-02, -5.04441261e-02, -1.63848884e-03,
           3.34723741e-02, -5.86129650e-02, -5.93843423e-02,
           6.47436529e-02, -3.20154652e-02, -6.07993230e-02,
           8.11123326e-02,  7.53321648e-02,  4.98495437e-03,
          -3.18843164e-02,  1.31049091e-02,  2.66433135e-02,
           6.85265139e-02,  1.92265157e-02,  9.05748457e-03,
           2.84814835e-02,  7.16648623e-02,  4.60519176e-03,
           8.22331011e-02, -1.00244014e-02,  7.36442506e-02,
          -7.20510334e-02,  4.09965776e-02,  5.75942174e-02,
          -4.24913503e-02,  3.28384116e-02],
         [-1.30221054e-01,  6.32290617e-02, -1.76676642e-02,
          -9.97260585e-02, -1.06263213e-01,  5.51557019e-02,
          -1.45925973e-02,  2.24167909e-02, -1.56222209e-01,
          -8.91193599e-02, -7.41224587e-02,  3.91356498e-02,
           6.72116783e-03, -1.87910050e-02,  5.03616109e-02,
          -6.32730648e-02,  3.43811661e-01, -2.21779887e-02,
          -2.56676208e-02, -5.38953803e-02, -6.55531138e-02,
          -1.00074239e-01, -1.21861044e-03,  2.57294737e-02,
          -1.54113933e-01,  1.04483679e-01,  1.26086222e-02,
           2.63663344e-02, -5.87618798e-02, -1.29177049e-01,
          -5.34094125e-02,  6.89032348e-03],
         [-3.36332060e-02, -3.67888175e-02, -4.12897803e-02,
          -1.96720511e-02, -1.25376927e-02, -3.60781439e-02,
           7.08473921e-02, -5.14819212e-02, -4.90783490e-02,
           5.17402925e-02, -3.11942864e-02,  1.72979608e-02,
          -5.94291240e-02,  3.28703411e-02,  7.90213346e-02,
          -6.37720525e-02, -6.56558275e-02, -2.02160161e-02,
           4.27726135e-02, -4.13576253e-02, -5.69489710e-02,
          -7.45121241e-02,  6.70831054e-02, -6.44150227e-02,
           6.24745227e-02, -7.61948824e-02,  5.03697321e-02,
           3.25388163e-02,  7.31240511e-02, -1.71265528e-02,
           6.36817282e-03,  4.82261404e-02],
         [-3.90968136e-02, -7.24311769e-02,  5.84304072e-02,
          -6.67691007e-02,  1.05333857e-01,  7.24693462e-02,
          -9.15995762e-02, -6.56746654e-03,  6.31291643e-02,
          -1.60567369e-02, -4.28463034e-02, -1.82781424e-02,
           6.13502972e-02, -1.79154515e-01, -3.51202936e-04,
          -2.07910221e-02,  1.62448391e-01, -5.11636175e-02,
          -1.37956440e-02,  4.42757420e-02,  6.47382215e-02,
          -1.18040992e-02, -1.39831267e-02, -8.37692916e-02,
          -6.17399514e-02,  7.48340413e-02, -9.79475025e-03,
           4.83885780e-02,  2.12777089e-02, -2.83042759e-01,
           5.79699781e-03,  5.36338836e-02],
         [ 3.49815935e-02, -3.78214754e-03, -1.90398127e-01,
          -5.06823584e-02, -2.24757701e-01,  3.50868073e-03,
          -4.73113991e-02,  1.30571932e-01, -4.89158370e-02,
          -2.16687601e-02,  4.63278033e-02,  2.98766881e-01,
          -7.37446249e-02,  1.40912175e-01,  2.04930250e-02,
          -2.94647552e-02, -3.04986626e-01, -2.80009434e-02,
          -4.36637783e-03, -2.83821560e-02,  6.94185123e-02,
           5.63781112e-02, -6.39011860e-02, -1.06940821e-01,
           1.09908059e-01, -1.70818135e-01,  1.57141667e-02,
          -1.63496643e-01,  6.61971495e-02, -2.41214279e-02,
           2.68133879e-02, -2.36400187e-01],
         [-8.19405094e-02, -3.03615499e-02, -1.87027045e-02,
           1.90419760e-02,  8.85293037e-02, -2.74846461e-02,
           5.23286639e-03, -9.34277996e-02,  1.59296662e-01,
          -7.13342130e-02,  3.72751132e-02, -6.74948618e-02,
          -8.10046345e-02, -4.80787978e-02,  1.11494362e-01,
          -1.04682157e-02,  1.66208073e-01, -1.92597471e-02,
           2.83640251e-02,  3.83572876e-02, -8.21442828e-02,
           5.91537468e-02, -2.76523102e-02,  2.69175298e-03,
          -1.53749762e-03, -1.21955934e-03,  2.16830820e-02,
           5.99177070e-02, -2.23773271e-02,  2.60092616e-02,
           7.80547876e-03, -1.09261330e-02],
         [-2.42289007e-02,  1.27788275e-01, -2.40407959e-02,
          -4.71894704e-02, -1.16702117e-01, -2.19753027e-01,
           3.58113684e-02,  3.69834229e-02,  6.08193837e-02,
           6.81457520e-02, -1.03297852e-01,  5.56680299e-02,
          -7.59652108e-02, -5.67492694e-02,  4.16288748e-02,
           1.70719609e-01,  8.41956511e-02,  3.21883708e-02,
          -4.41946052e-02, -2.44903732e-02, -2.25917287e-02,
           3.49150561e-02,  1.64998360e-02,  1.27999783e-01,
           5.22974841e-02, -1.04159430e-01, -1.35465130e-01,
           1.03054799e-01, -3.55920903e-02,  7.35674053e-02,
           7.32994899e-02,  8.92036483e-02],
         [-6.68995008e-02, -2.00537965e-02, -3.30062985e-01,
           5.84398955e-02, -9.12675709e-02, -2.41665244e-01,
          -1.39365762e-01,  3.03471666e-02,  7.10547641e-02,
          -5.86675480e-02, -1.17369503e-01,  1.85041323e-01,
          -6.80435598e-02, -8.60444158e-02, -3.44019495e-02,
           1.80115327e-01, -1.81768462e-01,  1.87873766e-01,
           9.21721682e-02, -8.03438202e-02, -2.51850784e-02,
           1.28742754e-01, -2.20507607e-01,  1.55922621e-01,
           1.44143820e-01, -8.83020312e-02, -8.04767907e-02,
           2.09020197e-01, -1.32262796e-01,  1.27809063e-01,
          -3.54324766e-02,  1.23587204e-03],
         [-7.85223544e-02,  8.26129764e-02,  4.17204425e-02,
          -4.99146655e-02, -5.18105999e-02, -6.02626614e-02,
          -6.46256804e-02,  6.16389289e-02, -4.34989557e-02,
          -3.69448029e-02,  7.14643300e-02, -6.69852942e-02,
           2.00621542e-02, -5.94637953e-02,  3.28184143e-02,
          -8.19457974e-03, -5.89677989e-02, -7.38983974e-03,
           6.87258318e-02, -4.91883270e-02, -3.90272737e-02,
          -3.18752453e-02,  8.09838846e-02,  2.62319518e-04,
           3.15908380e-02, -2.75935978e-02, -1.87386386e-02,
          -7.76363239e-02,  5.02059199e-02, -1.43001452e-02,
          -7.82723655e-04, -1.41372476e-02],
         [-1.54533491e-01,  4.42273775e-03, -1.62090451e-01,
           4.88734096e-02, -6.17614910e-02, -1.73485428e-01,
          -3.21231782e-02,  1.16034709e-01, -6.18194276e-03,
          -7.39974529e-02,  7.57491663e-02, -3.42058167e-02,
          -3.56245004e-02,  9.12031829e-02,  2.72089690e-02,
           7.31908306e-02, -1.89591944e-02, -1.95942950e-02,
          -2.08372506e-03, -3.05168852e-02, -3.11660245e-02,
           4.75586765e-02, -7.22123459e-02,  1.53522938e-01,
           5.97864576e-02,  4.22837287e-02,  2.58080382e-02,
          -8.87518004e-02,  8.07844028e-02,  7.29862973e-02,
          -5.37190549e-02, -8.18259194e-02],
         [-4.79238555e-02, -3.59534228e-04,  5.03971018e-02,
          -3.06373294e-02, -1.95911340e-02, -8.05459823e-03,
          -5.51272221e-02,  7.29155764e-02,  9.30260587e-03,
          -2.56152507e-02,  7.22537413e-02,  9.52321291e-03,
           9.00859237e-02, -1.97839383e-02, -4.68581617e-02,
          -6.83633611e-02,  1.60224035e-01, -4.12084423e-02,
          -2.91868262e-02, -1.09822996e-01,  1.80173665e-03,
          -1.01856925e-01, -5.97356185e-02,  4.29905253e-03,
          -5.04317507e-02,  5.38234226e-02,  5.78903630e-02,
          -1.16658039e-01, -3.44919078e-02, -1.69633955e-01,
           3.97346318e-02, -2.83189155e-02],
         [-1.88960768e-02,  6.35164082e-02,  3.42671387e-02,
           2.22687982e-02,  9.79831666e-02,  8.60830545e-02,
           4.99372520e-02,  7.76510984e-02, -2.44783401e-03,
           1.53279444e-02, -8.88271108e-02, -3.93771715e-02,
          -5.88596910e-02, -1.00198261e-01,  1.39234960e-02,
          -3.55708525e-02,  6.00807257e-02, -7.19935521e-02,
           2.26694748e-01, -3.18479389e-02, -5.76541349e-02,
          -8.08120370e-02, -1.06646031e-01, -8.42295513e-02,
           8.28161389e-02, -9.27910507e-02,  9.00030434e-02,
          -2.47789863e-02, -6.32442683e-02, -7.91334733e-02,
          -1.73999537e-02, -1.39292507e-02],
         [-1.69171412e-02,  3.39917801e-02,  4.76047173e-02,
          -2.20385119e-02,  4.82594669e-02,  4.50402312e-02,
          -5.70743941e-02, -6.08364381e-02, -1.03547625e-01,
          -1.24385189e-02,  1.97056141e-02, -5.53609766e-02,
           4.58348952e-02, -9.50693246e-03, -3.22965346e-02,
           3.15215345e-03,  1.46939218e-01,  7.75463879e-02,
          -8.03854410e-03,  9.15169064e-03,  6.90807924e-02,
          -4.41494957e-02, -2.36609597e-02, -3.84741910e-02,
           2.62054205e-02, -6.50439113e-02,  3.54628079e-02,
           2.48421729e-02,  6.40791357e-02, -1.06536053e-01,
           7.71955997e-02, -7.96442032e-02],
         [ 1.42854573e-02, -7.85580873e-02, -5.54895997e-02,
          -6.39238656e-02,  1.02685980e-01, -6.82568550e-02,
          -7.72513002e-02,  4.72488925e-02,  4.82882150e-02,
           2.80508189e-03,  1.44648263e-02,  9.69794318e-02,
          -7.41278455e-02,  7.19927251e-02,  6.43042326e-02,
           1.48015330e-04, -2.66700000e-01,  4.05134000e-02,
          -2.29346063e-02, -2.50635818e-02, -3.12073547e-02,
          -1.85441568e-01, -1.00490130e-01,  3.13912779e-02,
           1.89148828e-01, -9.04738978e-02, -4.94560674e-02,
           1.30721614e-01, -1.39328530e-02,  6.69833943e-02,
          -8.31116885e-02, -6.22492544e-02],
         [-8.67172331e-02,  2.07263674e-03, -1.35750741e-01,
          -1.74414162e-02, -1.29418269e-01, -3.82922180e-02,
           3.38341355e-01, -2.84998808e-02,  8.26255232e-02,
           4.04073298e-02, -2.39074647e-01, -2.51979455e-02,
           9.08982828e-02,  6.31764606e-02, -1.48061961e-02,
           5.64892106e-02,  4.63170111e-02,  3.45738567e-02,
           2.59825904e-02, -5.78581914e-02,  2.76777502e-02,
          -5.18760048e-02,  8.93677473e-02,  1.42524987e-01,
          -1.37687745e-02,  8.50116368e-03, -2.30745953e-02,
           1.38913244e-01, -5.74020483e-02,  3.68573926e-02,
           1.11214921e-01, -1.68505594e-01],
         [ 1.94640737e-02, -1.53829036e-02,  8.13814402e-02,
           1.73598416e-02,  7.61233643e-02,  6.00103438e-02,
          -1.03267487e-02, -1.61852427e-02, -1.62475538e-02,
          -7.34386519e-02,  7.56412372e-02, -1.86942669e-03,
           6.07784949e-02, -9.30069387e-02, -2.90378351e-02,
          -3.44311595e-02,  3.76451425e-02,  2.28855610e-02,
          -3.29245143e-02, -3.49818468e-02,  3.22847180e-02,
           3.70589979e-02,  2.98395217e-03,  4.66923565e-02,
           1.74835008e-02, -2.37970483e-02, -7.36905485e-02,
          -1.60611346e-02, -6.73547387e-02, -6.68021962e-02,
          -4.12475616e-02, -6.12254143e-02],
         [-2.92743277e-02, -5.44264354e-02, -2.09220257e-02,
          -9.04939398e-02,  5.60533442e-02, -5.59552610e-02,
           2.56663021e-02,  5.75037207e-03, -4.18260507e-02,
           2.58155596e-02,  8.94035399e-02, -6.27768561e-02,
           8.55301991e-02, -3.84353139e-02,  7.69099295e-02,
          -6.14436939e-02,  1.88255142e-02, -1.46196503e-02,
           1.19344085e-01, -6.01212792e-02, -6.38067946e-02,
          -1.23450734e-01,  5.86781017e-02, -3.23032844e-03,
          -7.72044286e-02,  7.60380328e-02,  1.38881505e-02,
          -4.63464186e-02,  3.17016095e-02, -1.51369661e-01,
          -2.82994770e-02, -4.63959724e-02],
         [ 2.34320741e-02,  4.90452945e-02,  2.88284291e-02,
           5.36798052e-02,  6.77162781e-02,  6.62933290e-02,
           8.17506984e-02,  6.67172000e-02, -4.41009030e-02,
          -5.08628674e-02,  9.36684683e-02,  4.28970298e-03,
           8.16851109e-02,  1.41516373e-01,  1.41790420e-01,
           1.28376946e-01,  3.87713052e-02,  1.50742218e-01,
          -2.61060032e-03, -6.76177070e-02,  6.50243983e-02,
           4.90985923e-02,  3.72914746e-02, -8.31636861e-02,
          -9.20187160e-02, -4.92265299e-02,  8.12573805e-02,
          -3.34543437e-02, -1.64851155e-02, -9.69021395e-02,
          -5.08383624e-02,  1.45909458e-01],
         [ 6.26509339e-02, -5.05486093e-02,  9.65382755e-02,
          -2.85931267e-02,  5.33384569e-02, -2.13937536e-02,
           6.27498403e-02, -3.24038900e-02, -5.25683463e-02,
           1.12308010e-01,  4.40146960e-02, -1.55217543e-01,
          -6.71405047e-02,  5.12139946e-02,  3.42605524e-02,
           1.94199500e-03,  1.46676809e-01, -1.02808833e-01,
          -4.40574661e-02,  1.10991612e-01,  7.01555759e-02,
           7.43907094e-02, -1.83581896e-02,  3.90492030e-03,
          -2.24340528e-01, -2.66369749e-02,  2.26708446e-02,
          -2.08000198e-01,  3.90255377e-02, -1.07792869e-01,
           7.68140703e-02,  4.83164974e-02],
         [-8.06828290e-02,  7.84344971e-02,  1.33618876e-01,
          -4.09134589e-02,  1.97405964e-02,  8.57073255e-03,
          -6.10451121e-03, -1.11645810e-01, -5.97759001e-02,
           6.52858103e-03,  1.99736599e-02, -3.33631411e-02,
          -8.69316980e-02,  3.04947663e-02, -1.33220581e-02,
           3.16530094e-02, -2.54441667e-02, -5.48139215e-02,
           1.08145639e-01,  8.91263187e-02,  2.80326810e-02,
           1.68669540e-02, -3.98276925e-01,  1.05321296e-02,
          -2.34757587e-01, -2.15964094e-01,  8.99393111e-02,
           2.07002968e-01,  5.94922341e-02, -7.07908422e-02,
          -1.66293398e-01,  3.14045340e-01],
         [-2.29392663e-01,  4.82469015e-02, -4.28776518e-02,
           6.07949980e-02, -7.77312219e-02, -7.39114657e-02,
          -1.73257992e-01,  1.84147805e-01,  1.06340691e-01,
           3.31763402e-02,  8.55953842e-02,  6.62823245e-02,
          -1.33251790e-02, -2.32071523e-02,  7.60533735e-02,
           8.93712193e-02,  4.13179509e-02,  1.09923258e-01,
           3.52660120e-02, -1.06780224e-01, -8.93114805e-02,
           9.05992463e-02, -2.36010715e-01,  2.84233429e-02,
           5.92174456e-02,  1.05174489e-01,  9.84429847e-03,
          -2.02780813e-01,  2.19932683e-02,  1.57499865e-01,
          -1.06370918e-01,  1.60226633e-03],
         [-6.06644079e-02,  8.68103206e-02, -8.86364728e-02,
           4.60754475e-03, -8.83900225e-02,  6.70802817e-02,
          -4.63071503e-02,  8.64727609e-03, -1.40116215e-01,
          -1.63655564e-01,  3.05415466e-02,  3.24746929e-02,
           3.22685279e-02, -1.40039222e-02, -9.87737626e-02,
           8.78233835e-02, -1.18645228e-01,  1.65326133e-01,
          -6.70390129e-02, -1.69540308e-02, -3.19111161e-02,
          -4.12075631e-02, -3.86803374e-02,  1.10897206e-01,
          -1.88191626e-02, -9.69811901e-02, -4.48463205e-03,
          -1.93207815e-01,  9.50255319e-02, -3.17414105e-02,
           5.94914295e-02,  3.75893489e-02],
         [-5.02460897e-02,  9.22585353e-02, -1.02538224e-02,
          -3.75007428e-02, -6.04261160e-02, -4.75166067e-02,
          -9.06497240e-02, -4.82731126e-02,  2.25883033e-02,
          -3.16387825e-02,  4.33751456e-02, -4.73311171e-02,
          -2.81030238e-02,  1.62545033e-02,  1.73389673e-01,
           9.44016352e-02,  5.85716106e-02, -5.17109111e-02,
           4.90590632e-02, -9.03406218e-02,  1.79716037e-04,
           4.09828462e-02,  3.33972536e-02,  1.00390678e-02,
          -8.36266298e-03, -1.35887861e-01, -7.99303502e-03,
          -8.14807564e-02,  5.66134192e-02, -1.02225445e-01,
           7.57577494e-02, -1.91811875e-01],
         [ 5.57925971e-03,  5.26384376e-02,  1.11839734e-01,
          -4.71182168e-02,  1.26117412e-02, -9.30089206e-02,
           1.35670125e-01,  3.95455435e-02,  1.54980242e-01,
           1.00007549e-01, -1.11066572e-01,  5.85024469e-02,
          -3.60686705e-02,  1.20965540e-02, -4.12802324e-02,
           5.91846779e-02,  1.91538990e-01,  1.07390046e-01,
          -3.19675766e-02,  1.66852430e-01, -5.17884269e-02,
           6.90080300e-02, -9.93491039e-02,  8.26882664e-03,
           2.66406331e-02,  7.58245140e-02, -6.68764487e-02,
          -1.04987718e-01, -5.73789887e-02,  6.28476217e-02,
          -7.58756399e-02,  1.43239260e-01],
         [-4.92473245e-02,  1.10884337e-02, -4.90988269e-02,
          -2.66253948e-02, -9.58303064e-02, -9.34375823e-03,
          -6.59104530e-03,  1.23001330e-01,  5.20678870e-02,
          -1.22785214e-02, -1.92163214e-01, -2.29210705e-02,
           1.26395859e-02,  9.35168099e-03, -9.64337867e-03,
           5.50504327e-02,  6.95502535e-02, -1.45608904e-02,
          -1.15772095e-02, -1.22146457e-02,  4.20599505e-02,
           7.13036954e-02, -2.88101099e-03, -1.67564768e-02,
          -3.28172790e-03, -4.12590802e-02,  1.78065356e-02,
           2.94740256e-02, -3.06977425e-02,  9.48206987e-03,
          -3.13549079e-02, -7.57494941e-02],
         [-3.29351351e-02,  7.11439028e-02,  3.89058255e-02,
           3.11986189e-02, -8.19533691e-02, -2.42982153e-02,
           4.80431132e-02, -6.15063049e-02, -1.59319118e-02,
           3.34062651e-02, -3.19369957e-02, -2.58041564e-02,
           8.54589418e-03, -6.68892264e-02,  4.93124239e-02,
          -5.20667545e-02,  3.54547985e-02, -2.13104580e-02,
           4.80177626e-02, -3.23272422e-02,  4.33164351e-02,
           6.66583702e-02,  4.32196185e-02, -7.50176460e-02,
          -5.80159090e-02,  1.69591159e-02, -3.28938402e-02,
          -4.51711006e-02,  4.60170321e-02, -4.81219031e-02,
          -5.81920110e-02, -7.14391619e-02],
         [-6.04640394e-02,  2.40875315e-02, -7.07770139e-02,
          -7.10931942e-02,  1.15017727e-01,  8.41577575e-02,
          -4.99766953e-02,  2.70448998e-02, -1.00930572e-01,
           2.01117769e-02,  2.25036591e-03, -1.42042497e-02,
           7.37878010e-02, -2.95563787e-02, -6.23900034e-02,
          -4.89132628e-02,  1.17367975e-01, -1.89148001e-02,
           1.16952918e-01,  3.30543444e-02, -5.40596135e-02,
          -1.84374169e-01,  2.36769207e-02,  3.46620008e-02,
          -8.02748203e-02, -8.58856440e-02,  1.00514397e-01,
          -9.91360620e-02,  7.13791847e-02, -7.64266104e-02,
          -2.71291807e-02,  5.08240312e-02],
         [-8.69619995e-02,  1.78263485e-02, -1.72802106e-01,
           8.16804171e-03, -1.54991880e-01, -3.01907454e-02,
           2.77008303e-02,  1.15831576e-01, -4.97063529e-03,
           5.65562546e-02,  1.46399006e-01,  1.26860112e-01,
          -4.06266376e-02,  1.05579644e-01,  5.78128807e-02,
           8.56799260e-02, -7.51345232e-02, -8.99059027e-02,
           3.20877274e-03, -2.24387616e-01, -3.77777219e-02,
           1.07794136e-01, -1.93362832e-01,  9.58618745e-02,
           1.91054925e-01,  1.41852260e-01, -7.98056722e-02,
          -3.24489102e-02,  1.54480264e-01, -3.41037773e-02,
           2.00902849e-01, -3.80982697e-01],
         [ 1.34794980e-01, -2.53626332e-02, -4.63488959e-02,
           3.16407904e-02,  8.34402218e-02,  3.25861643e-03,
          -1.16137289e-01,  6.95648864e-02,  1.40257955e-01,
          -6.81418367e-03,  1.59762561e-01,  1.05876409e-01,
           6.13978878e-02, -1.45927891e-02, -4.64217737e-02,
           1.09856077e-01, -7.90993571e-02, -2.51476429e-02,
           9.30733159e-02, -2.27475032e-01,  8.13924223e-02,
          -1.46702642e-03,  9.00498033e-03,  1.44010941e-02,
           3.94190103e-02, -1.15874568e-02, -3.78848612e-02,
           1.33625016e-01, -4.94770035e-02, -1.17040440e-01,
          -7.09261466e-03,  4.04741168e-02],
         [ 2.36506630e-02,  7.23719746e-02, -6.82053715e-02,
           7.15182861e-03, -4.85947402e-03,  7.16226101e-02,
           4.90937568e-02, -6.56793192e-02,  5.04032038e-02,
           6.92461655e-02,  2.83648260e-02, -5.38308695e-02,
           1.94167551e-02, -5.94620146e-02,  7.17477277e-02,
           5.45681156e-02,  7.47313797e-02, -6.13905899e-02,
          -6.44195229e-02, -1.32998988e-01, -3.63235399e-02,
          -2.45280247e-02, -2.91937101e-03, -4.27813195e-02,
          -1.25494199e-02,  1.60670810e-04,  1.92569625e-02,
          -6.72865734e-02,  4.42719012e-02, -4.06560004e-02,
          -5.13723008e-02,  1.75740812e-02],
         [-6.27026781e-02, -1.07172213e-01, -1.58216227e-02,
          -9.31366980e-02,  7.71703525e-03,  5.98046593e-02,
          -1.57935768e-02, -1.80999562e-02,  1.17422342e-01,
           2.57330816e-02, -9.14728735e-03, -7.36565441e-02,
           5.49108945e-02,  2.30381176e-01,  5.91352545e-02,
          -7.71422833e-02,  1.33415267e-01,  1.15030333e-02,
          -7.92878494e-02, -1.25981137e-01, -2.62376107e-02,
           4.73328158e-02,  3.38532180e-02,  1.42674133e-01,
           1.64887488e-01, -6.95994347e-02,  8.66012350e-02,
           6.23579649e-03, -6.53509274e-02, -4.22870368e-02,
          -4.80716452e-02,  1.29691437e-02],
         [ 7.70964473e-02, -9.14720669e-02,  7.01781064e-02,
           7.89407566e-02,  3.73090319e-02,  2.25003902e-02,
           6.55393004e-02, -8.25770125e-02, -9.28351209e-02,
          -6.33289441e-02, -8.23478997e-02,  9.10203531e-02,
          -7.10434318e-02, -3.53682935e-01,  1.01973161e-01,
           1.96246393e-02,  1.61835954e-01,  9.10595655e-02,
           1.12516498e-02,  4.94385436e-02,  7.81620368e-02,
          -4.72312458e-02, -1.66068599e-02, -2.01460291e-02,
           1.14167899e-01, -4.50264104e-02,  3.30113284e-02,
          -5.08676991e-02,  1.52363451e-02, -5.25302440e-02,
          -4.15333174e-02, -2.03369763e-02],
         [-2.12872364e-02, -4.42961864e-02, -5.22785336e-02,
          -7.32659996e-02,  6.39161244e-02, -4.87272292e-02,
           6.68095574e-02,  2.74075195e-02, -5.70417382e-02,
           6.62256684e-03, -7.13772548e-04, -1.61873680e-02,
           9.28216949e-02, -1.19254617e-02, -5.65808974e-02,
           7.89066181e-02,  5.75909279e-02,  8.04187506e-02,
          -4.05507088e-02, -8.08869377e-02, -1.61757122e-03,
          -4.56375405e-02,  1.01795457e-02, -2.19332450e-03,
          -8.43760669e-02,  8.69273692e-02,  1.08815797e-01,
           6.63524121e-02,  4.57444005e-02, -1.11651890e-01,
          -4.30743098e-02,  2.10558227e-03],
         [-6.88000321e-02,  7.35236034e-02, -9.68136862e-02,
           6.34155646e-02, -8.96336511e-02,  5.00881001e-02,
          -9.12179612e-03,  2.36173328e-02, -4.84923320e-03,
           1.41697908e-02, -2.82131154e-02,  4.81859595e-02,
           7.78636709e-02,  1.86739359e-02, -3.99176367e-02,
           1.00795746e-01, -1.09009840e-01, -2.92966366e-02,
          -1.15388252e-01, -4.75056330e-03,  2.14621648e-02,
           1.88952144e-02,  7.21296221e-02,  6.44607171e-02,
          -1.33729056e-02, -7.59638399e-02,  9.59645435e-02,
          -3.32146175e-02,  8.75205994e-02,  1.25485972e-01,
           4.61731441e-02, -8.74191374e-02],
         [ 4.15802635e-02, -7.31474534e-02, -5.43241091e-02,
           4.76993285e-02, -2.53245871e-05, -4.30307612e-02,
          -6.68231770e-02,  2.24265307e-02, -4.18716185e-02,
          -6.20320253e-02, -1.90859828e-02,  8.40304978e-03,
           5.18032424e-02,  1.45196076e-02,  3.41679417e-02,
           2.64746230e-02,  7.85539150e-02,  7.50003010e-02,
           3.24886478e-02, -3.21688130e-03,  1.86707247e-02,
          -2.85017285e-02, -1.04883965e-03, -4.22682101e-03,
          -7.31641650e-02,  4.38085087e-02, -3.76696363e-02,
          -3.35659571e-02,  7.62825981e-02,  4.48350124e-02,
           5.76389134e-02, -3.39045413e-02],
         [-1.92962550e-02,  2.43089963e-02, -1.97030425e-01,
           6.65586740e-02, -1.60659105e-02, -7.99796637e-03,
           3.49937938e-02,  1.43359927e-02, -7.31096044e-02,
           3.81396562e-02, -1.68052867e-01, -4.29804735e-02,
          -8.14788695e-03, -1.25324249e-01,  7.36201778e-02,
           1.65197141e-02,  4.63679731e-02,  3.13521130e-03,
           8.94876942e-02, -7.97891617e-02,  3.82917039e-02,
          -1.36232143e-02,  1.36620328e-01, -5.54626388e-03,
          -3.90437543e-02, -8.73906016e-02, -1.48893772e-02,
           1.05609223e-01, -2.52151918e-02, -1.35474023e-03,
           3.98483910e-02, -7.06145680e-03],
         [ 3.97466458e-02,  2.05160454e-01,  7.50434473e-02,
           7.95641690e-02, -6.84607029e-02, -7.38700852e-02,
           1.43840253e-01,  8.66355782e-04,  2.17527881e-01,
           1.68687165e-01, -3.00035596e-01, -2.96533909e-02,
          -2.68387590e-02, -3.16083170e-02,  8.83869901e-02,
           2.76951820e-01, -2.41410464e-01,  2.17854276e-01,
          -4.60139811e-02, -4.08868715e-02, -5.36686368e-02,
           2.73494601e-01, -5.02879322e-02,  2.34721284e-02,
           1.33292034e-01, -1.04773179e-01,  3.75694409e-02,
           7.39585683e-02, -8.62295032e-02,  1.64563850e-01,
           5.42512909e-02, -5.10989502e-02],
         [-3.16211097e-02, -7.88558051e-02,  6.72676936e-02,
          -3.30710821e-02, -1.23900184e-02,  1.84182134e-02,
           1.63853988e-01, -3.08653209e-02,  1.80920530e-02,
           2.05981899e-02, -1.44308746e-01,  4.64720689e-02,
          -3.12288199e-02, -3.28745544e-01, -2.97038592e-02,
          -7.38720745e-02,  5.65111749e-02, -4.75477204e-02,
          -4.49421965e-02,  5.20349443e-02,  5.24021871e-02,
          -7.75894672e-02, -7.49642923e-02, -6.02193102e-02,
          -1.10044651e-01,  7.41581470e-02,  6.52585104e-02,
           4.15189974e-02,  9.13310125e-02, -1.93394050e-02,
          -4.84880023e-02, -8.41287300e-02],
         [ 3.91784534e-02,  1.48542255e-01, -2.05607250e-01,
          -5.30660003e-02, -1.90237045e-01, -4.06737961e-02,
           9.03292000e-03,  9.30154696e-02, -8.55678413e-03,
           6.02065884e-02, -1.91261679e-01,  1.90956499e-02,
          -7.58070275e-02, -2.43727252e-01, -6.25706017e-02,
           3.21587026e-02, -8.86992142e-02, -2.80867666e-02,
           6.46005869e-02,  8.83586798e-03,  1.59402424e-03,
           1.95780001e-03,  2.19999682e-02,  2.61984393e-03,
          -1.68557989e-03, -8.96053091e-02, -3.57416160e-02,
          -4.08291519e-02,  1.98720377e-02, -3.79183963e-02,
          -9.59468037e-02, -1.22755446e-01],
         [-4.23009098e-02,  1.55816860e-02,  1.63920019e-02,
          -5.21426536e-02,  5.60802035e-02,  2.91187614e-02,
          -3.25001217e-02,  5.85668460e-02,  2.82482281e-02,
           2.66084392e-02,  1.36365891e-02, -6.79667965e-02,
          -6.63178647e-03,  9.96834598e-03,  8.36727098e-02,
          -8.86686593e-02,  4.02401276e-02,  9.21433046e-03,
          -6.42030686e-02,  2.91820988e-02, -4.77166660e-02,
          -1.92998141e-01, -1.78340469e-02, -7.01933950e-02,
           5.00392467e-02,  6.12291098e-02, -6.99846074e-03,
          -1.21637262e-01, -1.88794860e-03, -1.01953894e-01,
          -1.15043908e-01, -7.48587213e-03],
         [ 3.69531363e-02,  2.98918169e-02,  4.46951240e-02,
          -3.60606760e-02,  1.58204269e-02,  9.58925113e-02,
          -7.83892721e-02,  7.04071894e-02,  6.05204180e-02,
          -7.67897516e-02,  3.96408550e-02, -9.02577788e-02,
           3.22727375e-02,  7.41229728e-02,  6.55920729e-02,
           6.25945702e-02,  9.70976055e-02,  1.60949230e-02,
           6.96278438e-02, -5.70661314e-02, -2.91256551e-02,
          -1.18596748e-01,  1.18920328e-02, -3.10642719e-02,
           7.08829388e-02, -2.44557951e-02, -3.49268429e-02,
          -9.16806161e-02, -5.08540571e-02, -1.87430650e-01,
           4.60606702e-02,  7.59293186e-03],
         [ 3.16910865e-03, -5.52965105e-02, -5.19720167e-02,
          -8.50823745e-02,  3.68695669e-02, -3.09235994e-02,
           5.08144572e-02, -5.26716225e-02,  6.01091534e-02,
          -6.16372912e-04,  5.39672114e-02, -8.12396482e-02,
           9.06120148e-03,  3.28078941e-02, -9.44508761e-02,
          -2.20648348e-02,  1.37120843e-01,  3.68347540e-02,
          -3.63512635e-02, -8.40953812e-02, -1.56230554e-02,
           5.40973954e-02, -4.85995114e-02,  7.76787102e-02,
           8.93398747e-02, -1.34066015e-01,  3.44921425e-02,
          -7.00906739e-02, -1.44123221e-02,  5.62505051e-02,
           8.94753449e-03,  1.83643610e-03],
         [-3.43506545e-01, -4.46643587e-03, -1.14650071e-01,
           1.96287818e-02, -3.66564319e-02, -8.72391686e-02,
           5.27021885e-01,  5.76009192e-02,  9.68708917e-02,
           7.76578067e-03,  1.16662644e-02,  1.63261183e-02,
          -1.59675255e-01, -2.16461942e-01, -6.51146984e-03,
           1.09021224e-01,  2.57843211e-02,  5.79645019e-03,
           6.68163598e-02, -7.00855628e-02, -2.81557087e-02,
           1.05036117e-01,  3.33924666e-02, -7.86116794e-02,
          -9.61448401e-02, -2.62589334e-03, -1.66478127e-01,
          -1.28744110e-01,  1.05543107e-01,  3.17894705e-02,
           2.47186556e-01,  2.49916941e-01],
         [ 1.17135487e-01,  4.13537817e-03,  4.43835855e-02,
          -6.75512850e-02, -1.33281007e-01, -6.68401942e-02,
           6.20313957e-02, -8.93368050e-02, -1.36120081e-01,
           1.21648483e-01,  1.07061928e-02,  1.74824044e-01,
          -1.23052215e-02, -1.16979159e-01, -4.21003029e-02,
           1.23508289e-01, -1.85731411e-01, -8.29316080e-02,
           1.30668342e-01,  9.72041786e-02, -6.20414317e-02,
          -3.49781848e-02, -2.67333061e-01, -7.43613914e-02,
          -2.38991618e-01, -6.63173720e-02, -4.19133641e-02,
           7.36244768e-02, -4.76370417e-02, -1.17716938e-01,
          -1.11645155e-01, -5.96988797e-02],
         [-4.53755818e-02,  2.08337307e-02,  4.87997569e-02,
          -4.52637710e-02,  4.48815413e-02,  5.92891350e-02,
          -2.89517250e-02,  7.73838460e-02, -7.75439367e-02,
           7.47826993e-02, -4.64516208e-02, -6.97020665e-02,
          -7.22126141e-02,  2.00386550e-02,  9.46930726e-04,
           2.48952117e-02,  8.06117132e-02, -5.33522442e-02,
          -7.75013939e-02, -3.61486264e-02,  6.27159998e-02,
           4.34618667e-02,  4.29575816e-02,  2.11700238e-02,
           7.13465810e-02,  8.77619535e-03, -5.15975095e-02,
           4.65333201e-02, -3.36749889e-02, -7.11616427e-02,
          -6.30837530e-02, -5.91907538e-02],
         [ 3.80085707e-02, -5.85011952e-02, -5.33321388e-02,
          -2.99865976e-02, -6.78849146e-02,  2.19103117e-02,
          -1.84401318e-01, -3.57324779e-02,  9.22694206e-02,
          -4.72656190e-02, -6.39870390e-02,  1.44853443e-01,
          -7.49644935e-02, -7.89360330e-02, -1.74257576e-01,
          -2.21383125e-02, -3.14649254e-01, -1.16877956e-02,
          -1.42193995e-02, -1.85598247e-02, -6.46711811e-02,
          -1.38805971e-01, -1.37532964e-01,  2.62754746e-02,
           8.15793946e-02, -5.13666309e-02,  7.40067707e-03,
          -1.48678541e-01,  7.02723041e-02, -6.52161390e-02,
          -5.85300624e-02,  1.25959307e-01],
         [ 7.84629025e-03,  6.88797832e-02, -4.86471020e-02,
          -9.56531428e-03, -7.20269606e-02,  7.49471486e-02,
          -8.50296095e-02,  8.45146477e-02, -7.03835785e-02,
          -4.94869687e-02,  1.61305442e-02, -6.62180111e-02,
          -5.86093254e-02,  1.01996958e-02,  3.42050306e-02,
          -1.14189970e-04, -5.47544733e-02, -3.91008928e-02,
           4.27887626e-02, -5.87256588e-02, -6.32138178e-02,
          -6.27561379e-03, -2.11679023e-02,  2.25356035e-02,
          -7.14336038e-02, -8.46172720e-02, -6.79433346e-02,
          -4.88205329e-02,  1.88090056e-02,  6.76358715e-02,
           2.76318621e-02,  2.76078731e-02]],

        [[ 1.00449264e-01,  2.43363772e-02, -8.44046026e-02,
          -2.50909757e-02, -5.41511588e-02,  6.92924932e-02,
           1.49895251e-01, -8.96883681e-02,  6.09322302e-02,
           1.01229779e-01, -2.17084974e-01,  4.21961024e-02,
           9.16521698e-02,  8.22275057e-02, -1.41245136e-02,
           1.27585353e-02, -1.76572517e-01, -7.84658268e-02,
           2.38660835e-02,  7.68635273e-02, -8.31353515e-02,
           2.44860668e-02, -8.31063911e-02, -4.59088497e-02,
          -4.14400280e-01, -1.15460590e-01, -1.27485730e-02,
           1.19592056e-01, -4.99336943e-02, -9.51873437e-02,
           9.23879258e-03,  6.34463653e-02],
         [-1.27364650e-01,  9.52767953e-02, -1.48552552e-01,
           2.93513834e-02, -9.60625932e-02, -6.15515150e-02,
           1.09306686e-01, -1.25834480e-01, -2.67344974e-02,
           2.20608823e-02,  4.57624570e-02, -1.04493737e-01,
           3.77691425e-02,  1.19355321e-01, -1.66399911e-01,
          -5.38247526e-02,  3.23084921e-01, -1.17160469e-01,
          -1.80879995e-01,  4.93468903e-02,  1.19051198e-02,
           1.39502123e-01, -1.86927598e-02,  1.49258897e-01,
          -5.52056022e-02, -2.92449724e-02,  1.68654136e-02,
          -9.04231220e-02, -9.33381021e-02, -1.50841502e-02,
           1.10579066e-01, -1.41141772e-01],
         [ 7.84143060e-02, -1.10813111e-01, -6.91105202e-02,
          -4.68282253e-02,  2.06259400e-01,  7.42345862e-03,
          -1.04084760e-01, -1.11655489e-01,  3.47329827e-04,
          -5.37490211e-02,  1.23803809e-01,  1.10671721e-01,
          -3.82863097e-02,  2.24151254e-01,  4.92081605e-02,
           1.14528760e-01,  1.83765724e-01, -9.80596021e-02,
           6.56056181e-02,  3.65324551e-03,  1.12233078e-02,
           4.58888896e-02, -6.93112100e-03,  6.12535626e-02,
           1.72386449e-02,  8.27451609e-03,  1.23906536e-02,
           9.00230482e-02, -1.29562497e-01, -7.52088875e-02,
           5.17971776e-02,  5.43245040e-02],
         [-8.18093941e-02, -3.86639014e-02, -7.52319247e-02,
          -4.31304425e-03,  8.85555753e-04,  1.58649753e-03,
          -1.16657816e-01, -8.43377784e-02, -2.31289715e-02,
          -8.04105699e-02,  4.77424413e-02,  4.18557338e-02,
           4.47903872e-02,  1.30214900e-01,  2.46512257e-02,
          -5.60972467e-02,  1.74538717e-01, -1.52513878e-02,
          -8.09871256e-02, -8.82885978e-02, -1.10605769e-02,
           9.02077928e-02,  7.68513903e-02, -3.35381106e-02,
           3.35997925e-03, -3.58390994e-02,  4.41464558e-02,
           3.60254385e-02, -5.09174764e-02, -1.13985464e-01,
           5.44854626e-02, -5.11892885e-02],
         [ 4.98110354e-02,  1.56624213e-01,  4.49100621e-02,
           5.93628734e-02,  7.39616454e-02, -3.87517996e-02,
           1.92753240e-01,  2.54361033e-02,  8.50577652e-02,
          -4.69387919e-02, -1.50645047e-01,  7.26109818e-02,
           2.02843081e-02,  5.67302443e-02,  4.49062102e-02,
           1.16460793e-01, -8.94528478e-02,  4.89933491e-02,
           2.17390922e-03,  5.12929112e-02,  4.42266874e-02,
          -1.43290088e-01, -5.27997166e-02,  1.25293061e-01,
           1.79167375e-01, -1.24062702e-01, -1.11519389e-01,
          -6.47116080e-02,  8.31127539e-02,  2.74298992e-02,
          -2.58716140e-02, -1.14311583e-01],
         [-3.23234946e-02, -9.39642265e-02,  5.36980405e-02,
          -9.43480805e-02, -4.76447679e-02,  5.37301823e-02,
          -9.31301042e-02, -4.80209710e-03, -6.84850439e-02,
           2.01169774e-02, -3.73907723e-02,  1.16439782e-01,
          -4.72255796e-02, -9.44826528e-02,  2.05821283e-02,
           2.66452599e-02, -1.68516651e-01,  8.29695463e-02,
           2.02041175e-02,  7.46855587e-02, -3.79064679e-02,
          -2.78198212e-01, -5.61745763e-02,  6.01183586e-02,
          -2.55392995e-02, -2.70487671e-03, -9.09579545e-02,
           5.18080927e-02,  2.80218869e-02, -1.09578088e-01,
           5.37511706e-03,  3.14694792e-02],
         [-1.91921264e-01, -1.96211755e-01, -1.43501192e-01,
          -8.03800598e-02,  1.31252380e-02, -1.79935485e-01,
          -7.39390850e-02, -7.58810341e-02,  1.12136967e-01,
          -7.82509148e-02,  6.67691827e-02,  9.27651823e-02,
          -1.64412558e-01,  3.38376686e-02,  6.04432682e-03,
           5.04126912e-03,  7.30048940e-02,  5.02345860e-02,
           1.01438127e-01, -1.23334631e-01,  3.44485119e-02,
          -4.41199951e-02, -2.77113855e-01,  2.10481167e-01,
           1.57383427e-01,  1.17964551e-01, -1.64318681e-02,
          -8.59102309e-02, -1.70373634e-01,  1.38386741e-01,
           1.28738061e-01, -1.66378602e-01],
         [ 3.80707197e-02,  2.68434994e-02, -2.71177161e-02,
          -2.80551668e-02, -3.97102674e-03,  1.34484377e-02,
           1.52884554e-02, -1.10295609e-01, -2.91227475e-02,
          -7.65307248e-02,  4.48005758e-02, -6.97471946e-02,
          -5.47802597e-02,  4.52120341e-02,  6.36305436e-02,
           5.02580553e-02,  1.39695987e-01,  2.25503203e-02,
           4.73744832e-02, -5.41626886e-02, -7.52258375e-02,
           5.37247807e-02, -1.12201795e-02,  3.93679142e-02,
          -5.70552684e-02, -1.16257463e-02, -5.66892810e-02,
           1.09660355e-02, -5.09460866e-02, -2.56359838e-02,
          -3.05005070e-02,  5.15261255e-02],
         [-6.84261248e-02, -5.10331355e-02,  7.94476345e-02,
          -5.49975187e-02, -2.92379130e-02,  1.54711893e-02,
           6.61959276e-02,  1.68384477e-01, -1.42854124e-01,
           8.51864219e-02, -9.68903229e-02,  5.39131872e-02,
           5.33001460e-02, -5.11852324e-01,  6.10917620e-02,
          -6.43004552e-02, -1.11432383e-02,  6.33745641e-02,
           2.15429619e-01, -8.92101880e-03, -3.17985341e-02,
          -1.42144889e-01, -3.06750517e-02, -1.92821801e-01,
          -9.35041383e-02,  1.22863455e-02, -3.40360291e-02,
          -2.79045273e-02,  6.83903694e-02, -1.88083217e-01,
          -1.34283975e-01,  2.46294990e-01],
         [ 5.02761640e-02,  8.29793215e-02, -1.12306683e-04,
          -5.18244021e-02, -5.40663749e-02,  5.09650223e-02,
          -4.04167660e-02,  2.08537374e-02, -2.61239670e-02,
          -7.95512199e-02, -6.91970736e-02, -2.86255758e-02,
          -6.27528429e-02, -6.13303632e-02, -6.35426911e-03,
          -5.72976507e-02,  7.80371204e-02,  2.75044292e-02,
          -5.31631336e-02,  4.99064848e-02, -2.22257841e-02,
           4.60690111e-02, -5.79364449e-02, -4.61615063e-02,
           5.25919646e-02,  8.09655786e-02,  3.93758565e-02,
          -3.16585265e-02,  2.91307140e-02,  3.30176912e-02,
          -5.47241531e-02,  4.01624665e-02],
         [-1.13452345e-01,  1.32593205e-02, -2.49637961e-01,
           5.10842614e-02,  1.15076639e-01,  3.72124277e-02,
          -3.56450602e-02,  1.12234242e-01,  4.90277708e-02,
           5.82674481e-02,  8.40945318e-02, -1.72395110e-02,
          -1.89725775e-02, -1.51056377e-02,  1.47356465e-02,
           2.63825990e-02,  1.45378381e-01,  1.88800339e-02,
           4.08521183e-02, -9.37228277e-02,  9.26210824e-03,
          -2.13942543e-01, -5.80419675e-02,  3.25728133e-02,
           9.06384811e-02,  7.47734495e-03,  4.18033041e-02,
           1.90800484e-02, -1.04593568e-01, -2.71826535e-01,
           6.58578277e-02,  5.44885360e-03],
         [-5.94860082e-03, -4.15068865e-03,  2.09229300e-03,
           3.33634540e-02,  8.35860223e-02,  7.17175975e-02,
          -7.43908286e-02, -4.07890566e-02, -1.11305214e-01,
          -8.58740732e-02, -5.18698692e-02, -1.60651971e-02,
          -7.88657814e-02,  4.15872782e-02, -4.22052341e-03,
           4.66390625e-02,  7.31733441e-02,  1.00257143e-01,
           8.07005260e-03,  1.10839009e-02,  2.29244977e-02,
          -2.63206027e-02, -3.44095007e-02, -2.92875208e-02,
          -6.09432952e-03,  2.85379291e-02,  7.77362362e-02,
           5.27998507e-02,  6.22426569e-02, -5.14935181e-02,
           2.98640225e-02,  3.12126148e-02],
         [ 1.93260964e-02,  3.16252150e-02, -8.39099810e-02,
           1.57201234e-02, -2.23372597e-02,  4.14294079e-02,
          -7.12406412e-02, -9.67044756e-02, -9.23366025e-02,
          -1.08169854e-01,  8.72904733e-02,  2.56711673e-02,
          -3.58365960e-02,  1.59315601e-01, -4.51985793e-03,
          -1.54222478e-03, -3.15328464e-02,  1.18760532e-02,
          -5.20806620e-03,  4.75284718e-02,  3.37816663e-02,
