{'batch_input_shape': (None, 224, 224, 4), 'dtype': 'float32', 'sparse': False, 'ragged': False, 'name': 'input_2'}[]{'name': 'conv2d_4', 'trainable': True, 'dtype': 'float32', 'filters': 64, 'kernel_size': (3, 3), 'strides': (1, 1), 'padding': 'same', 'data_format': 'channels_last', 'dilation_rate': (1, 1), 'groups': 1, 'activation': 'linear', 'use_bias': True, 'kernel_initializer': {'module': 'keras.initializers', 'class_name': 'GlorotUniform', 'config': {'seed': None}, 'registered_name': None}, 'bias_initializer': {'module': 'keras.initializers', 'class_name': 'Zeros', 'config': {}, 'registered_name': None}, 'kernel_regularizer': None, 'bias_regularizer': None, 'activity_regularizer': None, 'kernel_constraint': None, 'bias_constraint': None}[array([[[[-9.52379555e-02,  6.17441200e-02,  9.63394642e-02,
           5.60244471e-02,  5.15154712e-02, -6.82956949e-02,
           2.41582319e-02,  6.28511906e-02, -9.33297426e-02,
           9.99169052e-03,  1.41540080e-01, -8.98445398e-02,
          -5.06840125e-02, -1.75489560e-01, -1.77960858e-01,
          -3.46301705e-01, -9.29402635e-02, -9.32542160e-02,
          -1.21779591e-02,  6.77352026e-02, -1.18675634e-01,
           1.42159104e-01, -1.10122591e-01, -4.73002866e-02,
           6.71122745e-02, -4.57594208e-02,  4.87007014e-03,
           8.45254436e-02, -1.09100953e-01, -4.60095098e-03,
           4.72588390e-02, -4.29339856e-02,  8.85469606e-04,
          -2.81734280e-02,  1.93222463e-02, -3.71974036e-02,
          -1.27563760e-01, -4.92448024e-02, -9.56993103e-02,
          -1.33711770e-02, -1.01009779e-01, -1.21128775e-01,
          -6.50464371e-02, -5.73334582e-02,  1.94425151e-01,
           1.58762991e-01, -9.86583531e-02, -1.36500644e-02,
          -9.94089395e-02, -6.66329637e-02, -1.13318935e-01,
          -3.58692780e-02, -1.20645188e-01, -4.80960198e-02,
          -1.08602345e-01, -1.30596593e-01, -2.56945975e-02,
           8.70248824e-02, -1.59319267e-01, -1.77517906e-01,
          -1.07255638e-01, -9.25458595e-02,  2.77398881e-02,
          -7.42914751e-02],
         [-5.72659783e-02,  1.58597842e-01,  1.10620975e-01,
          -1.86720118e-02, -6.46476001e-02, -7.97106922e-02,
           3.50238718e-02,  4.56275493e-02, -4.62509058e-02,
          -7.95891657e-02,  3.69975790e-02,  5.35377525e-02,
           2.89569609e-02,  1.40106734e-02, -2.11131826e-01,
          -3.38840038e-01, -6.77097440e-02,  9.49908867e-02,
          -1.08104013e-01, -4.25906740e-02,  6.39666915e-02,
           2.10391834e-01, -4.27737162e-02,  7.48537183e-02,
          -7.84486625e-03, -9.84250456e-02,  4.43726480e-02,
          -1.10021029e-02,  2.24015564e-02,  8.81483778e-03,
           7.64175206e-02, -1.39425188e-01, -6.41299859e-02,
           7.19118817e-03,  5.40653802e-02, -1.73440322e-01,
          -7.80673698e-02, -1.17445095e-02, -3.65584716e-02,
           1.36237398e-01, -3.14510763e-02,  1.67513918e-02,
           2.37196479e-02,  3.26445140e-02,  1.16245054e-01,
           8.18656087e-02, -3.49188931e-02,  4.61193994e-02,
          -4.97455001e-02,  2.65594739e-02, -1.39110461e-02,
          -7.15112239e-02, -9.61840674e-02, -1.75573170e-01,
           7.31734745e-03,  8.78889486e-03, -6.47860020e-02,
           4.96888682e-02, -2.11870521e-01, -1.90890655e-01,
          -4.52636741e-02,  7.50109777e-02,  1.93362683e-02,
          -6.76811486e-02],
         [-9.68455449e-02,  2.25017928e-02, -1.08594010e-02,
           3.90641727e-02, -4.18544263e-02, -1.41802952e-01,
          -1.60251614e-02, -8.77220482e-02, -1.37701742e-02,
           6.15616143e-03,  8.91341567e-02,  2.43212190e-02,
           1.45556293e-02, -1.47388086e-01, -1.89219743e-01,
          -1.87723070e-01,  2.39039902e-02, -4.08195704e-02,
           7.22334236e-02,  4.09275778e-02, -8.13819170e-02,
           3.13230574e-01, -1.63693521e-02, -7.22782165e-02,
          -1.24621354e-02,  5.17156124e-02, -1.87534839e-02,
           9.93331075e-02, -1.08765401e-01, -8.50546658e-02,
           6.74284026e-02,  1.56533029e-02,  5.07330559e-02,
           5.53486980e-02,  1.30013879e-02, -5.64284287e-02,
          -1.40577242e-01,  1.49880126e-02,  4.56670858e-02,
          -4.19099182e-02, -9.73667353e-02, -1.10265464e-02,
          -6.03735819e-02, -4.69854139e-02,  6.97623119e-02,
           1.07346319e-01,  5.15525863e-02, -1.14514856e-02,
          -9.97378156e-02,  5.58707379e-02, -3.08616273e-02,
           1.19561395e-02,  1.37642389e-02, -4.28861864e-02,
           4.16912660e-02, -5.82618788e-02, -1.05642863e-01,
          -5.15823439e-02, -1.09738976e-01, -3.02118599e-01,
          -6.15364946e-02,  7.59671628e-02,  5.59510961e-02,
          -9.55970585e-02],
         [-7.75408000e-03,  3.68020162e-02,  8.14030394e-02,
          -9.83797684e-02, -3.08876708e-02, -7.44503662e-02,
          -5.92687577e-02, -9.17971581e-02, -4.65159714e-02,
           3.59418914e-02,  4.00679037e-02,  4.97962534e-03,
           1.72539204e-02,  5.35308495e-02, -2.72137225e-02,
           6.23835102e-02,  9.32199582e-02, -5.45468219e-02,
           7.37308338e-02, -4.77114283e-02,  3.91351804e-02,
           9.64750275e-02,  4.29257974e-02,  4.54525575e-02,
          -8.11597705e-03,  9.71993729e-02, -4.83482331e-03,
           4.98168394e-02,  2.77023688e-02, -5.53982332e-02,
          -7.86371827e-02,  5.32766953e-02,  9.69334468e-02,
          -4.91431430e-02, -2.72016078e-02, -4.54721190e-02,
           9.07033756e-02,  3.35115567e-02, -1.92958862e-03,
          -1.49722397e-02, -9.68799293e-02, -7.32462108e-03,
           3.26376334e-02, -6.86509907e-02, -8.69534165e-02,
          -3.22693139e-02, -6.95990175e-02,  7.58828968e-03,
           1.61972269e-02, -2.31343955e-02, -4.15893197e-02,
           7.82442167e-02, -5.51222265e-03, -2.93436125e-02,
          -1.12972036e-02, -4.50215116e-02, -4.15862501e-02,
           2.69600675e-02,  3.22710201e-02, -3.84807326e-02,
          -5.75198829e-02, -3.40053737e-02,  3.23054418e-02,
          -6.42106161e-02]],

        [[-6.91301301e-02,  1.00289457e-01,  6.17425852e-02,
          -2.08052061e-02, -7.81560317e-02, -8.74649659e-02,
           1.20064970e-02, -5.19961640e-02,  7.42218783e-03,
           3.71933877e-02, -1.45261019e-01,  4.07905318e-02,
           6.92237690e-02,  4.02839072e-02,  1.26648396e-01,
          -2.84048766e-01, -7.85102993e-02,  9.15661678e-02,
           9.47160944e-02, -1.12564929e-01, -4.52138744e-02,
          -9.71085355e-02, -6.77140504e-02, -7.07296282e-02,
           2.22987887e-02,  9.55244526e-02, -4.87428643e-02,
          -4.81135771e-02,  3.95817012e-02,  6.90145865e-02,
           4.52431887e-02,  3.64880487e-02, -2.79080383e-02,
          -2.93466896e-02,  5.05391285e-02,  2.33136807e-02,
          -1.09333828e-01, -2.23884685e-03, -8.71040598e-02,
           7.13625103e-02, -2.66431533e-02, -1.63827673e-01,
          -1.69112708e-03, -5.73146269e-02,  1.25055090e-01,
           5.47600575e-02,  7.90299177e-02,  6.50700778e-02,
          -1.38646081e-01,  8.52035731e-02, -1.33922294e-01,
          -8.86145160e-02, -7.47250989e-02, -4.62309830e-02,
          -4.58873138e-02, -6.36742115e-02,  9.57152713e-03,
           6.42729476e-02, -1.59943983e-01, -1.78391203e-01,
          -4.50363606e-02,  6.25923946e-02,  1.25812814e-02,
          -5.92054948e-02],
         [-2.47692037e-02,  9.02321264e-02, -1.96177233e-03,
           6.96104839e-02, -9.71029550e-02,  5.33264652e-02,
           3.59323733e-02, -7.61492923e-02, -1.13878742e-01,
           1.98321138e-02,  8.45493469e-03, -7.05531985e-02,
           6.76541403e-02,  3.08701415e-02,  2.98377275e-02,
          -2.92820901e-01, -2.49724220e-02, -3.16650495e-02,
           1.98202729e-02, -7.68604055e-02, -3.88318934e-02,
           7.49428719e-02,  1.21369902e-02,  9.82308388e-03,
          -1.44303754e-01,  2.59986217e-03,  2.82583311e-02,
           9.57591534e-02, -4.33364473e-02, -3.73308137e-02,
           2.21971050e-02,  3.19358110e-02, -4.86131795e-02,
          -6.42182864e-03,  8.42385814e-02, -1.42617943e-02,
          -1.54737175e-01,  6.63848072e-02,  5.66054694e-02,
           1.65996596e-01, -9.43175703e-02, -1.54601306e-01,
          -5.86678982e-02,  8.73434171e-02,  1.81092784e-01,
           7.46151507e-02, -1.08372858e-02,  3.14976573e-02,
          -1.78622827e-02,  7.07438141e-02, -2.38185376e-02,
           4.12672199e-02, -2.98680216e-02, -5.76037876e-02,
          -5.90435900e-02, -3.91066559e-02,  2.16592383e-02,
           1.27149336e-02, -4.23170589e-02, -2.58239359e-01,
          -1.13683105e-01, -1.83545854e-02, -1.36498258e-01,
          -6.50729751e-03],
         [-4.08954211e-02,  3.95454792e-03,  2.03422387e-03,
          -3.42750363e-02, -7.62295499e-02, -5.30533269e-02,
          -6.30484149e-02,  8.50201026e-03, -4.00010720e-02,
          -6.95944726e-02, -1.06337063e-01, -4.53595445e-02,
           4.28388231e-02,  5.54693416e-02,  2.44532228e-02,
          -1.99498698e-01,  2.72351708e-02, -8.47716406e-02,
          -8.07277188e-02, -3.46735269e-02,  3.24485675e-02,
           8.81239474e-02, -1.53310169e-02, -2.62425318e-02,
          -1.34575129e-01, -9.65318754e-02,  4.99299429e-02,
          -2.73327082e-02, -7.47821331e-02,  1.49811115e-02,
          -5.31931967e-02,  4.81324643e-02, -6.97845593e-02,
           2.29291376e-02,  4.38767858e-02,  1.04497157e-01,
          -1.40177563e-01,  1.13512930e-02, -6.92177750e-03,
           1.30146638e-01, -9.54717547e-02, -1.67108983e-01,
          -2.96541788e-02,  7.79114589e-02,  9.27076563e-02,
           4.45917137e-02,  5.02350517e-02, -5.19359857e-02,
          -1.45972744e-01,  8.99051353e-02, -5.16091175e-02,
          -3.87929119e-02,  8.00898448e-02, -1.77354604e-01,
           2.13194732e-02, -5.61139658e-02, -7.41936266e-02,
          -1.17576448e-02, -8.19511786e-02, -3.04349273e-01,
          -9.16656554e-02, -5.67715392e-02, -7.41178617e-02,
           2.58296020e-02],
         [-4.76036146e-02,  8.19406435e-02, -2.88057476e-02,
           7.69672468e-02, -4.63240966e-02,  6.83586374e-02,
          -2.04871818e-02,  5.26404008e-02, -8.54912251e-02,
          -4.50226441e-02,  2.25688368e-02, -7.49292225e-03,
          -1.11876205e-02, -4.63823564e-02, -6.19706698e-02,
          -3.94553691e-02,  4.87672314e-02, -1.89798996e-02,
          -5.80651090e-02,  2.49143839e-02,  8.58962908e-02,
          -7.93616995e-02,  9.47969928e-02, -6.01924025e-02,
           2.76067108e-03,  4.46321145e-02,  5.23585603e-02,
           5.49199507e-02, -9.51289311e-02, -9.54324231e-02,
          -4.16396260e-02,  1.78658590e-02,  7.46368095e-02,
           8.50452408e-02, -1.21358410e-02, -9.36054066e-02,
          -5.36053292e-02, -2.78774053e-02, -3.55389491e-02,
          -8.00132528e-02, -2.97016576e-02,  7.91966841e-02,
           2.76476815e-02, -2.36209109e-02,  9.17864591e-03,
           7.56087825e-02, -2.21378282e-02,  1.97847337e-02,
          -8.46569538e-02, -2.76989415e-02,  6.97618648e-02,
          -7.66754150e-04,  5.51241860e-02, -8.64478499e-02,
          -4.76397574e-02,  8.05105641e-02,  6.58631548e-02,
          -5.45104221e-02,  8.22322071e-03, -7.83225670e-02,
           4.41261157e-02, -3.60566750e-02,  5.16738519e-02,
          -7.79622123e-02]],

        [[-5.20262383e-02,  4.29995768e-02,  1.08580463e-01,
           4.00062203e-02, -1.08554423e-01,  4.39236462e-02,
           5.03902696e-02, -6.69269636e-02, -8.60143378e-02,
           1.24001736e-02, -1.42817676e-01,  7.20547140e-02,
           4.34691086e-02, -1.90580345e-03,  1.85788870e-02,
          -1.61480889e-01,  4.20236066e-02, -3.59796584e-02,
           6.75728917e-02, -5.74481674e-02,  2.53465101e-02,
          -1.13097787e-01,  1.88862404e-03,  1.74940750e-02,
          -2.20865365e-02,  8.52379482e-03,  3.92221995e-02,
          -2.55981907e-02, -8.95320848e-02, -3.62840146e-02,
          -9.49780196e-02, -1.52784893e-02, -4.25576344e-02,
           1.52592352e-02, -2.30671003e-01,  4.21521328e-02,
          -6.33022711e-02, -2.56396160e-02, -1.03141810e-03,
           2.47787789e-01,  7.49430284e-02, -2.31977403e-02,
           7.07258098e-03, -3.79627384e-02,  1.44163147e-01,
          -2.32136652e-01, -6.85729980e-02, -5.64154573e-02,
          -1.00513816e-01, -1.35621801e-02, -2.06193775e-01,
           6.28569573e-02, -1.98949371e-02, -1.63181588e-01,
           3.34998481e-02, -1.28503203e-01,  5.02762496e-02,
           8.17168131e-02, -1.47674099e-01, -1.11126237e-01,
          -1.00496784e-01, -3.46408151e-02, -8.96640867e-02,
           4.28109132e-02],
         [-7.20818713e-03, -1.90172922e-02,  1.06158562e-01,
          -5.50346961e-03, -1.51604325e-01, -9.54707935e-02,
           6.25756709e-03,  5.43672629e-02, -4.59208749e-02,
           7.25180879e-02, -5.89946397e-02,  4.15754952e-02,
          -1.07067615e-01, -1.35906473e-01,  3.97390872e-02,
          -3.18283767e-01, -7.38662630e-02,  2.24262197e-02,
           8.29479769e-02,  8.04643631e-02,  8.61539692e-02,
           4.81490456e-02, -1.18963741e-01, -1.51248470e-01,
           6.87295422e-02,  2.61341175e-03, -1.14980703e-02,
           4.10868749e-02, -6.26328439e-02,  4.53852909e-03,
          -1.20861299e-01,  9.73605141e-02, -1.74985379e-02,
           5.56027107e-02, -5.01279868e-02,  7.48489350e-02,
          -8.94977823e-02,  4.66601513e-02, -2.78285854e-02,
           1.77776739e-01, -9.91902277e-02,  6.06320128e-02,
          -2.17460934e-02,  5.59714772e-02,  2.41177939e-02,
          -1.30438939e-01, -1.04126781e-01,  7.04676956e-02,
          -7.61819184e-02, -4.97927237e-03, -1.76119179e-01,
          -1.12680690e-02,  5.22989780e-02, -3.17018069e-02,
          -5.62079297e-03, -4.32834141e-02, -1.10247105e-01,
          -4.73190695e-02, -2.07124427e-01, -1.69277608e-01,
          -1.22025460e-01, -8.66601523e-03,  1.67419035e-02,
           1.72789581e-02],
         [ 9.44215730e-02,  2.46469583e-02, -6.88261585e-03,
           6.75560459e-02,  1.49077028e-02, -4.25079353e-02,
           9.90576819e-02, -6.05559088e-02, -9.24025625e-02,
          -2.63422672e-02, -1.34187922e-01,  4.48894575e-02,
           7.79468790e-02, -7.33769387e-02, -6.81537911e-02,
          -2.97444731e-01,  3.41374315e-02,  1.00408960e-02,
           7.14151859e-02,  7.89579302e-02,  1.65698361e-02,
          -8.67296159e-02, -6.11116514e-02, -1.26863673e-01,
          -2.99217645e-02, -2.30782609e-02,  8.37930515e-02,
           5.27201928e-02, -9.22527686e-02,  1.50651783e-02,
          -1.06150202e-01,  8.05149004e-02,  2.23536771e-02,
          -7.22480416e-02, -2.41119221e-01,  1.96602523e-01,
          -1.29549623e-01, -3.56499441e-02, -4.85831778e-03,
           1.71060205e-01,  1.88125633e-02,  4.50173728e-02,
          -2.14657430e-02,  1.70838390e-03,  4.34204824e-02,
          -2.05850467e-01, -2.52347030e-02, -3.07331942e-02,
          -1.20161092e-02,  2.09403820e-02, -2.29390696e-01,
          -7.85286576e-02,  2.81647425e-02, -2.23328978e-01,
           2.42506284e-02, -7.59393573e-02,  5.37254922e-02,
          -1.47383753e-02, -2.10040703e-01, -1.42360196e-01,
          -4.63676378e-02, -7.64828846e-02, -8.86148512e-02,
          -3.68276797e-02],
         [ 1.53911933e-02,  7.05487356e-02,  1.53086185e-02,
          -5.37553988e-02,  1.34155154e-04, -1.98959187e-02,
           2.90860161e-02,  9.60202143e-02, -6.16003945e-02,
           2.88651884e-03,  5.74844256e-02, -7.05784038e-02,
           4.48398069e-02,  2.60365382e-02,  5.57314977e-02,
          -5.18128313e-02,  7.92183727e-03,  7.88382813e-02,
          -2.17342898e-02,  4.29903194e-02, -2.17685625e-02,
          -6.11170642e-02,  7.29795620e-02, -7.00889826e-02,
          -5.09816073e-02,  8.05894509e-02, -1.09699368e-03,
           9.27967504e-02, -8.51402581e-02,  7.91345537e-03,
          -3.20003405e-02,  6.66017160e-02,  1.57693550e-02,
          -8.45792145e-03,  6.36263862e-02, -1.70802251e-02,
           6.83219507e-02, -1.32659078e-02,  6.26186356e-02,
          -6.06863089e-02, -4.09870595e-02,  4.70033363e-02,
          -6.29705638e-02, -8.20860639e-02, -3.50900739e-03,
           8.57185796e-02,  8.64852890e-02, -8.80006403e-02,
          -2.44960859e-02, -9.43411440e-02, -8.29184800e-03,
          -4.53438424e-02,  1.89593583e-02,  6.13313988e-02,
          -2.53026932e-02,  1.54570565e-02,  8.56347382e-03,
          -8.01517069e-02,  2.51509249e-04,  8.00088421e-02,
           1.33107603e-03,  8.14569667e-02, -4.56878655e-02,
          -7.73450285e-02]]],


       [[[-9.12752971e-02,  4.07768525e-02,  3.41442227e-02,
           2.96901222e-02, -2.41749689e-01, -8.79141316e-03,
           1.63803138e-02, -1.87392253e-02,  6.35119751e-02,
          -8.91315043e-02,  1.74325660e-01,  7.99661726e-02,
           1.00085186e-02, -9.80688408e-02, -1.70142688e-02,
           1.25226542e-01,  6.86365962e-02,  3.88781838e-02,
          -5.22388630e-02,  5.96421026e-02, -5.26354648e-02,
           4.55664024e-02,  2.75297277e-02,  1.01097725e-01,
          -7.54454872e-03, -3.02318521e-02, -3.20363343e-02,
          -8.17303061e-02,  2.59177206e-04, -1.00608476e-01,
           2.14511693e-01, -6.37657344e-02,  5.00882901e-02,
           1.75917207e-03, -2.44173151e-03, -2.13314354e-01,
           3.40949371e-02, -6.14430197e-02, -1.10891342e-01,
          -1.54679000e-01,  6.37765676e-02, -4.53641787e-02,
          -6.85583949e-02,  5.21171689e-02,  6.25017583e-02,
           8.70307013e-02,  1.91412363e-02, -7.75232837e-02,
          -5.23694605e-02, -1.57663338e-02, -1.87070459e-01,
          -7.77247653e-04, -5.23283817e-02, -1.54880822e-01,
          -7.94843584e-02, -1.17562553e-02,  1.39103621e-01,
           2.93970127e-02, -9.43488255e-02, -1.68830618e-01,
           2.84754243e-02,  1.27813257e-02,  3.11908461e-02,
          -3.35062966e-02],
         [ 1.75317172e-02, -7.31239617e-02,  6.16631806e-02,
          -1.77963730e-02, -9.51920971e-02, -4.50131204e-03,
           2.43271189e-03,  6.60305843e-02,  2.64016874e-02,
           5.15080132e-02,  1.82158962e-01, -1.03797376e-01,
          -9.22894478e-02, -7.23299906e-02, -1.95202082e-01,
           8.37493762e-02, -1.09352365e-01,  2.39123385e-02,
          -5.74472733e-02, -4.41056974e-02, -6.74113929e-02,
           2.88629951e-03, -2.47373357e-02,  7.87028298e-02,
           9.18229148e-02,  3.61494645e-02,  4.05077972e-02,
          -6.61845803e-02, -8.87910947e-02, -1.24389656e-01,
           8.61883014e-02, -2.22137589e-02,  6.53016567e-02,
          -3.88802029e-02, -7.26911798e-02, -1.83360875e-01,
          -6.79728240e-02, -9.01298746e-02, -4.58045416e-02,
          -6.65779039e-02,  1.43137192e-02, -1.07818119e-01,
           7.71646351e-02,  2.64604893e-02,  4.17369232e-02,
           1.21076621e-01, -3.90297063e-02,  5.86162135e-02,
           5.14564067e-02, -8.60216618e-02, -7.27623552e-02,
          -2.83794128e-03,  2.54738592e-02, -1.14226088e-01,
          -1.28597273e-02, -1.10963024e-01,  1.58629179e-01,
           1.10964000e-01,  1.16210915e-02, -3.01044971e-01,
          -1.17821649e-01, -2.79282406e-02,  1.10184439e-01,
          -8.07505175e-02],
         [-7.60190412e-02, -1.03266910e-01, -5.14799803e-02,
           4.97273691e-02, -7.54489377e-02,  5.40594012e-02,
          -4.58201878e-02,  6.83231205e-02, -5.75515069e-02,
          -6.01293333e-02,  6.72046021e-02,  7.93740153e-02,
          -1.10046556e-02,  2.46063322e-02, -9.79984626e-02,
           1.38750508e-01,  3.43396068e-02, -7.72955716e-02,
          -3.41583490e-02, -8.87714773e-02,  3.24774161e-02,
          -8.07196926e-03, -6.67738728e-03, -6.42238110e-02,
           8.59737620e-02, -5.08236466e-03,  1.11368587e-02,
           7.37971067e-03, -5.77948689e-02,  4.00540372e-03,
           1.38976887e-01, -6.27514422e-02, -3.42671648e-02,
           8.76407921e-02,  7.79794678e-02, -6.16518892e-02,
           2.95635257e-02,  3.72609310e-02, -1.63573623e-01,
          -1.37500465e-01, -1.28337204e-01, -7.24477544e-02,
          -7.06450567e-02,  7.48348236e-02, -4.46307287e-02,
          -7.65152369e-03,  2.43719835e-02,  4.57688281e-03,
           7.72163719e-02, -2.01727618e-02, -1.89812422e-01,
          -6.56700507e-02, -1.08141288e-01, -1.28578246e-01,
          -7.44716600e-02,  3.95538807e-02,  7.69586787e-02,
          -6.13332354e-02,  7.29155866e-03, -2.83754975e-01,
          -8.16101115e-03, -6.67109638e-02,  8.93965885e-02,
           3.11466567e-02],
         [ 4.81119975e-02, -3.52132469e-02, -1.99032575e-02,
           2.07612067e-02,  1.49469599e-02, -3.10098827e-02,
          -8.26091692e-02, -1.56152025e-02, -8.10613558e-02,
          -3.28200907e-02,  2.37197950e-02, -1.33145601e-02,
          -2.41164416e-02, -4.78326753e-02, -4.30150852e-02,
          -4.85939980e-02,  2.35953405e-02,  6.88771680e-02,
          -5.09321727e-02, -2.77539417e-02,  3.97196934e-02,
           6.11554906e-02, -1.99521780e-02, -2.54115462e-02,
          -8.62393081e-02,  8.95862803e-02,  7.36937448e-02,
          -8.74097645e-02, -6.88661188e-02,  7.76440576e-02,
           8.73231962e-02,  7.89110437e-02,  8.12798068e-02,
           2.02029049e-02, -3.75017039e-02, -4.77616414e-02,
          -2.29202211e-03, -7.12268353e-02, -7.65300915e-02,
          -4.03517708e-02,  7.31960312e-02, -5.75126112e-02,
          -3.42205241e-02, -9.25339609e-02,  8.02027956e-02,
          -2.08473206e-03,  2.58076414e-02,  3.06991413e-02,
          -7.92706013e-02,  1.95824653e-02,  7.43559822e-02,
          -3.69033851e-02, -2.76597068e-02, -5.26489653e-02,
           1.21613145e-02,  8.28748196e-03, -3.81725207e-02,
          -8.60824138e-02, -7.95324966e-02,  8.96528736e-02,
           7.73017108e-03,  7.73236230e-02, -8.39632899e-02,
          -1.04498118e-02]],

        [[ 3.37094031e-02, -1.01036362e-01, -7.67964050e-02,
          -5.30908955e-03, -1.37534633e-01, -5.91924079e-02,
          -4.73625474e-02,  5.56703024e-02,  1.10202931e-01,
          -1.56161115e-02,  3.82403918e-02, -1.71435308e-02,
          -6.95044994e-02, -1.14777520e-01,  9.95065123e-02,
           1.14615470e-01,  4.11240123e-02, -7.88796917e-02,
           3.09826136e-02, -9.04903486e-02, -1.06209656e-02,
          -1.09292045e-01,  6.86942264e-02,  9.21433866e-02,
          -1.83356419e-01,  4.00422746e-03, -1.18013807e-02,
           1.04003869e-01, -8.23643953e-02, -1.05280206e-01,
           8.90872478e-02,  3.32923159e-02, -2.18058396e-02,
           7.96303675e-02,  9.98324007e-02, -2.78064944e-02,
           3.59814912e-02,  3.13715935e-02,  1.18758744e-02,
          -1.94400415e-01,  7.34217418e-03, -1.27768302e-02,
           5.81505448e-02,  3.93246040e-02,  6.74301013e-02,
           5.30245490e-02, -1.73784280e-03,  3.65649983e-02,
           9.05482247e-02,  5.27485348e-02, -2.07392816e-02,
           4.74233599e-03,  5.22191077e-02, -1.58883646e-01,
          -9.86256748e-02, -1.72134787e-01,  2.05728456e-01,
           2.03508176e-02, -1.63074613e-01,  7.00766146e-02,
          -7.87561387e-03, -7.21306577e-02,  3.26741822e-02,
          -6.54290318e-02],
         [ 4.10235301e-02, -1.16240650e-01,  6.09814115e-02,
          -2.33891495e-02, -1.23528719e-01, -1.00969180e-01,
           6.37749955e-02,  2.17290167e-02,  8.08233246e-02,
          -2.79012937e-02, -1.16434079e-02, -1.05025783e-01,
          -8.16841274e-02,  3.33221108e-02,  1.02998704e-01,
           1.76923335e-01, -1.08149134e-01, -7.38102868e-02,
          -6.33753315e-02, -1.35749606e-02, -2.35850438e-02,
          -1.13753565e-01,  6.29549846e-02, -8.39191452e-02,
          -7.06179738e-02, -6.71010315e-02, -7.30279759e-02,
           1.22070611e-01, -5.92748895e-02,  3.38941510e-03,
          -1.06913764e-02, -5.42445928e-02,  7.29277879e-02,
           8.01967829e-03,  1.09833598e-01,  9.33009535e-02,
          -1.23949222e-01, -3.10799740e-02, -1.25943422e-01,
          -1.83472365e-01, -4.90863398e-02, -1.35127082e-01,
          -3.46520208e-02,  6.44011199e-02, -5.23912385e-02,
           7.40644708e-02,  5.37201278e-02, -9.09143910e-02,
          -7.90200010e-02,  1.22190872e-02, -9.22316983e-02,
          -1.10125160e-02,  5.93818817e-03, -1.10205196e-01,
          -4.92745787e-02, -5.18862940e-02,  2.22881585e-01,
           5.36218360e-02, -1.00654751e-01, -5.41813262e-02,
          -1.44376442e-01, -8.36588368e-02,  6.49680719e-02,
           6.13674074e-02],
         [ 3.60074416e-02, -1.08790651e-01, -4.80963513e-02,
          -5.28417341e-02, -1.18580563e-02,  3.95519696e-02,
           9.22189429e-02, -3.60643566e-02,  9.19642001e-02,
           1.92401018e-02, -6.48646057e-02, -9.49218497e-02,
           4.12755348e-02, -1.29225552e-01,  5.91759384e-02,
           4.70093498e-03,  6.55232742e-02,  9.15863663e-02,
           4.34283465e-02, -9.64283496e-02,  2.14720145e-02,
          -1.92620918e-01,  7.33310729e-02, -7.37626553e-02,
          -3.30332480e-02,  5.15391789e-02, -7.46306032e-02,
           5.73210744e-03,  5.58879338e-02, -6.32518157e-02,
          -7.63766170e-02, -1.11803293e-01, -1.12971157e-01,
          -6.32791519e-02,  7.55998194e-02, -4.61300695e-03,
          -1.66481286e-02, -4.15713862e-02, -9.61083174e-02,
          -6.37345091e-02, -9.27344114e-02, -7.01775774e-02,
          -1.05588228e-01,  1.11788504e-01,  2.78175399e-02,
           6.56230077e-02,  7.68173635e-02,  2.41910890e-02,
          -3.96057591e-02, -2.79008225e-02, -4.76348959e-02,
          -9.26270112e-02,  9.35513973e-02, -2.10241944e-01,
           6.61955625e-02, -1.83799729e-01,  1.03875741e-01,
           6.42397776e-02, -1.09398989e-02,  4.02116515e-02,
          -1.30486712e-01, -9.98371653e-03,  1.08481340e-01,
          -2.34837029e-02],
         [ 7.20535293e-02, -1.70917660e-02,  8.48339275e-02,
          -2.80585214e-02, -6.67108968e-02,  8.58095661e-02,
          -3.12327594e-02,  2.16135830e-02, -4.80625108e-02,
          -8.68835375e-02,  7.70883784e-02, -5.32837808e-02,
          -7.43841752e-02, -7.33485594e-02, -5.20470589e-02,
          -6.15590811e-02,  6.08697608e-02, -1.97752863e-02,
          -3.92303243e-02, -3.98103222e-02, -8.13767686e-02,
          -2.94595435e-02,  3.57236713e-03,  5.78823611e-02,
          -9.33864042e-02,  8.72535035e-02,  2.11093426e-02,
           9.65691581e-02,  7.37416670e-02,  2.25908160e-02,
           1.44651383e-02,  2.80006304e-02,  5.08681759e-02,
           7.84236714e-02, -3.12951729e-02, -2.21716538e-02,
          -9.11864713e-02, -4.52467911e-02,  6.96830824e-02,
          -7.06041083e-02, -4.82643992e-02, -5.71123585e-02,
          -2.62276605e-02, -8.20598304e-02, -5.33478260e-02,
           4.73002270e-02, -4.65488806e-02, -3.70523706e-02,
          -6.90546930e-02, -9.73145813e-02, -2.46783569e-02,
           9.10810605e-02,  1.81391388e-02, -9.31659639e-02,
          -3.09313014e-02,  9.41322744e-03,  3.49631086e-02,
          -4.46774624e-02, -8.48632082e-02,  9.47337598e-03,
           8.28493014e-02, -5.56005910e-02,  2.28677765e-02,
           2.54119709e-02]],

        [[-7.43403938e-03, -5.42983152e-02, -8.72704610e-02,
           4.47695144e-02, -4.75508086e-02,  2.89541762e-03,
           4.77521159e-02, -9.27073061e-02,  3.66426371e-02,
          -6.58973679e-02, -5.50764874e-02,  5.96889108e-02,
           3.25967558e-02, -1.38989657e-01,  7.65376613e-02,
           1.38732091e-01,  1.96943115e-02, -6.76371455e-02,
           5.88820614e-02, -9.28204134e-02, -1.00442888e-02,
          -2.39561662e-01, -4.34466787e-02, -1.04835428e-01,
          -2.76761651e-02, -3.79058835e-03, -4.07958962e-03,
           7.74263367e-02,  6.49789795e-02, -2.11961288e-02,
          -7.36635104e-02,  1.98365655e-02,  3.55897732e-02,
           9.52512473e-02, -6.75639957e-02,  9.78948623e-02,
          -4.28546742e-02,  4.45229281e-03, -8.67363587e-02,
          -6.12721778e-02, -5.12899123e-02, -3.56226154e-02,
          -2.06486695e-03, -4.60778698e-02, -1.01083592e-01,
          -2.03548342e-01,  7.15762675e-02,  6.97647184e-02,
           8.05354267e-02, -8.65592957e-02, -4.14140895e-02,
          -4.52988073e-02,  6.54394776e-02, -1.06994964e-01,
          -7.59036317e-02, -1.49353698e-01,  2.89051477e-02,
           4.78203334e-02, -4.64634635e-02,  1.06183164e-01,
          -1.45392120e-01, -6.88110758e-03,  3.54142934e-02,
          -3.23466472e-02],
         [ 5.92605136e-02, -1.38236836e-01, -1.14384703e-01,
          -1.00929782e-01,  1.64710823e-02,  5.67163005e-02,
           6.32509813e-02, -7.30896601e-03, -3.29457708e-02,
          -1.38268489e-02, -3.64786647e-02, -1.15272787e-03,
           1.17980996e-02, -3.30574287e-04,  1.01337498e-02,
           7.63445422e-02, -5.11861704e-02, -5.90344034e-02,
          -1.88699663e-02, -4.17451821e-02,  9.14580077e-02,
          -1.39207646e-01, -9.01609063e-02, -1.58228904e-01,
          -4.22910191e-02,  3.43692228e-02,  3.24182510e-02,
           9.63717476e-02, -6.03366904e-02,  6.06794050e-03,
          -1.54767215e-01, -9.79608372e-02,  4.60584946e-02,
           8.76102597e-02, -1.93692446e-01,  1.42231807e-01,
          -1.42274555e-02,  5.95484599e-02, -9.96982008e-02,
           3.84701900e-02,  8.11999738e-02, -1.95862725e-02,
          -2.95876171e-02,  9.06298608e-02, -3.79572101e-02,
          -2.29040161e-01, -4.31364961e-02,  2.12592725e-02,
          -3.75578851e-02, -3.33974846e-02, -1.13843277e-01,
          -3.45877036e-02,  1.98049545e-02, -5.28147891e-02,
           2.01906692e-02, -5.36824577e-02,  1.95259929e-01,
          -6.58099016e-05, -1.00884080e-01,  1.70221835e-01,
          -1.20472699e-01, -7.19489232e-02, -3.35006341e-02,
          -4.70831096e-02],
         [ 1.93798319e-02, -1.58147410e-01,  1.47216814e-02,
          -8.84380005e-03, -1.61551237e-02,  5.22275418e-02,
          -5.38068777e-03, -1.03993379e-02, -3.48377302e-02,
          -4.64397781e-02, -8.62014070e-02,  4.22018319e-02,
          -1.02409711e-02, -1.46695599e-01,  2.69593727e-02,
          -4.96065849e-03, -8.04281980e-02,  6.90277442e-02,
           2.76160752e-03, -8.93211141e-02,  2.14149170e-02,
          -2.32302606e-01,  3.29316892e-02, -9.92228389e-02,
          -8.54020044e-02, -4.08041067e-02,  4.71952520e-02,
           6.81360289e-02, -1.01260684e-01,  5.79098351e-02,
          -7.60388896e-02, -8.09383243e-02,  1.07723828e-02,
           2.69209277e-02, -1.13442838e-01,  1.19882680e-01,
           7.86015317e-02,  3.06974184e-02, -1.61997944e-01,
           1.55485831e-02,  7.62070939e-02,  4.26897332e-02,
           1.55929010e-03,  1.02865271e-01,  2.91029029e-02,
          -2.17917770e-01, -9.81031284e-02,  4.79322076e-02,
          -2.65591796e-02, -5.83779402e-02, -3.71714309e-02,
          -4.79946956e-02, -1.80337708e-02, -5.79472706e-02,
          -6.76662847e-02, -7.92758986e-02,  1.17763147e-01,
           6.84643760e-02, -1.17136672e-01,  4.71920036e-02,
          -2.98471767e-02,  4.65735868e-02,  9.12838131e-02,
          -7.44063407e-02],
         [-7.38920867e-02,  9.44530144e-02,  3.79732326e-02,
           7.59714767e-02,  6.08053878e-02,  6.07938543e-02,
          -4.21482362e-02, -8.77397656e-02, -8.55385065e-02,
           5.91585860e-02, -5.80740795e-02, -3.44489962e-02,
          -2.53383070e-03, -3.01916152e-03, -4.09345813e-02,
           5.39627597e-02, -9.75768268e-02,  5.54665253e-02,
           8.45310166e-02,  6.49902746e-02,  1.28798187e-04,
           1.22956559e-02,  3.60582396e-02, -9.04149711e-02,
          -1.49760619e-02, -7.51577243e-02, -8.01598504e-02,
          -8.39449912e-02,  1.76051259e-02,  2.70594433e-02,
          -2.70276740e-02, -4.47270125e-02, -6.74562603e-02,
          -9.08555239e-02, -4.22328711e-03, -5.29766791e-02,
          -4.69356589e-02,  7.10188821e-02,  9.90131423e-02,
           6.43449649e-02, -1.82145834e-02, -7.20696524e-02,
           7.38681033e-02, -8.45240057e-03, -5.95819503e-02,
           2.57296860e-03, -7.40507022e-02,  7.45907426e-04,
           1.94188207e-02,  9.34843048e-02, -7.13043138e-02,
          -8.95124823e-02, -9.46876407e-02, -6.40149564e-02,
           9.00112763e-02,  9.09954682e-02, -9.36703235e-02,
           8.44900981e-02,  1.37569755e-02, -1.22709647e-02,
          -6.85928166e-02,  6.22962490e-02,  5.48891649e-02,
          -2.51941457e-02]]],


       [[[ 1.25858888e-01, -2.28979308e-02,  3.18157673e-02,
          -6.09831661e-02, -1.08484194e-01, -1.13345407e-01,
          -9.80318524e-03, -6.87691569e-02,  1.18892632e-01,
          -9.43378508e-02,  1.37392506e-01,  8.09055269e-02,
          -2.10428145e-02, -1.79617137e-01, -1.46053731e-01,
          -6.29140297e-03, -3.28231193e-02,  1.48878340e-02,
          -5.65754138e-02, -8.22123364e-02, -1.86784915e-03,
          -2.07262486e-02,  8.27858225e-03,  5.63738942e-02,
           1.31399542e-01, -7.06915259e-02, -1.51257021e-02,
          -5.46964444e-02,  4.97718006e-02, -5.02370810e-03,
           8.21749568e-02,  6.52089436e-03,  2.78743263e-02,
          -1.07067540e-01, -1.34133384e-01, -2.02504858e-01,
           1.07960351e-01, -6.44315556e-02,  1.37415737e-01,
          -9.28754136e-02, -2.68167313e-02, -1.33840978e-01,
          -1.29004363e-02,  9.58800614e-02,  1.69038586e-02,
          -5.20486422e-02,  7.45861139e-03, -1.53058106e-02,
          -8.48528836e-03,  2.86969747e-02, -3.61933634e-02,
           5.34157529e-02, -1.01135693e-01, -7.43015781e-02,
           7.37941414e-02,  5.70952147e-03, -1.57066226e-01,
          -8.97139907e-02, -4.80740666e-02, -1.85459763e-01,
          -2.52721123e-02,  5.89824580e-02, -7.74229392e-02,
           8.21814090e-02],
         [ 6.81092888e-02,  7.82652497e-02, -3.47052775e-02,
           4.97681126e-02,  8.08090437e-03,  1.80063341e-02,
          -8.29775035e-02, -1.07520051e-01, -5.03667034e-02,
           9.66140255e-02, -6.76189200e-04,  2.20973976e-02,
          -9.12860185e-02, -7.48943388e-02, -1.43899471e-01,
          -3.68975997e-02,  2.59484369e-02,  3.26584540e-02,
          -8.91408920e-02, -4.35013697e-02,  7.38625228e-02,
          -1.29498065e-01,  6.28070608e-02, -1.19910017e-02,
           3.04018520e-02,  6.72756508e-02,  1.56345703e-02,
          -3.67503725e-02,  9.50846225e-02, -1.12274759e-01,
           1.23651229e-01,  2.15645810e-03, -1.05607346e-01,
           3.32089216e-02, -1.64675578e-01, -1.89053833e-01,
           1.18121684e-01, -4.65232227e-03,  5.97757697e-02,
           5.15893586e-02, -3.78490649e-02, -5.87210543e-02,
          -8.95283595e-02,  8.47825408e-02, -1.32737100e-01,
          -5.76841123e-02, -7.30203614e-02,  5.52767441e-02,
          -3.44224907e-02,  6.27460778e-02,  2.41919197e-02,
          -4.32210006e-02, -7.66121671e-02, -1.35926321e-01,
          -4.45259288e-02, -8.72651190e-02,  9.36307665e-03,
           4.92249355e-02, -1.10819407e-01, -1.42660901e-01,
           1.01557359e-01, -5.73993400e-02, -1.82403196e-02,
           1.01841949e-01],
         [-4.20766026e-02,  3.57814953e-02, -6.85274776e-04,
           5.82502112e-02, -1.10284157e-01, -6.36602640e-02,
          -7.44404197e-02,  1.53347729e-02, -2.80971755e-03,
          -7.78516307e-02,  6.71471432e-02,  8.14146250e-02,
           6.74659805e-03, -4.43211086e-02, -7.63105825e-02,
          -2.84516457e-02, -3.39356624e-02, -3.29268910e-02,
          -3.37849297e-02, -4.82683368e-02,  2.44452562e-02,
          -1.15303591e-01,  2.40862649e-02, -4.20908332e-02,
           1.71549380e-01, -6.26250803e-02, -1.17518380e-01,
          -1.87122007e-03,  9.16556567e-02,  4.16519120e-02,
           1.37759387e-01, -1.10607632e-01, -3.93632054e-03,
           6.71581104e-02, -1.11615859e-01, -7.32224062e-02,
           4.40908037e-02,  4.22810279e-02,  1.70833468e-01,
          -2.30427142e-02, -5.52859381e-02, -7.07682222e-02,
          -7.11301565e-02,  2.23685186e-02, -4.66735996e-02,
          -1.60514209e-02,  5.78912050e-02, -7.77229369e-02,
          -7.94106349e-02,  9.45612714e-02, -1.08053908e-01,
          -6.29728660e-02, -1.09949820e-01, -5.87745346e-02,
           2.33182423e-02,  4.09271009e-02, -1.65644065e-01,
           5.05623072e-02, -7.77428076e-02, -1.43121928e-01,
           6.11714385e-02, -1.04908653e-01, -2.70180497e-02,
           4.22062986e-02],
         [-6.96389377e-02,  5.68609908e-02,  9.26854238e-02,
          -5.32639734e-02, -1.08961463e-02,  4.24844995e-02,
          -7.45841712e-02, -9.20855701e-02,  6.49731606e-03,
           5.99747673e-02,  4.75039408e-02, -7.34941661e-02,
           4.46957350e-03, -8.77729282e-02, -7.84501880e-02,
          -5.25593534e-02, -5.12968078e-02,  3.15835327e-03,
          -3.39996815e-02,  8.18032995e-02,  2.60261521e-02,
           4.11262885e-02, -9.75021794e-02,  1.59533247e-02,
           3.84076461e-02, -7.27413893e-02,  2.62445956e-03,
          -1.13751516e-02,  5.74318245e-02,  3.44823077e-02,
           3.34955826e-02,  1.07599124e-02, -6.53415918e-05,
           9.05512497e-02, -8.54127854e-03, -5.80123737e-02,
          -9.72980335e-02, -5.97286448e-02, -1.46194324e-02,
           2.82353535e-02, -2.41334587e-02, -8.38014111e-02,
           4.44862023e-02, -9.02395248e-02,  8.48487094e-02,
           7.76105151e-02, -5.26714623e-02, -7.54694343e-02,
          -8.34305957e-02,  2.04698071e-02, -5.46518974e-02,
           7.55484030e-02,  3.35239246e-02, -6.29435778e-02,
          -2.96536386e-02,  7.70962164e-02, -7.14372694e-02,
           8.45231786e-02, -2.49888375e-02, -4.76711988e-03,
           9.35731307e-02,  1.53903663e-02, -8.70886594e-02,
           9.28320363e-02]],

        [[ 2.78417822e-02,  2.48559397e-02, -8.11434090e-02,
          -8.66581798e-02, -8.18814114e-02, -3.66048403e-02,
          -1.05087981e-01, -8.39869753e-02,  8.01265016e-02,
           9.92085319e-03,  1.02764545e-02, -5.45900129e-02,
          -3.45783830e-02, -5.84740266e-02,  3.90622988e-02,
           3.00039258e-02, -7.34294355e-02,  3.22182216e-02,
           7.69997463e-02,  6.34357557e-02,  2.87919547e-02,
          -1.72782525e-01,  4.29627709e-02, -1.18003167e-01,
          -5.54241166e-02,  8.84368941e-02,  2.66458897e-04,
           1.02556273e-01, -5.37787378e-02, -5.81705607e-02,
           2.78735422e-02, -3.71225514e-02, -1.62088256e-02,
           3.87870334e-02, -1.92647621e-01, -2.18771286e-02,
           5.09307832e-02, -3.88556570e-02,  7.23286122e-02,
          -1.60577744e-01, -7.00963438e-02,  6.16722964e-02,
          -2.47960482e-02,  3.83172631e-02, -9.83287916e-02,
           3.94896120e-02, -1.21493511e-01, -3.18600163e-02,
           2.79953815e-02,  3.58743221e-02, -1.09784499e-01,
          -6.85279677e-03, -6.20636158e-02, -5.92796467e-02,
          -5.71649224e-02, -1.21741600e-01, -1.27127036e-01,
           2.11762618e-02, -7.35403225e-02,  4.00165804e-02,
           3.20833661e-02,  6.06037937e-02, -4.65692021e-02,
          -5.03236381e-03],
         [ 1.26990497e-01, -2.33666226e-02, -1.07928678e-01,
           1.92052033e-02, -9.25333425e-02,  5.27163851e-04,
          -7.95422867e-02, -3.20511982e-02,  8.48060101e-02,
          -8.95431638e-02, -6.32820055e-02, -1.63532086e-02,
          -2.97710411e-02, -8.07130113e-02,  1.09205678e-01,
           5.54136001e-03, -6.26731291e-02, -1.43046286e-02,
          -1.05379904e-02, -2.13855412e-02,  6.02661781e-02,
          -1.17026135e-01, -1.89029258e-02,  2.56555695e-02,
          -3.10610905e-02, -6.36083186e-02, -8.39819908e-02,
           1.25788208e-02,  3.15557569e-02, -2.56782509e-02,
           4.93074954e-02,  6.36522770e-02, -1.79355964e-02,
           9.45700929e-02, -9.51814502e-02,  4.20091627e-03,
           1.48043737e-01, -9.93314981e-02,  1.02490634e-01,
          -1.47602201e-01,  6.53654039e-02, -5.46745993e-02,
          -7.81417415e-02,  1.01104967e-01, -9.15058181e-02,
           7.95568079e-02, -5.73737584e-02, -9.33580920e-02,
          -1.35631543e-02,  1.03178658e-01, -1.47381917e-01,
          -5.44194430e-02,  3.46715599e-02, -1.36979759e-01,
           7.99936205e-02, -1.42885432e-01, -1.13868661e-01,
           9.20448080e-02, -1.77882284e-01,  6.36402294e-02,
          -4.27054353e-02, -4.68683615e-02, -1.18230566e-01,
          -9.44046378e-02],
         [-4.81104106e-03, -1.16979117e-02, -5.88806719e-02,
          -8.15234631e-02,  1.30576137e-02,  1.78210996e-02,
          -7.20603764e-02, -6.05158731e-02,  1.52946532e-01,
           4.25533974e-04, -4.93005514e-02,  1.08609097e-02,
          -1.28635049e-01, -1.02407657e-01,  8.98775682e-02,
          -1.74396876e-02,  6.29109666e-02, -5.00414670e-02,
           4.54479009e-02, -5.53579554e-02,  7.19750896e-02,
          -1.36998892e-01, -9.08768550e-02,  1.10792629e-02,
          -4.58699800e-02, -1.90144014e-02, -2.15243790e-02,
          -7.11365491e-02,  5.15790358e-02, -5.45663126e-02,
           1.30281067e-02, -7.28881657e-02, -9.72852558e-02,
          -1.80959776e-02, -5.97230606e-02, -1.96935516e-02,
           9.49096754e-02, -2.93219201e-02,  1.61292166e-01,
          -5.80285303e-02,  5.80006577e-02,  4.74811569e-02,
           2.33324394e-02,  1.44274076e-02, -1.29120544e-01,
          -5.82410321e-02,  3.75273265e-02, -1.05553545e-01,
          -1.48209427e-02, -4.90327552e-03, -1.58808678e-01,
          -1.04094170e-01, -6.19510412e-02, -8.23273659e-02,
          -2.46489677e-03, -1.44631311e-01,  5.15828375e-04,
          -8.61425325e-02, -7.79070333e-02,  6.09501414e-02,
           1.15479313e-01,  6.77346215e-02, -7.47355670e-02,
          -2.25207172e-04],
         [-8.14494491e-02, -6.65113255e-02, -6.26453087e-02,
           7.50101581e-02,  5.02980724e-02,  5.51784113e-02,
           6.10539839e-02,  8.09036866e-02, -1.70085728e-02,
           3.98204997e-02,  4.63187695e-03, -2.85250396e-02,
          -1.05729625e-02,  2.39951015e-02,  5.69408312e-02,
           5.34055158e-02,  3.00655290e-02,  9.84370932e-02,
          -4.74702567e-03,  4.58442420e-03,  8.93257484e-02,
          -5.00161275e-02, -8.53948817e-02,  7.68894330e-02,
           7.31350482e-03,  9.67920199e-02,  4.77986857e-02,
          -4.13385443e-02, -1.89006478e-02, -9.55144539e-02,
           4.52318266e-02,  6.10740110e-02, -3.75771299e-02,
          -2.44282186e-02, -3.88179570e-02, -4.33756337e-02,
          -6.90753013e-02,  6.21844009e-02, -9.59054083e-02,
           8.62763599e-02, -8.75288844e-02, -6.88074306e-02,
           3.52657214e-02,  4.52197567e-02,  8.79259929e-02,
          -1.26962662e-02,  2.59692371e-02, -1.08347163e-02,
          -5.62091321e-02, -4.05586883e-02, -9.30946693e-02,
           4.87710461e-02,  5.44812903e-02,  2.12839618e-02,
          -5.97074442e-02, -7.42889643e-02,  3.64111289e-02,
           5.37497625e-02, -5.65494262e-02,  4.23751697e-02,
          -9.29708257e-02,  4.13103029e-02, -5.35138771e-02,
          -8.82041603e-02]],

        [[ 1.37241036e-01, -4.40605357e-02, -7.89493248e-02,
          -3.34251113e-02,  9.47411135e-02, -8.42011534e-03,
          -6.09305762e-02, -4.30065356e-02,  1.85178649e-02,
          -7.01530278e-02, -1.07204989e-01, -6.12442801e-03,
          -5.62507138e-02, -2.54589990e-02, -6.05964698e-02,
           4.24609929e-02,  4.29370487e-03, -8.27096924e-02,
           9.09280106e-02, -2.44368427e-02, -3.54029872e-02,
          -4.87020947e-02,  2.21663024e-02, -1.42591074e-01,
           1.25499638e-02, -4.38943245e-02, -5.55521576e-03,
           7.85826594e-02, -5.95276989e-02,  5.60382754e-02,
          -1.44776121e-01, -9.27205458e-02,  1.65373571e-02,
           4.34152000e-02, -6.87042251e-02,  1.26968950e-01,
           1.21901058e-01,  8.04849528e-03,  3.95930652e-03,
          -5.13422266e-02,  5.52487485e-02, -9.67475772e-02,
           1.45187033e-02,  8.07934627e-02, -1.97165668e-01,
          -7.93934390e-02, -1.39361676e-02, -2.74379514e-02,
           6.97551668e-02,  7.55968913e-02, -9.69007835e-02,
           4.55308706e-02, -5.53355366e-02, -1.38096601e-01,
          -6.44252002e-02, -1.65232286e-01, -1.87832534e-01,
          -8.05581361e-02, -1.46849811e-01,  1.57463700e-01,
          -8.86951983e-02, -7.75092915e-02, -1.28113672e-01,
          -6.36850658e-04],
         [ 3.65637168e-02,  1.08035587e-01, -7.87145421e-02,
          -1.32290736e-01,  2.06554737e-02, -9.19798091e-02,
          -4.32057008e-02,  5.62838614e-02,  1.12960964e-01,
           2.10442431e-02,  5.73771596e-02, -8.17564949e-02,
           7.10065942e-04, -1.63952887e-01, -2.78937723e-02,
           1.61132850e-02,  5.87750152e-02, -2.10717972e-02,
           6.30803630e-02, -1.55212181e-02,  9.14457068e-02,
          -2.04238638e-01, -1.05847999e-01, -1.82897244e-02,
          -3.72875296e-02, -5.28965294e-02, -7.07985237e-02,
           1.99098401e-02,  3.42752188e-02, -3.64927910e-02,
          -8.37028176e-02, -1.67714171e-02, -6.11476041e-02,
           3.57712992e-02, -1.01126954e-01,  8.82747397e-02,
           1.82587087e-01, -2.55679842e-02,  7.78796226e-02,
          -7.12136775e-02, -5.20511530e-02, -3.05100773e-02,
           2.93444507e-02,  5.03306240e-02, -1.72385469e-01,
          -2.31163427e-01, -4.97029051e-02,  2.71427892e-02,
           2.66743805e-02,  6.74901530e-02, -1.74301043e-01,
           8.33040848e-02, -4.38319743e-02, -9.29700509e-02,
           6.28486276e-02, -4.01629061e-02, -1.11602589e-01,
           4.27547283e-03, -1.43951075e-02,  2.01221943e-01,
           8.05236548e-02,  4.92621213e-02, -4.89926673e-02,
          -1.15205631e-01],
         [-2.36687846e-02, -7.03906193e-02, -1.00494944e-01,
          -7.25879371e-02,  1.33365825e-01,  1.05451643e-02,
          -6.76488802e-02, -6.70092786e-03,  3.04027591e-02,
          -7.22783152e-03,  3.46537456e-02,  6.89509092e-04,
           3.28082331e-02, -4.23257127e-02,  6.59444481e-02,
          -1.20098226e-01,  6.49755672e-02,  3.00963540e-02,
           5.41345356e-03, -5.05603850e-02,  9.64391306e-02,
          -6.67875633e-02, -5.25359027e-02, -6.36964366e-02,
          -5.15657663e-03, -8.64707455e-02,  5.55316499e-03,
          -1.38501320e-02,  5.29730469e-02, -5.91415167e-02,
          -1.17770694e-01, -8.20305347e-02,  5.65277226e-02,
           1.37036655e-03, -9.34505183e-03,  1.40947595e-01,
           2.12497532e-01,  4.48572263e-02, -7.26936981e-02,
          -5.75418361e-02,  1.21768508e-02,  6.17268346e-02,
           1.48592340e-02,  1.20188698e-01, -1.62506610e-01,
          -1.45798996e-01, -2.22383514e-02, -9.09628272e-02,
           1.13893161e-02,  7.44283125e-02, -7.64757767e-02,
          -9.85747352e-02,  6.61495775e-02, -3.11158393e-02,
           3.26720551e-02, -1.27241015e-01, -8.94007012e-02,
           5.99417724e-02, -5.24818413e-02,  1.61101341e-01,
           9.79507640e-02, -3.94001827e-02, -1.29630640e-01,
          -3.96489203e-02],
         [ 1.37774199e-02, -6.31224960e-02,  9.62278023e-02,
          -6.33915961e-02,  3.73509452e-02, -8.46252292e-02,
          -3.24595422e-02,  4.30741236e-02,  6.41578510e-02,
           6.00529984e-02,  7.70413950e-02,  4.30534035e-03,
           6.44683763e-02,  8.62588510e-02,  1.00080967e-02,
          -5.25923558e-02,  8.64840373e-02,  3.58914062e-02,
          -3.49861011e-02, -3.11564580e-02, -3.58449891e-02,
          -1.33209080e-02,  9.12539139e-02, -8.87864828e-03,
           5.44827506e-02,  9.09314305e-03,  2.84097269e-02,
          -8.16088468e-02,  5.81900552e-02,  5.41315600e-02,
           6.25086650e-02, -5.30330278e-02,  1.84381679e-02,
           3.23154032e-04,  6.65258691e-02, -9.42299068e-02,
           7.41480067e-02, -5.67811765e-02,  9.62360278e-02,
          -2.52627507e-02, -1.26602948e-02,  8.54459032e-02,
          -8.91491771e-04, -7.26566613e-02,  9.94138420e-03,
          -7.83243179e-02, -4.62183133e-02, -1.30580962e-02,
           4.13983688e-02,  9.41020921e-02, -9.27253366e-02,
          -7.51162767e-02,  8.19229856e-02, -4.73491326e-02,
          -9.14912596e-02,  3.54268476e-02, -5.77133186e-02,
          -1.85616314e-02,  9.11378637e-02,  3.43257189e-03,
          -8.91625062e-02, -2.64520869e-02,  4.71963659e-02,
           3.39708552e-02]]]], dtype=float32), array([-0.14501268,  0.11185797, -0.13371156, -0.1284023 ,  0.19125007,
       -0.05903197,  0.22228153, -0.08541319, -0.09636775, -0.02134388,
       -0.02656855, -0.09786934, -0.08482342,  0.0847508 , -0.06196261,
       -0.03786894, -0.09919778, -0.0024471 , -0.10064382, -0.02885478,
       -0.14904952,  0.0479557 , -0.14883712,  0.15961315,  0.28966197,
       -0.01405801,  0.19625479, -0.13063811, -0.0842071 , -0.02564548,
        0.01374994,  0.11071793, -0.09976107, -0.08899035, -0.05592241,
        0.01078967,  0.06368969,  0.21112257,  0.10346644, -0.00366874,
        0.1431017 ,  0.070526  , -0.01228981, -0.11587197,  0.03909629,
       -0.01018018, -0.07496145, -0.14696267, -0.11959828, -0.11656621,
        0.1117392 , -0.02548669,  0.089341  ,  0.24255282, -0.12169474,
        0.07822065, -0.03143357, -0.13751328,  0.10783593,  0.07427492,
       -0.07905672, -0.0309678 , -0.00973634, -0.02372232], dtype=float32)]{'name': 'activation_6', 'trainable': True, 'dtype': 'float32', 'activation': 'relu'}[]{'name': 'max_pooling2d_2', 'trainable': True, 'dtype': 'float32', 'pool_size': (2, 2), 'padding': 'valid', 'strides': (2, 2), 'data_format': 'channels_last'}[]{'name': 'conv2d_5', 'trainable': True, 'dtype': 'float32', 'filters': 32, 'kernel_size': (3, 3), 'strides': (1, 1), 'padding': 'same', 'data_format': 'channels_last', 'dilation_rate': (1, 1), 'groups': 1, 'activation': 'linear', 'use_bias': True, 'kernel_initializer': {'module': 'keras.initializers', 'class_name': 'GlorotUniform', 'config': {'seed': None}, 'registered_name': None}, 'bias_initializer': {'module': 'keras.initializers', 'class_name': 'Zeros', 'config': {}, 'registered_name': None}, 'kernel_regularizer': None, 'bias_regularizer': None, 'activity_regularizer': None, 'kernel_constraint': None, 'bias_constraint': None}[array([[[[ 1.63589530e-02,  7.62135908e-02, -7.66007900e-02,
           1.30474241e-02,  1.34938792e-03,  5.63972741e-02,
           2.46379808e-01,  3.43614183e-02, -8.52172524e-02,
           1.46486506e-01, -4.69330791e-03, -1.39427274e-01,
          -1.69481542e-02,  3.32287014e-01, -5.24729528e-02,
           1.23947062e-01,  3.68058011e-02,  5.15286811e-02,
           9.54584554e-02, -1.21616889e-02,  3.38377841e-02,
           4.24559191e-02, -4.63354401e-02, -6.58361614e-03,
           1.19800381e-01, -1.41034663e-01,  9.11152214e-02,
          -1.66378692e-01, -6.48526773e-02,  4.79562469e-02,
          -1.54533272e-03, -1.60866126e-01],
         [-5.56547493e-02,  6.35399818e-02,  5.75763918e-03,
          -1.00713961e-01, -5.41813783e-02, -9.29498021e-03,
          -4.23627831e-02, -4.49001342e-02, -1.19336778e-02,
           6.43349141e-02, -2.69993804e-02, -7.22942203e-02,
           6.21452965e-02,  6.36722744e-02, -4.17949632e-03,
          -2.09887512e-02, -1.95727929e-01, -2.48772390e-02,
          -7.85097554e-02, -6.40638173e-02, -4.86893393e-02,
           1.28777489e-01, -4.28722799e-02,  9.08846781e-02,
           9.88822430e-02,  4.22618398e-03, -2.46829558e-02,
          -8.88896137e-02,  8.09154212e-02,  6.73390329e-02,
           5.54069839e-02,  1.39458597e-01],
         [-1.42614488e-02, -8.67007002e-02, -1.31613284e-01,
          -2.71524861e-02,  2.56480247e-01, -4.20266390e-02,
          -4.22652178e-02, -2.55296994e-02, -2.36200243e-02,
          -3.53171751e-02,  2.38571152e-01,  1.34645268e-01,
           6.27327636e-02,  1.85415938e-01,  6.92644119e-02,
           7.47770518e-02, -2.00191308e-02,  1.32198045e-02,
           1.68089010e-02, -8.33692178e-02, -3.89089622e-02,
           1.02475964e-01,  2.40604603e-03,  2.76042074e-01,
           1.91303715e-01, -4.93102595e-02, -2.55835932e-02,
           1.37509450e-01, -7.50189200e-02, -6.33399338e-02,
          -4.48224135e-02,  1.25885988e-02],
         [ 1.12817874e-02,  3.51979285e-02, -1.03684980e-02,
           6.82150200e-02,  9.24130902e-03, -3.90210748e-02,
           5.61842062e-02,  1.24832457e-02, -6.61341147e-03,
          -5.51695563e-02,  5.43283857e-02,  9.82312337e-02,
           7.32260644e-02,  1.88557044e-01,  5.52635789e-02,
          -3.94473448e-02,  6.95337281e-02,  2.90772552e-03,
          -9.15059745e-02, -1.78715780e-01,  2.16640327e-02,
           6.01529218e-02,  3.05487346e-02,  3.41361016e-02,
           1.10915631e-01, -1.82791222e-02,  1.07016684e-02,
          -2.16273014e-02, -4.65204120e-02, -1.56376615e-01,
          -4.57028346e-03,  2.36101635e-02],
         [ 5.41314622e-03,  3.01535279e-01, -4.82833907e-02,
           6.50449619e-02,  7.06607029e-02, -2.55746506e-02,
           3.75804752e-02, -1.39403254e-01, -4.80369031e-02,
          -6.26579747e-02, -7.76896998e-02,  7.86086544e-02,
           2.73405167e-04,  7.09509104e-02,  3.84936072e-02,
           1.76095933e-01, -1.27050132e-01,  1.24094374e-01,
           2.89277956e-02,  6.68008402e-02, -5.99148385e-02,
          -1.89432397e-01, -4.97625396e-02,  4.31358218e-02,
           8.59506056e-02, -1.36671335e-01,  2.99988897e-03,
          -1.16787320e-02,  1.61118180e-01,  7.55514875e-02,
           2.58181449e-02,  5.23102693e-02],
         [ 1.47991655e-02, -8.08418244e-02, -1.61492676e-02,
          -1.84567482e-03, -4.92845438e-02, -1.04164518e-03,
          -9.67790186e-02, -3.67068755e-03, -7.31628239e-02,
           5.38720004e-02, -2.85308398e-02, -9.27452557e-03,
          -3.20236944e-02, -9.22937319e-02,  6.70880452e-02,
          -3.62018161e-02,  4.97550927e-02,  4.62115370e-02,
           7.66814351e-02,  2.72559337e-02,  6.38056844e-02,
          -2.04433098e-01,  7.57984966e-02, -6.17803447e-02,
           6.49644434e-02,  4.91924174e-02,  5.66800237e-02,
           1.79090872e-02, -3.60554457e-02,  2.15721428e-02,
          -6.83269873e-02,  3.77403758e-02],
         [-2.09970996e-01, -1.31981805e-01, -1.48063600e-01,
           4.19511534e-02, -1.09212816e-01, -2.74837852e-01,
          -7.86230564e-02,  7.49765188e-02,  3.25644389e-02,
          -7.59583153e-03,  6.30031750e-02,  9.57032293e-02,
          -6.82114884e-02,  9.56258178e-02,  9.84577686e-02,
           5.99246770e-02,  1.73960987e-04,  1.10421272e-04,
          -3.20782997e-02, -1.34685010e-01,  4.09670472e-02,
          -2.36239210e-02, -3.84301454e-01,  1.34808809e-01,
           6.79699183e-02,  1.19153246e-01, -1.29362568e-01,
          -1.60162404e-01, -9.24913362e-02,  4.01179194e-02,
          -1.12354085e-01, -1.35901645e-01],
         [-9.79773700e-02, -4.19108532e-02,  7.74175972e-02,
          -4.40385863e-02, -3.20628658e-02,  9.47519466e-02,
           5.52377030e-02, -7.17496639e-03,  4.05241512e-02,
           7.90044814e-02, -3.83300409e-02, -6.34937733e-02,
           4.34216261e-02,  2.46021450e-02, -3.80974673e-02,
          -3.17742527e-02, -9.36474185e-03,  1.03147165e-03,
          -4.42603119e-02,  2.07186081e-02, -4.75098267e-02,
          -4.73805144e-02, -8.38109031e-02, -1.42506789e-02,
           9.11500901e-02, -1.84817743e-02,  6.84495121e-02,
          -1.21505687e-03, -4.71802428e-02,  7.36038713e-03,
           1.67352594e-02,  4.45378274e-02],
         [ 9.58581828e-03,  4.48834850e-03,  1.33251324e-01,
           1.17121544e-02,  2.09411338e-01,  2.22921055e-02,
          -3.67435142e-02, -5.04996441e-02, -8.04225951e-02,
           6.12761267e-02, -1.07467853e-01,  2.79061794e-02,
           6.56677708e-02, -2.07298443e-01, -1.40873846e-02,
          -3.57148834e-02,  2.96519071e-01,  4.74589504e-03,
           1.41684517e-01, -1.61385275e-02, -1.44555978e-02,
          -2.76287168e-01, -9.08288583e-02, -2.15591684e-01,
          -1.05193704e-01, -1.10219605e-01, -2.70021986e-02,
           3.88620757e-02, -9.09868777e-02, -7.43822977e-02,
          -5.77930026e-02,  1.95991918e-01],
         [ 6.80528879e-02, -5.37608899e-02,  7.42404461e-02,
          -4.81317900e-02,  6.08589873e-02, -9.06159543e-03,
          -5.90486266e-03, -7.98124224e-02, -2.66443063e-02,
          -4.22206596e-02,  3.68021987e-02,  3.26387119e-03,
           3.35342288e-02, -4.62544663e-03,  6.55187527e-03,
          -2.68278532e-02, -1.92994103e-02,  4.42166515e-02,
           6.25366867e-02,  7.89870098e-02, -1.34289730e-02,
          -3.46647650e-02,  2.34209169e-02, -6.90944269e-02,
           3.08593269e-02, -4.74402681e-03,  6.90060407e-02,
           4.70200069e-02, -7.86375776e-02, -4.42588981e-03,
          -4.01950441e-02, -6.18272312e-02],
         [-2.97782011e-02, -1.41962916e-01,  3.30947824e-02,
          -1.43153355e-01,  6.84890002e-02,  5.48537411e-02,
          -1.27959549e-01, -4.72932449e-03,  7.34328255e-02,
          -2.33958848e-02,  1.01623811e-01,  1.13754794e-01,
          -7.11414441e-02, -4.29539159e-02,  2.74035167e-02,
           1.72763169e-01, -1.44305587e-01,  8.05834457e-02,
          -4.33674902e-02,  1.03913769e-01,  9.49604213e-02,
          -1.19622223e-01,  2.28844211e-02, -1.47217549e-02,
           1.39440536e-01, -6.91730529e-02, -3.25151049e-02,
           9.80000719e-02,  2.52035670e-02, -1.27873048e-01,
          -7.11033419e-02, -4.61264849e-02],
         [-1.13900475e-01,  3.68687734e-02,  4.59961221e-02,
           2.66625565e-02,  1.21933028e-01,  5.52799702e-02,
          -4.89409231e-02,  4.91076373e-02, -5.30791543e-02,
           4.19085100e-02,  4.20283601e-02, -1.85903702e-02,
           2.93425769e-02,  1.83955640e-01,  1.20036192e-01,
          -8.14295039e-02,  7.02407882e-02,  2.08305232e-02,
           9.34831984e-03, -9.37740207e-02,  3.72593850e-02,
          -9.96292010e-02, -7.07033873e-02,  8.73433705e-03,
           1.23118125e-01, -6.51140511e-03,  2.50745453e-02,
          -9.81779918e-02, -2.13450640e-02, -4.40094769e-02,
          -3.12677189e-03, -5.73548153e-02],
         [-9.88807231e-02, -1.01025969e-01, -8.90569687e-02,
          -9.92941204e-03, -2.70463973e-02,  4.14813794e-02,
          -7.16850609e-02, -9.03802738e-02, -1.28552929e-01,
          -4.84164953e-02,  1.80345058e-01, -2.85918526e-02,
          -3.57541665e-02,  5.53662293e-02,  8.97590369e-02,
          -2.27758028e-02,  7.57601932e-02,  1.69817619e-02,
          -4.76921163e-02,  5.01425602e-02,  1.04669938e-02,
           4.47788276e-02, -2.65194122e-02,  1.07384458e-01,
           1.31765881e-03, -3.49518545e-02, -8.82321075e-02,
           4.90896739e-02,  4.53937948e-02, -9.54243466e-02,
           9.40660536e-02,  3.96644920e-02],
         [-1.61868766e-01, -3.54750715e-02, -1.54689923e-01,
           5.67001961e-02, -9.79662165e-02, -2.81106606e-02,
           1.66050762e-01, -9.79963504e-03,  6.14998676e-02,
           2.97968257e-02,  8.60184059e-02, -5.03032794e-03,
           8.33948106e-02,  2.79192448e-01, -6.25222325e-02,
           5.36582731e-02,  1.42368540e-01, -1.06597066e-01,
          -7.76965842e-02, -1.02332965e-01, -6.72093257e-02,
          -3.97595875e-02,  4.84221391e-02,  8.71157274e-02,
          -1.32131070e-01,  3.35433669e-02, -5.87187987e-03,
           8.26243907e-02,  4.18165699e-02,  5.35114445e-02,
          -3.92252803e-02, -1.87673450e-01],
         [-9.13062170e-02, -8.25750642e-03, -2.70259492e-02,
          -8.15067142e-02, -5.84294982e-02,  7.85014480e-02,
           2.81314760e-01,  2.91963965e-01,  7.10661989e-03,
          -7.16024190e-02, -5.79314195e-02, -1.71312094e-01,
           7.14135394e-02, -8.26674141e-03,  1.10352777e-01,
          -1.97758880e-02,  7.72385821e-02,  5.05097359e-02,
          -3.92505191e-02, -4.62285951e-02, -1.67421456e-02,
          -5.65500379e-01, -4.72516529e-02, -1.11169174e-01,
          -2.71126002e-01,  4.98850942e-02,  1.01497620e-01,
          -1.89957097e-01,  1.00252312e-02, -2.66031027e-01,
          -2.54144501e-02, -1.94800824e-01],
         [-1.42533402e-03, -4.76236753e-02, -3.62322703e-02,
          -6.42280951e-02, -7.99736977e-02,  1.53798535e-01,
          -7.70746022e-02, -8.24909061e-02,  2.38177292e-02,
          -3.36006097e-02,  1.06260240e-01, -1.81193829e-01,
          -4.02168110e-02, -3.56922656e-01, -1.98378321e-02,
           1.14694713e-02,  1.34991586e-01,  3.83859724e-02,
           8.75523910e-02,  8.63649696e-02, -5.68412729e-02,
          -4.44110155e-01, -1.41610146e-01,  2.19190747e-01,
          -2.29672611e-01, -2.53815472e-01, -2.38173045e-02,
          -2.28059590e-01, -9.46650207e-02, -2.06117764e-01,
          -3.48780192e-02, -6.34528324e-02],
         [ 3.44274752e-02,  5.13729416e-02,  9.20243710e-02,
          -4.83900607e-02, -5.67209236e-02,  8.71288404e-02,
           1.00510502e-02, -1.99120622e-02, -5.97132631e-02,
           2.11338792e-02,  7.14702979e-02, -3.76607962e-02,
          -2.89066415e-02, -5.87169873e-03, -4.54110745e-03,
           9.41519905e-03,  8.73485282e-02,  6.80604726e-02,
           8.34404975e-02,  5.79647198e-02, -4.35642600e-02,
           1.34701247e-03,  4.76332270e-02,  5.49697652e-02,
          -7.59811923e-02, -7.53988549e-02,  5.24129793e-02,
           1.62014104e-02,  7.09449351e-02, -1.21369392e-01,
          -5.27063087e-02,  8.91947299e-02],
         [ 3.00556961e-02, -7.95128569e-02, -1.31785357e-02,
           7.50082210e-02, -5.04441261e-02, -1.63848884e-03,
           3.34723741e-02, -5.86129650e-02, -5.93843423e-02,
           6.47436529e-02, -3.20154652e-02, -6.07993230e-02,
           8.11123326e-02,  7.53321648e-02,  4.98495437e-03,
          -3.18843164e-02,  1.31049091e-02,  2.66433135e-02,
           6.85265139e-02,  1.92265157e-02,  9.05748457e-03,
           2.84814835e-02,  7.16648623e-02,  4.60519176e-03,
           8.22331011e-02, -1.00244014e-02,  7.36442506e-02,
          -7.20510334e-02,  4.09965776e-02,  5.75942174e-02,
          -4.24913503e-02,  3.28384116e-02],
         [-1.30221054e-01,  5.17858900e-02, -1.28440801e-02,
          -1.13118254e-01, -9.81560796e-02,  5.64999841e-02,
          -2.76537333e-02,  2.16792226e-02, -1.21235587e-01,
          -9.91749242e-02, -7.83426911e-02,  3.22687961e-02,
           6.86936406e-03,  1.30237387e-02,  6.96395338e-02,
          -7.00131804e-02,  3.23415041e-01, -2.03056633e-02,
          -3.71903740e-03, -5.45542240e-02, -6.55531138e-02,
          -1.28362238e-01,  1.41828193e-03,  3.51988152e-02,
          -1.25780165e-01,  1.21914677e-01,  1.18211955e-02,
           3.18063684e-02, -6.93641454e-02, -7.87431225e-02,
          -5.34094125e-02,  3.40178609e-04],
         [-3.36332060e-02, -3.67888175e-02, -4.12897803e-02,
          -1.96720511e-02, -1.25376927e-02, -3.60781439e-02,
           7.08473846e-02, -5.14831729e-02, -4.90794368e-02,
           5.17402925e-02, -3.11954040e-02,  1.72971953e-02,
          -5.94291240e-02,  3.28697897e-02,  7.90214837e-02,
          -6.37720525e-02, -6.56558275e-02, -2.02160161e-02,
           4.27726135e-02, -4.13576253e-02, -5.69489710e-02,
          -7.45152310e-02,  6.70831054e-02, -6.44149855e-02,
           6.24752864e-02, -7.61956945e-02,  5.03697321e-02,
           3.25388163e-02,  7.31240511e-02, -1.71276610e-02,
           6.36817282e-03,  4.82276194e-02],
         [-3.90968136e-02, -8.01251903e-02,  5.61284870e-02,
          -7.79611245e-02,  1.19659320e-01,  7.32250735e-02,
          -1.06983952e-01, -1.87613033e-02,  1.09332182e-01,
          -2.48323772e-02, -4.49338891e-02, -3.10938805e-03,
           5.88004515e-02, -1.49701461e-01,  2.09466182e-02,
          -2.94819586e-02,  1.72208562e-01, -4.78981063e-02,
           2.56880739e-05,  4.28682864e-02,  6.47382215e-02,
          -1.27950376e-02, -1.02919945e-02, -8.51299465e-02,
          -4.76429574e-02,  9.61017311e-02, -1.24913119e-02,
           5.79221472e-02,  8.98397435e-03, -3.46002162e-01,
           5.79699781e-03,  6.31393865e-02],
         [ 3.49815935e-02,  1.96516030e-02, -1.90398127e-01,
          -1.33183062e-01, -2.17858493e-01,  3.50868073e-03,
          -1.02237035e-02,  3.17417756e-02,  8.50726478e-03,
           1.61253158e-02,  8.71180650e-03,  2.83643126e-01,
          -7.20345452e-02,  7.90836290e-02,  2.66495328e-02,
          -5.33150621e-02, -4.67632830e-01, -5.49910627e-02,
           1.14980163e-02, -2.83821560e-02,  6.94185123e-02,
           1.68221056e-01, -6.39011860e-02, -2.55266894e-02,
           2.04486951e-01, -2.40306377e-01,  1.27964169e-02,
          -1.63496643e-01,  1.17859036e-01,  6.56611025e-02,
           2.68133879e-02, -3.50279242e-01],
         [-8.19405094e-02, -3.03615499e-02, -1.87027045e-02,
           1.90419760e-02,  8.85291174e-02, -2.74846461e-02,
           5.23286639e-03, -9.34175998e-02,  1.59296662e-01,
          -7.13342130e-02,  3.72751132e-02, -6.74948618e-02,
          -8.10046345e-02, -4.80787978e-02,  1.11494988e-01,
          -1.04682157e-02,  1.66208073e-01, -1.92597471e-02,
           2.83640251e-02,  3.83572876e-02, -8.21442828e-02,
           5.91537468e-02, -2.76523102e-02,  2.69048638e-03,
          -1.54440536e-03, -1.21955934e-03,  2.16830820e-02,
           5.99177070e-02, -2.23773271e-02,  2.60092616e-02,
           7.80547876e-03, -1.09261330e-02],
         [-2.42289007e-02,  2.17494607e-01, -2.40407959e-02,
          -2.50183735e-02, -1.02008462e-01, -2.19753027e-01,
           2.99699940e-02,  9.69096422e-02,  4.89209741e-02,
           4.93247136e-02, -1.44736856e-01,  3.82178985e-02,
          -9.23664495e-02, -3.48832086e-02,  2.92738453e-02,
           2.10705802e-01, -5.88793643e-02, -1.35243759e-02,
          -5.11133596e-02, -2.44903732e-02, -2.25917287e-02,
          -8.27568676e-03,  1.64998360e-02,  1.20430350e-01,
          -3.48134898e-02, -1.50668249e-01, -1.35613143e-01,
           1.00134961e-01,  8.81111994e-02,  7.13214576e-02,
           7.32994899e-02,  6.71436638e-02],
         [-6.68995008e-02, -1.54215218e-02, -3.76958936e-01,
           3.76334414e-02, -8.32879469e-02, -2.99848050e-01,
          -1.54902607e-01,  2.05521379e-02,  5.99783212e-02,
          -5.14019914e-02, -1.11213051e-01,  1.76904291e-01,
          -7.26934448e-02, -1.04248628e-01, -5.24076521e-02,
           1.84376553e-01, -1.98482916e-01,  1.77037805e-01,
           9.36326906e-02, -8.09981003e-02, -2.51850784e-02,
           1.11699916e-01, -3.97959828e-01,  1.32642403e-01,
           1.26485094e-01, -1.05652772e-01, -8.29301924e-02,
           1.96273968e-01, -1.18550085e-01,  1.27270877e-01,
          -3.54324766e-02, -3.17256190e-02],
         [-7.85223544e-02,  8.26129764e-02,  4.17204425e-02,
          -4.99146655e-02, -5.18105999e-02, -6.02626614e-02,
          -6.46256804e-02,  6.16389289e-02, -4.34989557e-02,
          -3.69448029e-02,  7.14643300e-02, -6.69852942e-02,
           2.00621542e-02, -5.94637953e-02,  3.28184143e-02,
          -8.19457974e-03, -5.89677989e-02, -7.38983974e-03,
           6.87258318e-02, -4.91883270e-02, -3.90272737e-02,
          -3.18752453e-02,  8.09838846e-02,  2.62319518e-04,
           3.15908380e-02, -2.75935978e-02, -1.87386386e-02,
          -7.76363239e-02,  5.02059199e-02, -1.43001452e-02,
          -7.82723655e-04, -1.41372476e-02],
         [-1.54533491e-01,  9.59535129e-03, -1.71710461e-01,
           4.79792431e-02, -8.88897032e-02, -1.91207722e-01,
          -4.37224209e-02,  1.05586559e-01, -1.86881293e-02,
          -5.77948876e-02,  4.51257974e-02, -4.89682928e-02,
          -3.17411236e-02,  5.02004996e-02, -2.53331894e-03,
           8.38963091e-02, -2.77045239e-02, -4.63315435e-02,
          -3.20407585e-03, -3.06842756e-02, -3.11660245e-02,
           3.97975408e-02, -9.45454091e-02,  1.34303659e-01,
           4.91279773e-02,  2.84122918e-02,  3.26901078e-02,
          -6.43818229e-02,  9.90565643e-02,  7.19028115e-02,
          -5.37190549e-02, -1.02258272e-01],
         [-4.79238555e-02, -2.16964493e-03,  4.23665643e-02,
          -6.75948337e-02, -1.90063510e-02, -8.06184951e-03,
          -7.22713694e-02,  7.16736764e-02,  1.07745174e-02,
          -2.66453233e-02,  7.45803714e-02,  1.21499365e-02,
           9.12626609e-02, -1.62235647e-02, -3.67142446e-02,
          -7.05512092e-02,  1.68479964e-01, -4.48358916e-02,
          -3.77354436e-02, -1.11296818e-01,  1.80173665e-03,
          -1.05772980e-01, -5.85264154e-02,  4.24396573e-03,
          -4.90300022e-02,  6.88150153e-02,  5.91679029e-02,
          -1.10889576e-01, -3.43930461e-02, -1.69777870e-01,
           3.97346318e-02, -3.11085265e-02],
         [-1.88960768e-02,  6.35214746e-02,  3.42671387e-02,
           2.23721508e-02,  9.80859920e-02,  8.60826820e-02,
           4.99420539e-02,  7.76493922e-02, -1.04789843e-03,
           1.53191183e-02, -8.88280496e-02, -3.91883329e-02,
          -5.88590540e-02, -9.69288424e-02,  1.36489691e-02,
          -3.55543196e-02,  6.00754097e-02, -7.21716806e-02,
           2.26694748e-01, -3.18479389e-02, -5.76541349e-02,
          -8.08125362e-02, -1.06646031e-01, -8.38725716e-02,
           8.28090236e-02, -9.27927867e-02,  8.99863914e-02,
          -2.47814730e-02, -6.32404536e-02, -7.77125061e-02,
          -1.73999537e-02, -1.39137236e-02],
         [-1.69171412e-02,  3.39917801e-02,  4.76047173e-02,
          -2.20385119e-02,  4.82594669e-02,  4.50402312e-02,
          -5.70743941e-02, -6.08364381e-02, -1.03547625e-01,
          -1.24385189e-02,  1.97056141e-02, -5.53609766e-02,
           4.58348952e-02, -9.50693246e-03, -3.22965346e-02,
           3.15215345e-03,  1.46939218e-01,  7.75463879e-02,
          -8.03854410e-03,  9.15169064e-03,  6.90807924e-02,
          -4.41494957e-02, -2.36609597e-02, -3.84741910e-02,
           2.62054205e-02, -6.50439113e-02,  3.54628079e-02,
           2.48421729e-02,  6.40791357e-02, -1.06536053e-01,
           7.71955997e-02, -7.96442032e-02],
         [ 1.42854573e-02, -8.26774016e-02, -5.54906465e-02,
          -1.61611035e-01,  9.20960009e-02, -6.79340661e-02,
          -1.02141984e-01,  2.55771223e-02,  5.07106781e-02,
           1.78507040e-03,  3.08933351e-02,  1.16853245e-01,
          -7.49736205e-02,  7.89367408e-02,  6.59404248e-02,
          -3.44389654e-03, -2.60782093e-01,  4.37626988e-02,
          -6.22504912e-02, -2.70342510e-02, -3.12073547e-02,
          -2.08037987e-01, -1.02629840e-01,  6.64002374e-02,
           2.18582004e-01, -9.79281664e-02, -5.22150956e-02,
           1.38215363e-01, -2.41709948e-02,  6.40157834e-02,
          -8.31116885e-02, -7.65834153e-02],
         [-8.67172331e-02,  8.22166950e-02, -1.35750249e-01,
           2.37760209e-02, -1.47767840e-02, -3.82922180e-02,
           3.35725635e-01, -1.19766723e-02,  7.29971230e-02,
           7.06282109e-02, -2.29460582e-01, -3.75685915e-02,
           1.19818963e-01,  3.76554541e-02,  1.60574149e-02,
           7.43973926e-02,  5.15188240e-02,  4.39960994e-02,
           3.64971720e-02, -5.78581914e-02,  2.76777502e-02,
          -8.74684826e-02,  8.93677473e-02,  9.95155349e-02,
          -1.02747820e-01, -9.31344088e-03,  1.42929042e-02,
           1.40289485e-01,  3.35520357e-02,  4.56189923e-02,
           1.11214921e-01, -1.75093517e-01],
         [ 1.94640737e-02, -1.53829036e-02,  8.13814402e-02,
           1.73598416e-02,  7.61233643e-02,  6.00103438e-02,
          -1.03267487e-02, -1.61852427e-02, -1.62475538e-02,
          -7.34386519e-02,  7.56412372e-02, -1.86942669e-03,
           6.07784949e-02, -9.30069387e-02, -2.90378351e-02,
          -3.44311595e-02,  3.76451425e-02,  2.28855610e-02,
          -3.29245143e-02, -3.49818468e-02,  3.22847180e-02,
           3.70589979e-02,  2.98395217e-03,  4.66923565e-02,
           1.74835008e-02, -2.37970483e-02, -7.36905485e-02,
          -1.60611346e-02, -6.73547387e-02, -6.68021962e-02,
          -4.12475616e-02, -6.12254143e-02],
         [-2.92743277e-02, -5.78228682e-02, -3.03370450e-02,
          -1.18030325e-01,  5.87196015e-02, -5.72547615e-02,
           7.40331644e-03,  1.66601781e-03, -4.02835011e-02,
           2.33518630e-02,  9.21038315e-02, -6.11133426e-02,
           8.39055479e-02, -3.51797007e-02,  8.52200687e-02,
          -6.54386729e-02,  2.40714513e-02, -1.65448487e-02,
           1.18875176e-01, -6.12175055e-02, -6.38067946e-02,
          -1.00487053e-01,  5.82321957e-02, -3.75645002e-03,
          -7.64854997e-02,  8.62945616e-02,  1.23905083e-02,
          -4.14822511e-02,  2.91631483e-02, -1.54614404e-01,
          -2.82994770e-02, -5.03365807e-02],
         [ 2.34320741e-02,  4.89197448e-02,  2.88284291e-02,
           5.36458902e-02,  6.77863732e-02,  6.62933290e-02,
           8.17506984e-02,  6.60417154e-02, -4.27373908e-02,
          -5.08112498e-02,  9.36394185e-02,  3.27315764e-03,
           8.16851109e-02,  1.40378520e-01,  1.42513990e-01,
           1.27885312e-01,  4.05470878e-02,  1.51146382e-01,
          -2.61060032e-03, -6.76177070e-02,  6.50243983e-02,
           5.04034013e-02,  3.72914746e-02, -8.32958072e-02,
          -9.45520103e-02, -4.92253304e-02,  8.12573805e-02,
          -3.34543437e-02, -1.67580042e-02, -9.67410281e-02,
          -5.08383624e-02,  1.45403594e-01],
         [ 6.26509339e-02, -7.42783397e-02,  1.36743695e-01,
          -7.69810975e-02,  6.08203337e-02, -2.46716607e-02,
           5.75143136e-02, -2.82632140e-03, -5.13070486e-02,
           1.05838612e-01,  4.19602469e-02, -1.96341649e-01,
          -6.98816031e-02,  3.83849256e-02,  4.83519882e-02,
          -1.79706467e-03,  2.01559097e-01, -1.21574149e-01,
          -2.29953025e-02,  1.11271039e-01,  7.01555759e-02,
           6.07523508e-03, -1.04806200e-02,  1.70126818e-02,
          -2.44573876e-01, -8.33342504e-03,  2.52663773e-02,
          -1.17599063e-01,  3.55414934e-02, -8.53291750e-02,
           7.68140703e-02,  3.87218557e-02],
         [-8.06828290e-02,  9.44162235e-02,  1.49847329e-01,
          -5.99023961e-02,  5.07479385e-02,  1.88308675e-02,
          -3.13460156e-02, -1.01228386e-01, -6.32664561e-02,
           1.39243891e-02,  3.99385206e-02, -6.29090741e-02,
          -8.68750289e-02, -1.28289405e-03, -3.36287580e-02,
           3.63133885e-02,  2.39427574e-02, -4.78466675e-02,
           1.40644744e-01,  8.38961154e-02,  2.80326810e-02,
           2.07526144e-02, -3.89908910e-01, -2.81147752e-02,
          -2.61011243e-01, -2.38976434e-01,  9.61334631e-02,
           1.84028715e-01,  6.47478402e-02, -7.76637718e-02,
          -1.66293398e-01,  2.74906576e-01],
         [-2.29392663e-01,  5.36184497e-02, -6.06833883e-02,
           6.35368600e-02, -9.52378288e-02, -1.11926377e-01,
          -1.86767012e-01,  1.73347414e-01,  9.59963202e-02,
           4.64551635e-02,  7.00945780e-02,  5.06994426e-02,
          -1.28286369e-02, -5.36164381e-02,  4.67839092e-02,
           9.80809331e-02,  3.22973207e-02,  8.83142874e-02,
           6.24470301e-02, -1.06993079e-01, -8.93114805e-02,
           8.13345760e-02, -2.89240122e-01,  1.45873223e-02,
           3.93555909e-02,  9.07623619e-02,  1.33428369e-02,
          -1.99575931e-01,  4.87516969e-02,  1.59188896e-01,
          -1.06370918e-01, -3.20340390e-03],
         [-6.06644079e-02,  3.38889211e-02, -8.88660327e-02,
          -1.88421514e-02,  5.04260994e-02,  4.79410179e-02,
          -6.89005777e-02,  6.51823133e-02, -1.41912162e-01,
          -2.05643818e-01,  4.26524505e-02,  4.59550656e-02,
           2.50664838e-02, -2.92619448e-02, -1.30170062e-01,
           1.15960300e-01,  1.72628704e-02,  2.12200865e-01,
           8.22509360e-03, -1.69281419e-02, -3.19111161e-02,
          -4.53657359e-02, -3.86803374e-02,  5.91964787e-03,
          -8.00474957e-02, -5.44106439e-02, -4.26478535e-02,
          -3.75822514e-01,  1.87320799e-01, -7.65929138e-03,
           5.94914295e-02,  2.81749330e-02],
         [-5.02460897e-02,  1.24965027e-01,  2.00401451e-02,
          -1.41826108e-01, -6.35435863e-05, -4.40230891e-02,
          -1.42507747e-01, -7.83743635e-02,  3.68782654e-02,
          -2.15235949e-02,  7.20767528e-02, -3.54900211e-02,
          -5.50880423e-03,  1.58534211e-04,  1.88045740e-01,
           8.88402909e-02,  6.30834326e-02, -1.05572954e-01,
           1.09219693e-01, -9.03406218e-02,  1.79716037e-04,
           5.95837422e-02,  3.33969742e-02,  3.81765142e-02,
          -2.88587175e-02, -1.05937086e-01,  2.01678816e-02,
          -8.09410289e-02, -1.58864278e-02, -7.87368715e-02,
           7.57577494e-02, -8.04787800e-02],
         [ 5.57925971e-03,  8.93760324e-02,  1.13575377e-01,
          -4.19394448e-02,  2.80408412e-02, -8.44116658e-02,
           1.21780150e-01,  3.95967811e-02,  1.54460698e-01,
           9.60804820e-02, -1.37706980e-01,  1.78934895e-02,
          -2.71399375e-02,  1.02184623e-01, -5.99967986e-02,
           7.55586252e-02,  2.48944208e-01,  1.23617828e-01,
          -7.86958709e-02,  1.66695625e-01, -5.17884269e-02,
           2.64944602e-02, -9.94169787e-02, -2.16257907e-02,
           1.80773139e-02,  1.35535551e-02, -6.91143870e-02,
          -1.36593312e-01,  2.48887073e-02,  7.26541057e-02,
          -7.58756399e-02,  1.39026493e-01],
         [-4.92473245e-02,  1.01144481e-02, -4.90988269e-02,
          -1.26924505e-02, -5.65419979e-02, -9.34375823e-03,
          -1.38135804e-02,  1.02363184e-01,  2.25613452e-02,
           4.03233198e-03, -1.82895884e-01, -8.72447565e-02,
           1.21845286e-02,  6.48422912e-02, -3.97368520e-03,
           4.61233072e-02,  1.05747186e-01, -3.62915844e-02,
          -3.53793986e-02, -1.22146457e-02,  4.20599505e-02,
           5.39268367e-02, -2.88101099e-03, -3.68550383e-02,
          -5.19236214e-02, -6.09046519e-02,  1.45183820e-02,
           2.99495868e-02, -1.91961303e-02,  1.41593264e-02,
          -3.13549079e-02, -7.09464103e-02],
         [-3.29351351e-02,  7.11439028e-02,  3.89058255e-02,
           3.11986189e-02, -8.19533691e-02, -2.42982153e-02,
           4.80431132e-02, -6.15063049e-02, -1.59319118e-02,
           3.34062651e-02, -3.19369957e-02, -2.58041564e-02,
           8.54589418e-03, -6.68892264e-02,  4.93124239e-02,
          -5.20667545e-02,  3.54547985e-02, -2.13104580e-02,
           4.80177626e-02, -3.23272422e-02,  4.33164351e-02,
           6.66583702e-02,  4.32196185e-02, -7.50176460e-02,
          -5.80159090e-02,  1.69591159e-02, -3.28938402e-02,
          -4.51711006e-02,  4.60170321e-02, -4.81219031e-02,
          -5.81920110e-02, -7.14391619e-02],
         [-6.04640394e-02,  2.55945828e-02, -8.35364833e-02,
          -1.55229986e-01,  1.12935252e-01,  8.10883194e-02,
          -6.73480928e-02,  2.20132396e-02, -1.04527600e-01,
           2.39381082e-02,  2.14606477e-03, -1.74245834e-02,
           7.79217929e-02, -2.20858511e-02, -5.86225018e-02,
          -4.69761677e-02,  1.21543750e-01, -2.41298880e-02,
           1.17328115e-01,  3.13292071e-02, -5.40596135e-02,
          -1.71702534e-01,  2.04452481e-02,  3.65471505e-02,
          -8.18936825e-02, -8.36124271e-02,  1.04907610e-01,
          -9.59271491e-02,  7.21434951e-02, -8.36498886e-02,
          -2.71291807e-02,  4.44441810e-02],
         [-8.69619995e-02,  7.51709426e-03, -1.53731585e-01,
          -3.06199286e-02, -1.42300084e-01, -1.36564467e-02,
           6.39595166e-02,  1.11684278e-01, -1.68639347e-02,
           5.89515716e-02,  1.27419502e-01,  1.36721477e-01,
          -4.31411564e-02,  8.74119177e-02,  8.11107084e-02,
           8.85722488e-02, -1.29246101e-01, -7.78106526e-02,
          -6.66897371e-02, -2.24300086e-01, -3.77777219e-02,
           1.01393789e-01, -1.77347988e-01,  1.01479389e-01,
           2.35622779e-01,  1.61485106e-01, -7.64090344e-02,
          -2.30298266e-02,  1.79167345e-01, -3.66914310e-02,
           2.00902849e-01, -3.89718294e-01],
         [ 1.34794980e-01, -2.20946949e-02, -4.63488959e-02,
          -1.85680017e-02,  6.17591031e-02,  3.25861643e-03,
          -5.85133135e-02,  4.45606001e-02,  1.89565405e-01,
          -8.59981868e-03,  9.14007872e-02,  7.36933500e-02,
           6.21298775e-02,  4.26091626e-02, -3.55782807e-02,
           1.15666375e-01,  3.56097030e-03, -4.08141315e-02,
           1.11179389e-01, -2.27475032e-01,  8.13924223e-02,
           1.33776432e-02,  9.00498033e-03,  2.16590948e-02,
           1.81602836e-02, -4.52715717e-02, -3.94017436e-02,
           1.33647934e-01, -5.08969948e-02, -9.24545974e-02,
          -7.09261466e-03,  2.36651301e-02],
         [ 2.36506630e-02,  7.23719746e-02, -6.82053715e-02,
           7.15182861e-03, -4.85947402e-03,  7.16226101e-02,
           4.90937568e-02, -6.56782389e-02,  5.04025295e-02,
           6.92461655e-02,  2.83651873e-02, -5.38308695e-02,
           1.94167551e-02, -5.94620146e-02,  7.17477277e-02,
           5.45681156e-02,  7.47313797e-02, -6.13905899e-02,
          -6.44195229e-02, -1.32998988e-01, -3.63235399e-02,
          -2.45280247e-02, -2.91937101e-03, -4.27814908e-02,
          -1.25494218e-02,  1.60670810e-04,  1.92569625e-02,
          -6.72865734e-02,  4.42719012e-02, -4.06560004e-02,
          -5.13723008e-02,  1.75740812e-02],
         [-6.27026781e-02, -1.07172213e-01, -1.58216227e-02,
          -9.31366980e-02,  7.71703525e-03,  5.98046593e-02,
          -1.57935768e-02, -1.80999562e-02,  1.17422342e-01,
           2.57330816e-02, -9.14728735e-03, -7.36565441e-02,
           5.49108945e-02,  2.30381176e-01,  5.91352545e-02,
          -7.71422833e-02,  1.33415267e-01,  1.15030333e-02,
          -7.92878494e-02, -1.25981137e-01, -2.62376107e-02,
           4.73328158e-02,  3.38532180e-02,  1.42674133e-01,
           1.64887488e-01, -6.95994347e-02,  8.66012350e-02,
           6.23579649e-03, -6.53509274e-02, -4.22870368e-02,
          -4.80716452e-02,  1.29691437e-02],
         [ 7.70964473e-02, -9.14720669e-02,  7.01781064e-02,
           7.89407566e-02,  3.73090319e-02,  2.25003902e-02,
           6.55393004e-02, -8.25770125e-02, -9.28351209e-02,
          -6.33289441e-02, -8.23478997e-02,  9.10203531e-02,
          -7.10434318e-02, -3.53682935e-01,  1.01973161e-01,
           1.96246393e-02,  1.61835954e-01,  9.10595655e-02,
           1.12516498e-02,  4.94385436e-02,  7.81620368e-02,
          -4.72312458e-02, -1.66068599e-02, -2.01460291e-02,
           1.14167899e-01, -4.50264104e-02,  3.30113284e-02,
          -5.08676991e-02,  1.52363451e-02, -5.25302440e-02,
          -4.15333174e-02, -2.03369763e-02],
         [-2.12872364e-02, -4.64082286e-02, -6.25565574e-02,
          -1.06767699e-01,  6.49066046e-02, -4.97401021e-02,
           4.87239584e-02,  1.70300025e-02, -5.51990196e-02,
           5.32763032e-03, -1.09574525e-03, -9.34867561e-03,
           9.26561952e-02,  7.97754806e-03, -4.66951057e-02,
           7.58822635e-02,  6.51056543e-02,  7.83478692e-02,
          -4.47801948e-02, -8.19771662e-02, -1.61757122e-03,
          -3.66986804e-02,  9.81897861e-03,  6.84898952e-03,
          -7.65713528e-02,  9.45357829e-02,  1.08668506e-01,
           7.21058249e-02,  4.29470092e-02, -1.13578238e-01,
          -4.30743098e-02,  2.32611375e-04],
         [-6.88000321e-02,  3.59298810e-02, -9.68136862e-02,
           6.63957670e-02, -7.07084462e-02,  5.00881001e-02,
          -9.22153424e-03, -1.84779558e-02, -2.87694298e-02,
           4.61081415e-02,  1.79706365e-02,  4.75373492e-02,
           8.58178511e-02,  4.51992117e-02, -5.81533536e-02,
           7.85695463e-02, -1.85984969e-01, -1.70178264e-02,
          -1.34458452e-01, -4.75056330e-03,  2.14621648e-02,
           2.00483464e-02,  7.21296221e-02,  5.38387708e-02,
          -3.95801514e-02, -7.18697906e-02,  9.86499637e-02,
          -3.32146175e-02,  6.12629391e-02,  1.58036202e-01,
           4.61731441e-02, -1.14946760e-01],
         [ 4.15802635e-02, -7.31474534e-02, -5.43241091e-02,
           4.76993285e-02, -2.53245871e-05, -4.30307612e-02,
          -6.68231770e-02,  2.24265307e-02, -4.18716185e-02,
          -6.20320253e-02, -1.90859828e-02,  8.40304978e-03,
           5.18032424e-02,  1.45196076e-02,  3.41679417e-02,
           2.64746230e-02,  7.85539150e-02,  7.50003010e-02,
           3.24886478e-02, -3.21688130e-03,  1.86707247e-02,
          -2.85017285e-02, -1.04883965e-03, -4.22682101e-03,
          -7.31641650e-02,  4.38085087e-02, -3.76696363e-02,
          -3.35659571e-02,  7.62825981e-02,  4.48350124e-02,
           5.76389134e-02, -3.39045413e-02],
         [-1.92962550e-02,  5.72090084e-03, -2.29120687e-01,
           9.20369476e-02,  2.39777453e-02, -9.23001580e-03,
           2.87550073e-02,  8.99687968e-03, -6.55142963e-02,
           5.73196933e-02, -9.88599211e-02, -8.90476108e-02,
           1.41185941e-02, -9.24294591e-02,  1.01826966e-01,
           3.03966999e-02,  6.35808557e-02, -1.09924665e-02,
           9.80296135e-02, -7.97891617e-02,  3.82917039e-02,
          -6.41045272e-02,  1.35930046e-01, -8.55585933e-03,
          -1.27272472e-01, -8.79641324e-02, -1.48090711e-02,
           9.30226892e-02,  2.76112407e-02,  1.19710807e-02,
           3.98483910e-02, -2.89053284e-03],
         [ 3.97466458e-02,  2.12974980e-01,  7.50434473e-02,
           8.46108645e-02, -1.01781502e-01, -7.38700852e-02,
           1.26523539e-01,  1.02617890e-02,  1.88252151e-01,
           1.93789348e-01, -2.83448458e-01, -6.84869811e-02,
          -8.49762559e-02, -3.22094299e-02,  6.34404346e-02,
           2.83011466e-01, -2.79205561e-01,  1.96893558e-01,
          -9.65959579e-02, -4.08868715e-02, -5.36686368e-02,
           2.47963876e-01, -5.02879322e-02,  6.54204166e-04,
           4.54517007e-02, -1.05328046e-01,  1.08685642e-02,
           7.53689408e-02, -2.64995731e-02,  1.80510625e-01,
           5.42512909e-02, -6.06213883e-02],
         [-3.16211097e-02, -7.88558051e-02,  6.72676936e-02,
          -3.30710821e-02, -1.23900184e-02,  1.84182134e-02,
           1.63853988e-01, -3.08653209e-02,  1.80920530e-02,
           2.05981899e-02, -1.44308746e-01,  4.64720689e-02,
          -3.12288199e-02, -3.28745544e-01, -2.97038592e-02,
          -7.38720745e-02,  5.65111749e-02, -4.75477204e-02,
          -4.49421965e-02,  5.20349443e-02,  5.24021871e-02,
          -7.75894672e-02, -7.49642923e-02, -6.02193102e-02,
          -1.10044651e-01,  7.41581470e-02,  6.52585104e-02,
           4.15189974e-02,  9.13310125e-02, -1.93394050e-02,
          -4.84880023e-02, -8.41287300e-02],
         [ 3.91784534e-02,  1.30990848e-01, -2.05607250e-01,
          -5.29459417e-02, -1.78751901e-01, -4.06737961e-02,
           1.06793819e-02,  6.11093529e-02, -3.21662687e-02,
           8.74338076e-02, -1.74739361e-01,  1.72155332e-02,
          -6.94489852e-02, -2.10021198e-01, -7.94369057e-02,
           1.66456010e-02, -1.55017465e-01, -1.87016856e-02,
           4.85592373e-02,  8.83586798e-03,  1.59402424e-03,
           2.06156005e-03,  2.19999682e-02, -7.00014085e-03,
          -3.34894583e-02, -1.04665212e-01, -3.14817280e-02,
          -4.08290066e-02,  7.28903664e-03, -1.23786805e-02,
          -9.59468037e-02, -1.41788974e-01],
         [-4.23009098e-02,  9.41659044e-03,  1.22558614e-02,
          -7.95044452e-02,  2.31999084e-02,  2.53049564e-02,
          -4.77108955e-02,  3.99620757e-02,  4.93756011e-02,
           2.20862404e-02,  5.01743816e-02, -5.38428277e-02,
          -6.04579179e-03,  1.22825410e-02,  8.89670327e-02,
          -9.25598219e-02,  3.54280658e-02, -3.66000924e-04,
          -5.51298335e-02,  2.74833180e-02, -4.77166660e-02,
          -1.29536822e-01, -2.23919358e-02, -6.21515140e-02,
           1.09168097e-01,  1.20831713e-01, -5.73908770e-03,
          -1.24858662e-01, -2.00985465e-02, -8.56413320e-02,
          -1.15043908e-01, -1.32706352e-02],
         [ 3.69531363e-02,  2.59891655e-02,  3.60316001e-02,
          -3.41808908e-02,  2.07794905e-02,  9.66003761e-02,
          -1.00498751e-01,  7.02529848e-02,  8.50777850e-02,
          -7.99562037e-02,  4.58943918e-02, -7.02150762e-02,
           3.20899040e-02,  9.61303636e-02,  7.90487081e-02,
           5.80570288e-02,  9.47172418e-02,  1.44637199e-02,
           5.83009198e-02, -5.83697371e-02, -2.91256551e-02,
          -8.04295987e-02,  1.40191941e-02, -2.75502931e-02,
           8.76980871e-02, -3.94417904e-03, -3.50495875e-02,
          -8.77848715e-02, -5.26624359e-02, -1.78792462e-01,
           4.60606702e-02,  4.00002161e-03],
         [ 3.16910865e-03, -8.29801187e-02, -5.19720167e-02,
          -8.36039856e-02,  5.50236627e-02, -3.09235994e-02,
           5.01663126e-02, -8.44730884e-02,  3.10679097e-02,
           2.34340094e-02,  9.14977491e-02, -7.34446794e-02,
           1.38472747e-02,  8.07975754e-02, -1.03012070e-01,
          -3.94962691e-02,  6.52215183e-02,  5.68123683e-02,
          -5.51688410e-02, -8.40953812e-02, -1.56230554e-02,
           4.68103066e-02, -4.85995114e-02,  5.90706281e-02,
           6.95378631e-02, -1.29958898e-01,  3.62458676e-02,
          -7.00906739e-02, -3.63255478e-02,  7.64275789e-02,
           8.94753449e-03, -1.41467964e-02],
         [-3.43506545e-01,  9.14895535e-02, -1.12199053e-01,
           4.88549583e-02, -2.25996822e-02, -9.06430185e-02,
           5.54066777e-01,  4.22935896e-02,  9.64989513e-02,
          -6.82738870e-02,  1.79618955e-01, -1.31507218e-01,
          -1.53891325e-01, -1.40508994e-01, -8.14645141e-02,
           9.70557109e-02,  6.89551011e-02, -1.71968695e-02,
           9.49959550e-03, -7.01635703e-02, -2.81557087e-02,
           6.14944808e-02,  2.51741335e-02, -4.17746678e-02,
          -1.95541024e-01,  6.59839734e-02, -1.65566370e-01,
          -1.40055582e-01,  8.15514475e-02,  3.98256890e-02,
           2.47186556e-01,  2.65345275e-01],
         [ 1.17135487e-01,  4.13537817e-03,  4.43835855e-02,
          -6.75512850e-02, -1.33281007e-01, -6.68401942e-02,
           6.20313957e-02, -8.93368050e-02, -1.36120081e-01,
           1.21648483e-01,  1.07062012e-02,  1.74824044e-01,
          -1.23052215e-02, -1.16979159e-01, -4.21003029e-02,
           1.23508289e-01, -1.85731411e-01, -8.29316080e-02,
           1.30668342e-01,  9.72041786e-02, -6.20414317e-02,
          -3.49781848e-02, -2.67333061e-01, -7.43613914e-02,
          -2.38991618e-01, -6.63173720e-02, -4.19133641e-02,
           7.36244768e-02, -4.76370417e-02, -1.17716938e-01,
          -1.11645155e-01, -5.96988797e-02],
         [-4.53755818e-02,  2.08337307e-02,  4.87997569e-02,
          -4.52637710e-02,  4.48807999e-02,  5.92891350e-02,
          -2.89517269e-02,  7.73939192e-02, -7.75472820e-02,
           7.47826993e-02, -4.64477278e-02, -6.97048753e-02,
          -7.22126141e-02,  2.00393386e-02,  9.53724899e-04,
           2.48952117e-02,  8.06124955e-02, -5.33519536e-02,
          -7.75013939e-02, -3.61486264e-02,  6.27159998e-02,
           4.34648432e-02,  4.29575816e-02,  2.11706739e-02,
           7.13488534e-02,  8.78215209e-03, -5.15975095e-02,
           4.65333201e-02, -3.36749889e-02, -7.11640343e-02,
          -6.30837530e-02, -5.91899417e-02],
         [ 3.80085707e-02, -5.93779422e-02, -5.33321388e-02,
          -3.55452225e-02, -6.91084489e-02,  2.19089221e-02,
          -1.86333686e-01, -3.76762412e-02,  1.11981809e-01,
          -4.72446047e-02, -5.10530323e-02,  1.40560150e-01,
          -7.49984458e-02, -1.04488298e-01, -1.75645292e-01,
          -2.17668563e-02, -3.16721261e-01, -1.97932981e-02,
          -1.04841646e-02, -1.85598247e-02, -6.46711811e-02,
          -1.36789113e-01, -1.37532964e-01, -1.82338781e-03,
           9.19188634e-02, -4.22201790e-02,  7.30206352e-03,
          -1.48678675e-01,  6.70164302e-02, -5.53485267e-02,
          -5.85300624e-02,  1.27851009e-01],
         [ 7.84629025e-03,  6.98310211e-02, -4.86471020e-02,
          -1.17497221e-02, -7.12141693e-02,  7.49471486e-02,
          -8.49783644e-02,  8.79978985e-02, -7.19032437e-02,
          -5.15703037e-02,  1.75793320e-02, -7.12857097e-02,
          -5.85354045e-02,  1.32073192e-02,  3.33958119e-02,
           4.49360302e-03, -5.31479307e-02, -4.26123068e-02,
           4.27457131e-02, -5.87256588e-02, -6.32138178e-02,
          -1.10302446e-02, -2.11679023e-02,  2.44895034e-02,
          -7.51954466e-02, -8.75307694e-02, -6.79224357e-02,
          -4.88194898e-02,  1.87567398e-02,  6.91864192e-02,
           2.76318621e-02,  2.77637765e-02]],

        [[ 1.00449264e-01,  4.53278758e-02, -7.97180608e-02,
          -2.22305134e-02, -1.29782856e-02,  5.75577542e-02,
           1.69383556e-01, -5.60294352e-02,  3.44504043e-02,
           9.06957388e-02, -1.26458138e-01,  4.08224724e-02,
           9.61525366e-02,  1.61701232e-01,  1.02915466e-02,
           1.39010809e-02, -2.02186123e-01, -7.85700679e-02,
           4.65663709e-02,  7.37738982e-02, -8.31353515e-02,
           2.44785473e-02, -9.67276171e-02, -5.54742180e-02,
          -4.57758993e-01, -1.32273301e-01,  1.56790295e-04,
           8.21404532e-02, -6.97974861e-02, -7.00880960e-02,
           9.23879258e-03,  6.75484072e-03],
         [-1.27364650e-01,  9.13033336e-02, -1.48505107e-01,
          -3.68355610e-03, -6.40763044e-02, -6.07705973e-02,
           1.21569619e-01, -9.34876651e-02, -4.43499871e-02,
           2.69380622e-02,  7.57975355e-02, -1.24229185e-01,
           4.59543467e-02,  1.58685818e-01, -1.46529570e-01,
          -4.83662933e-02,  3.45202863e-01, -8.18865597e-02,
          -1.85386583e-01,  4.84804623e-02,  1.19051198e-02,
           1.25836447e-01, -1.86927598e-02,  2.21917421e-01,
          -8.27939138e-02, -2.49261186e-02,  1.76553112e-02,
          -1.08105779e-01, -5.23372777e-02, -1.70776024e-02,
           1.10579066e-01, -8.67931321e-02],
         [ 7.84143060e-02, -1.10813864e-01, -6.91105202e-02,
          -4.68282253e-02,  2.07059041e-01,  7.42345862e-03,
          -1.04084760e-01, -1.13965616e-01,  3.24106682e-03,
          -5.37490211e-02,  1.24280058e-01,  1.11114919e-01,
          -3.83213870e-02,  2.30919257e-01,  4.93700765e-02,
           1.14528477e-01,  1.82910025e-01, -9.81409550e-02,
           6.56261519e-02,  3.65324551e-03,  1.12233078e-02,
           4.66851555e-02, -6.93112100e-03,  6.17702231e-02,
           1.73171125e-02,  1.01717971e-02,  1.23498719e-02,
           9.00230482e-02, -1.29563883e-01, -7.22663850e-02,
           5.17971776e-02,  5.45620956e-02],
         [-8.18093941e-02, -3.86639014e-02, -7.52319247e-02,
          -4.31304425e-03,  8.85555753e-04,  1.58649753e-03,
          -1.16657816e-01, -8.43377784e-02, -2.31289715e-02,
          -8.04105699e-02,  4.77424413e-02,  4.18557338e-02,
           4.47903872e-02,  1.30214900e-01,  2.46512257e-02,
          -5.60972467e-02,  1.74538717e-01, -1.52513878e-02,
          -8.09871256e-02, -8.82885978e-02, -1.10605769e-02,
           9.02077928e-02,  7.68513903e-02, -3.35381106e-02,
           3.35997925e-03, -3.58390994e-02,  4.41464558e-02,
           3.60254385e-02, -5.09174764e-02, -1.13985464e-01,
           5.44854626e-02, -5.11892885e-02],
         [ 4.98110354e-02,  2.62642115e-01,  4.49098721e-02,
           9.09893513e-02,  6.95483238e-02, -3.87348533e-02,
           1.86078712e-01,  4.64892797e-02,  9.70084742e-02,
          -1.31569728e-02, -7.10570887e-02,  7.15565234e-02,
           4.48088720e-02,  9.95384902e-02,  4.54316288e-02,
           1.60811260e-01, -1.11923166e-01,  1.82290822e-02,
           6.51469305e-02,  5.12929112e-02,  4.42266874e-02,
          -1.52661324e-01, -5.27997166e-02,  1.81758121e-01,
           7.59403259e-02, -6.37873635e-02, -1.14938609e-01,
          -6.58951178e-02,  1.28374979e-01,  4.29514013e-02,
          -2.58716140e-02, -9.78196710e-02],
         [-3.23234946e-02, -9.39642265e-02,  5.36980405e-02,
          -9.43480805e-02, -4.76447679e-02,  5.37301823e-02,
          -9.31301042e-02, -4.80209710e-03, -6.84850439e-02,
           2.01169774e-02, -3.73907723e-02,  1.16439782e-01,
          -4.72255796e-02, -9.44826528e-02,  2.05821283e-02,
           2.66452599e-02, -1.68516651e-01,  8.29695463e-02,
           2.02041175e-02,  7.46855587e-02, -3.79064679e-02,
          -2.78198212e-01, -5.61745763e-02,  6.01183586e-02,
          -2.55392995e-02, -2.70487671e-03, -9.09579545e-02,
           5.18080927e-02,  2.80218869e-02, -1.09578088e-01,
           5.37511706e-03,  3.14694792e-02],
         [-1.91921264e-01, -1.96189508e-01, -1.82330996e-01,
          -6.59651756e-02, -3.04100942e-02, -2.30411485e-01,
          -9.22641680e-02, -8.95389318e-02,  1.06554732e-01,
          -6.98503405e-02,  5.68164326e-02,  8.28903690e-02,
          -1.66771412e-01,  1.16558280e-02, -1.42558897e-02,
           1.12643503e-02,  7.05335587e-02,  3.53349261e-02,
           9.50512886e-02, -1.23539224e-01,  3.44485119e-02,
          -5.02120927e-02, -3.68357480e-01,  2.21684828e-01,
           1.69469997e-01,  1.13948390e-01, -1.44090485e-02,
          -1.04324490e-01, -1.76135361e-01,  1.45502716e-01,
           1.28738061e-01, -2.01217964e-01],
         [ 3.80707197e-02,  2.68434994e-02, -2.71177161e-02,
          -2.80551668e-02, -3.97102674e-03,  1.34484377e-02,
           1.52884554e-02, -1.10295609e-01, -2.91227475e-02,
          -7.65307248e-02,  4.48005758e-02, -6.97471946e-02,
          -5.47802597e-02,  4.52120341e-02,  6.36305436e-02,
           5.02580553e-02,  1.39695987e-01,  2.25503203e-02,
           4.73744832e-02, -5.41626886e-02, -7.52258375e-02,
           5.37247807e-02, -1.12201795e-02,  3.93679142e-02,
          -5.70552684e-02, -1.16257463e-02, -5.66892810e-02,
           1.09660355e-02, -5.09460866e-02, -2.56359838e-02,
          -3.05005070e-02,  5.15261255e-02],
         [-6.84261248e-02, -5.27387559e-02,  7.74581656e-02,
          -6.66069016e-02, -2.79805791e-02,  1.89469811e-02,
           3.48195061e-02,  1.66930750e-01, -1.43368796e-01,
           7.94882700e-02, -9.87591892e-02,  6.74379244e-02,
           5.02843373e-02, -5.36201954e-01,  7.14149252e-02,
          -7.07852319e-02, -4.30019223e-04,  6.59838617e-02,
           2.43191943e-01, -1.18599022e-02, -3.17985341e-02,
          -8.75235423e-02, -2.53616143e-02, -2.01754212e-01,
          -1.05500326e-01,  2.09181681e-02, -3.67865339e-02,
          -1.98973119e-02,  6.77988306e-02, -2.18961120e-01,
          -1.34283975e-01,  2.46786460e-01],
         [ 5.02761640e-02,  8.29793215e-02, -1.12306683e-04,
          -5.18244021e-02, -5.40663749e-02,  5.09650223e-02,
          -4.04167660e-02,  2.08537374e-02, -2.61232946e-02,
          -7.95512199e-02, -6.91965222e-02, -2.86254641e-02,
          -6.27528429e-02, -6.13308586e-02, -6.35426911e-03,
          -5.72974905e-02,  7.80371204e-02,  2.75043398e-02,
          -5.31631336e-02,  4.99064848e-02, -2.22257841e-02,
           4.60690111e-02, -5.79364449e-02, -4.61612120e-02,
           5.25919646e-02,  8.09655786e-02,  3.93758565e-02,
          -3.16585265e-02,  2.91307140e-02,  3.30176912e-02,
          -5.47241531e-02,  4.01624665e-02],
         [-1.13452345e-01, -4.03232523e-04, -2.60953426e-01,
          -2.08868552e-02,  1.02303125e-01,  5.52868620e-02,
          -6.80257082e-02,  1.18740730e-01,  9.06542391e-02,
           3.21053788e-02,  1.26628876e-01, -6.56548068e-02,
          -4.82184440e-03, -3.53202894e-02,  5.53097390e-02,
           3.86170531e-03,  1.97576016e-01,  2.03048382e-02,
           3.34412009e-02, -9.63658467e-02,  9.26210824e-03,
          -2.15048209e-01, -3.91917191e-02,  6.14152066e-02,
           2.00280309e-01,  4.37896624e-02,  3.59941572e-02,
           7.85159096e-02, -8.66806656e-02, -3.17367792e-01,
           6.58578277e-02, -4.45282049e-02],
         [-5.94860082e-03, -1.06047243e-02,  2.44213804e-03,
           3.29973102e-02,  8.77736062e-02,  6.53607324e-02,
          -7.51605481e-02, -4.05330062e-02, -1.10087417e-01,
          -9.21227112e-02, -4.49874997e-02, -1.60112139e-02,
          -8.50555152e-02,  3.69785205e-02, -1.01596513e-03,
           4.13189754e-02,  6.65270835e-02,  1.04555048e-01,
           9.35793016e-03,  1.10850008e-02,  2.29244977e-02,
          -2.48453859e-02, -3.76111530e-02, -2.80868802e-02,
          -5.13584446e-03,  2.98770498e-02,  7.11471215e-02,
           5.19099943e-02,  5.86167499e-02, -5.08761108e-02,
           2.98640225e-02,  3.03511042e-02],
         [ 1.93260964e-02,  3.16252150e-02, -8.39099810e-02,
           1.57201234e-02, -2.23428309e-02,  4.14294079e-02,
          -7.12406412e-02, -9.67008397e-02, -9.23305675e-02,
          -1.08169854e-01,  8.72798935e-02,  2.56705936e-02,
          -3.58365960e-02,  1.59299865e-01, -4.51992918e-03,
          -1.54237356e-03, -3.15132365e-02,  1.18762674e-02,
          -5.20806620e-03,  4.75284718e-02,  3.37816663e-02,
