{'batch_input_shape': (None, 224, 224, 4), 'dtype': 'float32', 'sparse': False, 'ragged': False, 'name': 'input_2'}[]{'name': 'conv2d_4', 'trainable': True, 'dtype': 'float32', 'filters': 64, 'kernel_size': (3, 3), 'strides': (1, 1), 'padding': 'same', 'data_format': 'channels_last', 'dilation_rate': (1, 1), 'groups': 1, 'activation': 'linear', 'use_bias': True, 'kernel_initializer': {'module': 'keras.initializers', 'class_name': 'GlorotUniform', 'config': {'seed': None}, 'registered_name': None}, 'bias_initializer': {'module': 'keras.initializers', 'class_name': 'Zeros', 'config': {}, 'registered_name': None}, 'kernel_regularizer': None, 'bias_regularizer': None, 'activity_regularizer': None, 'kernel_constraint': None, 'bias_constraint': None}[array([[[[-8.78640041e-02,  5.26126847e-03,  9.62023363e-02,
           7.13089257e-02,  2.27241125e-02, -4.24886718e-02,
           2.31538396e-02,  8.56280774e-02, -8.48582163e-02,
           1.04706148e-02,  1.30599797e-01, -8.11460838e-02,
          -4.24636863e-02, -7.61405006e-02, -1.19399160e-01,
          -1.64861992e-01, -7.56786019e-02, -9.32542160e-02,
           7.86895026e-03,  7.74474740e-02, -1.09546758e-01,
           3.86749208e-02, -1.01166874e-01, -4.80820611e-02,
           6.61666617e-02, -4.56727222e-02,  2.01005474e-04,
           8.62121359e-02, -7.42183700e-02,  9.86991823e-03,
          -5.40408120e-02,  1.16230249e-02,  1.81975833e-03,
          -2.24978290e-02,  2.42240634e-02,  6.25956282e-02,
          -1.16079263e-01, -4.84652072e-02, -6.94069937e-02,
          -1.20128073e-01, -9.78153124e-02, -9.08832401e-02,
          -6.62509575e-02, -6.49252459e-02,  1.08701885e-01,
           1.87567636e-01, -8.56495127e-02,  2.06888840e-03,
          -7.08286241e-02, -6.22815862e-02, -2.17198394e-02,
          -3.58692780e-02, -1.05166331e-01, -2.58705914e-02,
          -9.23041329e-02, -6.86403140e-02, -3.24432217e-02,
           8.10566992e-02, -4.22593318e-02, -9.46385637e-02,
          -8.42191204e-02, -9.51105133e-02,  1.72654521e-02,
          -7.21689090e-02],
         [-4.98922169e-02,  1.02114834e-01,  1.10483833e-01,
          -3.38751939e-03, -9.34390575e-02, -5.39036691e-02,
           3.40194404e-02,  6.84043393e-02, -3.77793461e-02,
          -7.91109130e-02,  2.60568410e-02,  6.22366965e-02,
           3.71773280e-02,  1.13359667e-01, -1.52570114e-01,
          -1.57400891e-01, -5.04480861e-02,  9.49908867e-02,
          -8.80568400e-02, -3.28785591e-02,  7.30955601e-02,
           1.06908076e-01, -3.38181034e-02,  7.40721971e-02,
          -8.79037380e-03, -9.83383432e-02,  3.97036597e-02,
          -9.31542739e-03,  5.72848916e-02,  2.32857037e-02,
          -2.48820428e-02, -8.48680139e-02, -6.31957278e-02,
           1.28667504e-02,  5.89672625e-02, -7.36469403e-02,
          -6.65829405e-02, -1.09649161e-02, -1.02657424e-02,
           2.94801947e-02, -2.82564759e-02,  4.69973311e-02,
           2.25152448e-02,  2.50527505e-02,  3.05217244e-02,
           1.10669591e-01, -2.19104290e-02,  6.18384145e-02,
          -2.11650990e-02,  3.09110582e-02,  7.76877031e-02,
          -7.15112239e-02, -8.07053596e-02, -1.53347597e-01,
           2.36156136e-02,  7.07448870e-02, -7.15345517e-02,
           4.37207222e-02, -9.48102996e-02, -1.08011298e-01,
          -2.22273897e-02,  7.24463314e-02,  8.86184070e-03,
          -6.55585825e-02],
         [-8.94716009e-02, -3.39810476e-02, -1.09965978e-02,
           5.43486550e-02, -7.06458986e-02, -1.15995944e-01,
          -1.70295853e-02, -6.49451539e-02, -5.29852463e-03,
           6.63507590e-03,  7.81934783e-02,  3.30202878e-02,
           2.27760058e-02, -4.80390005e-02, -1.30658016e-01,
          -6.28527068e-03,  4.11656760e-02, -4.08195704e-02,
           9.22805592e-02,  5.06396964e-02, -7.22530410e-02,
           2.09746867e-01, -7.41371000e-03, -7.30597377e-02,
          -1.34076085e-02,  5.18023111e-02, -2.34227069e-02,
           1.01019815e-01, -7.38828108e-02, -7.05838203e-02,
          -3.38712782e-02,  7.02103004e-02,  5.16673513e-02,
           6.10242151e-02,  1.79031864e-02,  4.33644429e-02,
          -1.29092485e-01,  1.57676116e-02,  7.19598234e-02,
          -1.48667082e-01, -9.41722617e-02,  1.92192793e-02,
          -6.15779608e-02, -5.45771979e-02, -1.59607809e-02,
           1.36150301e-01,  6.45610616e-02,  4.26747417e-03,
          -7.11575001e-02,  6.02222160e-02,  6.07372485e-02,
           1.19561395e-02,  2.92431824e-02, -2.06606090e-02,
           5.79895191e-02,  3.69414221e-03, -1.12391181e-01,
          -5.75504974e-02,  7.32090883e-03, -2.19239831e-01,
          -3.85002084e-02,  7.34025091e-02,  4.54769172e-02,
          -9.34744924e-02],
         [-7.75408000e-03,  3.68020162e-02,  8.14030394e-02,
          -9.83797684e-02, -3.08876708e-02, -7.44503662e-02,
          -5.92687577e-02, -9.17971581e-02, -4.65159714e-02,
           3.59418914e-02,  4.00679037e-02,  4.97962534e-03,
           1.72539204e-02,  5.35308495e-02, -2.72137225e-02,
           6.23835102e-02,  9.32199582e-02, -5.45468219e-02,
           7.37308338e-02, -4.77114283e-02,  3.91351804e-02,
           9.64750275e-02,  4.29257974e-02,  4.54525575e-02,
          -8.11597705e-03,  9.71993729e-02, -4.83482331e-03,
           4.98168394e-02,  2.77023688e-02, -5.53982332e-02,
          -7.86371827e-02,  5.32766953e-02,  9.69334468e-02,
          -4.91431430e-02, -2.72016078e-02, -4.54721190e-02,
           9.07033756e-02,  3.35115567e-02, -1.92958862e-03,
          -1.49722397e-02, -9.68799293e-02, -7.32462108e-03,
           3.26376334e-02, -6.86509907e-02, -8.69534165e-02,
          -3.22693139e-02, -6.95990175e-02,  7.58828968e-03,
           1.61972269e-02, -2.31343955e-02, -4.15893197e-02,
           7.82442167e-02, -5.51222265e-03, -2.93436125e-02,
          -1.12972036e-02, -4.50215116e-02, -4.15862501e-02,
           2.69600675e-02,  3.22710201e-02, -3.84807326e-02,
          -5.75198829e-02, -3.40053737e-02,  3.23054418e-02,
          -6.42106161e-02]],

        [[-8.09437260e-02,  8.29520300e-02,  6.33500069e-02,
          -5.61078312e-03, -6.88916668e-02, -6.63317740e-02,
           1.16649764e-02, -5.39947152e-02,  1.42922131e-02,
           3.67872491e-02, -1.27095908e-01,  5.13081737e-02,
           7.23610744e-02,  9.61870700e-02,  1.06536262e-01,
          -1.09803312e-01, -6.27969280e-02,  9.15661678e-02,
           8.48037452e-02, -9.90108326e-02, -4.47443351e-02,
          -4.85111549e-02, -5.87964766e-02, -9.36250538e-02,
           1.54789491e-02,  9.82955769e-02, -4.97131050e-02,
          -6.07999153e-02,  7.06557333e-02,  7.57486746e-02,
           4.77870554e-02,  5.81223890e-02, -2.75564939e-02,
          -3.03576831e-02,  2.91042682e-02,  3.97245446e-03,
          -8.87225643e-02,  3.01432470e-03, -1.05779476e-01,
           6.19179197e-02, -1.47095667e-02, -1.02125838e-01,
          -2.28511635e-03, -6.55381083e-02,  8.89571905e-02,
           5.61555773e-02,  9.03606340e-02,  7.38369599e-02,
          -1.10423028e-01,  8.87407809e-02, -5.31995073e-02,
          -8.86145160e-02, -9.49235708e-02,  3.33507429e-03,
          -3.04889977e-02,  2.33590580e-03, -9.08721238e-04,
           5.37355840e-02, -5.38686439e-02, -2.00272501e-01,
          -2.49167513e-02,  6.78563714e-02,  3.04348748e-02,
          -6.48670793e-02],
         [-3.65829021e-02,  7.28946999e-02, -3.54457821e-04,
           8.48047435e-02, -8.78387764e-02,  7.44596943e-02,
           3.55908200e-02, -7.81479031e-02, -1.07008651e-01,
           1.94259677e-02,  2.66199522e-02, -6.00356832e-02,
           7.07914382e-02,  8.67733732e-02,  9.72594135e-03,
          -1.18575603e-01, -9.25900228e-03, -3.16650495e-02,
           9.90756508e-03, -6.33063167e-02, -3.83623429e-02,
           1.23540230e-01,  2.10545138e-02, -1.30724432e-02,
          -1.51123151e-01,  5.37100574e-03,  2.72881407e-02,
           8.30727294e-02, -1.22624123e-02, -3.05966716e-02,
           2.47409642e-02,  5.35703041e-02, -4.82616425e-02,
          -7.43285101e-03,  6.28036782e-02, -3.36031318e-02,
          -1.34125456e-01,  7.16380551e-02,  3.79298516e-02,
           1.56551659e-01, -8.23838711e-02, -9.28994119e-02,
          -5.92619143e-02,  7.91203156e-02,  1.44994900e-01,
           7.60107785e-02,  4.93305153e-04,  4.02644202e-02,
           1.03607811e-02,  7.42810220e-02,  5.69040067e-02,
           4.12672199e-02, -5.00664040e-02, -8.03763885e-03,
          -4.36452739e-02,  2.69035157e-02,  1.11789685e-02,
           2.17766082e-03,  6.37581050e-02, -2.80119866e-01,
          -9.35633108e-02, -1.30904708e-02, -1.18644670e-01,
          -1.21690007e-02],
         [-5.27092144e-02, -1.33830700e-02,  3.64153599e-03,
          -1.90804489e-02, -6.69652671e-02, -3.19201052e-02,
          -6.33897334e-02,  6.50350936e-03, -3.31311785e-02,
          -7.00004250e-02, -8.81721377e-02, -3.48419100e-02,
           4.59761098e-02,  1.11372605e-01,  4.34139650e-03,
          -2.52533760e-02,  4.29485925e-02, -8.47716406e-02,
          -9.06400904e-02, -2.11194362e-02,  3.29180956e-02,
           1.36721343e-01, -6.41348911e-03, -4.91381437e-02,
          -1.41394570e-01, -9.37607512e-02,  4.89597209e-02,
          -4.00188901e-02, -4.37081940e-02,  2.17152331e-02,
          -5.06493524e-02,  6.97668120e-02, -6.94330037e-02,
           2.19181385e-02,  2.24419292e-02,  8.51558819e-02,
          -1.19565755e-01,  1.66045073e-02, -2.55974270e-02,
           1.20701745e-01, -8.35380629e-02, -1.05407566e-01,
          -3.02481540e-02,  6.96883574e-02,  5.66098131e-02,
           4.59872000e-02,  6.15655445e-02, -4.31692302e-02,
          -1.17749684e-01,  9.34423655e-02,  2.91134380e-02,
          -3.87929119e-02,  5.98914996e-02, -1.27788097e-01,
           3.67177762e-02,  9.89610050e-03, -8.46741050e-02,
          -2.22949088e-02,  2.41240691e-02, -3.26229781e-01,
          -7.15458617e-02, -5.15073836e-02, -5.62643446e-02,
           2.01679971e-02],
         [-4.76036146e-02,  8.19406435e-02, -2.88057476e-02,
           7.69672468e-02, -4.63240966e-02,  6.83586374e-02,
          -2.04871818e-02,  5.26404008e-02, -8.54912251e-02,
          -4.50226441e-02,  2.25688368e-02, -7.49292225e-03,
          -1.11876205e-02, -4.63823564e-02, -6.19706698e-02,
          -3.94553691e-02,  4.87672314e-02, -1.89798996e-02,
          -5.80651090e-02,  2.49143839e-02,  8.58962908e-02,
          -7.93616995e-02,  9.47969928e-02, -6.01924025e-02,
           2.76067108e-03,  4.46321145e-02,  5.23585603e-02,
           5.49199507e-02, -9.51289311e-02, -9.54324231e-02,
          -4.16396260e-02,  1.78658590e-02,  7.46368095e-02,
           8.50452408e-02, -1.21358410e-02, -9.36054066e-02,
          -5.36053292e-02, -2.78774053e-02, -3.55389491e-02,
          -8.00132528e-02, -2.97016576e-02,  7.91966841e-02,
           2.76476815e-02, -2.36209109e-02,  9.17864591e-03,
           7.56087825e-02, -2.21378282e-02,  1.97847337e-02,
          -8.46569538e-02, -2.76989415e-02,  6.97618648e-02,
          -7.66754150e-04,  5.51241860e-02, -8.64478499e-02,
          -4.76397574e-02,  8.05105641e-02,  6.58631548e-02,
          -5.45104221e-02,  8.22322071e-03, -7.83225670e-02,
           4.41261157e-02, -3.60566750e-02,  5.16738519e-02,
          -7.79622123e-02]],

        [[-5.83007671e-02,  1.58173125e-03,  1.13067344e-01,
           5.58377914e-02, -5.21893278e-02,  6.52892068e-02,
           5.18609770e-02, -6.43112585e-02, -8.09389278e-02,
           1.43763376e-02, -1.66325688e-01,  7.61858597e-02,
           5.04850671e-02,  7.96472207e-02,  1.91917084e-02,
           6.82925666e-03,  5.70846647e-02, -3.59796584e-02,
           6.88675269e-02, -5.16852327e-02,  2.75202282e-02,
          -1.09347738e-01,  2.47575399e-02,  7.60897771e-02,
          -1.84702910e-02,  8.96719005e-03,  3.90611738e-02,
          -3.37633342e-02, -5.25768958e-02, -2.80187093e-02,
          -1.08522132e-01, -1.08659882e-02, -4.18485105e-02,
           1.21030211e-02, -1.84722096e-01,  1.05297910e-02,
          -3.95285301e-02, -2.66267061e-02,  3.38652916e-02,
           1.21611193e-01,  9.58596244e-02, -1.60547365e-02,
           7.01760128e-03, -4.62570824e-02,  7.36210719e-02,
          -1.87296376e-01, -5.08406647e-02, -4.45082560e-02,
          -7.35206753e-02, -7.28010619e-03, -1.10294156e-01,
           6.28569573e-02,  1.44892819e-02, -8.65076333e-02,
           5.46784960e-02, -6.76903278e-02,  4.20654118e-02,
           7.78556019e-02, -5.02291210e-02, -9.21152830e-02,
          -7.52114132e-02, -3.54827456e-02, -1.16682209e-01,
           5.01115732e-02],
         [-1.34825595e-02, -6.04351573e-02,  1.10645443e-01,
           1.03281485e-02, -9.52395871e-02, -7.41052628e-02,
           7.72831915e-03,  5.69832027e-02, -4.08458970e-02,
           7.44943395e-02, -8.25019255e-02,  4.57067639e-02,
          -1.00051805e-01, -5.43533713e-02,  4.03518304e-02,
          -1.49972901e-01, -5.88052236e-02,  2.24262197e-02,
           8.42426345e-02,  8.62270445e-02,  8.83278996e-02,
           5.18990606e-02, -9.60948765e-02, -9.26520750e-02,
           7.23457187e-02,  3.05680651e-03, -1.16591239e-02,
           3.29216421e-02, -2.56775636e-02,  1.28038526e-02,
          -1.34405136e-01,  1.01773091e-01, -1.67893916e-02,
           5.24464957e-02, -4.17915964e-03,  4.32265736e-02,
          -6.57241568e-02,  4.56730202e-02,  7.06805335e-03,
           5.16002923e-02, -7.82736316e-02,  6.77750409e-02,
          -2.18010340e-02,  4.76771444e-02, -4.64239381e-02,
          -8.55991542e-02, -8.63944441e-02,  8.23749453e-02,
          -4.91887890e-02,  1.30279199e-03, -8.02195147e-02,
          -1.12680690e-02,  8.66831318e-02,  4.49722260e-02,
           1.55578647e-02,  1.75292753e-02, -1.18457623e-01,
          -5.11803478e-02, -1.09679393e-01, -1.50266215e-01,
          -9.67400968e-02, -9.50788334e-03, -1.02760410e-02,
           2.45795641e-02],
         [ 8.81471410e-02, -1.67709496e-02, -2.39560055e-03,
           8.33875090e-02,  7.12727159e-02, -2.11423803e-02,
           1.00528255e-01, -5.79400323e-02, -8.73271450e-02,
          -2.43660659e-02, -1.57695919e-01,  4.90206964e-02,
           8.49626958e-02,  8.17618705e-03, -6.75412863e-02,
          -1.29134819e-01,  4.91984896e-02,  1.00408960e-02,
           7.27098361e-02,  8.47206116e-02,  1.87435821e-02,
          -8.29795226e-02, -3.82427648e-02, -6.82677180e-02,
          -2.63055228e-02, -2.26348788e-02,  8.36319253e-02,
           4.45549600e-02, -5.52975573e-02,  2.33304910e-02,
          -1.19694315e-01,  8.49275440e-02,  2.30628233e-02,
          -7.54045099e-02, -1.95170313e-01,  1.64980188e-01,
          -1.05775207e-01, -3.66370790e-02,  3.00384331e-02,
           4.48837206e-02,  3.97290476e-02,  5.21602631e-02,
          -2.15206835e-02, -6.58595096e-03, -2.71212738e-02,
          -1.61010191e-01, -7.50261359e-03, -1.88258830e-02,
           1.49770631e-02,  2.72224452e-02, -1.33491039e-01,
          -7.85286576e-02,  6.25489131e-02, -1.46655053e-01,
           4.54292819e-02, -1.51267024e-02,  4.55146730e-02,
          -1.85996462e-02, -1.12595670e-01, -1.23348698e-01,
          -2.10822579e-02, -7.73245841e-02, -1.15632944e-01,
          -2.95270886e-02],
         [ 1.53911933e-02,  7.05487356e-02,  1.53086185e-02,
          -5.37553988e-02,  1.34155154e-04, -1.98959187e-02,
           2.90860161e-02,  9.60202143e-02, -6.16003945e-02,
           2.88651884e-03,  5.74844256e-02, -7.05784038e-02,
           4.48398069e-02,  2.60365382e-02,  5.57314977e-02,
          -5.18128313e-02,  7.92183727e-03,  7.88382813e-02,
          -2.17342898e-02,  4.29903194e-02, -2.17685625e-02,
          -6.11170642e-02,  7.29795620e-02, -7.00889826e-02,
          -5.09816073e-02,  8.05894509e-02, -1.09699368e-03,
           9.27967504e-02, -8.51402581e-02,  7.91345537e-03,
          -3.20003405e-02,  6.66017160e-02,  1.57693550e-02,
          -8.45792145e-03,  6.36263862e-02, -1.70802251e-02,
           6.83219507e-02, -1.32659078e-02,  6.26186356e-02,
          -6.06863089e-02, -4.09870595e-02,  4.70033363e-02,
          -6.29705638e-02, -8.20860639e-02, -3.50900739e-03,
           8.57185796e-02,  8.64852890e-02, -8.80006403e-02,
          -2.44960859e-02, -9.43411440e-02, -8.29184800e-03,
          -4.53438424e-02,  1.89593583e-02,  6.13313988e-02,
          -2.53026932e-02,  1.54570565e-02,  8.56347382e-03,
          -8.01517069e-02,  2.51509249e-04,  8.00088421e-02,
           1.33107603e-03,  8.14569667e-02, -4.56878655e-02,
          -7.73450285e-02]]],


       [[[-9.62918773e-02,  8.14099088e-02,  3.93839031e-02,
           4.55748513e-02, -9.64944959e-02,  1.22426208e-02,
           1.84738357e-02, -1.79756414e-02,  6.59714341e-02,
          -8.91385898e-02,  1.46360755e-01,  8.38369951e-02,
           2.42653247e-02, -7.77166784e-02,  3.79563645e-02,
           8.72406587e-02,  8.57891664e-02,  3.88781838e-02,
          -4.93796580e-02,  7.16371089e-02, -5.37589155e-02,
           1.06393062e-01,  3.81373987e-02,  9.18207467e-02,
          -4.49083606e-03, -2.63733324e-02, -2.59288810e-02,
          -8.75492319e-02,  2.38136239e-02, -8.10252130e-02,
           1.49700239e-01, -5.55630326e-02,  6.45659864e-02,
           3.61721404e-03,  2.52520237e-02, -1.70362443e-01,
           6.41545057e-02, -5.92902638e-02, -4.02430817e-02,
          -1.60837710e-01,  9.33642089e-02, -2.54881531e-02,
          -6.72468171e-02,  4.34682555e-02,  1.06355116e-01,
           1.30173385e-01,  3.28730941e-02, -6.32782131e-02,
          -3.90387587e-02, -1.45037156e-02, -8.43496919e-02,
          -7.77247653e-04, -4.71789204e-02, -1.03188097e-01,
          -6.89412132e-02,  5.19660190e-02,  1.34073183e-01,
           2.37790328e-02, -5.23985177e-02, -1.61030263e-01,
           5.25436252e-02,  1.36345932e-02, -4.63723624e-03,
          -5.32013103e-02],
         [ 1.25149451e-02, -3.24909575e-02,  6.69026971e-02,
          -1.91163248e-03,  5.00631183e-02,  1.65327284e-02,
           4.52627800e-03,  6.67942837e-02,  2.88612563e-02,
           5.15009165e-02,  1.54194042e-01, -9.99265611e-02,
          -7.80328289e-02, -5.19778244e-02, -1.40231535e-01,
           4.57635038e-02, -9.21997949e-02,  2.39123385e-02,
          -5.45880720e-02, -3.21106538e-02, -6.85348138e-02,
           6.37128055e-02, -1.41296675e-02,  6.94260001e-02,
           9.48768631e-02,  4.00079675e-02,  4.66153547e-02,
          -7.20035210e-02, -6.52366951e-02, -1.04806393e-01,
           2.13765986e-02, -1.40115349e-02,  7.97793344e-02,
          -3.70221883e-02, -4.49971110e-02, -1.40408784e-01,
          -3.79135646e-02, -8.79774466e-02,  2.48436499e-02,
          -7.27366284e-02,  4.39014770e-02, -8.79425406e-02,
           7.84762129e-02,  1.78118497e-02,  8.55903104e-02,
           1.64219335e-01, -2.52980869e-02,  7.28611574e-02,
           6.47871196e-02, -8.47592130e-02,  2.99586672e-02,
          -2.83794128e-03,  3.06234024e-02, -6.25335500e-02,
          -2.31656595e-03, -4.72408384e-02,  1.53598711e-01,
           1.05345704e-01,  5.35713993e-02, -2.93245614e-01,
          -9.37535241e-02, -2.70749871e-02,  7.43561164e-02,
          -1.00445598e-01],
         [-8.10356364e-02, -6.26339018e-02, -4.62402999e-02,
           6.56122491e-02,  6.98063895e-02,  7.50934184e-02,
          -4.37266044e-02,  6.90868273e-02, -5.50920554e-02,
          -6.01364300e-02,  3.92406993e-02,  8.32448378e-02,
           3.25214141e-03,  4.49586101e-02, -4.30277027e-02,
           1.00764088e-01,  5.14921881e-02, -7.72955716e-02,
          -3.12991329e-02, -7.67763555e-02,  3.13539430e-02,
           5.27545922e-02,  3.93034890e-03, -7.35007674e-02,
           8.90277252e-02, -1.22383493e-03,  1.72443502e-02,
           1.56076171e-03, -3.42404433e-02,  2.35887133e-02,
           7.41650835e-02, -5.45486994e-02, -1.97894592e-02,
           8.94989520e-02,  1.05673552e-01, -1.87007021e-02,
           5.96230142e-02,  3.94136906e-02, -9.29251164e-02,
          -1.43659323e-01, -9.87495854e-02, -5.25721684e-02,
          -6.93334788e-02,  6.61858395e-02, -7.77361449e-04,
           3.54911536e-02,  3.81038934e-02,  1.88218225e-02,
           9.05470401e-02, -1.89101491e-02, -8.70916694e-02,
          -6.56700507e-02, -1.02991641e-01, -7.68853948e-02,
          -6.39285147e-02,  1.03276022e-01,  7.19286501e-02,
          -6.69514909e-02,  4.92418967e-02, -2.75955617e-01,
           1.59071814e-02, -6.58576861e-02,  5.35682850e-02,
           1.14516029e-02],
         [ 4.81119975e-02, -3.52132469e-02, -1.99032575e-02,
           2.07612067e-02,  1.49469599e-02, -3.10098827e-02,
          -8.26091692e-02, -1.56152025e-02, -8.10613558e-02,
          -3.28200907e-02,  2.37197950e-02, -1.33145601e-02,
          -2.41164416e-02, -4.78326753e-02, -4.30150852e-02,
          -4.85939980e-02,  2.35953405e-02,  6.88771680e-02,
          -5.09321727e-02, -2.77539417e-02,  3.97196934e-02,
           6.11554906e-02, -1.99521780e-02, -2.54115462e-02,
          -8.62393081e-02,  8.95862803e-02,  7.36937448e-02,
          -8.74097645e-02, -6.88661188e-02,  7.76440576e-02,
           8.73231962e-02,  7.89110437e-02,  8.12798068e-02,
           2.02029049e-02, -3.75017039e-02, -4.77616414e-02,
          -2.29202211e-03, -7.12268353e-02, -7.65300915e-02,
          -4.03517708e-02,  7.31960312e-02, -5.75126112e-02,
          -3.42205241e-02, -9.25339609e-02,  8.02027956e-02,
          -2.08473206e-03,  2.58076414e-02,  3.06991413e-02,
          -7.92706013e-02,  1.95824653e-02,  7.43559822e-02,
          -3.69033851e-02, -2.76597068e-02, -5.26489653e-02,
           1.21613145e-02,  8.28748196e-03, -3.81725207e-02,
          -8.60824138e-02, -7.95324966e-02,  8.96528736e-02,
           7.73017108e-03,  7.73236230e-02, -8.39632899e-02,
          -1.04498118e-02]],

        [[ 2.00434811e-02, -9.63376462e-02, -7.18431845e-02,
           1.07031232e-02, -8.79332870e-02, -3.44881639e-02,
          -4.41845618e-02,  6.61387816e-02,  1.10294081e-01,
          -1.44109596e-02,  4.05527875e-02, -6.67865109e-03,
          -5.58469445e-02, -6.94569051e-02,  7.73857459e-02,
           5.72234876e-02,  5.70318438e-02, -7.88796917e-02,
           1.97602790e-02, -7.98066184e-02, -1.54726719e-02,
          -1.72843933e-02,  8.00255239e-02,  8.63164067e-02,
          -1.87106684e-01,  3.41371703e-03, -9.34299547e-03,
           9.48875323e-02, -5.87230809e-02, -9.33999568e-02,
           9.74557027e-02,  4.44235355e-02, -8.51269625e-03,
           7.98670053e-02,  1.16877459e-01, -5.66247031e-02,
           5.00868596e-02,  3.49485278e-02,  7.37999082e-02,
          -4.98730950e-02,  1.95485223e-02, -9.40973521e-04,
           5.96348308e-02,  2.96904072e-02,  1.08922236e-01,
           6.40104339e-02,  1.08965728e-02,  5.59305176e-02,
           1.03358902e-01,  5.11629470e-02,  5.49619310e-02,
           4.74233599e-03,  1.08928056e-02, -6.77968189e-02,
          -8.51025358e-02, -1.09601028e-01,  1.94656968e-01,
           1.57650243e-02, -8.96740705e-02,  9.50576961e-02,
           1.32642761e-02, -7.03835189e-02,  1.74963921e-02,
          -8.43561813e-02],
         [ 2.73575839e-02, -1.11541905e-01,  6.59344867e-02,
          -7.37698469e-03, -7.39272833e-02, -7.62649253e-02,
           6.69531897e-02,  3.21974456e-02,  8.09144899e-02,
          -2.66961120e-02, -9.33108572e-03, -9.45609286e-02,
          -6.80265650e-02,  7.86428154e-02,  8.08779374e-02,
           1.19531006e-01, -9.22413245e-02, -7.38102868e-02,
          -7.45978430e-02, -2.89113913e-03, -2.84367502e-02,
          -2.17458978e-02,  7.42862299e-02, -8.97461176e-02,
          -7.43685588e-02, -6.76915348e-02, -7.05695078e-02,
           1.12954289e-01, -3.56336385e-02,  1.52697088e-02,
          -2.32286192e-03, -4.31134515e-02,  8.62209275e-02,
           8.25650897e-03,  1.26878649e-01,  6.44828826e-02,
          -1.09843783e-01, -2.75030602e-02, -6.40197098e-02,
          -3.89450900e-02, -3.68799157e-02, -1.23291627e-01,
          -3.31677347e-02,  5.47668487e-02, -1.08992336e-02,
           8.50502327e-02,  6.63546696e-02, -7.15486333e-02,
          -6.62093386e-02,  1.06334714e-02, -1.65304169e-02,
          -1.10125160e-02, -3.53882462e-02, -1.91182774e-02,
          -3.57514471e-02,  1.06476760e-02,  2.11810082e-01,
           4.90363427e-02, -2.72541251e-02, -2.92005353e-02,
          -1.23236164e-01, -8.19116980e-02,  4.97900657e-02,
           4.24398817e-02],
         [ 2.23414712e-02, -1.04091927e-01, -4.31432091e-02,
          -3.68295461e-02,  3.77430879e-02,  6.42562211e-02,
           9.53971297e-02, -2.55959649e-02,  9.20553505e-02,
           2.04452835e-02, -6.25523031e-02, -8.44570100e-02,
           5.49331345e-02, -8.39048773e-02,  3.70554104e-02,
          -5.26911207e-02,  8.14310759e-02,  9.15863663e-02,
           3.22060250e-02, -8.57446194e-02,  1.66203044e-02,
          -1.00613549e-01,  8.46623704e-02, -7.95896202e-02,
          -3.67838517e-02,  5.09486869e-02, -7.21721351e-02,
          -3.38415941e-03,  7.95291960e-02, -5.13715632e-02,
          -6.80081695e-02, -1.00671910e-01, -9.96780172e-02,
          -6.30425066e-02,  9.26447883e-02, -3.34312655e-02,
          -2.54259817e-03, -3.79944034e-02, -3.41842771e-02,
           8.07928443e-02, -8.05280283e-02, -5.83414435e-02,
          -1.04103871e-01,  1.02154352e-01,  6.93094209e-02,
           7.66089335e-02,  8.94518793e-02,  4.35566716e-02,
          -2.67950315e-02, -2.94864699e-02,  2.80662756e-02,
          -9.26270112e-02,  5.22248596e-02, -1.19155236e-01,
           7.97187015e-02, -1.21265970e-01,  9.28038508e-02,
           5.96542694e-02,  6.24606684e-02,  6.51924461e-02,
          -1.09346434e-01, -8.23667645e-03,  9.33033526e-02,
          -4.24113385e-02],
         [ 7.20535293e-02, -1.70917660e-02,  8.48339275e-02,
          -2.80585214e-02, -6.67108968e-02,  8.58095661e-02,
          -3.12327594e-02,  2.16135830e-02, -4.80625108e-02,
          -8.68835375e-02,  7.70883784e-02, -5.32837808e-02,
          -7.43841752e-02, -7.33485594e-02, -5.20470589e-02,
          -6.15590811e-02,  6.08697608e-02, -1.97752863e-02,
          -3.92303243e-02, -3.98103222e-02, -8.13767686e-02,
          -2.94595435e-02,  3.57236713e-03,  5.78823611e-02,
          -9.33864042e-02,  8.72535035e-02,  2.11093426e-02,
           9.65691581e-02,  7.37416670e-02,  2.25908160e-02,
           1.44651383e-02,  2.80006304e-02,  5.08681759e-02,
           7.84236714e-02, -3.12951729e-02, -2.21716538e-02,
          -9.11864713e-02, -4.52467911e-02,  6.96830824e-02,
          -7.06041083e-02, -4.82643992e-02, -5.71123585e-02,
          -2.62276605e-02, -8.20598304e-02, -5.33478260e-02,
           4.73002270e-02, -4.65488806e-02, -3.70523706e-02,
          -6.90546930e-02, -9.73145813e-02, -2.46783569e-02,
           9.10810605e-02,  1.81391388e-02, -9.31659639e-02,
          -3.09313014e-02,  9.41322744e-03,  3.49631086e-02,
          -4.46774624e-02, -8.48632082e-02,  9.47337598e-03,
           8.28493014e-02, -5.56005910e-02,  2.28677765e-02,
           2.54119709e-02]],

        [[-2.01810487e-02,  1.37983104e-02, -7.71407336e-02,
           6.12984970e-02, -3.08347959e-03,  2.19333805e-02,
           5.16435578e-02, -7.55360574e-02,  2.64914390e-02,
          -6.58532679e-02, -6.11182414e-02,  7.03515261e-02,
           4.41774912e-02, -6.72994256e-02,  9.75417793e-02,
           7.72580057e-02,  3.61537635e-02, -6.76371455e-02,
           4.74594086e-02, -8.38641673e-02, -2.15626378e-02,
          -2.10941240e-01, -3.04797255e-02, -3.94540280e-02,
          -2.56774575e-02, -1.70014403e-03,  3.53570166e-03,
           7.42335990e-02,  9.02875066e-02, -1.45307072e-02,
           1.29477849e-04,  5.16745858e-02,  5.03746606e-02,
           9.58153233e-02, -1.38553539e-02,  6.04085475e-02,
          -5.03843389e-02,  9.49218776e-03, -4.51013185e-02,
          -6.92795143e-02, -3.15618888e-02, -1.24953641e-02,
           1.89952215e-03, -5.55411763e-02, -1.04606807e-01,
          -1.54735401e-01,  8.98049995e-02,  9.06893834e-02,
           9.33935419e-02, -8.54709446e-02,  7.62946438e-03,
          -4.52988073e-02,  9.40751880e-02, -5.04537486e-02,
          -6.65091202e-02, -8.65124762e-02,  2.11946499e-02,
           5.13794944e-02,  3.86202224e-02,  1.03601389e-01,
          -1.24263428e-01, -8.05024337e-03,  6.61858078e-03,
          -3.06298099e-02],
         [ 4.65134829e-02, -7.01400712e-02, -1.04254976e-01,
          -8.44004899e-02,  6.09383807e-02,  7.57542253e-02,
           6.71421215e-02,  9.86240432e-03, -4.30969819e-02,
          -1.37827294e-02, -4.25203480e-02,  9.51006357e-03,
           2.33788639e-02,  7.13594705e-02,  3.11379060e-02,
           1.48699954e-02, -3.47267240e-02, -5.90344034e-02,
          -3.02926339e-02, -3.27888131e-02,  7.99393654e-02,
          -1.10587336e-01, -7.71938488e-02, -9.28477421e-02,
          -4.02922966e-02,  3.64596620e-02,  4.00335267e-02,
           9.31789875e-02, -3.50282900e-02,  1.27333626e-02,
          -8.09746161e-02, -6.61231726e-02,  6.08433820e-02,
           8.81743282e-02, -1.39983356e-01,  1.04745187e-01,
          -2.17570905e-02,  6.45883754e-02, -5.80632389e-02,
           3.04629914e-02,  1.00927860e-01,  3.54104280e-03,
          -2.56232042e-02,  8.11663643e-02, -4.14800234e-02,
          -1.80227235e-01, -2.49077566e-02,  4.21840325e-02,
          -2.46997811e-02, -3.23093645e-02, -6.48000762e-02,
          -3.45877036e-02,  4.84408177e-02,  3.72629636e-03,
           2.95851808e-02,  9.15820245e-03,  1.87549740e-01,
           3.49327573e-03, -1.58006232e-02,  1.67641148e-01,
          -9.93437767e-02, -7.31178746e-02, -6.22963309e-02,
          -4.53663059e-02],
         [ 6.63289847e-03, -9.00504813e-02,  2.48512961e-02,
           7.68531859e-03,  2.83122975e-02,  7.12654740e-02,
          -1.48935721e-03,  6.77203340e-03, -4.49889414e-02,
          -4.63956706e-02, -9.22434703e-02,  5.28648645e-02,
           1.33982371e-03, -7.50055090e-02,  4.79634032e-02,
          -6.64351135e-02, -6.39687702e-02,  6.90277442e-02,
          -8.66103452e-03, -8.03648680e-02,  9.89646092e-03,
          -2.03682259e-01,  4.58986424e-02, -3.38414200e-02,
          -8.34031478e-02, -3.87136675e-02,  5.48105352e-02,
           6.49432540e-02, -7.59521499e-02,  6.45752698e-02,
          -2.24590767e-03, -4.91006635e-02,  2.55572665e-02,
           2.74853259e-02, -5.97346574e-02,  8.23962316e-02,
           7.10719451e-02,  3.57374176e-02, -1.20363116e-01,
           7.54128257e-03,  9.59349722e-02,  6.58167452e-02,
           5.52367792e-03,  9.34017971e-02,  2.55799256e-02,
          -1.69104844e-01, -7.98743814e-02,  6.88569024e-02,
          -1.37010412e-02, -5.72897941e-02,  1.18721332e-02,
          -4.79946956e-02,  1.06020011e-02, -1.40617334e-03,
          -5.82717769e-02, -1.64355468e-02,  1.10052757e-01,
           7.20236525e-02, -3.20532061e-02,  4.46104296e-02,
          -8.71823076e-03,  4.54044603e-02,  6.24882467e-02,
          -7.26898834e-02],
         [-7.38920867e-02,  9.44530144e-02,  3.79732326e-02,
           7.59714767e-02,  6.08053878e-02,  6.07938543e-02,
          -4.21482362e-02, -8.77397656e-02, -8.55385065e-02,
           5.91585860e-02, -5.80740795e-02, -3.44489962e-02,
          -2.53383070e-03, -3.01916152e-03, -4.09345813e-02,
           5.39627597e-02, -9.75768268e-02,  5.54665253e-02,
           8.45310166e-02,  6.49902746e-02,  1.28798187e-04,
           1.22956559e-02,  3.60582396e-02, -9.04149711e-02,
          -1.49760619e-02, -7.51577243e-02, -8.01598504e-02,
          -8.39449912e-02,  1.76051259e-02,  2.70594433e-02,
          -2.70276740e-02, -4.47270125e-02, -6.74562603e-02,
          -9.08555239e-02, -4.22328711e-03, -5.29766791e-02,
          -4.69356589e-02,  7.10188821e-02,  9.90131423e-02,
           6.43449649e-02, -1.82145834e-02, -7.20696524e-02,
           7.38681033e-02, -8.45240057e-03, -5.95819503e-02,
           2.57296860e-03, -7.40507022e-02,  7.45907426e-04,
           1.94188207e-02,  9.34843048e-02, -7.13043138e-02,
          -8.95124823e-02, -9.46876407e-02, -6.40149564e-02,
           9.00112763e-02,  9.09954682e-02, -9.36703235e-02,
           8.44900981e-02,  1.37569755e-02, -1.22709647e-02,
          -6.85928166e-02,  6.22962490e-02,  5.48891649e-02,
          -2.51941457e-02]]],


       [[[ 1.16864994e-01, -2.68441979e-02,  2.84267683e-02,
          -4.21835594e-02, -3.99190076e-02, -8.76532942e-02,
          -5.78666152e-03, -4.05805446e-02,  1.17462009e-01,
          -9.45118219e-02,  1.20906763e-01,  8.77911821e-02,
           4.69467416e-03, -1.16128311e-01, -8.29909518e-02,
           4.68361904e-05, -1.52854882e-02,  1.48878340e-02,
          -4.36879136e-02, -7.05274716e-02, -8.04827316e-04,
          -1.00060906e-02,  1.95469074e-02,  5.87351359e-02,
           1.34479806e-01, -7.06500709e-02, -1.09189330e-02,
          -5.12900613e-02,  6.33753985e-02,  1.16517227e-02,
           5.22646569e-02,  1.49774030e-02,  4.20923680e-02,
          -1.01145744e-01, -3.77600677e-02, -1.86238199e-01,
           8.99224356e-02, -6.07801713e-02,  8.54021385e-02,
          -1.27575710e-01, -1.54572660e-02, -1.15914807e-01,
          -1.25192245e-02,  9.13151652e-02,  3.93576957e-02,
          -1.83313377e-02,  2.77835280e-02, -3.63062572e-04,
           4.50263312e-03,  3.32970731e-02,  1.85184889e-02,
           5.34157529e-02, -6.91782832e-02, -3.03658638e-02,
           9.06574056e-02,  7.45687261e-02, -1.72493309e-01,
          -8.47725570e-02,  4.40789424e-02, -1.88558400e-01,
           7.13495584e-03,  6.30725250e-02, -5.61218821e-02,
           4.31373864e-02],
         [ 5.91153428e-02,  7.43191391e-02, -3.80942672e-02,
           6.85677007e-02,  7.66463131e-02,  4.36985120e-02,
          -7.89605901e-02, -7.93313980e-02, -5.17975874e-02,
           9.64400545e-02, -1.71627831e-02,  2.89830528e-02,
          -6.55483603e-02, -1.14051402e-02, -8.08369666e-02,
          -3.05593722e-02,  4.34860550e-02,  3.26584540e-02,
          -7.62535185e-02, -3.18167210e-02,  7.49253333e-02,
          -1.18777633e-01,  7.40754604e-02, -9.62980371e-03,
           3.34815755e-02,  6.73171058e-02,  1.98413394e-02,
          -3.33439782e-02,  1.08688071e-01, -9.55993235e-02,
           9.37407836e-02,  1.06129628e-02, -9.13893059e-02,
           3.91309150e-02, -6.83021694e-02, -1.72787145e-01,
           1.00083731e-01, -1.00098155e-03,  7.76169449e-03,
           1.68889239e-02, -2.64895502e-02, -4.07947935e-02,
          -8.91471878e-02,  8.02176371e-02, -1.10283375e-01,
          -2.39667930e-02, -5.26957139e-02,  7.02194721e-02,
          -2.14345641e-02,  6.73464090e-02,  7.89034292e-02,
          -4.32210006e-02, -4.46548685e-02, -9.19906721e-02,
          -2.76626777e-02, -1.84060521e-02, -6.06431812e-03,
           5.41662611e-02, -1.86664332e-02, -1.45759732e-01,
           1.33964330e-01, -5.33092767e-02,  3.06043797e-03,
           6.27978668e-02],
         [-5.10705113e-02,  3.18351276e-02, -4.07432718e-03,
           7.70497993e-02, -4.17190380e-02, -3.79681364e-02,
          -7.04235137e-02,  4.35233898e-02, -4.24037315e-03,
          -7.80256018e-02,  5.06605022e-02,  8.83003026e-02,
           3.24840881e-02,  1.91677865e-02, -1.32479379e-02,
          -2.21132003e-02, -1.63980369e-02, -3.29268910e-02,
          -2.08973233e-02, -3.65836844e-02,  2.55082976e-02,
          -1.04583196e-01,  3.53545249e-02, -3.97295989e-02,
           1.74629658e-01, -6.25836253e-02, -1.13311604e-01,
           1.53530564e-03,  1.05259106e-01,  5.83273135e-02,
           1.07848622e-01, -1.02151096e-01,  1.02817202e-02,
           7.30798766e-02, -1.52426707e-02, -5.69555648e-02,
           2.60527246e-02,  4.59323749e-02,  1.18819989e-01,
          -5.77431619e-02, -4.39264216e-02, -5.28417937e-02,
          -7.07489848e-02,  1.78037360e-02, -2.42196862e-02,
           1.76658686e-02,  7.82162324e-02, -6.27802238e-02,
          -6.64227307e-02,  9.91616175e-02, -5.33419326e-02,
          -6.29728660e-02, -7.79924020e-02, -1.48389069e-02,
           4.01815325e-02,  1.09786369e-01, -1.81071162e-01,
           5.55036478e-02,  1.44101409e-02, -1.46220744e-01,
           9.35783759e-02, -1.00818492e-01, -5.71723282e-03,
           3.16255004e-03],
         [-6.96389377e-02,  5.68609908e-02,  9.26854238e-02,
          -5.32639734e-02, -1.08961463e-02,  4.24844995e-02,
          -7.45841712e-02, -9.20855701e-02,  6.49731606e-03,
           5.99747673e-02,  4.75039408e-02, -7.34941661e-02,
           4.46957350e-03, -8.77729282e-02, -7.84501880e-02,
          -5.25593534e-02, -5.12968078e-02,  3.15835327e-03,
          -3.39996815e-02,  8.18032995e-02,  2.60261521e-02,
           4.11262885e-02, -9.75021794e-02,  1.59533247e-02,
           3.84076461e-02, -7.27413893e-02,  2.62445956e-03,
          -1.13751516e-02,  5.74318245e-02,  3.44823077e-02,
           3.34955826e-02,  1.07599124e-02, -6.53415918e-05,
           9.05512497e-02, -8.54127854e-03, -5.80123737e-02,
          -9.72980335e-02, -5.97286448e-02, -1.46194324e-02,
           2.82353535e-02, -2.41334587e-02, -8.38014111e-02,
           4.44862023e-02, -9.02395248e-02,  8.48487094e-02,
           7.76105151e-02, -5.26714623e-02, -7.54694343e-02,
          -8.34305957e-02,  2.04698071e-02, -5.46518974e-02,
           7.55484030e-02,  3.35239246e-02, -6.29435778e-02,
          -2.96536386e-02,  7.70962164e-02, -7.14372694e-02,
           8.45231786e-02, -2.49888375e-02, -4.76711988e-03,
           9.35731307e-02,  1.53903663e-02, -8.70886594e-02,
           9.28320363e-02]],

        [[ 8.52450263e-03,  1.64740123e-02, -8.10264945e-02,
          -6.76004961e-02, -8.69667828e-02, -1.42784351e-02,
          -1.05031088e-01, -5.19904606e-02,  5.89415692e-02,
           9.44627356e-03,  8.51889548e-04, -4.00061943e-02,
          -1.19707948e-02, -2.75016390e-02,  2.07285713e-02,
           7.34620169e-02, -5.69485836e-02,  3.22182216e-02,
           8.19028988e-02,  7.22290203e-02,  2.75208242e-02,
          -1.74189165e-01,  5.24801351e-02, -8.41771886e-02,
          -5.80809154e-02,  9.00529921e-02, -3.96731368e-04,
           1.01431593e-01, -3.81322913e-02, -4.64416817e-02,
           7.81375077e-03, -3.56471762e-02, -2.11338676e-03,
           4.16250713e-02, -7.89422914e-02, -7.41645098e-02,
          -1.47762718e-02, -4.29182127e-02,  4.52483492e-03,
          -1.13458849e-01, -4.29262295e-02,  7.08882883e-02,
          -2.45145746e-02,  2.86525358e-02, -1.09966189e-01,
           4.70350869e-02, -1.00458644e-01, -9.99634713e-03,
           4.11472321e-02,  3.50554660e-02, -2.61126775e-02,
          -6.85279677e-03, -1.68689005e-02, -2.81551909e-02,
          -4.02163267e-02, -5.81046231e-02, -1.51789203e-01,
           2.02261489e-02, -1.29443279e-03,  3.86331715e-02,
           6.04042150e-02,  7.03332722e-02, -2.52284650e-02,
           1.16012618e-02],
         [ 1.07673496e-01, -3.17484178e-02, -1.07811764e-01,
           3.82628888e-02, -9.76188555e-02,  2.28535719e-02,
          -7.94853941e-02, -5.46188458e-05,  6.36211112e-02,
          -9.00174454e-02, -7.27069080e-02, -1.76954013e-03,
          -7.16345385e-03, -4.97408397e-02,  9.08717811e-02,
           4.89995405e-02, -4.61923033e-02, -1.43046286e-02,
          -5.63479867e-03, -1.25922337e-02,  5.89949340e-02,
          -1.18432954e-01, -9.38551687e-03,  5.94817437e-02,
          -3.37180234e-02, -6.19922243e-02, -8.46453682e-02,
           1.14545152e-02,  4.72022034e-02, -1.39493598e-02,
           2.92476714e-02,  6.51276410e-02, -3.84015660e-03,
           9.74079669e-02,  1.85240731e-02, -4.80865315e-02,
           8.23364109e-02, -1.03394084e-01,  3.46869268e-02,
          -1.00483470e-01,  9.25354883e-02, -4.54584956e-02,
          -7.78602809e-02,  9.14401934e-02, -1.03143334e-01,
           8.71020705e-02, -3.63388471e-02, -7.14941323e-02,
          -4.11300076e-04,  1.02359608e-01, -6.37104064e-02,
          -5.44194430e-02,  7.98663795e-02, -1.05855525e-01,
           9.69422013e-02, -7.92485178e-02, -1.38531223e-01,
           9.10943449e-02, -1.05636485e-01,  6.22567870e-02,
          -1.43845826e-02, -3.71389091e-02, -9.68897790e-02,
          -7.77711347e-02],
         [-2.41283365e-02, -2.00798362e-02, -5.87638840e-02,
          -6.24657683e-02,  7.97197130e-03,  4.01475020e-02,
          -7.20035061e-02, -2.85193734e-02,  1.31761730e-01,
          -4.90584935e-05, -5.87251261e-02,  2.54445486e-02,
          -1.06027186e-01, -7.14354888e-02,  7.15437457e-02,
           2.60185003e-02,  7.93918297e-02, -5.00414670e-02,
           5.03509529e-02, -4.65646312e-02,  7.07041621e-02,
          -1.38405576e-01, -8.13592821e-02,  4.49054278e-02,
          -4.85267751e-02, -1.73983015e-02, -2.21875124e-02,
          -7.22612143e-02,  6.72254935e-02, -4.28374298e-02,
          -7.03163492e-03, -7.14129657e-02, -8.31898451e-02,
          -1.52579816e-02,  5.39826378e-02, -7.19809085e-02,
           2.92025469e-02, -3.33844721e-02,  9.34878960e-02,
          -1.09105995e-02,  8.51706341e-02,  5.66972569e-02,
           2.36139130e-02,  4.76279343e-03, -1.40757799e-01,
          -5.06957173e-02,  5.85622415e-02, -8.36896002e-02,
          -1.66908838e-03, -5.72215533e-03, -7.51371235e-02,
          -1.04094170e-01, -1.67562999e-02, -5.12029566e-02,
           1.44837191e-02, -8.09943527e-02, -2.41465662e-02,
          -8.70930105e-02, -5.66120679e-03,  5.95668107e-02,
           1.43800482e-01,  7.74639994e-02, -5.33946380e-02,
           1.64084285e-02],
         [-8.14494491e-02, -6.65113255e-02, -6.26453087e-02,
           7.50101581e-02,  5.02980724e-02,  5.51784113e-02,
           6.10539839e-02,  8.09036866e-02, -1.70085728e-02,
           3.98204997e-02,  4.63187695e-03, -2.85250396e-02,
          -1.05729625e-02,  2.39951015e-02,  5.69408312e-02,
           5.34055158e-02,  3.00655290e-02,  9.84370932e-02,
          -4.74702567e-03,  4.58442420e-03,  8.93257484e-02,
          -5.00161275e-02, -8.53948817e-02,  7.68894330e-02,
           7.31350482e-03,  9.67920199e-02,  4.77986857e-02,
          -4.13385443e-02, -1.89006478e-02, -9.55144539e-02,
           4.52318266e-02,  6.10740110e-02, -3.75771299e-02,
          -2.44282186e-02, -3.88179570e-02, -4.33756337e-02,
          -6.90753013e-02,  6.21844009e-02, -9.59054083e-02,
           8.62763599e-02, -8.75288844e-02, -6.88074306e-02,
           3.52657214e-02,  4.52197567e-02,  8.79259929e-02,
          -1.26962662e-02,  2.59692371e-02, -1.08347163e-02,
          -5.62091321e-02, -4.05586883e-02, -9.30946693e-02,
           4.87710461e-02,  5.44812903e-02,  2.12839618e-02,
          -5.97074442e-02, -7.42889643e-02,  3.64111289e-02,
           5.37497625e-02, -5.65494262e-02,  4.23751697e-02,
          -9.29708257e-02,  4.13103029e-02, -5.35138771e-02,
          -8.82041603e-02]],

        [[ 1.24607004e-01, -6.71577007e-02, -7.36609399e-02,
          -1.34791695e-02,  2.35479255e-03,  1.52103063e-02,
          -5.81182949e-02, -2.03059912e-02,  1.25165246e-02,
          -6.94286078e-02, -1.17574871e-01,  2.94073694e-03,
          -3.65386419e-02,  3.05060968e-02, -6.77858889e-02,
           8.24274421e-02,  1.94184668e-02, -8.27096924e-02,
           9.46222171e-02, -1.20620830e-02, -4.22780700e-02,
           6.92460313e-02,  3.48475948e-02, -9.47412997e-02,
           1.46543365e-02, -4.38395105e-02, -8.37027468e-03,
           7.52745643e-02, -4.21757810e-02,  6.56917617e-02,
          -1.24063246e-01, -7.86163062e-02,  3.17907035e-02,
           4.40045483e-02, -3.66503932e-02,  1.47169307e-01,
           1.17217921e-01,  8.73750914e-03, -5.31507470e-02,
          -9.72731560e-02,  5.90910055e-02, -7.18366429e-02,
           1.52970431e-02,  7.29433373e-02, -1.89064547e-01,
          -2.02394314e-02,  6.91743894e-03, -9.87411477e-03,
           8.33139643e-02,  7.73876086e-02,  7.21127167e-03,
           4.55308706e-02, -5.39737009e-02, -9.77116972e-02,
          -4.94469032e-02, -9.54823121e-02, -2.08884150e-01,
          -7.86657706e-02, -1.03063844e-01,  1.32662207e-01,
          -5.72148003e-02, -7.49378651e-02, -1.09753080e-01,
           2.62490250e-02],
         [ 2.39299070e-02,  8.49383101e-02, -7.34261498e-02,
          -1.12344772e-01, -7.17309117e-02, -6.83494210e-02,
          -4.03934084e-02,  7.89842084e-02,  1.06959529e-01,
           2.17689928e-02,  4.70071025e-02, -7.26918057e-02,
           2.04222109e-02, -1.07987449e-01, -3.50834094e-02,
           5.60800768e-02,  7.38997757e-02, -2.10717972e-02,
           6.67745173e-02, -3.14642931e-03,  8.45704153e-02,
          -8.62904489e-02, -9.31666940e-02,  2.95601413e-02,
          -3.51831503e-02, -5.28417155e-02, -7.36134350e-02,
           1.66017376e-02,  5.16271330e-02, -2.68392991e-02,
          -6.29898459e-02, -2.66716350e-03, -4.58942503e-02,
           3.63606513e-02, -6.90731257e-02,  1.08474992e-01,
           1.77903682e-01, -2.48789620e-02,  2.07695030e-02,
          -1.17144436e-01, -4.82089147e-02, -5.59919327e-03,
           3.01227942e-02,  4.24804837e-02, -1.64284363e-01,
          -1.72009364e-01, -2.88493149e-02,  4.47065942e-02,
           4.02331874e-02,  6.92808405e-02, -7.01885596e-02,
           8.33040848e-02, -4.24701758e-02, -5.25851548e-02,
           7.78269172e-02,  2.95869373e-02, -1.32653728e-01,
           6.16779784e-03,  2.93905642e-02,  1.76420406e-01,
           1.12004057e-01,  5.18334098e-02, -3.06318570e-02,
          -8.83199573e-02],
         [-3.63026969e-02, -9.34878811e-02, -9.52065587e-02,
          -5.26420362e-02,  4.09795158e-02,  3.41755897e-02,
          -6.48363754e-02,  1.59996562e-02,  2.44014412e-02,
          -6.50305860e-03,  2.42837146e-02,  9.75467451e-03,
           5.25203086e-02,  1.36395143e-02,  5.87549582e-02,
          -8.01317245e-02,  8.01003426e-02,  3.00963540e-02,
           9.10784025e-03, -3.81857157e-02,  8.95638242e-02,
           5.11607118e-02, -3.98545191e-02, -1.58464294e-02,
          -3.05222650e-03, -8.64159539e-02,  2.73810327e-03,
          -1.71583127e-02,  7.03249574e-02, -4.94880266e-02,
          -9.70578268e-02, -6.79262877e-02,  7.17810914e-02,
           1.95980119e-03,  2.27088872e-02,  1.61148205e-01,
           2.07814083e-01,  4.55462448e-02, -1.29803658e-01,
          -1.03472814e-01,  1.60190351e-02,  8.66377428e-02,
           1.56375635e-02,  1.12338535e-01, -1.54405460e-01,
          -8.66449326e-02, -1.38473883e-03, -7.33990371e-02,
           2.49481257e-02,  7.62190297e-02,  2.76363529e-02,
          -9.85747352e-02,  6.75112754e-02,  9.26899072e-03,
           4.76503670e-02, -5.74907921e-02, -1.10451825e-01,
           6.18342049e-02, -8.69625434e-03,  1.36299849e-01,
           1.29431158e-01, -3.68288942e-02, -1.11270085e-01,
          -1.27631677e-02],
         [ 1.37774199e-02, -6.31224960e-02,  9.62278023e-02,
          -6.33915961e-02,  3.73509452e-02, -8.46252292e-02,
          -3.24595422e-02,  4.30741236e-02,  6.41578510e-02,
           6.00529984e-02,  7.70413950e-02,  4.30534035e-03,
           6.44683763e-02,  8.62588510e-02,  1.00080967e-02,
          -5.25923558e-02,  8.64840373e-02,  3.58914062e-02,
          -3.49861011e-02, -3.11564580e-02, -3.58449891e-02,
          -1.33209080e-02,  9.12539139e-02, -8.87864828e-03,
           5.44827506e-02,  9.09314305e-03,  2.84097269e-02,
          -8.16088468e-02,  5.81900552e-02,  5.41315600e-02,
           6.25086650e-02, -5.30330278e-02,  1.84381679e-02,
           3.23154032e-04,  6.65258691e-02, -9.42299068e-02,
           7.41480067e-02, -5.67811765e-02,  9.62360278e-02,
          -2.52627507e-02, -1.26602948e-02,  8.54459032e-02,
          -8.91491771e-04, -7.26566613e-02,  9.94138420e-03,
          -7.83243179e-02, -4.62183133e-02, -1.30580962e-02,
           4.13983688e-02,  9.41020921e-02, -9.27253366e-02,
          -7.51162767e-02,  8.19229856e-02, -4.73491326e-02,
          -9.14912596e-02,  3.54268476e-02, -5.77133186e-02,
          -1.85616314e-02,  9.11378637e-02,  3.43257189e-03,
          -8.91625062e-02, -2.64520869e-02,  4.71963659e-02,
           3.39708552e-02]]]], dtype=float32), array([-0.12244936,  0.09188013, -0.12814082, -0.10738058, -0.00858509,
       -0.04276879,  0.1739486 , -0.05817458, -0.08837173, -0.01583967,
       -0.01699959, -0.06646855, -0.07412885,  0.05335534, -0.03133873,
       -0.01632969, -0.08351848, -0.0024471 , -0.09026106, -0.01465881,
       -0.11292329,  0.00396649, -0.1222827 ,  0.17176117,  0.23981562,
       -0.00131296,  0.15205468, -0.08512622, -0.06422874, -0.01346827,
        0.00228586,  0.10885889, -0.08035223, -0.04440262, -0.02281669,
       -0.00076858,  0.01734846,  0.16347136,  0.03041166, -0.00437056,
        0.12543172,  0.07187435, -0.01125828, -0.07498812,  0.01176599,
        0.00382395, -0.06193382, -0.11894634, -0.09023553, -0.06997789,
        0.09321247, -0.02548669,  0.11351868,  0.2700426 , -0.10001076,
        0.12450982, -0.03589512, -0.09555126,  0.12055894,  0.08760379,
       -0.03478367, -0.01888771, -0.03280205, -0.02080204], dtype=float32)]{'name': 'activation_6', 'trainable': True, 'dtype': 'float32', 'activation': 'relu'}[]{'name': 'max_pooling2d_2', 'trainable': True, 'dtype': 'float32', 'pool_size': (2, 2), 'padding': 'valid', 'strides': (2, 2), 'data_format': 'channels_last'}[]{'name': 'conv2d_5', 'trainable': True, 'dtype': 'float32', 'filters': 32, 'kernel_size': (3, 3), 'strides': (1, 1), 'padding': 'same', 'data_format': 'channels_last', 'dilation_rate': (1, 1), 'groups': 1, 'activation': 'linear', 'use_bias': True, 'kernel_initializer': {'module': 'keras.initializers', 'class_name': 'GlorotUniform', 'config': {'seed': None}, 'registered_name': None}, 'bias_initializer': {'module': 'keras.initializers', 'class_name': 'Zeros', 'config': {}, 'registered_name': None}, 'kernel_regularizer': None, 'bias_regularizer': None, 'activity_regularizer': None, 'kernel_constraint': None, 'bias_constraint': None}[array([[[[ 2.10611708e-02,  8.79184529e-02, -7.35993683e-02,
           1.27243381e-02, -5.68437576e-02,  7.09247515e-02,
           2.55055875e-01,  3.75617966e-02, -3.20025980e-02,
           1.20742418e-01, -4.76884730e-02, -4.85354774e-02,
          -3.86580788e-02,  2.02424675e-01, -9.44115892e-02,
           1.34837180e-01,  2.37086229e-02,  4.45836857e-02,
           1.63811110e-02,  4.10453603e-03,  3.38377841e-02,
           5.19094318e-02, -1.49814496e-02, -4.88169231e-02,
          -4.08572741e-02, -7.57166818e-02,  4.60102744e-02,
          -1.10314697e-01, -6.53480599e-03,  1.77144224e-03,
          -3.85161415e-02, -2.63061021e-02],
         [-5.45114279e-02,  2.36444362e-02,  4.83528487e-02,
          -6.38976395e-02, -2.88452804e-02, -7.60712568e-03,
           6.35592788e-02, -2.39901952e-02,  6.36846945e-02,
           9.33161676e-02,  1.02599606e-01, -3.01795565e-02,
           5.77905700e-02,  1.66980311e-01,  1.52914356e-02,
          -4.61351089e-02, -1.48286819e-01, -2.20241072e-03,
           2.75807083e-02, -3.47848162e-02, -4.86120768e-02,
           1.37702033e-01, -6.76637739e-02,  6.87408745e-02,
           1.03485890e-01,  6.06942885e-02, -2.38366183e-02,
           7.64679536e-02,  2.42635310e-02,  8.54680911e-02,
           5.67840002e-02, -5.00679063e-03],
         [-1.42614488e-02, -7.29891509e-02, -1.25094786e-01,
          -2.72893403e-02,  2.08747223e-01, -2.41050217e-03,
          -1.82729382e-02, -4.33418341e-02, -1.61361359e-02,
          -1.98308155e-02,  2.14945376e-01,  1.46432415e-01,
           7.35735521e-02,  1.79394051e-01,  3.39772366e-02,
           8.35441127e-02, -8.64375196e-03, -2.65653208e-02,
           2.45150309e-02, -8.88314024e-02, -3.89089622e-02,
           1.24822840e-01,  6.33686483e-02,  2.30462879e-01,
           1.82449162e-01, -3.90564427e-02, -1.41144171e-02,
           1.11341350e-01, -3.41085419e-02, -6.95820302e-02,
          -4.83590662e-02, -3.90946586e-03],
         [ 1.12889912e-02,  2.54407022e-02, -4.77047935e-02,
           6.82150200e-02,  1.29898256e-02, -4.50072102e-02,
           2.95702778e-02, -1.21283894e-02,  1.84560679e-02,
          -6.45305738e-02,  4.66607474e-02,  1.21168561e-01,
           6.30182400e-02,  2.10099861e-01,  5.17877452e-02,
          -4.41144742e-02,  2.90749259e-02,  6.49807276e-03,
          -7.37507045e-02, -1.70051366e-01,  2.16644183e-02,
           9.02358815e-02,  2.02739518e-02,  4.97451648e-02,
           1.30719379e-01, -1.12823071e-02,  1.72374770e-03,
          -3.45674790e-02, -5.52964881e-02, -1.28626212e-01,
           5.55645255e-03, -1.08121592e-03],
         [ 5.41314622e-03,  6.31539300e-02, -5.66935502e-02,
           2.51308791e-02, -2.83001494e-02, -3.96600626e-02,
          -6.57334402e-02, -5.88529296e-02, -2.41367929e-02,
          -1.19563397e-02, -1.38790281e-02,  7.76593685e-02,
           8.52562115e-03,  2.48286985e-02, -3.56093310e-02,
           5.93267977e-02, -7.02471957e-02,  1.11402469e-02,
           6.21065833e-02,  6.56318218e-02, -5.99148385e-02,
           4.99904230e-02, -4.97608259e-02,  7.00005069e-02,
           5.80191426e-02, -6.70902207e-02, -8.36624485e-03,
          -3.13360691e-02, -6.16917610e-02,  1.07836304e-02,
           2.58552041e-02, -3.04159671e-02],
         [ 1.47991655e-02, -7.18076900e-02, -1.16917230e-02,
          -1.84567482e-03, -2.70517748e-02,  7.18492130e-03,
          -8.42856094e-02, -9.61886346e-03, -7.28866905e-02,
           6.37193397e-02,  2.07702909e-03, -1.95737109e-02,
          -2.43376885e-02, -8.06425661e-02,  5.71233407e-02,
          -2.64128763e-02,  5.28529398e-02,  5.04715666e-02,
           8.02796707e-02,  2.40590274e-02,  6.38056844e-02,
          -1.90120786e-01,  7.94698745e-02, -5.74669018e-02,
           5.84510788e-02,  3.58271524e-02,  6.31319657e-02,
           3.06376629e-03, -2.08194759e-02,  2.08029654e-02,
          -7.12076798e-02,  7.63080046e-02],
         [-1.93923876e-01, -1.12332150e-01, -2.73846705e-02,
           5.84022962e-02, -2.10133903e-02, -1.47960365e-01,
          -3.53239290e-02,  4.06744666e-02,  5.28394878e-02,
          -1.19892815e-02,  7.09412713e-03,  1.11262597e-01,
          -5.76402545e-02,  8.17187279e-02,  1.30739748e-01,
           6.04698062e-02,  5.03741689e-02, -1.23105831e-02,
          -1.93637740e-02, -8.74982923e-02,  4.10430320e-02,
           4.22379235e-03, -1.26224265e-01,  7.70623535e-02,
           8.95030517e-03,  1.16257600e-01, -1.21034645e-01,
          -1.22352466e-01, -1.16923317e-01,  4.08775993e-02,
          -7.97188208e-02, -5.81260473e-02],
         [-9.79773700e-02, -5.07416166e-02,  7.71628767e-02,
          -4.40340415e-02, -2.43055113e-02,  9.45846885e-02,
           5.51577099e-02, -1.12685086e-02,  4.91131246e-02,
           6.80178478e-02, -4.14347015e-02, -5.74955605e-02,
           2.81109679e-02,  2.24180575e-02, -4.00383994e-02,
          -4.34392877e-02, -8.85485206e-03,  6.00561267e-03,
          -4.36048061e-02,  1.96863245e-02, -4.75098267e-02,
          -3.69284637e-02, -8.37811679e-02, -2.01123394e-02,
           9.51678678e-02, -1.18111493e-02,  5.34834638e-02,
          -1.21476187e-03, -5.49067631e-02,  6.87301578e-03,
           1.63684152e-02,  4.37574536e-02],
         [ 3.77307311e-02,  1.65978298e-02,  1.07453704e-01,
           3.20180506e-02,  1.83775231e-01,  2.06935387e-02,
           1.18667753e-02, -5.44698443e-04, -1.27805203e-01,
           7.40099996e-02, -6.79557845e-02,  5.33129983e-02,
           6.86042458e-02, -1.92900985e-01, -4.19329777e-02,
          -1.01609156e-02,  1.98016271e-01,  4.46662400e-03,
           1.09915480e-01,  2.83937133e-03, -1.43291028e-02,
          -1.73488796e-01, -9.24021006e-02, -1.83612630e-01,
          -2.95876302e-02, -1.02698028e-01, -2.14275531e-02,
           3.74025404e-02, -7.43146092e-02, -3.11032683e-02,
          -3.53714004e-02,  1.07213318e-01],
         [ 6.80528879e-02, -5.37608899e-02,  7.42404461e-02,
          -4.81317900e-02,  6.08589873e-02, -9.06159543e-03,
          -5.90486266e-03, -7.98177123e-02, -2.66394932e-02,
          -4.22206596e-02,  3.67726460e-02,  3.26387119e-03,
           3.35342288e-02, -4.72088531e-03,  6.52655493e-03,
          -2.68278532e-02, -1.92897636e-02,  4.41867560e-02,
           6.25366867e-02,  7.89870098e-02, -1.34289730e-02,
          -3.47155854e-02,  2.34209169e-02, -6.91233426e-02,
           3.08591519e-02, -4.75667883e-03,  6.90060407e-02,
           4.70200069e-02, -7.86375776e-02, -4.42026183e-03,
          -4.01948877e-02, -6.18272312e-02],
         [-2.78960392e-02, -1.22169599e-01,  4.91802618e-02,
          -6.14037961e-02,  9.51126292e-02,  5.58031909e-02,
          -6.67726099e-02, -8.27081054e-02,  6.17311001e-02,
           1.57431178e-02,  1.47852212e-01,  7.11096227e-02,
          -3.51319313e-02, -5.49780987e-02, -1.45231150e-02,
           1.98986441e-01, -3.63563091e-01,  9.50979516e-02,
           7.38251731e-02,  9.58488211e-02,  9.50674340e-02,
           3.09226941e-02,  3.88346314e-02, -1.19245440e-01,
           1.70080379e-01, -3.16746943e-02, -1.76923331e-02,
           9.67778116e-02,  3.64949480e-02, -1.66215122e-01,
          -4.18172292e-02, -1.40251005e-02],
         [-8.68803337e-02,  6.06465526e-02,  3.15301530e-02,
           2.88639553e-02,  2.41351090e-02,  7.75297731e-02,
          -2.78860033e-02,  5.04044583e-03, -4.25442420e-02,
           6.46159649e-02,  2.39022318e-02,  1.49346627e-02,
           4.29169685e-02, -1.07514905e-02,  9.91377980e-02,
          -5.34961708e-02,  2.29505561e-02,  2.08864454e-02,
           8.87795910e-02, -7.06263483e-02,  3.73603627e-02,
          -6.78802580e-02, -7.46924132e-02,  3.54360119e-02,
           5.32263480e-02, -3.39120105e-02,  4.35414799e-02,
          -8.23494941e-02, -2.08323561e-02, -4.78580128e-03,
           2.29817666e-02,  9.12343618e-03],
         [-9.88807231e-02, -8.68701935e-02, -8.22037980e-02,
          -9.93032288e-03, -1.38146934e-04,  3.84120420e-02,
          -4.42571342e-02, -1.01699695e-01, -8.09976757e-02,
          -3.54429558e-02,  1.27261400e-01, -2.60906760e-02,
          -2.63676886e-02,  3.09358425e-02,  6.74125031e-02,
          -6.82189944e-04,  8.58986452e-02,  8.89353827e-03,
          -4.77446094e-02,  5.83053045e-02,  1.04669938e-02,
           7.24805072e-02, -5.70142679e-02,  1.33885771e-01,
          -1.51612302e-02, -6.99884370e-02, -8.12060386e-02,
           5.25993668e-02,  3.46537903e-02, -5.14999740e-02,
           8.36560577e-02,  2.53598355e-02],
         [-1.61868766e-01, -2.09578536e-02, -1.23628139e-01,
           4.23591621e-02, -6.30699322e-02, -2.90074516e-02,
           1.56992421e-01, -4.15960327e-02,  1.06175996e-01,
          -2.08274871e-02,  5.03148362e-02,  1.17607275e-02,
           5.92011102e-02,  2.77251929e-01, -5.10277301e-02,
           5.50999716e-02,  1.56464115e-01, -8.06784332e-02,
          -3.13582011e-02, -6.93340600e-02, -6.72093257e-02,
          -1.72049198e-02,  4.76231351e-02,  1.30463153e-01,
          -7.37223178e-02,  7.94558004e-02, -1.77807081e-02,
           8.45381320e-02,  4.48185168e-02,  3.91067453e-02,
          -4.16731723e-02, -1.31241202e-01],
         [-9.09104645e-02,  2.38203295e-02,  1.06265629e-02,
          -7.45048970e-02, -2.35529318e-01,  6.80710226e-02,
           2.47563660e-01, -4.26112749e-02, -4.84020561e-02,
          -8.24889168e-02, -1.11746043e-02, -1.50762573e-01,
           4.28054444e-02,  1.18532091e-01,  1.11580215e-01,
          -3.19032036e-02,  2.19546005e-01,  5.33010252e-02,
           6.01434782e-02, -4.45728824e-02, -1.66486632e-02,
          -3.13441753e-01, -4.94786836e-02, -1.01350382e-01,
          -1.38433024e-01,  7.33221620e-02,  1.01552650e-01,
          -2.18646839e-01,  3.03888302e-02, -2.02426568e-01,
          -3.03940531e-02, -1.00593805e-01],
         [ 4.31970647e-03,  3.15128118e-02, -4.44017649e-02,
          -5.96571900e-02,  1.51040321e-02,  9.94806215e-02,
           1.92397907e-02, -3.15889753e-02, -3.35325375e-02,
          -2.32992731e-02,  1.63217008e-01, -2.02058285e-01,
           5.48053766e-04, -3.32728148e-01,  1.74121335e-02,
          -4.55111824e-03,  1.35476425e-01,  9.43593830e-02,
           3.06404941e-02,  1.03545092e-01, -5.68412729e-02,
          -2.03336731e-01, -1.39722690e-01,  9.68613476e-02,
          -4.38046530e-02, -1.01675153e-01, -5.19818403e-02,
          -1.56613871e-01, -5.19798733e-02, -1.82457656e-01,
          -3.35507877e-02, -8.76459479e-03],
         [ 3.44274752e-02,  5.19137494e-02,  7.08410963e-02,
          -4.83900607e-02, -3.51717658e-02,  9.17769000e-02,
           1.11936778e-02, -3.05861253e-02, -4.82705235e-02,
           2.18818039e-02,  7.29108155e-02, -2.79834270e-02,
          -2.80011334e-02,  2.80732512e-02, -1.34638371e-02,
           9.26930737e-03,  8.12909752e-02,  6.42033592e-02,
           8.58108401e-02,  2.83160619e-02, -4.35642600e-02,
           8.27540085e-03,  6.16867431e-02,  5.05665839e-02,
          -6.88401014e-02, -6.89528063e-02,  5.37732914e-02,
           1.36017269e-02,  8.40883106e-02, -1.13420270e-01,
          -6.85029924e-02,  9.90755931e-02],
         [ 3.00556961e-02, -7.95128569e-02, -1.31785357e-02,
           7.50082210e-02, -5.04441261e-02, -1.63848884e-03,
           3.34723741e-02, -5.86129650e-02, -5.93843423e-02,
           6.47436529e-02, -3.20154652e-02, -6.07993230e-02,
           8.11123326e-02,  7.53321648e-02,  4.98495437e-03,
          -3.18843164e-02,  1.31049091e-02,  2.66433135e-02,
           6.85265139e-02,  1.92265157e-02,  9.05748457e-03,
           2.84814835e-02,  7.16648623e-02,  4.60519176e-03,
           8.22331011e-02, -1.00244014e-02,  7.36442506e-02,
          -7.20510334e-02,  4.09965776e-02,  5.75942174e-02,
          -4.24913503e-02,  3.28384116e-02],
         [-1.03185579e-01,  7.37632960e-02, -5.32555766e-02,
          -8.67660493e-02, -1.21777743e-01,  6.27798662e-02,
           1.23430239e-02, -3.20953242e-02, -1.36710405e-01,
          -8.07166621e-02, -4.84128892e-02,  7.10005462e-02,
           7.12969154e-03,  2.75537577e-02,  3.88245359e-02,
          -4.42103371e-02,  1.95203438e-01, -2.15783864e-02,
           2.76308767e-02, -4.03739661e-02, -6.54967427e-02,
          -7.07279071e-02, -2.41932198e-02,  3.35811004e-02,
          -9.29519311e-02,  3.97738814e-02,  1.25556476e-02,
           4.09571230e-02, -5.17530926e-02, -2.80496366e-02,
          -3.99783961e-02,  3.41256969e-02],
         [-3.36332060e-02, -3.66932079e-02, -4.12867256e-02,
          -1.96720511e-02, -1.39245437e-02, -3.60922441e-02,
           7.05968887e-02, -4.89696078e-02, -5.75607345e-02,
           5.22314198e-02, -2.82803420e-02,  1.01869218e-02,
          -5.80044389e-02,  3.44364680e-02,  7.31989741e-02,
          -6.30342737e-02, -6.12041205e-02, -2.46234238e-02,
           4.20222878e-02, -4.13117073e-02, -5.69489710e-02,
          -6.45029098e-02,  6.69333786e-02, -6.37179837e-02,
           5.89949973e-02, -8.09601322e-02,  5.23746125e-02,
           3.25399414e-02,  7.31488094e-02, -2.77555194e-02,
           1.06321396e-02,  4.85817231e-02],
         [-1.14158550e-02, -6.76092878e-02,  2.64231674e-02,
          -6.48705438e-02,  7.91025236e-02,  7.92314187e-02,
          -7.08166808e-02,  8.07328522e-03, -1.15997717e-03,
          -1.52456053e-02,  3.63031332e-03,  7.45217968e-03,
           5.46430312e-02, -1.11610204e-01, -1.56979281e-02,
          -7.02638831e-03,  6.08520918e-02, -5.60453236e-02,
           2.68911757e-02,  6.04812466e-02,  6.47817105e-02,
           3.19596343e-02, -2.54514012e-02, -5.65805361e-02,
          -1.49082625e-02,  6.27908334e-02, -1.44819077e-02,
           5.06005138e-02,  3.14234681e-02, -1.81496471e-01,
           2.50696409e-02, -1.58315506e-02],
         [ 3.49815935e-02, -3.15551907e-02, -1.68870687e-01,
          -5.49138896e-02, -1.71851844e-01,  4.47458448e-03,
          -5.10450602e-02,  9.85190496e-02,  1.90581921e-02,
           1.46039138e-02,  2.88103614e-02,  2.34059677e-01,
          -4.09131832e-02,  8.90983567e-02, -3.39933150e-02,
          -7.04518780e-02, -1.02049984e-01, -1.01598501e-02,
           2.07157321e-02, -8.39427172e-04,  6.94185123e-02,
           5.24071306e-02, -6.38192371e-02, -1.46476716e-01,
          -9.42348838e-02, -8.62356052e-02,  5.45554757e-02,
          -1.62488669e-01,  5.70801757e-02, -1.43962409e-02,
           3.49815041e-02, -1.23517685e-01],
         [-8.13805237e-02, -2.37943046e-02, -5.03137112e-02,
           1.90419760e-02,  1.03752926e-01, -1.78244393e-02,
          -2.60111503e-02, -5.59749156e-02,  1.71917930e-01,
          -6.85670823e-02,  1.34491334e-02, -6.04755841e-02,
          -7.59263858e-02, -5.80472574e-02,  1.09126836e-01,
           9.50334594e-03,  1.43695489e-01, -2.17872132e-02,
           3.09906714e-02,  5.78246638e-02, -8.21202993e-02,
           6.37989715e-02, -2.21989341e-02,  1.20033287e-02,
           1.55182779e-02,  2.62767076e-02,  2.25491971e-02,
           6.77816719e-02,  8.46501440e-03,  4.40598242e-02,
           3.77488062e-02,  3.06819915e-03],
         [-2.42289007e-02, -2.84505207e-02,  1.31146125e-02,
          -4.68024872e-02, -1.01357296e-01, -2.15385288e-01,
          -1.17825374e-01, -7.88178965e-02,  9.28254947e-02,
           5.52998185e-02, -7.84126297e-02,  7.41702840e-02,
          -1.16773054e-01, -5.38828596e-02,  4.82103117e-02,
           6.89467341e-02,  2.54947335e-01,  3.26113701e-02,
          -1.52899483e-02,  9.22308862e-03, -2.25917287e-02,
           4.73219715e-02,  1.69171970e-02,  1.48207173e-01,
           6.16865829e-02,  7.53869787e-02, -1.40714362e-01,
           1.16710193e-01, -8.16715211e-02,  7.91318864e-02,
           9.79328081e-02,  1.38663098e-01],
         [-3.58432643e-02, -1.43553019e-02, -2.10595533e-01,
           5.69832064e-02, -2.16120020e-01, -1.44936517e-01,
          -1.20982535e-01, -1.77805088e-02,  7.32400790e-02,
          -5.61421104e-02, -1.93653226e-01,  1.81102052e-01,
          -6.02271929e-02, -2.31920466e-01, -5.26806079e-02,
           1.78566352e-01, -1.08194873e-01,  1.30285874e-01,
           1.32302582e-01, -2.99772080e-02, -2.50150859e-02,
           1.41993687e-01,  6.34280443e-02,  1.81311041e-01,
           1.19796239e-01, -4.06599566e-02, -6.50664568e-02,
           2.46828154e-01, -1.37665257e-01,  1.10883541e-01,
           1.13776773e-02, -9.44430679e-02],
         [-7.85223544e-02,  8.26129764e-02,  4.17204425e-02,
          -4.99146655e-02, -5.18194661e-02, -6.02626614e-02,
          -6.46673292e-02,  6.16389289e-02, -4.34672236e-02,
          -3.69448029e-02,  7.14427456e-02, -6.69753551e-02,
           2.00621542e-02, -5.94947562e-02,  3.27737592e-02,
          -8.21356568e-03, -5.89697286e-02, -7.42276944e-03,
           6.87277094e-02, -4.91883270e-02, -3.90272737e-02,
          -3.18423733e-02,  8.09838846e-02,  2.25330077e-04,
           3.15824449e-02, -2.75961235e-02, -1.87386386e-02,
          -7.76363239e-02,  5.02059199e-02, -1.42501593e-02,
          -7.75760564e-04, -1.41552007e-02],
         [-1.27744481e-01,  1.29189333e-02, -1.08665287e-01,
           6.55557960e-02, -7.19566941e-02, -1.43693209e-01,
          -1.63059309e-02,  4.95981649e-02,  1.09375839e-03,
          -7.85162151e-02,  4.43605520e-02, -2.81864423e-02,
          -3.71493921e-02,  4.52016629e-02,  4.66471091e-02,
           7.33946860e-02, -8.49867612e-03, -2.63004266e-02,
          -5.81169222e-03,  1.20693808e-02, -3.10966000e-02,
           6.45836443e-02, -6.20208541e-03,  1.27566084e-01,
           2.77350917e-02,  4.04623523e-02,  2.72233654e-02,
          -4.24686484e-02,  7.71826953e-02,  7.29941204e-02,
          -1.94212049e-02, -6.82405978e-02],
         [-2.19080336e-02,  1.41742104e-03,  4.21199501e-02,
           8.06738064e-03, -5.85694574e-02,  1.25891820e-03,
          -4.61718217e-02,  2.78314538e-02,  2.39969343e-02,
          -2.69751288e-02,  6.11201711e-02,  3.83407474e-02,
           7.90588111e-02, -2.32397709e-02, -5.71399108e-02,
          -6.34234548e-02,  1.23916708e-01, -4.47500385e-02,
          -3.56796347e-02, -7.71234706e-02,  1.99268735e-03,
          -7.05333576e-02, -6.07846752e-02,  1.95951555e-02,
          -3.99332680e-02,  2.45208852e-02,  4.77628931e-02,
          -1.03460215e-01, -4.12312821e-02, -1.13644175e-01,
           6.60425425e-02, -2.66432315e-02],
         [-1.88033339e-02,  5.00567742e-02,  7.30785578e-02,
           2.22752895e-02,  1.14396207e-01,  6.92383721e-02,
           1.07608745e-02,  8.27719644e-02,  3.01399082e-02,
           3.70656070e-03, -4.96018343e-02, -4.63633202e-02,
          -7.16124997e-02, -1.07582800e-01,  1.10642016e-02,
          -4.63335663e-02,  5.76538742e-02, -3.25797275e-02,
           2.31586218e-01, -6.44264966e-02, -5.76264076e-02,
          -4.41431999e-02, -8.80035535e-02, -6.94861412e-02,
           8.31864104e-02, -7.63950795e-02,  7.69482851e-02,
          -3.35091054e-02, -3.66815813e-02, -4.85061631e-02,
          -3.17769051e-02,  9.48249456e-03],
         [-1.63698252e-02,  3.35536040e-02,  2.62192301e-02,
          -2.20385119e-02,  4.75548208e-02,  5.22363819e-02,
          -9.50797126e-02, -4.62654531e-02, -9.37892571e-02,
          -1.24699436e-02, -2.04911679e-02, -4.01979126e-02,
           4.37621549e-02, -5.00700762e-03, -3.33912559e-02,
           1.83593370e-02,  1.14820108e-01,  8.17095414e-02,
          -6.09819219e-03,  3.85067910e-02,  6.91004992e-02,
          -7.98573066e-03, -2.14377996e-02, -3.31504196e-02,
           4.80539128e-02, -4.66717929e-02,  3.41246165e-02,
           2.95835305e-02,  9.06009749e-02, -9.26351920e-02,
           9.54863504e-02, -7.33114034e-02],
         [ 4.27866019e-02, -9.23735350e-02, -7.74151385e-02,
          -5.61022945e-02,  1.95419505e-01, -5.23861013e-02,
           2.10511778e-02, -1.79875307e-02,  6.70044869e-02,
           2.70079765e-02,  5.46059981e-02,  5.64546958e-02,
          -8.15128386e-02,  1.37271360e-01,  5.50331585e-02,
          -1.12136798e-02,  5.16057909e-02, -4.41038460e-02,
           7.74121135e-02,  2.78504826e-02, -3.12073547e-02,
          -1.22720830e-01, -8.71751308e-02,  2.25269385e-02,
          -2.05814838e-03, -9.57297627e-03, -3.68426070e-02,
          -3.60085070e-02, -3.13396305e-02,  6.52386025e-02,
          -7.50247464e-02,  3.19218896e-02],
         [-8.67172331e-02, -2.73114257e-02, -1.07180849e-01,
          -1.69145986e-02, -9.34485644e-02, -3.70684154e-02,
           2.56614178e-01, -1.12811670e-01,  1.09084025e-01,
           1.22222845e-02, -2.42744133e-01, -2.21510176e-02,
           7.75310546e-02,  6.53294325e-02, -4.53026593e-02,
           4.54289233e-03,  2.79857554e-02,  1.53177353e-02,
           6.03956506e-02, -2.61856131e-02,  2.76777502e-02,
          -2.37996206e-02,  9.10296589e-02,  1.42779678e-01,
          -2.61654519e-02,  1.05020411e-01, -2.98742540e-02,
           1.47716537e-01, -6.27487972e-02,  5.30174188e-02,
           1.22891344e-01, -1.25989050e-01],
         [ 1.94640737e-02, -1.15450826e-02,  8.19059312e-02,
           1.73598416e-02,  8.13237652e-02,  6.55919090e-02,
          -1.03973737e-02, -1.59472357e-02, -1.39017683e-02,
          -7.70172924e-02,  8.39421526e-02,  6.88901870e-03,
           6.09324872e-02, -9.34761092e-02, -2.70775631e-02,
          -3.96584421e-02,  3.69329788e-02,  2.73609627e-02,
          -3.12823169e-02, -3.70000228e-02,  3.22847180e-02,
           3.74304019e-02,  2.99988501e-03,  4.56094146e-02,
           1.72254872e-02, -2.32012272e-02, -7.35828578e-02,
          -1.63572896e-02, -6.08586520e-02, -6.56123087e-02,
          -4.11993116e-02, -5.37581295e-02],
         [-2.79880944e-03, -5.03822118e-02, -2.50451509e-02,
          -5.97194880e-02,  1.54115297e-02, -4.42294776e-02,
           3.17850225e-02, -3.93649004e-02, -4.32727300e-02,
           2.62526125e-02,  7.72951469e-02, -3.90342139e-02,
           7.79549032e-02, -2.96699498e-02,  6.89416826e-02,
          -5.47510982e-02, -3.28696711e-04, -2.14341041e-02,
           1.02880299e-01, -2.44860072e-02, -6.35694042e-02,
          -8.24613944e-02,  6.09656125e-02,  1.96613166e-02,
          -6.99001700e-02,  5.58197424e-02,  8.58549960e-03,
          -3.73393297e-02,  3.06677558e-02, -1.13184467e-01,
           1.49982268e-04, -5.95957749e-02],
         [ 2.34320741e-02,  4.22978774e-02,  2.51037385e-02,
           5.35602346e-02,  5.24566248e-02,  6.54559061e-02,
           7.91998431e-02,  5.26988506e-02, -1.44101297e-02,
          -6.80068955e-02,  6.31020218e-02,  2.84242574e-02,
           5.91551512e-02,  1.22754470e-01,  1.11686148e-01,
           1.02636538e-01,  1.75600722e-02,  1.24736369e-01,
           5.37613546e-03, -8.01477954e-02,  6.50243983e-02,
           7.90135041e-02,  3.72430086e-02, -1.06509350e-01,
          -6.37807995e-02, -2.90401485e-02,  6.83428496e-02,
          -3.21662351e-02, -1.49887158e-02, -6.90192282e-02,
          -6.47474676e-02,  1.17461041e-01],
         [ 6.26196787e-02, -2.39429642e-02, -2.58389637e-02,
          -1.59642827e-02,  1.10187598e-01, -3.19147557e-02,
           6.54920563e-02, -5.31883575e-02, -2.33322009e-02,
           1.18845738e-01,  8.25024769e-02, -1.32368386e-01,
          -8.62531289e-02, -9.98074710e-02, -3.83572429e-02,
          -5.71446400e-03, -8.74709189e-02, -7.31958672e-02,
           7.21932054e-02,  6.70783222e-02,  7.01555759e-02,
           1.29719585e-01, -7.15733916e-02, -5.27583100e-02,
          -3.45257670e-01, -1.29209951e-01, -7.78867304e-03,
          -1.53055474e-01,  6.22620918e-02, -7.67066777e-02,
           3.47062722e-02,  8.02780390e-02],
         [-5.08463904e-02,  1.13976456e-01,  1.06943380e-02,
          -6.99881688e-02, -4.13335897e-02, -1.91736352e-02,
           2.66447440e-02,  3.49291787e-02, -4.41005006e-02,
          -2.97855381e-02,  7.29565248e-02, -1.69854760e-02,
          -8.45661089e-02,  1.32406384e-01,  1.40765421e-02,
           1.17199617e-02, -1.97006196e-01, -9.90247503e-02,
           7.06601143e-02,  1.08059943e-01,  2.80351769e-02,
           8.01482946e-02, -3.32040519e-01, -2.56270897e-02,
          -2.22121194e-01, -1.87572256e-01,  1.00040890e-01,
           4.72376905e-02,  4.35815863e-02, -8.58900622e-02,
          -1.51894480e-01,  8.41632634e-02],
         [-2.10770473e-01,  5.29833548e-02,  2.42730081e-02,
           6.96292445e-02, -4.84977812e-02, -3.13932970e-02,
          -1.66132957e-01,  1.48057207e-01,  1.15734190e-01,
           2.42828745e-02,  8.26253965e-02,  7.05129802e-02,
          -1.38417203e-02, -3.86274494e-02,  1.03038467e-01,
           8.70572180e-02,  4.88121212e-02,  1.08043723e-01,
           2.48204246e-02, -6.05010651e-02, -8.92327055e-02,
           1.06422469e-01, -1.41652316e-01,  6.17563352e-03,
           4.56998460e-02,  1.17882654e-01,  1.21126734e-02,
          -1.52780250e-01,  4.75723622e-03,  1.56488255e-01,
          -7.48176202e-02, -1.86986774e-02],
         [-6.06644079e-02, -9.02860016e-02, -6.06445633e-02,
          -3.19385808e-03, -2.31019646e-01,  7.32960850e-02,
          -8.67145956e-02,  1.74865723e-02, -1.16311006e-01,
          -1.13808453e-01, -7.09376410e-02,  3.31082451e-03,
          -4.23084386e-02, -7.26975733e-03, -9.93245319e-02,
           2.67512724e-02,  5.44061512e-02,  9.93792638e-02,
           1.62602297e-03,  9.93273593e-03, -3.19111161e-02,
          -1.55731561e-02, -3.80403996e-02,  1.98587030e-02,
          -6.06545731e-02,  4.34573693e-03, -6.78828359e-03,
          -5.35945967e-02,  3.81189771e-02, -7.19390512e-02,
           5.90513721e-02, -6.64728740e-03],
         [-5.02460897e-02,  7.62840137e-02, -1.05196070e-02,
          -2.96423603e-02,  5.50087821e-03, -6.00190042e-03,
          -1.18137948e-01,  4.72659916e-02,  2.00120918e-02,
          -1.39063299e-02, -1.87852532e-02, -3.72314788e-02,
          -4.06285934e-02,  5.61428852e-02, -6.06358238e-02,
          -3.31457821e-03,  7.30667785e-02,  8.05308949e-03,
           6.67561814e-02, -9.15965512e-02,  1.79716037e-04,
           1.96100157e-02,  2.84872148e-02, -6.38026046e-03,
          -6.41386434e-02, -1.63861647e-01,  2.01784773e-03,
          -3.74070108e-02, -1.38767868e-01, -3.96997593e-02,
           7.52181560e-02, -7.06432089e-02],
         [ 7.41339894e-03,  4.88027111e-02,  1.60053164e-01,
          -4.65860292e-02,  1.04552567e-01, -8.67627636e-02,
           9.46476683e-02,  3.25519703e-02,  1.70073703e-01,
           1.12936012e-01, -1.48821443e-01,  7.14440122e-02,
          -2.26793811e-02,  2.42107920e-02, -1.13210129e-02,
           5.14361337e-02,  2.21947715e-01,  1.30321369e-01,
           5.97509407e-02,  1.97435215e-01, -5.17395213e-02,
           9.50182676e-02, -6.88336566e-02,  1.53974621e-02,
           4.91389707e-02,  1.21167473e-01, -4.55296151e-02,
          -9.29268152e-02, -3.96743603e-02,  5.91930263e-02,
          -5.36823869e-02,  1.16157062e-01],
         [-4.92473245e-02,  1.36930496e-02,  1.12749869e-02,
          -2.87594236e-02, -8.27019364e-02, -1.35075022e-02,
          -3.56308781e-02,  5.83369806e-02,  5.09210117e-02,
          -8.76198802e-03, -1.62308842e-01, -2.33622044e-02,
           2.07801480e-02,  4.58820090e-02,  1.46567803e-02,
           4.98533994e-02,  2.74743810e-02,  6.40965393e-03,
           2.29511168e-02,  2.36342922e-02,  4.20599505e-02,
           6.19356632e-02, -2.86908867e-03,  1.03721758e-02,
           6.55554608e-03,  9.00044851e-03,  3.95014957e-02,
           1.71086378e-02,  1.01796295e-02, -2.38816044e-03,
          -1.21797677e-02, -4.36763763e-02],
         [-3.29351351e-02,  7.11439252e-02,  3.89058255e-02,
           3.11994553e-02, -8.19933191e-02, -2.42982153e-02,
           4.80360240e-02, -6.12481013e-02, -1.56719647e-02,
           3.34279947e-02, -3.16108540e-02, -2.58045066e-02,
           8.54776893e-03, -6.62745163e-02,  4.95322533e-02,
          -5.22244573e-02,  3.54009345e-02, -2.11874247e-02,
           4.80015315e-02, -3.23272422e-02,  4.33164351e-02,
           6.66434541e-02,  4.32196185e-02, -7.51484931e-02,
          -5.80908731e-02,  1.71092674e-02, -3.28938402e-02,
          -4.51711006e-02,  4.60170321e-02, -4.77702469e-02,
          -5.81920110e-02, -7.12241903e-02],
         [-3.57809477e-02,  1.97400823e-02, -7.29638189e-02,
          -2.12045405e-02,  6.97590187e-02,  9.49289575e-02,
          -4.89777364e-02, -1.35702081e-02, -1.07135996e-01,
           1.15542365e-02, -9.54865478e-03,  1.24554392e-02,
           5.66143915e-02, -2.42834352e-02, -6.75001740e-02,
          -5.21203429e-02,  9.38321128e-02, -2.39350554e-02,
           9.23018232e-02,  7.05228746e-02, -5.36474325e-02,
          -1.57282114e-01,  2.94572506e-02,  5.80298230e-02,
          -6.69374913e-02, -9.44664031e-02,  8.61640573e-02,
          -8.98685604e-02,  6.68091029e-02, -3.72220762e-02,
           1.29170087e-03,  4.56697382e-02],
         [-8.69619995e-02,  4.57408316e-02, -1.72641993e-01,
           4.37819138e-02, -8.99867564e-02, -4.47471254e-02,
           8.84903446e-02,  4.56193723e-02, -1.73225645e-02,
           1.98274612e-01,  1.01444591e-03,  9.57913548e-02,
           5.91783822e-02, -4.79370654e-02,  2.83492878e-02,
           8.07452649e-02, -2.14759916e-01, -1.73492774e-01,
           1.27103239e-01, -2.11946771e-01, -3.77777219e-02,
           1.07885644e-01, -5.73001429e-02,  8.83370861e-02,
           3.79224941e-02,  2.63887942e-02,  3.17379506e-03,
           2.22994462e-01,  8.77625048e-02, -5.93013354e-02,
           1.84694663e-01, -1.96284533e-01],
         [ 1.35626316e-01, -3.24147195e-02, -3.49472538e-02,
           2.72702500e-02,  1.60405636e-01, -8.83043249e-05,
          -8.94091725e-02, -1.31397098e-02,  2.00855508e-01,
          -1.39683038e-02,  1.66999280e-01,  1.03034936e-01,
           5.72386049e-02, -2.19228696e-02, -3.10312565e-02,
           1.06495738e-01, -9.95341167e-02,  3.01557267e-03,
           1.18859105e-01, -2.27728873e-01,  8.14822465e-02,
           2.91620847e-02,  1.62867382e-02, -1.90009419e-02,
           5.14505059e-02,  2.80427299e-02, -3.92900482e-02,
           1.14492372e-01, -4.05134186e-02, -7.14132041e-02,
           2.92159454e-03,  1.39080705e-02],
         [ 2.38730349e-02,  6.31597638e-02, -8.69122371e-02,
           7.15182861e-03,  4.75606415e-03,  6.53719380e-02,
           1.66816488e-02, -8.33688304e-02,  6.26902655e-02,
           5.92303611e-02,  3.64191271e-02, -3.69703136e-02,
           9.78124794e-03, -2.31637452e-02,  8.21517929e-02,
           5.20405769e-02,  5.17334379e-02, -4.83164266e-02,
          -5.38520701e-02, -1.18361399e-01, -3.62668559e-02,
           2.92358082e-03, -1.36668868e-02, -3.16667929e-02,
          -9.07898138e-05,  6.13582879e-03,  9.03695356e-03,
          -9.43801925e-02,  3.66843641e-02, -2.64709238e-02,
          -2.92071812e-02,  3.45235616e-02],
         [-4.98651490e-02, -9.98059362e-02, -3.39047201e-02,
          -9.31366980e-02, -9.25709084e-02,  7.26609901e-02,
          -3.31729800e-02, -8.66218880e-02,  1.38602987e-01,
           3.59157398e-02, -2.06988081e-02, -2.06275899e-02,
           6.12534955e-02,  1.56969085e-01,  6.74157068e-02,
          -8.11242759e-02,  2.38748472e-02,  3.66380513e-02,
          -4.75046970e-02, -1.50543332e-01, -2.62376107e-02,
           7.55954459e-02,  1.48091409e-02,  8.98224339e-02,
           1.93685666e-01, -3.47928405e-02,  9.92189497e-02,
           2.71598008e-02, -3.73807140e-02, -3.26306885e-03,
          -6.23397976e-02,  3.64295468e-02],
         [ 7.70964473e-02, -6.38799593e-02,  5.55019751e-02,
           7.89407566e-02,  4.75966670e-02,  3.59922312e-02,
           7.13608339e-02, -7.67949596e-02, -9.76647213e-02,
          -2.69438177e-02, -8.75795484e-02,  1.13646023e-01,
          -3.21427807e-02, -3.64559621e-01,  3.44243161e-02,
           5.64618260e-02,  1.48992091e-01,  2.59615835e-02,
           1.44941304e-02,  6.00792393e-02,  7.81620368e-02,
          -4.54255752e-02, -1.94219407e-02, -4.24479544e-02,
           1.01617470e-01, -5.84897548e-02,  4.33321074e-02,
          -4.85997275e-02,  1.76397879e-02, -4.94242758e-02,
          -4.28508893e-02, -2.52988972e-02],
         [ 5.30758034e-03, -4.37831283e-02, -5.64977229e-02,
          -4.57045585e-02,  2.74201408e-02, -3.72471213e-02,
           7.76846334e-02,  6.63330266e-03, -5.47322817e-02,
           5.62412711e-03, -4.02060151e-03,  9.46404762e-04,
           8.50439817e-02, -4.03705388e-02, -6.26940951e-02,
           8.36865008e-02,  1.25444373e-02,  7.63861239e-02,
          -2.18408685e-02, -4.64668572e-02, -1.36173540e-03,
          -2.47890633e-02,  1.25441458e-02,  5.17744455e-04,
          -7.40169883e-02,  7.32457563e-02,  1.02317914e-01,
           7.54720569e-02,  4.94771227e-02, -7.70432726e-02,
          -1.53714158e-02, -7.52770295e-03],
         [-6.88000321e-02,  5.39396740e-02, -6.02648146e-02,
           6.25615716e-02, -6.92818463e-02,  4.75370064e-02,
          -3.74621921e-03, -4.14690329e-03, -1.14027001e-02,
          -1.70460157e-02, -4.27300204e-03,  5.83266392e-02,
           7.82614201e-02,  3.49718332e-02, -1.03539266e-02,
           6.93649799e-02, -1.10571824e-01, -8.40634014e-03,
          -8.32632259e-02,  2.95079574e-02,  2.14621648e-02,
           2.08698097e-03,  7.16963634e-02,  8.48884508e-02,
          -3.25809233e-02, -1.06998375e-02,  1.04280502e-01,
          -3.38912979e-02,  8.59554410e-02,  1.10530399e-01,
           7.58254752e-02, -5.65574802e-02],
         [ 4.15802635e-02, -7.31474534e-02, -5.43241091e-02,
           4.76993285e-02, -2.53245871e-05, -4.30307612e-02,
          -6.68231770e-02,  2.24265307e-02, -4.18716185e-02,
          -6.20320253e-02, -1.90859828e-02,  8.40304978e-03,
           5.18032424e-02,  1.45196076e-02,  3.41679417e-02,
           2.64746230e-02,  7.85539150e-02,  7.50003010e-02,
           3.24886478e-02, -3.21688130e-03,  1.86707247e-02,
          -2.85017285e-02, -1.04883965e-03, -4.22682101e-03,
          -7.31641650e-02,  4.38085087e-02, -3.76696363e-02,
          -3.35659571e-02,  7.62825981e-02,  4.48350124e-02,
           5.76389134e-02, -3.39045413e-02],
         [-1.92962550e-02,  2.00354476e-02, -1.26402020e-01,
           6.80658668e-02, -3.86646693e-03, -1.01690125e-02,
          -1.55219845e-02, -9.62155983e-02, -3.48224044e-02,
           5.08484580e-02, -1.71201289e-01, -2.44690292e-03,
          -3.96350063e-02, -1.85470842e-02,  7.59656653e-02,
          -4.80287336e-02,  1.44558787e-01,  5.71775530e-03,
           1.42077342e-01, -4.93947379e-02,  3.82917039e-02,
           1.70001853e-02,  1.14616089e-01, -1.37643772e-03,
          -2.03674864e-02, -2.96613276e-02,  5.46571566e-03,
           1.03750229e-01,  8.13686252e-02,  1.46933459e-02,
           2.28975825e-02, -1.37622487e-02],
         [ 3.97466458e-02,  9.93786156e-02,  1.14051700e-01,
           7.79210106e-02, -4.92520668e-02, -7.33753219e-02,
           2.67992690e-02, -1.15494519e-01,  2.33521968e-01,
           7.07845017e-02, -2.64175832e-01, -2.40344598e-05,
          -4.27806079e-02, -2.82947794e-02,  1.14709295e-01,
           1.18507221e-01, -2.55981863e-01,  2.13427171e-01,
          -5.80728240e-03, -4.23121080e-03, -5.36686368e-02,
           2.70620763e-01, -5.01643419e-02,  3.45229395e-02,
           1.32456467e-01,  3.51695046e-02,  3.33488882e-02,
           7.55009353e-02, -8.77655298e-02,  1.46676913e-01,
           8.72803926e-02, -5.32897515e-03],
         [-3.16211097e-02, -8.02025050e-02,  6.74663186e-02,
          -3.30710821e-02, -1.24157108e-02,  1.80092342e-02,
           1.63597926e-01, -3.09356041e-02,  1.91298928e-02,
           1.82473380e-02, -1.45884588e-01,  4.70094085e-02,
          -3.58592123e-02, -3.30097556e-01, -3.02114338e-02,
          -7.61536062e-02,  5.64222857e-02, -4.73925620e-02,
          -4.49490882e-02,  5.12893312e-02,  5.24021871e-02,
          -7.69269541e-02, -7.48443305e-02, -6.09412827e-02,
          -1.09795824e-01,  7.46095851e-02,  6.29920140e-02,
           4.10421789e-02,  9.09474269e-02, -1.85710229e-02,
          -4.89505753e-02, -8.40251148e-02],
         [ 3.91784534e-02,  1.02730550e-01, -1.69461668e-01,
          -5.25760427e-02, -1.78282142e-01, -4.18924913e-02,
          -5.74558154e-02, -2.68756854e-03,  1.73722580e-02,
           8.01827479e-03, -1.75663993e-01,  2.83638723e-02,
          -9.78415981e-02, -2.52404332e-01, -4.58719395e-02,
          -3.15725021e-02, -9.96339768e-02, -4.00177687e-02,
           1.05762199e-01,  4.22820002e-02,  1.59402424e-03,
           9.22328793e-03,  2.26559676e-02,  1.22900633e-02,
           1.75468829e-02,  3.21323462e-02, -5.23968115e-02,
          -3.54024321e-02,  1.77482795e-02, -3.48022133e-02,
          -7.93129280e-02, -8.76983479e-02],
         [-1.59612261e-02,  4.85213436e-02,  2.70367768e-02,
          -3.68083976e-02,  1.09982863e-01,  5.86496778e-02,
           2.98220348e-02,  8.62437114e-02,  4.91812937e-02,
           6.01085909e-02,  8.01450014e-03, -1.71703137e-02,
           8.96074437e-03, -1.16900407e-01,  8.56642202e-02,
          -6.15434498e-02,  2.10189428e-02,  9.41988640e-03,
           8.24052766e-02,  3.62845361e-02, -4.76710387e-02,
          -9.58083943e-02,  1.23126442e-02, -1.85638726e-01,
          -2.36640293e-02,  8.89367424e-03, -1.54863833e-03,
          -6.66862503e-02,  1.50153683e-02, -4.09450196e-02,
          -9.04073417e-02,  6.47524223e-02],
         [ 6.37398660e-02,  3.23680490e-02,  3.41491178e-02,
          -7.41271116e-03, -3.46405283e-02,  1.02644898e-01,
          -7.02317804e-02,  1.39837191e-02,  4.52392772e-02,
          -7.48686939e-02,  2.89541893e-02, -6.50332645e-02,
           2.19005477e-02,  4.95211296e-02,  5.70205227e-02,
           6.91519529e-02,  6.61277175e-02,  1.29539007e-02,
           7.61250407e-02, -2.34234221e-02, -2.89747622e-02,
          -8.86742920e-02,  6.71635009e-03, -1.00179203e-02,
           6.09613732e-02, -5.96300848e-02, -4.36267704e-02,
          -8.02235156e-02, -5.44227697e-02, -1.35498285e-01,
           7.27395862e-02,  5.03150523e-02],
         [ 3.16910865e-03, -7.09623098e-02, -1.49097331e-02,
          -8.65477547e-02,  6.12697303e-02, -3.04751582e-02,
           4.03127037e-02, -1.02475233e-01,  5.62147163e-02,
          -3.37601937e-02,  7.94747397e-02, -4.89095412e-02,
          -6.06166711e-03,  5.15828431e-02, -6.52609393e-02,
          -5.43206297e-02,  1.17798463e-01,  5.61595149e-02,
          -4.09771176e-03, -4.89737876e-02, -1.56230554e-02,
           3.60546038e-02, -4.84256931e-02,  1.00358441e-01,
           1.00275114e-01, -6.58128709e-02,  2.87214816e-02,
          -6.75848424e-02, -1.46115469e-02,  4.62420434e-02,
           3.07756905e-02,  3.21220793e-02],
         [-3.43388945e-01, -1.17608242e-01, -8.47531483e-02,
           2.22092662e-02, -1.97649807e-01, -1.29076138e-01,
           3.54914486e-01,  1.47143766e-01,  1.18937515e-01,
          -1.45782083e-02,  2.12878268e-02,  1.37297496e-01,
          -1.79775089e-01, -1.98287591e-02, -2.04510093e-02,
           9.35332328e-02,  8.58252309e-03,  5.60690984e-02,
           3.89022902e-02, -3.54658701e-02, -2.81557087e-02,
           1.26060247e-01,  5.28556667e-02,  2.61813998e-02,
          -4.98894043e-02,  7.65037164e-02, -1.30469471e-01,
          -2.71178752e-01,  2.59198640e-02,  3.51667739e-02,
           2.66400695e-01,  1.55494377e-01],
         [ 1.17135487e-01,  1.32226376e-02,  4.16282155e-02,
          -6.75512850e-02, -1.26518950e-01, -4.66557406e-02,
           5.81656396e-02, -9.41205099e-02, -1.20574683e-01,
           1.23250715e-01, -3.67308292e-03,  1.93107173e-01,
          -4.37276997e-03, -1.26649976e-01, -5.90948239e-02,
           1.17381260e-01, -1.95876241e-01, -8.67089033e-02,
           1.31276026e-01,  9.70377997e-02, -6.20414317e-02,
          -1.45816440e-02, -2.67376721e-01, -9.36012119e-02,
          -2.36547366e-01, -5.91991469e-02, -2.91107241e-02,
           7.38506466e-02, -3.33618931e-02, -9.94788036e-02,
          -1.09954700e-01, -7.55808204e-02],
         [-4.53755818e-02,  2.08224989e-02,  4.88019027e-02,
          -4.52624746e-02,  4.50137556e-02,  5.92891350e-02,
          -2.88025178e-02,  7.73528293e-02, -7.69562647e-02,
           7.47140422e-02, -4.75120395e-02, -6.92863613e-02,
          -7.22126141e-02,  1.96321756e-02, -5.55310631e-04,
           2.47296337e-02,  8.01435560e-02, -5.37736230e-02,
          -7.75647461e-02, -3.62036675e-02,  6.27159998e-02,
           4.42796126e-02,  4.29575816e-02,  2.08291765e-02,
           7.11982772e-02,  8.43883306e-03, -5.15927039e-02,
           4.65333201e-02, -3.36749889e-02, -7.09856525e-02,
          -6.31276518e-02, -5.96371479e-02],
         [ 3.95827144e-02, -8.24345350e-02, -2.58464795e-02,
          -3.04616727e-02, -4.04250063e-03, -3.24804522e-02,
          -1.34441346e-01, -5.30690625e-02,  1.03582777e-01,
          -1.61933005e-02,  8.50376785e-02,  9.06086713e-02,
          -7.39344805e-02,  5.69940135e-02, -8.68224949e-02,
          -3.28287594e-02, -3.45389508e-02, -9.45307612e-02,
           1.10839434e-01, -5.34832571e-03, -6.46711811e-02,
          -6.32816777e-02, -3.75473574e-02,  2.02149078e-02,
           8.10807347e-02, -4.19488270e-03, -1.33012049e-02,
          -4.40723635e-02, -2.17648167e-02, -2.43972931e-02,
          -5.82974479e-02,  6.23727813e-02],
         [ 7.84629025e-03,  6.18206486e-02, -4.86471020e-02,
          -9.30042099e-03, -8.06292146e-02,  7.49471486e-02,
          -7.73245171e-02,  7.65852258e-02, -7.31158927e-02,
          -5.33638522e-02,  1.84358768e-02, -6.84491545e-02,
          -5.84420525e-02,  1.04612326e-02,  3.74948382e-02,
          -3.64720850e-04, -5.02893440e-02, -4.36905324e-02,
           4.34883349e-02, -5.87256588e-02, -6.32138178e-02,
           2.81353202e-03, -2.11679023e-02,  1.78844109e-02,
          -6.97169527e-02, -8.20101649e-02, -6.98012933e-02,
          -4.90843542e-02,  1.76677760e-02,  5.54241985e-02,
           2.75443811e-02,  2.59286743e-02]],

        [[ 1.05459593e-01,  2.73247994e-02, -7.15400726e-02,
          -2.56930608e-02, -5.01936041e-02,  6.87249750e-02,
           1.78450629e-01,  9.80179906e-02,  5.28345667e-02,
           7.93148875e-02, -2.21071318e-01, -1.57667920e-02,
           8.98242593e-02, -1.99337184e-01, -4.50978950e-02,
           1.25947772e-02, -1.19964622e-01, -9.85963866e-02,
          -3.88142876e-02,  5.88843450e-02, -8.20807368e-02,
           2.56047584e-02, -3.79825383e-02,  4.67914082e-02,
          -2.13117331e-01,  3.23800072e-02, -3.01302671e-02,
           1.22982644e-01, -8.08377564e-02,  8.16418976e-03,
           1.33909145e-03,  1.33450842e-02],
         [-1.25830606e-01,  6.52401671e-02, -1.08259425e-01,
           5.74176796e-02,  8.78733583e-03, -6.14400394e-02,
           2.22149849e-01, -4.54785861e-02,  1.57498184e-03,
           1.88386682e-02,  7.60594904e-02, -3.93089838e-02,
           4.50669006e-02,  2.67430365e-01, -7.71611258e-02,
          -7.25617856e-02,  1.51647747e-01, -5.26646711e-02,
          -1.11744910e-01,  7.94129223e-02,  1.25579676e-02,
           1.12851381e-01, -4.36886400e-02,  1.83253977e-02,
           7.84318075e-02, -1.43551501e-02,  4.14036773e-02,
          -5.02177589e-02,  7.66834943e-03, -2.02813558e-02,
           1.16017163e-01,  3.91905457e-02],
         [ 7.84143060e-02, -9.70501229e-02, -6.54881001e-02,
          -4.67292517e-02,  1.50021806e-01,  4.79078293e-02,
          -7.87055567e-02, -1.16707288e-01, -2.22660899e-02,
          -3.90973166e-02,  9.75020751e-02,  1.21303171e-01,
          -2.85905693e-02,  1.56890705e-01,  1.42438225e-02,
           1.24686040e-01,  1.99621111e-01, -1.36634856e-01,
           7.60388821e-02, -1.62010193e-02,  1.12233078e-02,
           7.42656961e-02,  5.37866056e-02,  4.95946892e-02,
           1.88195761e-02, -1.28138450e-03,  2.41848193e-02,
           6.12012520e-02, -8.54335204e-02, -6.04598373e-02,
           5.07494286e-02,  6.21187575e-02],
         [-8.19057599e-02, -4.89508472e-02, -1.14948586e-01,
          -4.31304425e-03,  4.49570362e-03, -4.81888372e-03,
          -1.42251968e-01, -1.06418490e-01,  1.17214676e-03,
          -9.03005153e-02,  4.65489961e-02,  6.55579567e-02,
           3.39389853e-02,  1.54078275e-01,  2.21049227e-02,
          -6.07288331e-02,  1.39268607e-01, -1.17584532e-02,
          -6.42873868e-02, -8.70965645e-02, -9.99234151e-03,
           1.19761176e-01,  6.55308962e-02, -1.82504226e-02,
           2.37120222e-02, -3.05478945e-02,  3.42549048e-02,
           2.22773589e-02, -6.11506402e-02, -8.63400772e-02,
           6.77080229e-02, -7.35374764e-02],
         [ 4.98110354e-02,  3.90455574e-02,  3.63635793e-02,
           5.34663573e-02, -5.53057939e-02, -5.11820465e-02,
           7.88401067e-02,  4.87105846e-02,  4.84505072e-02,
           1.13666458e-02, -7.11146444e-02, -6.07264712e-02,
          -1.15546528e-02, -1.04807345e-02, -3.61050703e-02,
           8.33000522e-03, -1.68996677e-02, -3.52732465e-02,
          -3.90857272e-02,  5.01611382e-02,  4.42266874e-02,
          -4.52863164e-02, -5.27997166e-02,  4.88353372e-02,
           6.80910423e-02,  1.26751950e-02, -8.51200074e-02,
          -7.31436312e-02,  5.88205568e-02, -4.57264110e-02,
          -2.58725099e-02, -3.06267980e-02],
         [-3.23549062e-02, -8.33170936e-02,  5.62319756e-02,
          -9.43480805e-02, -2.55416334e-02,  6.28415942e-02,
          -7.92247504e-02, -1.22077502e-02, -6.78146034e-02,
           2.81343330e-02, -5.37662441e-03,  1.07161753e-01,
          -3.76815833e-02, -9.38221067e-02,  1.40477605e-02,
           3.48354727e-02, -1.64403379e-01,  8.65914226e-02,
           2.35663950e-02,  6.84977025e-02, -3.63226533e-02,
          -2.64395833e-01, -5.35227135e-02,  6.14952296e-02,
          -2.66965143e-02, -1.53589211e-02, -8.26897770e-02,
           3.19249742e-02,  3.72933708e-02, -1.13175482e-01,
           4.69448650e-03,  6.99259192e-02],
         [-1.75458625e-01, -1.78860247e-01, -2.68339049e-02,
          -5.81575744e-02,  2.22945157e-02, -1.10747226e-01,
          -3.28382924e-02, -9.28718075e-02,  1.17274880e-01,
          -7.19913542e-02,  1.96405989e-03,  9.87419337e-02,
          -1.50183827e-01, -1.10464923e-01,  2.13205945e-02,
           1.10408310e-02,  1.15270644e-01,  2.77364925e-02,
           1.40288040e-01, -8.01612288e-02,  3.85920182e-02,
          -2.97641102e-02, -1.11599818e-01,  1.00702100e-01,
           1.29439116e-01,  1.13520637e-01,  2.73267529e-03,
           1.01135271e-02, -1.44082353e-01,  1.30119428e-01,
           1.66414335e-01, -8.16548318e-02],
         [ 3.80707197e-02,  1.71610098e-02, -2.72647236e-02,
          -2.80551668e-02,  1.55435279e-02,  1.29122529e-02,
           1.48289567e-02, -1.09595545e-01, -2.39440612e-02,
          -8.85733888e-02,  5.23955896e-02, -6.69627190e-02,
          -7.07657337e-02,  4.14387770e-02,  6.34703264e-02,
           3.56192216e-02,  1.35224208e-01,  2.17409041e-02,
           4.67256047e-02, -5.49848713e-02, -7.52258375e-02,
           6.10521212e-02, -1.12272035e-02,  2.33738404e-02,
          -5.73232956e-02, -2.47753947e-03, -7.05900192e-02,
           1.10155148e-02, -5.45905344e-02, -2.05770172e-02,
          -3.14027257e-02,  5.27120642e-02],
         [-4.17734124e-02, -4.14439961e-02,  5.07642217e-02,
          -5.16248122e-02, -4.48611341e-02,  1.86008811e-02,
           7.65587389e-02,  7.36750215e-02, -1.72828764e-01,
           8.47256109e-02, -7.17145652e-02,  4.56478111e-02,
           4.87453155e-02, -4.56335247e-01,  3.67809646e-02,
          -4.99931201e-02, -4.75790650e-02,  4.94013838e-02,
           1.01894394e-01, -8.66803434e-03, -2.83844844e-02,
          -8.93851817e-02, -2.62494739e-02, -7.44790211e-02,
          -8.45784843e-02,  2.82861851e-02, -3.58602144e-02,
          -3.00640240e-02,  2.19229348e-02, -9.54679176e-02,
          -1.09898567e-01,  8.42264071e-02],
         [ 5.02761640e-02,  8.29793215e-02, -1.12306683e-04,
          -5.18240742e-02, -5.40880486e-02,  5.09650223e-02,
          -4.04167660e-02,  2.08503213e-02, -2.62633488e-02,
          -7.95512199e-02, -6.92389533e-02, -2.86654606e-02,
          -6.27528429e-02, -6.12391531e-02, -6.37741992e-03,
          -5.73605560e-02,  7.80371204e-02,  2.74913926e-02,
          -5.31631336e-02,  4.99064848e-02, -2.22257841e-02,
           4.60690111e-02, -5.79364449e-02, -4.61769439e-02,
           5.25839515e-02,  8.09657127e-02,  3.93758565e-02,
          -3.16585265e-02,  2.91307140e-02,  3.30180451e-02,
          -5.47241531e-02,  4.01547551e-02],
         [-1.11980088e-01,  1.71002839e-02, -2.43156910e-01,
           7.08821863e-02,  1.92951903e-01,  3.95685881e-02,
          -5.21891713e-02,  2.61080787e-02,  2.70315417e-04,
           5.57877719e-02,  2.65486892e-02, -3.18236765e-03,
          -1.76192001e-02,  7.20250383e-02, -1.90254170e-02,
           2.42036190e-02,  2.50708371e-01,  4.03130539e-02,
           5.07283174e-02, -1.01432659e-01,  9.83193517e-03,
          -1.79354504e-01, -3.99720520e-02,  3.43152061e-02,
           9.74902958e-02,  2.74101570e-02,  3.91336270e-02,
          -1.49577726e-02, -9.63189080e-02, -2.63298273e-01,
           1.10084645e-01,  8.96885619e-02],
         [ 2.01863889e-02,  1.48588354e-02, -1.47847589e-02,
           3.40724252e-02,  4.38823737e-02,  8.89655501e-02,
          -5.52504323e-02, -1.62982736e-02, -7.93013647e-02,
          -7.71384910e-02, -2.35682912e-02,  1.41422180e-02,
          -6.85579553e-02, -8.16665683e-03, -1.65568907e-02,
           7.09333569e-02,  2.64908429e-02,  9.78879333e-02,
           5.16100973e-02,  2.66610477e-02,  2.63845846e-02,
           3.86944599e-03, -4.16188277e-02, -4.00304273e-02,
           3.25820632e-02,  2.34093871e-02,  8.87149721e-02,
           6.36441484e-02,  7.47548416e-02,  5.12674497e-03,
           5.64844273e-02,  8.07067230e-02],
         [ 1.93147268e-02,  4.68881130e-02, -8.07382017e-02,
           1.57133713e-02,  2.49165925e-04,  4.05001082e-02,
          -2.79042926e-02, -1.00342758e-01, -4.84216623e-02,
          -9.60113406e-02,  3.44130844e-02,  2.85138153e-02,
          -2.49148235e-02,  1.25766084e-01, -2.59375293e-02,
           1.99275296e-02, -1.37605490e-02,  2.17102584e-03,
          -4.49465029e-03,  5.22616506e-02,  3.48188579e-02,
